if (!window.increasingByteSequence) window.increasingByteSequence = {}

window.increasingByteSequence.model = {"type":"LSTMTimeStep","options":{"inputSize":1,"inputRange":0,"hiddenLayers":[64,32,16],"outputSize":1,"decayRate":0.999,"smoothEps":1e-8,"regc":0.000001,"clipval":5,"maxPredictionLength":100,"dataFormatter":{"indexTable":{},"characterTable":{},"characters":[],"specialIndexes":[]}},"hiddenLayers":[{"inputMatrix":{"rows":64,"columns":1,"weights":[-1.86082923412323,-0.14731276035308838,-0.7777466177940369,-0.3968711793422699,0.8800685405731201,0.9184497594833374,-0.5711542963981628,-1.2463356256484985,-1.6139227151870728,0.7902349829673767,-2.048145294189453,-1.1541156768798828,-1.768733263015747,-0.7244735360145569,-1.0661193132400513,2.0254321098327637,-1.4174909591674805,-1.2758756875991821,-0.2532825171947479,2.356428384780884,0.3597763478755951,-0.45733290910720825,-0.0023791585117578506,-0.8416286110877991,-1.8756086826324463,1.8352952003479004,-1.6648355722427368,-0.7738335132598877,-0.5467312932014465,-1.3063225746154785,1.0563316345214844,-2.182166814804077,-0.9374545812606812,-1.2507224082946777,-0.5864719748497009,-1.0719839334487915,0.12981534004211426,0.6925690174102783,1.3545656204223633,0.8226253390312195,0.9012486338615417,1.3763607740402222,-0.9459855556488037,-0.06746652722358704,-0.6813987493515015,-1.6052876710891724,-0.7700045108795166,3.0686471462249756,-0.46913960576057434,-1.5153729915618896,0.833772599697113,2.3787057399749756,-0.20647726953029633,1.4617334604263306,1.696868896484375,-0.7156542539596558,-0.46090930700302124,0.8854334950447083,-0.9648264646530151,0.9803891181945801,-0.4966198801994324,-1.324375867843628,-0.3629695773124695,-1.8389997482299805]},"inputHidden":{"rows":64,"columns":64,"weights":[0.6243057250976562,0.11545583605766296,0.43890470266342163,0.7675780653953552,-0.3182206451892853,-0.06553353369235992,0.12261205911636353,0.1266324818134308,0.4095505177974701,0.42236438393592834,-0.7060613036155701,-0.051667582243680954,-0.3550139367580414,-0.19215866923332214,0.35608288645744324,0.09644478559494019,0.3565461039543152,0.07437469810247421,0.23278874158859253,-0.3152443766593933,-0.13492146134376526,0.18348434567451477,-0.2576342225074768,0.019030500203371048,0.2544713318347931,0.5228240489959717,-0.1361503154039383,-0.4198010265827179,-0.25777220726013184,0.3620978891849518,-0.14778821170330048,0.390630304813385,-0.28040778636932373,-0.25825583934783936,-0.7219989895820618,-0.4009338617324829,0.47291311621665955,0.5182167887687683,-0.3496531844139099,-0.29864853620529175,0.4954284131526947,-0.8620802164077759,-0.6612260937690735,-0.20401275157928467,-0.07407434284687042,0.15871094167232513,-0.1034257784485817,0.4346635043621063,0.4857470989227295,0.361524760723114,-0.13052040338516235,0.7931365966796875,-0.0830921083688736,0.44943639636039734,-0.6026827096939087,-0.34121134877204895,0.3831474184989929,-0.32652682065963745,-0.2836868464946747,0.7760491967201233,0.2837969660758972,0.5016310811042786,0.2898346781730652,-0.30770817399024963,0.12992896139621735,-0.5757128000259399,0.887111485004425,1.4143238067626953,1.7254365682601929,0.27892518043518066,-0.039187997579574585,-0.21315911412239075,0.24554623663425446,0.013761594891548157,-0.24404793977737427,0.8821354508399963,-0.22305801510810852,-1.380879521369934,0.2128646969795227,0.4824134409427643,1.2739815711975098,-0.3904000520706177,-0.5725889205932617,-0.41118526458740234,1.0175354480743408,-0.694865345954895,-0.6506879925727844,0.1136460080742836,0.19013440608978271,-0.02039489708840847,-0.17468510568141937,-0.5169679522514343,-1.0813360214233398,1.1643998622894287,-0.32944440841674805,0.6227131485939026,-0.6756219863891602,-0.23575082421302795,-1.2453985214233398,-0.22325792908668518,1.1323474645614624,1.9140956401824951,-0.9088975191116333,0.25383540987968445,0.29337894916534424,-0.3429543077945709,-0.5220851302146912,-1.0434597730636597,-0.5133731961250305,-0.07513799518346786,-0.7436433434486389,0.455905556678772,0.14172644913196564,0.3240290880203247,-0.2433462142944336,0.2722899913787842,-1.5417250394821167,1.0336298942565918,-1.2603250741958618,-0.27108317613601685,1.0713509321212769,-0.9920362234115601,-0.06131485104560852,0.3163469135761261,0.242046058177948,0.38600286841392517,0.6301742196083069,-0.2877160906791687,0.10124887526035309,-0.8953726887702942,-1.9178876876831055,-3.3283798694610596,-1.0895336866378784,-0.4949030578136444,-0.5253759026527405,-0.08792330324649811,0.4735147953033447,-1.6354289054870605,-0.13123710453510284,-1.0636924505233765,-0.03333592414855957,0.9554415941238403,-0.2784677743911743,0.9431368112564087,-3.7202672958374023,0.07742331176996231,-1.0299925804138184,-0.8459681868553162,-1.5371263027191162,-0.6184074282646179,2.9172863960266113,-0.3027268350124359,0.44368135929107666,-1.9744923114776611,-0.020236173644661903,1.3313963413238525,3.5390710830688477,-2.407464027404785,0.1748165488243103,-0.13594208657741547,1.813069462776184,1.849088430404663,2.584609270095825,0.23040567338466644,-2.9187636375427246,-1.7168701887130737,1.398040771484375,0.3995453715324402,2.540318012237549,0.5580794215202332,0.8794978857040405,1.2299429178237915,-0.3117902874946594,0.9005175232887268,4.342604160308838,-0.2598066031932831,-0.5009470582008362,0.04539673775434494,2.0067055225372314,-0.8220319747924805,1.0447384119033813,-1.8034268617630005,2.123105525970459,0.3365619480609894,-4.341270923614502,1.839352011680603,-0.010133479721844196,-0.6497485637664795,1.0292683839797974,-1.5976307392120361,-1.5950403213500977,0.16231389343738556,1.7379482984542847,-3.7614150047302246,-2.2492334842681885,-1.7931345701217651,-1.7571364641189575,-2.630277395248413,-3.644418478012085,1.6163033246994019,1.540168046951294,-1.8668882846832275,-1.8380882740020752,1.518536925315857,-1.9646782875061035,-2.650115966796875,2.9713895320892334,0.5016779899597168,1.29106867313385,-1.5149503946304321,-3.4670932292938232,-1.3678056001663208,0.4186386168003082,-3.5174484252929688,2.7969915866851807,-1.680004358291626,1.2351891994476318,-0.8852278590202332,-1.8624614477157593,5.420997142791748,3.029186725616455,-2.031460762023926,0.9184145927429199,1.6066678762435913,1.8768240213394165,-0.13227352499961853,2.582022190093994,-1.929684042930603,-1.7566735744476318,0.26531222462654114,1.695116639137268,1.0806111097335815,1.2649335861206055,-1.069612979888916,-1.2792136669158936,-4.501725673675537,-2.575753688812256,0.4624803960323334,2.3255460262298584,-1.294964075088501,2.186884880065918,2.1530659198760986,2.653536796569824,1.6193211078643799,-2.591588258743286,-1.4296199083328247,1.9163216352462769,-1.9896386861801147,-2.8523881435394287,2.0120906829833984,-1.1669788360595703,0.6008418798446655,0.32926642894744873,0.15617384016513824,-3.490833044052124,-1.8634312152862549,-0.09817513823509216,-0.35545867681503296,0.8296555876731873,1.1417208909988403,1.2741429805755615,-0.8704628944396973,0.4068426787853241,-0.5785465836524963,-0.04353416711091995,-0.8704626560211182,-0.4523793160915375,0.9549758434295654,-0.149030864238739,-2.43780517578125,-0.8800888061523438,-0.5438396334648132,0.6271926760673523,2.8490958213806152,-0.4170142412185669,0.8371239900588989,-0.7104413509368896,0.033027440309524536,-0.5886634588241577,0.7313908338546753,-0.12765097618103027,-0.2663593888282776,-0.4369904100894928,-0.864994466304779,-0.7348302602767944,0.5236781239509583,-0.43176981806755066,-0.13981275260448456,0.06713999062776566,-0.7311233282089233,0.3967954218387604,-1.3554068803787231,1.3328912258148193,-0.1385364532470703,-0.4701337218284607,-1.0457179546356201,1.168216347694397,-1.3010040521621704,0.6794636845588684,0.5476195216178894,0.12832438945770264,-0.2756686806678772,-0.10250163823366165,0.4375484883785248,0.19669343531131744,-0.21361947059631348,-0.5689010620117188,-1.7660452127456665,-0.5420249104499817,-0.8438850045204163,-0.305664598941803,0.3798367977142334,0.832108736038208,0.5288498997688293,0.2907506227493286,0.5957666039466858,0.4483969807624817,-0.4574969410896301,0.08040543645620346,-0.05913228914141655,0.22734645009040833,-0.3953196108341217,-0.11952067911624908,0.8219850659370422,-1.4371625185012817,1.403396725654602,-1.4682307243347168,0.22422663867473602,-0.0001864381047198549,-0.45763927698135376,0.07213114947080612,-0.8840501308441162,0.29485130310058594,0.7635182738304138,0.2107609361410141,-1.5496280193328857,-0.6264103055000305,-1.5009289979934692,-0.4422513246536255,2.217128276824951,0.9718080163002014,-1.7835136651992798,0.07433642446994781,-0.15730823576450348,-0.032333966344594955,-2.010211229324341,0.7458479404449463,0.5855873227119446,-0.1672281175851822,-0.36141058802604675,-1.4922549724578857,-1.01720130443573,0.23368871212005615,0.3315644860267639,-0.11138150095939636,0.6299386024475098,-0.1766645610332489,0.24470189213752747,2.017073392868042,0.841874361038208,-0.8957648277282715,1.318954586982727,0.8952656388282776,-1.0236130952835083,-1.2944785356521606,0.004029389936476946,0.12781371176242828,-1.788684368133545,-0.4455368220806122,-0.1984824538230896,2.842299699783325,-0.2829698622226715,0.8421664237976074,-0.486403226852417,0.3609849810600281,-0.8289302587509155,-0.19688203930854797,-0.05282198265194893,0.0819009318947792,-0.6958237886428833,0.5585417747497559,0.040329333394765854,-0.19179672002792358,0.2845389246940613,0.7703921794891357,-0.8483748435974121,-2.84710955619812,-2.900364637374878,-1.5334279537200928,0.7627498507499695,-1.2135294675827026,0.48539310693740845,1.2812210321426392,-3.4037961959838867,-0.5834018588066101,-0.4643177092075348,-0.8450779914855957,-0.7998751401901245,1.3512401580810547,0.6881251931190491,0.23045940697193146,-2.1098949909210205,-0.8307979106903076,-0.6735295057296753,-0.9147440195083618,-0.863058865070343,2.260648488998413,-0.519988477230072,0.8609558939933777,-3.466688871383667,-0.5673226118087769,2.0720221996307373,2.7552430629730225,-1.4530911445617676,-2.267683744430542,1.1340546607971191,1.3379340171813965,1.9436057806015015,0.5423853993415833,-0.5346379280090332,-3.108536958694458,-2.3596551418304443,4.190759181976318,3.4785633087158203,1.9380931854248047,0.7675981521606445,-0.30393514037132263,-0.38761985301971436,-0.6994629502296448,0.6488972306251526,2.8250348567962646,-2.4701809883117676,1.5836855173110962,0.9837716817855835,4.41060733795166,-0.16138935089111328,-0.8493326306343079,-3.5924336910247803,2.8586807250976562,-1.151158332824707,-2.414220094680786,3.4769506454467773,-0.8018674850463867,-3.4846043586730957,0.4705340564250946,0.7710826396942139,-1.8016973733901978,-1.115930199623108,0.01650949940085411,-0.1795666515827179,0.192904531955719,0.8825769424438477,0.55690598487854,-0.15197820961475372,0.29018542170524597,-0.2727809548377991,0.23686207830905914,0.23287992179393768,-0.04662526771426201,0.25895681977272034,-0.11608115583658218,-0.28129714727401733,-0.03662404045462608,0.11935731768608093,0.25665560364723206,-0.010258123278617859,-0.20359304547309875,-0.2921455204486847,-0.1490224003791809,-0.17078903317451477,-0.6377665996551514,0.3063528835773468,0.16803787648677826,0.29304030537605286,-0.1248917505145073,-0.601229727268219,-0.750901460647583,0.6664343476295471,0.13416892290115356,0.28821516036987305,-0.3434891700744629,-0.4215514361858368,-0.502557098865509,-0.10218069702386856,0.7022253274917603,0.5517961978912354,-0.40600091218948364,-0.4448186755180359,0.4062843322753906,-0.32239067554473877,-0.2331293225288391,-0.21164335310459137,-0.05825274437665939,-0.01766740344464779,-0.5482410192489624,0.5213947892189026,-0.03699733316898346,0.1034407839179039,-0.47315514087677,0.28024008870124817,-0.21089008450508118,0.42219290137290955,-0.6050693988800049,-0.04948193207383156,0.48055872321128845,-0.36737877130508423,-0.05692027136683464,0.13773398101329803,-0.19211986660957336,0.1044837161898613,0.3091886639595032,-0.08885817229747772,0.09456971287727356,-0.4200916886329651,0.03616207093000412,0.4565221667289734,0.580339252948761,-0.062079139053821564,0.2154492288827896,-0.24272486567497253,0.26330840587615967,0.12358225136995316,-0.22586314380168915,0.18067997694015503,-0.15280042588710785,-0.7317303419113159,0.1789982169866562,0.3647392690181732,0.6889477372169495,0.11213082820177078,-0.2773193418979645,-0.4625128507614136,0.21630115807056427,-0.43705424666404724,-0.5753087401390076,0.20846492052078247,0.24500657618045807,0.24613256752490997,-0.1325901597738266,-0.6207873225212097,-0.45166015625,0.7497811913490295,0.1610938459634781,0.30500027537345886,-0.2852533161640167,-0.32039088010787964,-0.7682309150695801,-0.20627711713314056,0.2843366265296936,0.5296807885169983,-0.2704654932022095,-0.2572084665298462,0.4450627267360687,-0.39456602931022644,-0.2511676549911499,-0.5512681603431702,-0.17803020775318146,-0.12042905390262604,-0.38145220279693604,0.34540045261383057,0.09151002019643784,0.18938983976840973,-0.3356683850288391,0.24556781351566315,-0.41993576288223267,0.534275233745575,-0.6352060437202454,-0.19534514844417572,0.3550531566143036,-0.5890054106712341,-0.15335647761821747,0.29746904969215393,-0.23001594841480255,0.10245146602392197,0.6173400282859802,-0.18662656843662262,0.24082250893115997,-2.3631105422973633,-0.8986331820487976,1.517458200454712,3.107255697250366,-4.478507041931152,2.0862629413604736,0.6907346844673157,0.43301069736480713,1.917067527770996,-0.09805086255073547,1.4197040796279907,-0.021645063534379005,-1.740246057510376,-0.7269192337989807,2.5457863807678223,1.6012511253356934,1.9533157348632812,-2.340113639831543,-1.829749584197998,1.2027705907821655,-2.071544885635376,-0.24409760534763336,-0.784821629524231,0.2597839832305908,2.0167129039764404,-0.196846604347229,0.6942529678344727,-0.1698201447725296,-1.0461169481277466,2.508625030517578,-0.2230018824338913,1.2930936813354492,-1.4372434616088867,-0.6935579180717468,0.5153704285621643,1.4503339529037476,3.9269216060638428,-3.2186665534973145,-3.112058401107788,1.4921284914016724,-1.1068605184555054,-0.4790984094142914,0.9877839684486389,-1.120029091835022,0.6636842489242554,-0.44503679871559143,1.7316056489944458,0.47955334186553955,0.2739386558532715,-2.528942584991455,3.422866106033325,-0.46968573331832886,2.296163320541382,-1.707821011543274,-0.28903433680534363,1.1404327154159546,-1.3306822776794434,0.9441197514533997,2.689424991607666,-0.1751684546470642,0.04608035832643509,-0.45081961154937744,-0.08321946114301682,0.1886085420846939,-0.251167893409729,0.27668073773384094,0.9197246432304382,0.4674754738807678,-0.1668543517589569,0.09848358482122421,-0.14411605894565582,0.2161642462015152,0.23490850627422333,-0.19956263899803162,0.2589572072029114,-0.1973402202129364,-0.4455528259277344,0.1683776080608368,-0.06960515677928925,0.24942456185817719,0.17036545276641846,-0.26080307364463806,-0.12700261175632477,0.4576930105686188,-0.15364058315753937,-0.24400731921195984,0.044427670538425446,0.12401595711708069,0.29373976588249207,-0.1662730574607849,-0.4490894079208374,-0.3289037048816681,0.3189114034175873,-0.15180277824401855,0.19298690557479858,0.05167333781719208,-0.06296180933713913,-0.5217907428741455,-0.1815633773803711,0.2040833979845047,0.8369820713996887,-0.4985278248786926,-0.18335360288619995,0.10290971398353577,-0.28660687804222107,-0.3408307433128357,-0.09397915005683899,-0.2141994833946228,-0.08037130534648895,-0.17524459958076477,-0.1407088339328766,0.17166121304035187,0.20401540398597717,-0.34003451466560364,0.3712823688983917,-0.45757099986076355,0.38871338963508606,-0.3667455017566681,-0.27790403366088867,0.16109547019004822,-0.16126099228858948,-0.1310080587863922,-0.2494984120130539,-0.1065540462732315,0.3749065399169922,0.14703412353992462,-0.14994122087955475,-0.01291799359023571,0.2819203734397888,-1.3477048873901367,-0.5676061511039734,0.4004005193710327,-1.3760432004928589,0.9748026728630066,0.14068357646465302,0.2563064694404602,0.5795911550521851,-0.11291886866092682,-1.416829228401184,0.09103942662477493,1.137056827545166,0.7825016379356384,-0.3507809638977051,0.045114584267139435,-1.1297072172164917,0.109317846596241,-0.7187414765357971,-0.23393745720386505,-0.06254799664020538,-0.9150985479354858,0.3267420828342438,0.3889690935611725,0.15881438553333282,0.19842879474163055,-0.13969184458255768,0.5117070078849792,-0.886958658695221,1.4459526538848877,-0.113901786506176,-0.2914486825466156,-0.06810496747493744,-0.20617060363292694,-0.4365856647491455,0.41460850834846497,1.172672152519226,-1.0178186893463135,-0.6748601198196411,0.5423503518104553,1.678175449371338,0.001734687713906169,1.1086353063583374,0.3183782398700714,-0.20857416093349457,-0.010253378190100193,1.1962274312973022,0.2723654508590698,0.15480965375900269,-0.2047862410545349,1.8025879859924316,0.8486917018890381,2.304058313369751,-0.6257413029670715,-0.5757683515548706,-0.3250633180141449,0.08470135927200317,0.14979536831378937,1.0440903902053833,-1.2002133131027222,-0.3019302785396576,-0.1935800015926361,0.5718250870704651,0.09988805651664734,-0.0943770781159401,0.48065486550331116,0.6868708729743958,0.452988862991333,0.13484394550323486,0.09554275870323181,-0.1362210065126419,0.2400219738483429,0.1947242170572281,-0.05564580112695694,0.3435611128807068,-0.17534558475017548,-0.467612624168396,0.10899098217487335,0.050351373851299286,0.45580509305000305,0.009394711814820766,-0.2029242366552353,-0.10222916305065155,0.17762601375579834,-0.1882925033569336,-0.3877139687538147,0.1457291841506958,0.15272647142410278,0.021076055243611336,-0.07178815454244614,-0.47566744685173035,-0.6027585864067078,0.4373262822628021,-0.12852446734905243,0.2306881695985794,-0.1913451999425888,-0.514241635799408,-0.587743878364563,-0.16674472391605377,0.533552348613739,0.5758077502250671,-0.40735363960266113,-0.15062536299228668,0.14209997653961182,-0.2166186273097992,-0.23685719072818756,-0.1586415022611618,-0.21859973669052124,-0.04241889715194702,-0.3999062478542328,0.25056126713752747,0.1772472858428955,0.23020516335964203,-0.3586399555206299,0.39236319065093994,-0.5260524153709412,0.4419580399990082,-0.592997670173645,-0.03253236040472984,0.3435477912425995,-0.4647676646709442,-0.09181363135576248,0.011867422610521317,-0.08467888087034225,0.0784931406378746,0.5514684915542603,-0.0749020054936409,0.32969266176223755,-0.8030765056610107,-1.3718945980072021,-0.42569470405578613,1.1872565746307373,-0.07045456767082214,-0.5078054070472717,0.6546217799186707,0.6995092630386353,0.3150564432144165,-0.34325337409973145,-1.4481327533721924,-0.5560117959976196,0.3391762673854828,1.527114748954773,-1.2323085069656372,-1.0747193098068237,-1.8608276844024658,-0.9379737973213196,-0.6365485787391663,-1.515474796295166,-0.7649900913238525,-0.7547803521156311,-1.0083866119384766,0.39391931891441345,-0.34241604804992676,-0.3837902843952179,-0.8497247695922852,0.8919380903244019,-0.1654406636953354,-0.29303669929504395,0.5103387236595154,-1.8916155099868774,-1.3124971389770508,0.03790716826915741,-1.0919853448867798,0.45786052942276,1.1969046592712402,-2.32422137260437,-1.0464451313018799,0.694055438041687,-0.21093648672103882,-0.8217988014221191,-1.9078007936477661,-1.150744080543518,0.209030881524086,-0.14389513432979584,1.6508874893188477,-0.23783153295516968,0.690375804901123,0.5130432844161987,1.0173124074935913,0.0314130075275898,0.9420993328094482,-2.4467618465423584,-0.272685170173645,-0.5342785716056824,-0.19937309622764587,-1.03681480884552,-0.22238582372665405,-0.5953925848007202,-1.181430697441101,-0.37993577122688293,-0.2552456855773926,0.4712599217891693,-0.36638143658638,2.198911428451538,-0.6477030515670776,-0.20158345997333527,-1.7363667488098145,0.6130637526512146,-0.09825420379638672,0.18140272796154022,1.851914882659912,-0.141746386885643,-0.6113306283950806,-0.4236738085746765,-0.711539626121521,1.6250946521759033,1.0335204601287842,0.7584840655326843,-1.8090871572494507,-0.37788110971450806,-0.7611591219902039,1.6015052795410156,-1.211633563041687,1.4693958759307861,-0.019321946427226067,0.1983306109905243,1.0838524103164673,0.19883185625076294,1.8006659746170044,0.8441935181617737,0.9916671514511108,1.5489994287490845,-0.6395226716995239,-1.4813987016677856,1.0328388214111328,1.206193208694458,0.444744348526001,-0.9680215120315552,-1.4296635389328003,0.47306299209594727,2.670206308364868,-0.19896647334098816,-2.210857629776001,-0.4095127582550049,2.773552179336548,0.02785392478108406,-0.004513276740908623,1.1087205410003662,-1.968074917793274,0.4412701427936554,0.3078421652317047,1.1358609199523926,0.6082984805107117,-1.3070881366729736,0.2948279082775116,1.01767897605896,-1.2936837673187256,-0.9935869574546814,1.0428287982940674,-1.3778965473175049,2.298980712890625,1.5510284900665283,2.056445360183716,-1.0621404647827148,0.15948167443275452,0.6525791883468628,-1.6531914472579956,-1.1010233163833618,0.11758501082658768,0.36946699023246765,0.33779701590538025,1.12990140914917,1.088060975074768,0.5109067559242249,-2.8096752166748047,-0.6332317590713501,1.3102281093597412,-0.6041679382324219,-0.6984956860542297,0.7346376776695251,-0.14948879182338715,-0.47968319058418274,-0.2851894497871399,-1.6936461925506592,-0.05470737814903259,-0.3939978778362274,-1.6755660772323608,-0.316091388463974,-1.520452618598938,0.41313567757606506,-1.2253766059875488,-0.9516145586967468,0.00820978544652462,-0.05801495164632797,-0.4286244511604309,-0.3795514702796936,-1.4479213953018188,-0.000085354273323901,-0.6087349057197571,-0.0850256159901619,-1.0341346263885498,0.09207933396100998,0.37134069204330444,1.4202100038528442,1.159572720527649,0.08220969140529633,0.11243434250354767,-0.11613975465297699,0.0627046748995781,-0.6993605494499207,0.5107021927833557,0.30146893858909607,1.2846651077270508,1.1811970472335815,0.5896628499031067,0.9526675343513489,-0.170444056391716,-0.8264340162277222,-0.48620274662971497,0.5961858034133911,-1.13670015335083,-0.15984439849853516,0.815582811832428,-0.9066142439842224,-1.294735312461853,-1.9293848276138306,-1.586921215057373,0.21626220643520355,-0.8294767737388611,0.599147379398346,0.40558910369873047,-1.5765209197998047,-0.4269527196884155,-2.0509183406829834,-0.30519959330558777,0.6026063561439514,1.5570958852767944,1.3622651100158691,-1.6386216878890991,-0.2122059166431427,-1.7368402481079102,-0.9307460188865662,0.026720935478806496,0.6889935731887817,-0.4945456087589264,-0.02745180018246174,-0.1666927933692932,0.2551577389240265,-1.5392156839370728,-1.2749332189559937,0.05876721814274788,0.39526328444480896,-1.3860257863998413,0.340839147567749,0.6047562956809998,-0.6130601167678833,0.25060489773750305,1.3653405904769897,-1.3786101341247559,0.2705671191215515,-0.7122418284416199,-0.9074267148971558,0.06897863745689392,0.6350583434104919,-1.175757646560669,-0.784978985786438,-1.2920358180999756,0.6660369634628296,-0.5260505676269531,0.7545483112335205,-0.38999390602111816,-1.6444292068481445,0.7747019529342651,0.6500176191329956,1.6410000324249268,1.1232337951660156,1.8403047323226929,0.11590705066919327,1.3578205108642578,-2.782961130142212,0.9986833333969116,3.069429874420166,-2.327073335647583,-0.15505199134349823,-0.7564892172813416,-1.0914440155029297,0.678534746170044,-0.5945342779159546,1.0123565196990967,-1.0337862968444824,-1.846368432044983,0.015819640830159187,-1.3252935409545898,-0.6122804880142212,-0.6536827087402344,0.10863077640533447,-0.2864695191383362,2.02199387550354,-0.98225337266922,-1.3272075653076172,0.06836643069982529,0.15411609411239624,-0.2256719470024109,-0.29617124795913696,-1.2922760248184204,-0.20759426057338715,0.3104129433631897,-0.5045045614242554,2.2626726627349854,-1.0308407545089722,-2.7010316848754883,-0.6363258361816406,-2.4427599906921387,3.2242016792297363,-0.4407314956188202,1.7438673973083496,-0.40611839294433594,0.028627634048461914,0.9397637248039246,-0.12929260730743408,-0.31582844257354736,0.8931030631065369,-0.5490770936012268,0.7582553029060364,0.36530667543411255,0.551899790763855,2.6468420028686523,0.9077394008636475,-0.2241404503583908,-2.1584982872009277,-0.7088543176651001,0.27470576763153076,1.471666693687439,-2.8565762042999268,-0.7069481015205383,-1.0715973377227783,2.1464295387268066,0.13694630563259125,0.06391111016273499,1.4139069318771362,-2.4388206005096436,1.2752801179885864,0.4501495361328125,-1.667966365814209,0.43990233540534973,1.1505780220031738,0.04002835601568222,1.752113938331604,-0.050340861082077026,-0.9865784645080566,0.8374611735343933,-0.24490587413311005,0.3859871029853821,-0.16416433453559875,0.6422006487846375,-1.4166886806488037,-0.3936700224876404,0.029483703896403313,-0.6066797971725464,1.171754240989685,1.0031907558441162,1.7807433605194092,0.34824711084365845,0.10672628879547119,-0.05757790058851242,0.17114916443824768,0.10927210748195648,-0.19778671860694885,1.35331130027771,-0.1710386574268341,-1.2606251239776611,0.15135458111763,0.731118381023407,1.3562837839126587,-0.5383065938949585,-0.6695046424865723,-0.3559652268886566,1.516344666481018,-0.7528454065322876,-1.085399866104126,0.07964517921209335,0.14806817471981049,-0.0857146605849266,-0.20320425927639008,-0.3450671434402466,-0.93999844789505,1.383302927017212,-0.43727684020996094,0.9045969843864441,-0.5803831815719604,-0.1485043168067932,-1.149377465248108,-0.22252722084522247,0.8187223076820374,2.1017608642578125,-0.6304774284362793,0.35632580518722534,0.14351187646389008,-0.43815067410469055,-0.5524895191192627,-0.8660043478012085,-0.6173129677772522,-0.10455964505672455,-0.47780290246009827,0.11529616266489029,0.1900712102651596,0.2453812062740326,-0.5840954184532166,0.33703139424324036,-1.8879790306091309,0.7983978986740112,-1.1008602380752563,-0.15243647992610931,0.8400862812995911,-0.9532560110092163,-0.15728840231895447,0.21028564870357513,0.2282683253288269,0.3462829887866974,0.8652550578117371,-0.2413456290960312,-0.6594082117080688,-0.6467353701591492,-0.2993241548538208,-0.6819337606430054,-0.35142865777015686,-0.12552978098392487,-0.42143163084983826,-0.01871822401881218,-0.4380166828632355,-1.0467416048049927,0.3294220268726349,-0.6098068952560425,0.3641011118888855,0.5705406069755554,-0.40912625193595886,-0.24887879192829132,-1.1399742364883423,-0.5547947287559509,-0.724795937538147,0.7699273824691772,0.905965268611908,-0.7781333327293396,0.38437238335609436,-0.08099047094583511,-0.37780991196632385,0.07829155772924423,0.5719983577728271,0.7836068272590637,0.460222989320755,-1.229567289352417,0.09600041806697845,-1.7656329870224,0.6436126828193665,0.6835379600524902,0.7253458499908447,0.2728896141052246,-0.4829183518886566,-1.1576346158981323,0.6591181755065918,0.4127112030982971,-0.39412978291511536,0.3104778230190277,0.7765822410583496,0.26103702187538147,0.3402804434299469,-0.2663731276988983,0.5598774552345276,0.06381131708621979,-0.6457091569900513,-0.47981542348861694,-0.055546630173921585,-0.45965394377708435,0.971039354801178,-0.7139873504638672,0.8865489959716797,0.46273863315582275,-0.3771507441997528,0.7380003929138184,0.3074173927307129,-0.6459886431694031,-0.6615458726882935,-0.29066529870033264,-0.7080287933349609,0.5895484685897827,0.9395449161529541,-0.35865429043769836,-0.9300892353057861,-1.6934226751327515,-0.5069457292556763,-0.7673802375793457,-1.7427738904953003,0.7759466171264648,0.8122521638870239,-2.6558048725128174,-0.8021801710128784,-0.3939967155456543,-1.0220085382461548,-0.02880222536623478,0.41296809911727905,1.175278902053833,0.2864115536212921,-0.5736165642738342,-0.6644518971443176,-0.852181613445282,-1.4824761152267456,-0.7503905296325684,1.1890532970428467,-0.19864502549171448,0.5675531625747681,0.8139574527740479,-0.7004767656326294,0.8638260960578918,1.8839904069900513,0.4180988669395447,1.0480600595474243,0.9916922450065613,0.8746464848518372,1.2915825843811035,1.174941062927246,-2.304915428161621,-0.6088656783103943,-0.08639794588088989,0.738006055355072,1.859727144241333,1.8065977096557617,-0.709201991558075,-0.9241599440574646,-0.24981772899627686,-0.26815569400787354,1.0034693479537964,1.2554982900619507,-0.21808025240898132,0.2753821909427643,1.101436972618103,0.5729355812072754,1.9004508256912231,0.46612784266471863,-1.0412861108779907,0.4338019788265228,0.1314602643251419,-1.4979935884475708,2.052673101425171,-0.6757941842079163,0.12979598343372345,-0.6946603059768677,0.26061272621154785,-1.1894387006759644,-0.8897982239723206,0.2475287914276123,-1.3735493421554565,0.6989554762840271,-0.5995146632194519,0.8894276022911072,-2.005524158477783,0.025036601349711418,0.06791822612285614,0.34352412819862366,0.7880864143371582,-0.2949271500110626,0.6270161867141724,-0.29039672017097473,0.09372324496507645,0.5373621582984924,0.3854431211948395,2.300138473510742,-2.0354061126708984,-1.2909218072891235,-1.2190845012664795,2.153718948364258,-1.5756940841674805,0.2693932056427002,-0.30484744906425476,0.29360201954841614,0.8233926892280579,-0.5116112232208252,0.39398279786109924,0.9784389734268188,0.6242977380752563,1.3092310428619385,-0.47651582956314087,-0.8110403418540955,0.29314953088760376,0.725736677646637,-0.25712186098098755,-0.7943606972694397,0.9481437802314758,-0.458590030670166,2.040400981903076,-0.2356877326965332,-1.1961584091186523,-0.7645465731620789,0.6410205960273743,-1.4447435140609741,-0.0064081596210598946,0.8839700818061829,0.08384911715984344,-0.2691868245601654,0.3477398455142975,-0.40249577164649963,0.00524734565988183,-1.0301076173782349,0.16967688500881195,1.364759922027588,-0.9041184782981873,-0.5546189546585083,0.6840562224388123,-0.3962007164955139,1.0039515495300293,1.0373613834381104,2.241318702697754,0.15392927825450897,-0.3360695242881775,0.039608392864465714,0.22038307785987854,-0.6319586038589478,-2.4210219383239746,-2.7658708095550537,1.8959904909133911,0.697320818901062,-0.45405933260917664,-0.2591512203216553,-3.1354732513427734,0.06335819512605667,-1.8655463457107544,0.413237988948822,0.011337758973240852,-1.2872644662857056,-2.5332205295562744,0.7879456877708435,-0.07936038821935654,-0.045101627707481384,1.1933422088623047,-0.35734823346138,-0.2651611566543579,1.3551363945007324,0.2501918375492096,-0.1989884376525879,-3.356865882873535,-0.23847916722297668,-0.4483453035354614,1.494767427444458,0.6784331798553467,-1.5391850471496582,0.8332708477973938,0.3532152473926544,0.08198299258947372,0.41500353813171387,-2.913893461227417,-1.9938087463378906,-1.7791898250579834,2.9014811515808105,0.6529580354690552,0.8248385190963745,1.3022910356521606,0.632483184337616,-0.4584173560142517,2.0840554237365723,-0.409429132938385,2.06868314743042,-1.940184473991394,-2.2167446613311768,-0.40407833456993103,1.794721245765686,-1.1349390745162964,0.19970674812793732,-3.292804002761841,1.317286491394043,2.2683730125427246,-1.4279526472091675,1.6287914514541626,1.133905053138733,-1.6360421180725098,0.41291871666908264,0.020028958097100258,-0.39974096417427063,0.6353242993354797,0.02987625263631344,-0.2590949833393097,0.48860955238342285,1.1077640056610107,0.639830470085144,0.12025661766529083,0.1035950630903244,-0.21106889843940735,0.10215156525373459,0.18304194509983063,-0.010200940072536469,0.3483542203903198,-0.09364596009254456,-0.6133363842964172,0.08746614307165146,0.37618938088417053,0.4741617441177368,0.004250699654221535,-0.24510081112384796,-0.36276543140411377,0.156187504529953,-0.18927966058254242,-0.8105348944664001,0.11369282007217407,0.13468052446842194,0.10137177258729935,-0.14727570116519928,-0.5299661755561829,-0.8848869204521179,0.6868866682052612,-0.06190646439790726,0.2741885185241699,-0.39597558975219727,-0.3834872543811798,-0.7478162050247192,-0.004182351753115654,0.7614274024963379,0.6181715130805969,-0.3487794101238251,-0.2516205906867981,0.3812645971775055,-0.17040090262889862,-0.21922267973423004,-0.4522092938423157,-0.14660203456878662,0.015875067561864853,-0.705816388130188,0.4995271563529968,0.09987806528806686,0.06327679008245468,-0.3178439736366272,0.14278721809387207,-0.39495548605918884,0.4809828996658325,-0.9695730805397034,-0.07397614419460297,0.7554355263710022,-0.5358980298042297,-0.10818567872047424,0.1562529057264328,-0.03409521281719208,-0.008578428998589516,0.4437459111213684,-0.054536107927560806,0.15051892399787903,-0.2099420577287674,0.3240984082221985,0.6192504167556763,0.4477483928203583,-0.20676395297050476,0.33158454298973083,-0.23894768953323364,0.31428709626197815,0.3089154064655304,-0.14367565512657166,-0.013618805445730686,-0.17353962361812592,-0.384969562292099,0.17510277032852173,0.423823744058609,0.3084249496459961,0.16450954973697662,-0.1805586814880371,-0.3296200633049011,0.29310542345046997,-0.27713751792907715,-0.5152768492698669,0.26932311058044434,0.2932794690132141,0.2757769227027893,-0.16834692656993866,-0.45826032757759094,-0.6447120308876038,0.5300533771514893,0.21235990524291992,0.11489217728376389,-0.11902157217264175,-0.2787427306175232,-0.4642309546470642,-0.1274409294128418,0.48302212357521057,0.42204245924949646,-0.3861391544342041,-0.24983997642993927,0.40416622161865234,-0.22021888196468353,-0.24568811058998108,-0.3838610053062439,-0.13903819024562836,-0.17353856563568115,-0.5049687623977661,0.29336532950401306,0.09903500229120255,0.25187739729881287,-0.25720998644828796,0.35580483078956604,-0.34858444333076477,0.3958117365837097,-0.5668354630470276,-0.07295747101306915,0.3353480398654938,-0.4080260097980499,-0.11188801378011703,0.33111417293548584,-0.17558622360229492,0.061198700219392776,0.3991539478302002,-0.15131430327892303,0.15979591012001038,0.7453588247299194,0.18987976014614105,0.30532628297805786,-0.3262864351272583,0.06207142397761345,-0.3748115003108978,0.25007906556129456,-0.589289128780365,0.12663587927818298,0.15283292531967163,0.6582635045051575,0.2771075367927551,0.26951536536216736,-0.03773893415927887,-0.08950363099575043,-0.041862279176712036,0.8798918724060059,0.7525103092193604,0.7916030883789062,0.6281654834747314,0.7103638052940369,-0.22462762892246246,-0.15463170409202576,-0.17625738680362701,-0.23400448262691498,0.09753067791461945,0.6274956464767456,0.2735883295536041,-0.527363657951355,0.03816986456513405,-0.7342354655265808,0.5063950419425964,0.4523497223854065,0.5025505423545837,1.2638161182403564,-0.2990473210811615,-0.23702844977378845,-0.1318901926279068,0.2651470899581909,-0.5162530541419983,0.9922582507133484,0.6785552501678467,1.5751192569732666,-0.05224328115582466,0.600965142250061,0.5206340551376343,-0.46666187047958374,-0.008036507293581963,-0.6801204681396484,0.39484792947769165,0.24426281452178955,0.6581851840019226,-0.3615623712539673,0.6423330307006836,-0.030743401497602463,-0.520675539970398,0.6411516666412354,0.9581906199455261,0.27878546714782715,0.8725304007530212,1.2219281196594238,-0.4069952666759491,0.34421491622924805,0.4591655433177948,0.0852060541510582,0.4626827836036682,0.2251959890127182,-0.3773043751716614,-0.14448876678943634,0.04945613071322441,0.2565394341945648,0.4851248562335968,0.2678990960121155,-0.5693345069885254,0.2965688109397888,-0.5624406337738037,-0.2458440363407135,0.47999224066734314,0.048588886857032776,0.7767070531845093,-0.04964395612478256,0.2335323691368103,-0.10268253087997437,0.08914250880479813,0.25113439559936523,-0.39015597105026245,-0.2531932592391968,0.35589298605918884,0.24337457120418549,-0.6299955248832703,-0.021721359342336655,-0.3315805494785309,0.47674432396888733,-0.04765496030449867,0.7016736268997192,-0.09470269829034805,-0.1780870258808136,-0.2878645658493042,-0.4312483072280884,0.41289272904396057,0.47247427701950073,-0.4855811297893524,0.07287406176328659,0.13900543749332428,-0.3813997209072113,-0.8582718372344971,-0.7382102608680725,-0.31590238213539124,0.1659288853406906,-0.23367449641227722,0.6286777257919312,0.4276612102985382,0.5805282592773438,-0.6639667749404907,0.14067645370960236,-0.255289226770401,0.5649490356445312,-0.7283430099487305,-0.42385584115982056,0.3179817199707031,-0.27603328227996826,-0.4671475291252136,0.11491580307483673,0.07482998818159103,0.2609337568283081,0.1642802357673645,-0.5117323398590088,0.8204859495162964,-0.5475597977638245,-1.9365286827087402,-0.851564347743988,0.04160146042704582,0.4516236484050751,0.5336050987243652,0.4369526207447052,-0.10461710393428802,-1.6081693172454834,-0.24464450776576996,0.0028942262288182974,-0.9181262254714966,-1.374956488609314,1.3157224655151367,-0.717614471912384,1.9218875169754028,-0.7322434782981873,-0.6020909547805786,-0.3216715157032013,-0.011653813533484936,-0.756407618522644,1.591601014137268,-0.4359711706638336,0.039566393941640854,-1.2251577377319336,-0.9802115559577942,0.15080887079238892,0.4392361342906952,1.3337754011154175,-2.297868251800537,1.5345842838287354,1.4218299388885498,-0.13434751331806183,-1.8783758878707886,-1.455653429031372,-1.5249403715133667,-0.9035035967826843,1.2702761888504028,4.311617374420166,1.0345475673675537,-0.28463414311408997,-0.12222059816122055,-3.420591354370117,-0.6986316442489624,0.7213544249534607,-0.14683745801448822,-2.534031391143799,1.7509351968765259,0.9807953834533691,1.044363021850586,0.4132859706878662,-1.1666840314865112,-0.7271528244018555,0.9687862396240234,-1.4697990417480469,0.5722881555557251,0.9875898361206055,-0.8900720477104187,-3.5708506107330322,-0.8843949437141418,1.0172946453094482,-0.041306961327791214,-1.0593628883361816,-1.0572247505187988,1.6397993564605713,-1.9178130626678467,-2.918214797973633,-1.9003596305847168,-0.7289811372756958,-2.1009836196899414,-1.2176533937454224,-0.573582649230957,-1.7719762325286865,0.8680008053779602,-1.5704835653305054,0.814261794090271,1.5850882530212402,-0.7184743285179138,-0.5090574622154236,-2.1787755489349365,-0.06311647593975067,1.9026066064834595,0.17355909943580627,-1.5638669729232788,1.848286509513855,2.630577802658081,1.0444388389587402,-0.4806610345840454,-1.4257344007492065,1.1532413959503174,0.7387386560440063,3.273379325866699,-2.6608362197875977,-0.9522407054901123,-1.258284091949463,1.596036434173584,0.3360143303871155,1.5117942094802856,0.9571636915206909,-3.5640664100646973,-1.2634652853012085,1.7639127969741821,0.35601234436035156,0.5165316462516785,0.7357860803604126,2.039675235748291,-0.7595886588096619,1.5224943161010742,-0.24125851690769196,2.847414970397949,-0.8325437903404236,-0.00392250856384635,-0.9132009744644165,3.310394525527954,-0.9025532007217407,1.9561429023742676,-1.558414101600647,1.5987935066223145,1.6234030723571777,-3.212846279144287,1.4410547018051147,1.17349112033844,-1.1412354707717896,-0.5842232704162598,-1.6082425117492676,-0.9869562983512878,0.8908177018165588,-1.0906871557235718,-0.3521946668624878,-2.3863959312438965,-0.14906324446201324,-0.29412078857421875,-0.9603053331375122,1.0172743797302246,-1.3025174140930176,-0.791069746017456,1.0351390838623047,0.8351078629493713,-1.0904903411865234,0.9926245808601379,-0.7429412007331848,-0.8113677501678467,0.39972659945487976,0.3799414038658142,0.8097524046897888,0.015100778080523014,-0.26620858907699585,0.5973414182662964,-0.26199445128440857,0.17135943472385406,0.8809901475906372,-0.8518389463424683,0.9896141886711121,0.9263734221458435,0.2014191895723343,0.2855834662914276,-0.15413303673267365,-0.9385587573051453,-0.28017428517341614,0.05783594399690628,-0.7143713235855103,-0.9720407724380493,0.6672511100769043,-0.48035427927970886,0.9803526997566223,-0.9570825695991516,0.5482266545295715,0.24696429073810577,-1.0182082653045654,1.2600003480911255,-0.19587333500385284,0.9303377270698547,-2.3767168521881104,0.4163103997707367,0.9396463632583618,-1.4011913537979126,-1.0865094661712646,0.5520796179771423,1.5381453037261963,-0.053775086998939514,0.08108621835708618,-0.0044601247645914555,1.0510060787200928,-0.6731855869293213,0.5322095155715942,0.2482435554265976,2.4725592136383057,1.8687325716018677,-0.5540826916694641,1.0181996822357178,1.1884846687316895,0.874364972114563,-0.7606344819068909,-0.6004326939582825,-0.578430712223053,0.0011132645886391401,0.3739355504512787,-0.5243061184883118,0.904839277267456,0.5045356750488281,-1.903531551361084,-0.6079537868499756,0.5601067543029785,-0.4611518383026123,0.15694613754749298,0.5724974274635315,-0.04512902349233627,0.25481337308883667,0.2998228669166565,-0.9414994716644287,0.2737726867198944,-1.2245017290115356,-1.0630072355270386,0.8341085314750671,-0.9660844206809998,0.4739299714565277,-1.2336355447769165,-0.577017605304718,1.1060783863067627,0.7538398504257202,-0.761350154876709,-1.3730868101119995,0.09604749083518982,0.9866209626197815,0.3277367353439331,0.7844790816307068,-1.0584511756896973,-1.0046018362045288,-0.1154623031616211,1.8052165508270264,0.274771124124527,-0.1750098019838333,0.26827123761177063,0.34363487362861633,0.6846044063568115,-0.7207369208335876,0.7562119364738464,0.8906895518302917,-1.6637457609176636,0.7501482367515564,0.5169939398765564,0.9879797101020813,-0.41736331582069397,0.4961928725242615,-0.9888720512390137,0.969974160194397,-0.9132731556892395,-0.7934202551841736,0.9259116649627686,-0.9198461771011353,-0.4383789598941803,-3.2266852855682373,-0.7254254817962646,-1.3790568113327026,-0.7695303559303284,-0.2965533435344696,0.544340193271637,0.2947620153427124,-0.3409079909324646,-0.9129600524902344,-0.022912489250302315,0.952777624130249,-0.2774837017059326,-0.2062423974275589,0.942622184753418,0.11203768849372864,-0.5917384624481201,0.15220268070697784,0.12866617739200592,-0.18860885500907898,-0.35004594922065735,-0.09876897931098938,0.4759173095226288,0.7083662748336792,-0.03879236429929733,-0.1809440702199936,0.8823248147964478,0.2592640221118927,0.5537015795707703,-0.17056187987327576,0.14395539462566376,0.07033006101846695,-0.4510476589202881,0.11986050009727478,-0.06309103220701218,0.4157734811306,0.5306286811828613,-0.35505610704421997,0.13802209496498108,0.021707165986299515,0.09631791710853577,-0.07814747095108032,-0.277307391166687,-0.2685563862323761,-0.6072812080383301,0.1005064994096756,-0.21339373290538788,0.1250695139169693,-0.19904576241970062,0.6212779879570007,-0.16140280663967133,0.1075739711523056,-0.7890937924385071,0.0149527033790946,-0.4452122151851654,-0.640636146068573,-0.59225994348526,0.30991289019584656,-0.08510599285364151,-0.01036214828491211,0.09876470267772675,-0.053460512310266495,-0.6602373123168945,0.1259317398071289,0.23400667309761047,1.1828657388687134,0.7491281032562256,0.4329703748226166,0.16338063776493073,1.7326682806015015,-1.5314314365386963,-1.4309190511703491,-1.1350983381271362,0.16145755350589752,0.8792908787727356,-1.3199684619903564,1.5917736291885376,1.1537487506866455,-0.7780934572219849,-2.044790506362915,0.2848508358001709,-1.8850696086883545,-1.2632355690002441,0.9842506051063538,1.3874738216400146,1.5452631711959839,1.6403578519821167,-1.916885256767273,-0.7245222330093384,0.5495803356170654,-1.416198492050171,1.6641733646392822,-1.9062209129333496,0.9765397906303406,-0.38916027545928955,-1.6793076992034912,1.9352893829345703,1.1389126777648926,0.3664853274822235,-0.38899144530296326,1.9774608612060547,1.5954418182373047,-0.6599764227867126,0.17523455619812012,-2.7423574924468994,-1.7230557203292847,0.10623635351657867,0.18156757950782776,0.5144122242927551,1.0460844039916992,-1.6867260932922363,-0.7169360518455505,2.1400458812713623,-0.18577638268470764,1.081881046295166,1.9620015621185303,-0.7501436471939087,1.5868971347808838,1.7435311079025269,-0.39991432428359985,0.11561904847621918,-2.3024959564208984,-0.18464232981204987,0.2895198464393616,-0.20817868411540985,-2.1326236724853516,1.1197452545166016,0.5222026705741882,0.916404128074646,-2.026841163635254,-3.3994359970092773,-1.8421599864959717,-1.7449809312820435,0.6580478549003601,-1.1021732091903687,-1.8260749578475952,-3.3983664512634277,-2.728010892868042,0.826846718788147,-1.417068362236023,0.6708260178565979,0.2206713706254959,-2.8964927196502686,-0.719012975692749,-0.02223040722310543,-0.6144283413887024,0.23600848019123077,0.4695020020008087,-2.0806074142456055,0.5405519604682922,-0.5895158648490906,-1.106796383857727,0.6515128016471863,-2.4967734813690186,-1.4785934686660767,3.2523441314697266,-0.649819016456604,0.2077416181564331,-3.4844610691070557,-0.41100433468818665,0.47773978114128113,3.4686474800109863,-1.9083423614501953,-1.4199117422103882,-0.23963680863380432,0.13820691406726837,-0.14609703421592712,0.17620766162872314,0.23426508903503418,-3.654318332672119,-2.260988473892212,2.9962589740753174,1.5304739475250244,0.1887139081954956,0.8967353105545044,-0.0835387110710144,-0.15096226334571838,-1.4289066791534424,-0.32217901945114136,3.137625217437744,-0.6166890263557434,1.527063250541687,0.6675596833229065,3.158111572265625,-1.707742691040039,-0.39909905195236206,-2.485586404800415,3.3426501750946045,-0.3687776029109955,-2.8428406715393066,3.3997511863708496,-0.6644013524055481,0.5287901759147644,2.473397731781006,0.8515102863311768,-0.7776274681091309,-0.8339909911155701,1.5212799310684204,-1.7438043355941772,-3.2936058044433594,-2.950968027114868,-2.4639859199523926,1.0417377948760986,-3.4362313747406006,0.6129940748214722,1.0054527521133423,-2.1956064701080322,-2.2638564109802246,1.8788375854492188,-1.4731056690216064,-1.2506136894226074,1.1470510959625244,-0.15468789637088776,1.6041100025177002,0.34968551993370056,-1.6252284049987793,-0.446790486574173,-1.503242015838623,-1.7227935791015625,3.3552324771881104,-1.015007734298706,0.6871364712715149,-2.060892343521118,-1.7799286842346191,2.4838764667510986,2.9166009426116943,-1.394654631614685,-2.3139917850494385,2.780954360961914,2.657163143157959,0.34511205554008484,0.8513787388801575,-1.0175846815109253,-2.8842580318450928,-1.5737851858139038,2.8778061866760254,2.2194347381591797,0.14859797060489655,0.20459073781967163,-0.6095964908599854,-1.5821141004562378,-1.8939883708953857,0.3842966854572296,2.736860752105713,-2.3848612308502197,1.590622067451477,1.123162031173706,2.9932446479797363,1.4118221998214722,-2.235353946685791,-2.816404104232788,2.120802879333496,-2.175333023071289,-3.4037938117980957,3.185774326324463,-1.0935033559799194,-2.3490495681762695,1.3480076789855957,-0.24879978597164154,-1.888270616531372,-1.7174116373062134,0.3601480722427368,-0.490886390209198,1.0774271488189697,0.04360333830118179,0.18945887684822083,-1.4113489389419556,0.4382804036140442,-0.029750844463706017,0.209153950214386,1.110025405883789,-0.1706939935684204,0.42189380526542664,-0.5117643475532532,0.2751547694206238,0.6361725330352783,0.6355115175247192,0.4189969003200531,-1.5409080982208252,-0.5574314594268799,-1.5668561458587646,0.9347035884857178,-0.645496666431427,1.786061406135559,-0.07471472024917603,0.1440664380788803,2.9006896018981934,-0.18886397778987885,1.8489558696746826,0.1589834839105606,0.2696000039577484,1.6785846948623657,-0.6370656490325928,-1.3813072443008423,1.1053943634033203,1.1089041233062744,0.21781854331493378,-0.30890974402427673,-0.7491546869277954,-1.8591121435165405,0.4366796016693115,0.5070928335189819,-1.1980072259902954,-0.4477148652076721,1.6754640340805054,-1.0323055982589722,0.025286462157964706,0.7505351901054382,-0.4669691324234009,1.5787322521209717,0.234220951795578,0.6637923717498779,1.0548616647720337,-1.1636438369750977,1.14885675907135,1.0694632530212402,-1.7627052068710327,-0.5255025625228882,0.7505868673324585,-0.5945930480957031,2.582141876220703,2.172081708908081,2.0216078758239746,-0.8457132577896118,-0.7354356050491333,-0.7903276681900024,1.0060911178588867,-1.8168134689331055,-2.735081911087036,-2.1967334747314453,1.1032862663269043,-1.6435354948043823,-0.8345626592636108,-0.32818880677223206,-1.6492869853973389,0.6604000329971313,-1.723406195640564,0.6621168255805969,1.3291957378387451,-0.7625736594200134,-1.6894011497497559,-1.333245873451233,-0.41095951199531555,1.0795902013778687,0.9104180932044983,-1.1007441282272339,1.091516375541687,2.2961785793304443,0.5393348336219788,-0.22031435370445251,-1.921040415763855,0.9404512643814087,2.026228189468384,2.7625157833099365,-1.589397668838501,-1.9719194173812866,-0.9330229759216309,2.20554780960083,0.5987278819084167,2.4365158081054688,0.9120670557022095,-2.5666215419769287,-1.4510595798492432,1.7539952993392944,-0.09261425584554672,1.1668530702590942,0.1922951489686966,1.2498213052749634,-0.8004868626594543,0.5945672988891602,-0.10499080270528793,2.4677979946136475,-1.8662289381027222,-0.6353914141654968,-0.5545468926429749,2.261519432067871,-0.45015040040016174,1.0624662637710571,-1.8109101057052612,1.9033145904541016,1.036424160003662,-2.6745975017547607,1.6837568283081055,0.7732483148574829,-1.9833863973617554,-0.4922753572463989,-0.7612081170082092,-2.404475212097168,0.6762577295303345,-0.7805230617523193,-0.05276338383555412,1.4132660627365112,0.3705717921257019,0.1213236004114151,-0.3793221414089203,0.6572943925857544,-0.813227653503418,-0.5628608465194702,-0.6459224820137024,0.7138837575912476,-1.2197948694229126,0.6194050908088684,-0.6891535520553589,0.5197522044181824,-0.7611709833145142,-0.25545957684516907,-0.8151510953903198,0.184653639793396,0.3319017291069031,-0.16817797720432281,0.5921244621276855,0.6283116340637207,0.9997236132621765,-0.28951579332351685,-0.2894889712333679,0.6562646627426147,0.5493667125701904,0.24942298233509064,-0.12530969083309174,-1.2586004734039307,-0.6123024225234985,-1.587544322013855,-1.4177964925765991,0.6684189438819885,0.7363768219947815,-0.1266336739063263,0.5100153088569641,0.2121480256319046,-0.01270659826695919,-0.46469834446907043,1.5204856395721436,0.8156048059463501,0.43244117498397827,1.6493028402328491,0.10641761124134064,-0.73525071144104,0.4348689317703247,-0.19835765659809113,-0.8471865057945251,0.6801660656929016,-0.37862348556518555,-0.2501245141029358,-0.3006502091884613,-0.32343488931655884,0.49010053277015686,0.29578474164009094,-0.8004034161567688,0.9323362708091736,-0.08449570834636688,-0.7552821636199951,1.0125857591629028,0.5957689881324768,0.9187226295471191,0.928578794002533,-0.6727011203765869,0.2678161561489105,2.36384916305542,2.6070125102996826,0.09310460835695267,0.6958102583885193,0.7403380870819092,0.39288273453712463,0.14350923895835876,-0.5908367037773132,0.9236799478530884,-0.5664087533950806,-4.405696392059326,0.04221336916089058,2.649643898010254,2.0277256965637207,0.7181094884872437,-0.5865478515625,-0.6736248731613159,0.7371492981910706,-0.47575902938842773,1.8104228973388672,-0.6147796511650085,0.06226547807455063,2.086576461791992,-0.8788717985153198,-0.5925890207290649,-1.828933596611023,1.0125149488449097,0.18807974457740784,1.4349204301834106,1.191153645515442,-0.2044702172279358,-0.1754375845193863,-0.3066500127315521,1.1456598043441772,0.7546382546424866,-0.5666120648384094,1.250800609588623,0.5908074378967285,-1.8366988897323608,-0.372789591550827,1.0652369260787964,-0.17623671889305115,0.43495145440101624,0.19977276027202606,-0.11981374025344849,0.1756662130355835,0.3970652222633362,0.282489538192749,0.23214401304721832,-3.722365617752075,1.2848541736602783,1.2642977237701416,-1.0505592823028564,0.3142896294593811,-0.739592969417572,-1.827510118484497,-0.35576918721199036,-0.912011981010437,-0.7441527247428894,-1.5564234256744385,-0.9041244387626648,-0.9879729747772217,1.6891441345214844,1.165236473083496,1.4629175662994385,-0.7924134135246277,0.7520572543144226,0.6118791699409485,-0.43870213627815247,-1.486672282218933,-0.5651427507400513,0.49359193444252014,1.8662564754486084,1.3629000186920166,0.20198428630828857,-0.32507213950157166,-0.03717457875609398,-0.0026007015258073807,-0.2409133017063141,1.6371318101882935,0.798985481262207,-0.38511234521865845,1.2843841314315796,-0.037178006023168564,1.36448335647583,-0.6101928949356079,-0.2772270739078522,1.275387167930603,-1.706935167312622,-0.8434380888938904,0.9794430136680603,-1.4638075828552246,-0.679601788520813,-1.3722832202911377,-1.007240891456604,-1.071812629699707,-0.019832545891404152,0.2818142771720886,-0.475032240152359,0.31434008479118347,1.0972398519515991,0.6020393371582031,-0.13103079795837402,1.28389310836792,0.8436105847358704,-0.8188921809196472,-1.5865265130996704,-0.5110626220703125,-0.9200754761695862,-1.4140616655349731,-1.5960257053375244,0.24037696421146393,0.41646167635917664,-1.2018976211547852,-0.5043579936027527,-0.6155739426612854,0.8593055009841919,0.7983609437942505,-0.6568136215209961,1.14858078956604,-1.6853748559951782,1.573758602142334,1.5276031494140625,0.841170072555542,0.3747157156467438,-1.790206789970398,1.5716801881790161,1.176189661026001,-0.660585343837738,-2.302708864212036,2.2271080017089844,0.46152955293655396,-0.260265052318573,-0.3389693796634674,-2.1313414573669434,1.1197655200958252,-2.224557638168335,1.0720794200897217,0.8408331274986267,-0.8625351190567017,-0.3644784688949585,-0.8067521452903748,-0.5861608386039734,1.4453930854797363,0.2304328978061676,-1.5740958452224731,1.1704241037368774,-0.5971019268035889,0.2725335955619812,-0.025535084307193756,-1.3214595317840576,1.1632907390594482,-0.28587740659713745,-0.04563695192337036,2.204190969467163,-0.8834315538406372,-3.946368932723999,-1.5347213745117188,-0.19902966916561127,1.0837022066116333,-0.13322395086288452,-1.0131665468215942,-1.699950933456421,1.2744330167770386,0.7595428228378296,-0.7284773588180542,-1.4962232112884521,0.9830589890480042,0.5994095802307129,1.189771056175232,-0.004016023129224777,0.11542228609323502,-1.6054428815841675,-1.5642633438110352,-1.0489662885665894,0.4230380654335022,-0.9987307190895081,4.353461265563965,-1.6205096244812012,0.7247387766838074,2.334794521331787,0.05729776620864868,0.810256838798523,0.9098345041275024,-0.7271379828453064,-0.8222190141677856,-1.913192629814148,-0.8773186802864075,1.917863130569458,-0.3386192321777344,0.20427817106246948,-0.7943776845932007,-0.5000965595245361,-0.8948733806610107,-0.17042624950408936,-0.9393571615219116,-0.09704876691102982,-0.4228774309158325,-0.9146395921707153,0.40250277519226074,-0.5657784938812256,0.3736858069896698,1.7121005058288574,-0.31904667615890503,-0.32529476284980774,-1.1992981433868408,-0.5481225252151489,0.18025361001491547,0.13326865434646606,-0.7264127731323242,0.20529970526695251,0.9156022667884827,0.1494317352771759,-0.27713537216186523,-0.09564469754695892,0.4186334013938904,0.7363097667694092,1.1379709243774414,-1.1039254665374756,-0.11182143539190292,-0.8016943335533142,1.0164653062820435,1.094640851020813,0.8960038423538208,0.18965698778629303,-1.059347152709961,-0.9263298511505127,1.1486214399337769,0.7534262537956238,-0.1637144237756729,0.16525493562221527,0.8655341863632202,0.24287912249565125,0.127990260720253,0.0006566945230588317,1.4281162023544312,-0.6579101085662842,-0.3228767514228821,-0.5024257302284241,0.8478454947471619,-0.17922911047935486,1.0656825304031372,-0.8420156240463257,1.4216647148132324,0.07792647927999496,-1.2967944145202637,1.4433648586273193,0.29186367988586426,-0.26775026321411133,0.10259190946817398,-0.012453091330826283,-0.6498899459838867,0.39475345611572266,0.01714594103395939,-0.22536689043045044,0.5423024296760559,1.1939024925231934,0.6928574442863464,0.25381574034690857,0.14021733403205872,0.021444270387291908,-0.010695821605622768,0.24879708886146545,0.07866358011960983,0.6683193445205688,0.11614784598350525,-0.5458563566207886,-0.13075773417949677,0.13768625259399414,0.7128342986106873,-0.014173227362334728,-0.17420409619808197,0.16479232907295227,0.42017069458961487,-0.21519580483436584,-0.5818414688110352,-0.07375720143318176,-0.023954596370458603,0.01603890210390091,0.01898357644677162,-0.6729860901832581,-0.9692808389663696,0.555341362953186,-0.10882500559091568,0.014487878419458866,-0.7350380420684814,-0.2746962606906891,-0.5020355582237244,0.11555245518684387,0.7550756931304932,0.631672739982605,-0.4669039249420166,-0.180311381816864,-0.25221148133277893,0.290322482585907,-0.323032408952713,0.056911125779151917,0.12063442170619965,0.04210332781076431,-0.45680519938468933,-0.18690283596515656,-0.06054084002971649,-0.05771784856915474,-0.5619039535522461,0.4159052073955536,-0.8864113688468933,0.6314704418182373,-0.9305430054664612,-0.05317004770040512,0.646978497505188,-0.7982872724533081,-0.0024653198197484016,0.16728520393371582,0.002200489630922675,0.04578565061092377,0.38825422525405884,0.1288418471813202,-0.005990077741444111,-0.8114194869995117,1.2136144638061523,-0.23644258081912994,-1.6928174495697021,1.6935449838638306,1.4204915761947632,-0.0740765705704689,0.00817902386188507,-1.1086385250091553,0.5871480703353882,1.2372534275054932,0.9104416966438293,1.905355453491211,0.5954052805900574,-3.2446014881134033,-0.3267803490161896,-0.013025178574025631,-1.0795925855636597,3.4666454792022705,-0.3681049644947052,-1.7095355987548828,-0.39580869674682617,-0.15637409687042236,0.007171112112700939,-1.1146689653396606,0.6378135681152344,-0.0009079925948753953,-0.6082556843757629,-2.0395102500915527,-0.08070138096809387,-0.6756434440612793,-0.3385785222053528,-1.1780527830123901,-0.4144318699836731,0.8577475547790527,1.4244781732559204,-1.0746147632598877,0.9656100869178772,0.9976769685745239,-4.2943878173828125,3.782289505004883,0.8842177987098694,0.9859050512313843,-0.5336260795593262,1.0279769897460938,-1.2743536233901978,-2.15836763381958,1.639286994934082,-0.6472892761230469,1.135908842086792,-1.8318907022476196,-0.44444361329078674,-1.4098566770553589,1.0126076936721802,0.2457374483346939,0.757268488407135,1.1147139072418213,-0.39426636695861816,-2.090636730194092,-0.13585753738880157,0.30350515246391296,-0.33362165093421936,0.5151067972183228,0.39758729934692383,-0.7807589173316956,-0.7276010513305664,-0.38134074211120605,0.7095644474029541,-1.1993532180786133,1.0821040868759155,-0.1221284568309784,0.4629247188568115,0.19506686925888062,-0.2666844129562378,-0.269132137298584,-0.2951914668083191,0.7723784446716309,0.6138618588447571,0.11335812509059906,-0.37699759006500244,0.9229216575622559,-0.7528706192970276,-2.8325283527374268,-0.29080745577812195,-1.4939600229263306,-0.6426945328712463,-0.02890908345580101,0.2830781042575836,0.5727978944778442,-0.5258930921554565,-0.5150554180145264,0.9680021405220032,-0.9182092547416687,-0.09748613834381104,0.7900252938270569,-0.22672253847122192,-1.094553828239441,-0.38991987705230713,0.9104439616203308,-0.9653531908988953,1.7861549854278564,-2.0784225463867188,-1.7003989219665527,1.7365479469299316,-2.249631404876709,-0.5508652329444885,-0.7418989539146423,0.165556401014328,-0.05891692265868187,0.8052899241447449,2.043830633163452,-0.06785387545824051,0.4747198820114136,-0.9451661705970764,2.4905202388763428,0.770581066608429,0.2363598495721817,-2.149282693862915,0.21152791380882263,-0.7711049914360046,-0.4303396940231323,-1.387559413909912,-0.27266889810562134,0.2667982280254364,0.1096237301826477,0.11126146465539932,-0.6186717748641968,0.3420645594596863,-0.4404398798942566,0.6640374064445496,1.0975868701934814,1.1477224826812744,0.2484465390443802,0.34835347533226013,-0.0037028389051556587,0.40619271993637085,0.4305706322193146,-0.25570666790008545,0.44175752997398376,-0.2523416578769684,-0.8353564739227295,0.3416009843349457,0.47336384654045105,1.2463551759719849,0.031466517597436905,-0.3651506006717682,0.3042162358760834,0.42054125666618347,-0.4386991858482361,-0.5132532119750977,-0.14366911351680756,0.22538404166698456,0.2281486988067627,-0.38973090052604675,-0.31761300563812256,-0.628698468208313,0.5615523457527161,-0.3650200366973877,1.3496031761169434,-0.2979060113430023,-0.48658937215805054,-0.5956214666366577,-0.21131816506385803,0.5101884007453918,0.9664048552513123,-0.17835097014904022,-0.38908374309539795,0.06525598466396332,0.37124502658843994,-0.5465640425682068,-0.6105263829231262,-0.5989860892295837,0.15782397985458374,-0.5596436858177185,0.6078572273254395,0.36834368109703064,0.43682095408439636,-0.6558753848075867,-0.41770264506340027,-0.9391362071037292,0.32253125309944153,-0.7117621302604675,-0.47921568155288696,0.5002554059028625,-0.7294666171073914,-0.2741141617298126,0.11417055875062943,0.2728571891784668,0.6487062573432922,-0.013324404135346413,-0.27154630422592163,0.3131721615791321,0.7544543147087097,-0.847093939781189,-3.221618175506592,-3.386227607727051,0.09011884778738022,-1.0797524452209473,-0.9521824717521667,-0.22332237660884857,-2.813819646835327,0.011956015601754189,1.1791090965270996,0.07351461797952652,0.0881638377904892,0.13891755044460297,-2.3337883949279785,1.61176598072052,0.5977079272270203,0.6071726679801941,1.7596434354782104,-0.9849330186843872,-0.5530747175216675,2.7453715801239014,0.953305184841156,0.10730239003896713,-3.4961931705474854,-0.17357942461967468,1.2223339080810547,2.409013271331787,0.8733757734298706,-1.2507069110870361,0.468017041683197,0.8317205309867859,0.825394868850708,0.718502402305603,0.5018538236618042,-1.5274648666381836,-4.995697975158691,4.292909145355225,4.148787021636963,-1.44606351852417,2.214689254760742,1.2712372541427612,0.4441223442554474,-0.22605346143245697,-0.6777448058128357,2.538997173309326,-3.417168617248535,0.9601534605026245,-0.45252174139022827,3.2581450939178467,-1.3590611219406128,-2.262364387512207,-4.162436485290527,3.532261848449707,-1.1100013256072998,-2.6087353229522705,3.287984609603882,0.6383184194564819,-1.186771035194397,0.7154417037963867,1.1229788064956665,-0.7067795395851135,0.06713046878576279,0.15816707909107208,0.142926424741745,-0.16452354192733765,0.14059315621852875,1.2727901935577393,-0.07298388332128525,-0.8090148568153381,0.5228589773178101,-0.08377281576395035,0.9789634943008423,-0.36778753995895386,0.5848341584205627,-0.2790054678916931,0.7435178160667419,0.2993195950984955,0.7894808053970337,-0.4577823281288147,0.04680515453219414,0.2744542956352234,-0.09859012067317963,-1.6705784797668457,0.2958923876285553,0.510543167591095,-0.3065081536769867,-0.17081794142723083,0.9257575869560242,-0.4840404689311981,0.6746839880943298,0.38771745562553406,-0.6399533152580261,0.43016451597213745,0.04982711002230644,0.4447595179080963,0.7546551823616028,0.7228078842163086,-0.13089752197265625,-0.3423469066619873,1.251875638961792,-0.8773835897445679,-1.4876519441604614,-0.12531641125679016,-0.10467284917831421,-0.5583956241607666,0.04454759135842323,0.45461803674697876,0.4554959237575531,0.330619752407074,0.8812578916549683,-0.021120987832546234,0.070753313601017,-0.7072411179542542,0.90407794713974,0.3805811405181885,0.7369834780693054,-0.7406184077262878,-0.4588661193847656,-0.37706056237220764,-0.7788782715797424,-0.15455126762390137,0.3711775839328766,-1.687849760055542,-0.1098259836435318,-0.9086393713951111,-0.08221897482872009,0.44913870096206665,-0.14900223910808563,-0.4677845239639282,-1.2261079549789429,-0.058139167726039886,-1.9562535285949707,0.09629461914300919,-0.1206943467259407,0.14921492338180542,1.2928330898284912,-0.16064278781414032,0.014580599963665009,-0.4042535722255707,-0.0091351717710495,1.0482673645019531,2.4300456047058105,-0.5833501219749451,-0.04748206585645676,-0.1573498547077179,-2.3913838863372803,0.07303472608327866,-0.340430349111557,1.9242302179336548,0.10968252271413803,0.18735671043395996,2.5835278034210205,-0.06290727108716965,1.4632219076156616,1.2225077152252197,-1.1229748725891113,2.064208984375,0.030761411413550377,-0.38629060983657837,0.30274927616119385,1.489566683769226,0.6638264060020447,-1.2370120286941528,-1.0004802942276,-0.988792896270752,1.6597529649734497,1.4847443103790283,-2.7262706756591797,-0.24545687437057495,1.6965031623840332,-0.7930417060852051,-0.11240983754396439,1.4699662923812866,0.47909975051879883,1.9792662858963013,0.1957966536283493,0.0667869821190834,1.8379788398742676,0.31372734904289246,0.7442023754119873,0.7480754852294922,-1.4678155183792114,-1.7600244283676147,1.1512459516525269,-0.8167353272438049,1.9968422651290894,1.5032790899276733,0.561852753162384,-0.7270663976669312,-0.11231014877557755,0.01723204180598259,-0.2390739619731903,0.5051447749137878,0.6972771286964417,0.7109877467155457,0.05609893053770065,0.2193620502948761,-0.09737755358219147,0.1914362609386444,0.16718731820583344,-0.00366647238843143,0.16342853009700775,-0.026975639164447784,-0.5781770944595337,0.009240524843335152,0.11904211342334747,0.3889808654785156,0.07045350223779678,-0.23353919386863708,-0.3447805345058441,0.3011382222175598,-0.33585622906684875,-0.3844109773635864,0.09967838227748871,0.1859847754240036,0.13019919395446777,-0.17260195314884186,-0.40666449069976807,-0.6168774962425232,0.44785669445991516,-0.03805758059024811,0.3050636649131775,-0.20790721476078033,-0.10359584540128708,-0.5234301090240479,-0.016549002379179,0.5049192905426025,0.994946300983429,-0.47372159361839294,-0.1016283705830574,0.4135572016239166,-0.1688833087682724,-0.263318806886673,-0.4204266369342804,-0.16586530208587646,-0.001578637515194714,-0.3292752802371979,0.39421331882476807,0.05028962716460228,0.11663664877414703,-0.3063698410987854,0.24757568538188934,-0.44194743037223816,0.5986210703849792,-0.7233079671859741,-0.1286584734916687,0.3307427167892456,-0.5497948527336121,-0.1209256500005722,-0.010000036098062992,-0.042679909616708755,0.12235410511493683,0.20458024740219116,-0.09685449302196503,0.19481995701789856,-0.40332937240600586,0.6321888566017151,0.9099617004394531,0.8699423670768738,0.6726288199424744,1.4073275327682495,0.28606417775154114,-0.23405791819095612,-0.3447856307029724,0.27170878648757935,-0.07257074117660522,0.24030041694641113,-0.15868544578552246,0.7856137752532959,1.4550565481185913,-0.04975215718150139,-0.8120677471160889,-0.3529645502567291,-1.7960708141326904,-0.995775580406189,-1.2644537687301636,-0.03495596721768379,-0.7638236880302429,-0.32462725043296814,0.37427952885627747,0.006756420247256756,-0.347992479801178,-0.3889768719673157,0.49258267879486084,-0.5182604193687439,-0.6030889749526978,-0.3688221275806427,-1.0338146686553955,-0.45760369300842285,1.0589921474456787,0.5005415678024292,1.2384413480758667,1.0124553442001343,-0.07566308230161667,1.864565134048462,-0.22714759409427643,0.1229485347867012,-0.08009395003318787,-0.8110692501068115,0.35208067297935486,0.4213837683200836,0.1744619756937027,-1.4896821975708008,-0.07633258402347565,1.4462099075317383,1.4210964441299438,-0.24230636656284332,0.5954965353012085,-0.07954162359237671,-2.2075486183166504,-0.218072310090065,-0.14531806111335754,-1.845801830291748,-0.05250672250986099,0.4984080493450165,-0.13301719725131989,0.010879729874432087,0.08876509964466095,-0.5722701549530029,0.8144082427024841,-0.5197701454162598,0.19389495253562927,-0.508288562297821,-0.5686123967170715,0.23470304906368256,0.2554391622543335,-1.2347971200942993,-0.08559641987085342,0.9219329953193665,-0.3167423605918884,0.899032711982727,0.18047896027565002,-0.5353127717971802,-0.3858010172843933,-0.21506911516189575,-0.7064946293830872,0.6381033658981323,-0.5265552997589111,-1.8215917348861694,0.6071478128433228,0.48599866032600403,-0.33224737644195557,-0.8310860395431519,-0.07385421544313431,0.5117788314819336,-0.04027921333909035,0.34536564350128174,-0.22287560999393463,0.31407058238983154,-0.5555280447006226,-0.3476528823375702,-0.13665170967578888,0.01178727112710476,0.3708450198173523,-0.09723082929849625,-0.34797269105911255,0.42893919348716736,0.012980623170733452,0.1812509447336197,0.3816283047199249,1.0347857475280762,0.6907926797866821,1.4304171800613403,-0.05861693248152733,0.3593595027923584,-0.16378626227378845,-0.6669073700904846,-0.9952414631843567,0.9687616229057312,-0.32463762164115906,0.20556601881980896,-0.42391237616539,0.5294033288955688,0.562735915184021,-0.5194540619850159,0.0496622771024704,0.39890405535697937,0.0728267952799797,-0.8670012354850769,-0.9498803615570068,0.18494047224521637,0.6773722171783447,-0.38196054100990295,1.1819936037063599,-2.043928623199463,-1.6022255420684814,-0.5488366484642029,-0.4011681377887726,-0.88972008228302,-0.15364697575569153,-0.2588840126991272,1.1436705589294434,0.26072049140930176,-2.337831974029541,0.22773787379264832,1.579333782196045,-0.6484643816947937,-0.2159261703491211,-0.4600038230419159,-0.5834465026855469,1.3361821174621582,0.05401856079697609,-1.8962125778198242,1.5624216794967651,1.0566738843917847,0.32616496086120605,-0.050371576100587845,-0.13977588713169098,0.2604010999202728,1.2021938562393188,2.2145705223083496,-2.1731581687927246,0.08569630980491638,-0.40950140357017517,0.7278881669044495,-0.06882587820291519,1.0263028144836426,-0.21804745495319366,-1.1516056060791016,-0.5208590626716614,-0.2715170979499817,-1.4113900661468506,0.11187658458948135,0.4335941970348358,-0.15772254765033722,0.7637395858764648,1.0096906423568726,-0.1896735280752182,1.468451976776123,0.342355340719223,-0.46934080123901367,-0.29642966389656067,-0.5875493288040161,0.5575345158576965,1.2356971502304077,-0.6084358096122742,0.31842565536499023,0.8175550699234009,-1.8011914491653442,-0.11049003154039383,0.20904377102851868,0.2619858682155609,-1.6880725622177124,-0.5990108251571655,-1.0767076015472412,0.213277205824852,-0.37699007987976074,-0.10485508292913437,0.02862945944070816,0.6882507801055908,0.11789926141500473,0.9222687482833862,-0.06493852287530899,-0.4376777708530426,-0.4319421947002411,-1.4660112857818604,-0.18461112678050995,-1.3329222202301025,0.14877945184707642,-0.25325238704681396,0.12322070449590683,0.6904332041740417,0.5041587948799133,0.5993832945823669,-0.1767851710319519,-0.0681973472237587,-0.9194706082344055,-0.22105829417705536,-0.9085731506347656,0.049001362174749374,-0.12980009615421295,0.2857394516468048,-0.15412673354148865,-0.5325281620025635,0.2767927050590515,-0.23859903216362,0.41085946559906006,0.2159445434808731,-0.6403656601905823,-0.2047005146741867,-0.1602289080619812,-0.8840141892433167,0.25456681847572327,-0.25641581416130066,0.09370066225528717,-0.22227200865745544,0.7842974662780762,0.27322909235954285,0.38805845379829407,0.8345146775245667,1.3955827951431274,-0.7132779359817505,0.12051639705896378,0.7514271140098572,0.4913604259490967,-0.25874584913253784,0.12877479195594788,0.354789674282074,-1.0783350467681885,-0.2620225250720978,-0.45087823271751404,0.12127500027418137,0.07747151702642441,-0.05332339555025101,0.2721260190010071,0.018405770882964134,-0.5263959169387817,0.8159494996070862,-0.5692405700683594,0.6859192848205566,-0.39934319257736206,-0.2987332046031952,-1.3089584112167358,-1.02053964138031,-0.8779041171073914,0.4128667116165161,0.14465361833572388,0.3170810043811798,-0.3230336010456085,-0.531444251537323,0.5437934398651123,-1.76999831199646,0.6333312392234802,0.9532250761985779,-0.3814968764781952,-0.5617866516113281,-1.6718899011611938,0.6141452789306641,-0.3627435863018036,1.0872360467910767,-1.3994245529174805,-0.32527878880500793,0.5834089517593384,-0.6767272353172302,-0.6057164669036865,-0.014010615646839142,0.2294323593378067,-0.02090262621641159,0.7642754912376404,-0.341388463973999,0.4274613559246063,-1.0726693868637085,-0.175006702542305,0.04716752842068672,0.9687020182609558,0.6290546655654907,-0.9230790734291077,-1.1093815565109253,-0.09328257292509079,-0.02721858210861683,-0.7249388098716736,0.506784975528717,0.750027596950531,0.8477822542190552,-0.27637460827827454,0.16417023539543152,0.6909348368644714,0.033764343708753586,-0.6825472712516785,-0.6058354377746582,0.22423328459262848,-0.45317697525024414,0.8638085722923279,-1.0255764722824097,1.0572211742401123,0.36488839983940125,-0.6348845362663269,0.3310076892375946,0.45310860872268677,0.5838955044746399,0.7164801955223083,-0.035993751138448715,-0.015003565698862076,0.7565292119979858,-0.8198840022087097,-0.4057697355747223,-0.3514687418937683,-0.30357885360717773,0.0009384358418174088,-0.4114103317260742,1.648047685623169,-0.0498785562813282,0.1482560783624649,0.9290841221809387,0.052085209637880325,-1.1379088163375854,-0.18056532740592957,0.46104729175567627,-0.2438763529062271,1.2379937171936035,-0.36225268244743347,1.0035314559936523,-0.5725300908088684,-1.1248753070831299,0.6838222146034241,-0.927790641784668,0.6623255014419556,0.027713652700185776,0.1925121545791626,1.5891993045806885,0.9390909671783447,-0.6673557162284851,0.6738781929016113,-0.9662642478942871,-0.07162285596132278,-1.5237559080123901,-1.3732564449310303,-1.0111095905303955,-1.6864393949508667,0.762713611125946,-1.0179390907287598,2.157857656478882,-0.5126396417617798,-0.11906731873750687,1.6214708089828491,-1.7547791004180908,-0.5527228116989136,-0.24372753500938416,-1.2560900449752808,-0.17002078890800476,0.6962324976921082,0.20353321731090546,-0.3763970732688904,0.10183010995388031,-1.2074034214019775,1.936943531036377,0.737010657787323,0.32829171419143677,-0.28734728693962097,-0.6405303478240967,-0.47702133655548096,-0.15986016392707825,0.7563701272010803,0.1596607267856598,-0.8752661347389221,0.8182966709136963,1.3003809452056885,0.9164949059486389,-0.635345995426178,1.0160590410232544,-2.6075785160064697,-3.0356802940368652,-3.0013439655303955,1.360260009765625,-0.10446758568286896,-0.9653817415237427,0.2816234529018402,-2.2987635135650635,0.6074551939964294,-1.073417067527771,0.6464875340461731,0.40571919083595276,1.2026039361953735,-1.4810848236083984,-0.7731541395187378,-0.058867551386356354,0.6970409154891968,0.7288489937782288,-0.967046320438385,1.5723344087600708,0.7563442587852478,1.0982033014297485,0.34096983075141907,-4.780812740325928,0.8891144394874573,-0.2100849151611328,1.222085952758789,0.010193410329520702,-2.957428216934204,-0.6409645676612854,0.47896069288253784,-0.24927428364753723,0.46163395047187805,0.2236037254333496,-0.4201948344707489,-2.2805380821228027,1.926296353340149,1.5250937938690186,-0.6801407933235168,3.3396658897399902,0.9777048230171204,0.43088191747665405,0.9270226359367371,0.23451609909534454,1.4973467588424683,-0.49466848373413086,-1.2155503034591675,-0.38937872648239136,2.8638765811920166,-1.489830732345581,0.5532510280609131,-2.733487606048584,1.7778905630111694,1.7782295942306519,-1.232077717781067,2.2454962730407715,-1.0941516160964966,-1.8178645372390747,-0.4229179620742798,-0.8070861101150513,-0.40412190556526184,1.064591884613037,-1.4546170234680176,1.2190971374511719,-0.11489763855934143,0.40570884943008423,-0.5481147766113281,1.4260188341140747,-1.388464331626892,-0.703469455242157,-0.9944002628326416,-0.33454594016075134,1.362339735031128,-0.48985642194747925,1.431867241859436,-0.43902912735939026,-0.3122839331626892,0.3012394309043884,0.5697210431098938,0.14354154467582703,1.0493824481964111,2.192023515701294,0.49607565999031067,0.8902595639228821,0.5542600154876709,0.7473109364509583,-0.8884944319725037,-1.1519964933395386,1.34618079662323,0.6439499258995056,-0.11690922826528549,0.8867424726486206,-0.11135344952344894,0.8703377842903137,0.39868059754371643,0.0890355110168457,1.0493097305297852,1.2423495054244995,0.10171672701835632,-2.233889579772949,2.1126701831817627,-0.09330406039953232,-1.0853509902954102,1.0092048645019531,1.1073659658432007,0.7284380793571472,-0.6092237234115601,-0.5337387323379517,0.13196180760860443,-0.8858947157859802,-0.3242878019809723,-1.4958055019378662,1.9770948886871338,-1.445162057876587,-0.44300878047943115,-0.4127745032310486,1.5168455839157104,0.178200364112854,0.17965562641620636,-0.375042587518692,2.1592891216278076,-0.2939456105232239,0.28050243854522705,-0.7361768484115601,-0.7140882015228271,1.473719835281372,0.15757665038108826,0.16209949553012848,-1.7840532064437866,-0.8844093680381775,-0.19175028800964355,-0.8077099919319153,-0.07749956846237183,-0.2369084656238556,0.10807658731937408,-1.0759835243225098,-0.04981794208288193,-0.8733976483345032,-0.3089347779750824,2.095444679260254,-0.4734365940093994,0.39510706067085266,0.5197051763534546,1.1498922109603882,0.20653821527957916,-1.433700442314148,-1.0519165992736816,0.753877580165863,1.7270616292953491,0.4565403163433075,0.11361662298440933,0.3053131103515625,0.33777645230293274,0.09612350165843964,1.1271438598632812,-1.197126030921936,0.7853195071220398,-0.33343812823295593,1.3814033269882202,-0.2288617342710495,0.6019645929336548,-0.8782045841217041,-1.0200600624084473,0.48794233798980713,-1.1258633136749268,1.4126032590866089,1.1095635890960693,-0.4363897144794464,-0.23596061766147614,0.9059996008872986,0.20966483652591705,-0.21444496512413025,0.9493560791015625,1.9725199937820435,1.678786039352417,0.08041450381278992,-1.8769599199295044,1.4292811155319214,0.722600519657135,-0.26129814982414246,-0.04153206944465637,0.2347499132156372,-0.810731053352356,0.6784961819648743,1.3612762689590454,1.1898651123046875,-0.5054715871810913,-1.111607551574707,-1.0335816144943237,0.2948450446128845,0.41714298725128174,0.0850578248500824,-0.192439004778862,0.10799786448478699,-0.19133439660072327,-0.40762224793434143,0.2725183069705963,0.7898043394088745,-0.19895386695861816,-0.584635853767395,-0.03326552361249924,2.2009623050689697,0.045620303601026535,-1.3296457529067993,-0.5107924938201904,-1.3179816007614136,1.7072529792785645,0.8278539776802063,0.17482449114322662,1.2132058143615723,-0.5184496641159058,0.04387592524290085,-0.3004733622074127,-1.0417931079864502,-0.2828475832939148,-1.1260756254196167,-0.3372425138950348,-0.09217140823602676,0.13709864020347595,0.6923502683639526,0.10758151113986969,0.6098349094390869,-0.881817102432251,-0.7471620440483093,-0.3783896267414093,-0.32869473099708557,0.5819917321205139,0.688940167427063,0.41498953104019165,-0.44049057364463806,0.14903727173805237,1.7085107564926147,-0.17021436989307404,0.9894852042198181,-0.03538840636610985,0.017823945730924606,0.16614146530628204,-0.5024232268333435,0.2984711825847626,-0.1569061428308487,0.7318834662437439,-0.6924399733543396,-0.7820495963096619,-0.14790292084217072,0.5490837097167969,0.025854984298348427,-0.532983660697937,0.6524164080619812,-0.45505937933921814,-1.610039234161377,-0.020514393225312233,0.4826251268386841,0.2306305468082428,-0.5253657102584839,0.1367851346731186,-0.19068214297294617,-1.0367664098739624,-0.7765567898750305,-1.8169503211975098,-0.17614620923995972,-0.1318681687116623,0.2346852868795395,0.19616568088531494,0.020091619342565536,-0.946648120880127,0.46188730001449585,-0.6205506920814514,-1.6003862619400024,0.9287192225456238,1.4425199031829834,0.7775589823722839,-0.05194021016359329,0.018878823146224022,-1.5415829420089722,0.36649289727211,-0.9374592304229736,0.7369644045829773,0.03348835930228233,0.12788507342338562,0.5736843943595886,-0.851253867149353,1.2258459329605103,1.1753755807876587,-1.0241659879684448,0.6472013592720032,1.4038245677947998,1.8818763494491577,0.6270610690116882,0.5323954820632935,-0.8508262038230896,-0.7710245847702026,0.3382848799228668,0.9680089950561523,2.3139069080352783,2.0892391204833984,-1.798095941543579,-1.0468778610229492,-0.5765296816825867,0.6795017123222351,-0.4882972240447998,1.025092363357544,0.2532570958137512,-0.29154619574546814,0.4855170249938965,-0.8656716346740723,1.6577179431915283,0.8171968460083008,-1.6627012491226196,0.633561909198761,-0.18162503838539124,-0.9352190494537354,0.7119107842445374,-0.13973833620548248,0.6755059957504272,0.1822914481163025,0.29457834362983704,0.12132279574871063,-0.8054741024971008,0.4043825566768646,0.16304637491703033,-0.8390229940414429,-0.29450422525405884,-2.3082828521728516,-0.3421555459499359,-0.7990050911903381,0.04427878558635712,-0.12959516048431396,-0.9361135363578796,-0.5568316578865051,-0.0411062091588974,-0.14808210730552673,1.0324294567108154,0.1679939478635788,0.886757493019104,-0.3879850506782532,0.09696470946073532,0.04079216718673706,-1.7503632307052612,-1.0901869535446167,-1.7670543193817139,1.2771166563034058,0.09972583502531052,0.17590053379535675,1.803754448890686,-0.19561266899108887,-0.2064540982246399,1.1707898378372192,-0.38980284333229065,-0.1448628008365631,-0.012007752433419228,0.1998375654220581,0.7627098560333252,0.5362919569015503,-0.42865461111068726,-0.9387785196304321,-1.3344361782073975,0.7363635301589966,-0.3085518181324005,2.177851915359497,-2.319917678833008,-0.13084003329277039,1.0430402755737305,-0.14067010581493378,-0.1915636658668518,0.795275866985321,0.6032472848892212,-0.3735809922218323,0.07322480529546738,0.1664166897535324,1.5911163091659546,0.5045549273490906,-2.164851665496826,0.581110954284668,0.9450148344039917,-1.0159554481506348,1.4617817401885986,-0.5040121078491211,1.2861398458480835,-0.9835062623023987,0.7309583425521851,-0.4124038815498352,-0.49791863560676575,0.06808103621006012,-0.07064735144376755,-2.8629698753356934,-2.978210926055908,-1.2676477432250977,0.24645376205444336,-2.743673801422119,-0.29486140608787537,0.8814334869384766,-1.2623615264892578,-0.3324998915195465,-0.44549161195755005,-0.0024145140778273344,1.0353569984436035,-0.48590466380119324,0.9480223059654236,-0.5740427374839783,-0.26247555017471313,-0.20719245076179504,0.6755041480064392,-1.6525187492370605,-0.24697673320770264,3.015695095062256,0.4461689591407776,0.899868369102478,-2.2333128452301025,0.2625587582588196,2.5038347244262695,2.8986525535583496,-2.0793654918670654,-2.3901047706604004,-0.6093432903289795,2.246389865875244,1.4621527194976807,2.20109224319458,0.6736307740211487,-3.0435338020324707,-2.132016897201538,1.480375051498413,1.1527513265609741,-0.97503262758255,0.9477856755256653,0.8228877782821655,-0.42387524247169495,0.03208637237548828,0.4234965443611145,2.685823678970337,-1.8113155364990234,-0.48891425132751465,0.2282748818397522,2.2297260761260986,0.04832207038998604,0.7878742218017578,-2.435832977294922,2.2257120609283447,0.4291394352912903,-2.701504945755005,2.533623456954956,0.29008179903030396,-1.6884804964065552,1.7669271230697632,0.10791235417127609,-2.624786853790283,0.06375227123498917,0.3775010406970978,0.4550088047981262,0.4583979845046997,-0.025381363928318024,-0.5369828343391418,-0.5793715715408325,0.5089797377586365,0.3436829745769501,0.5363067388534546,1.14134681224823,-0.44226062297821045,-0.01152831967920065,-0.4704941213130951,-0.07404442131519318,0.23273944854736328,-0.17539671063423157,0.3732525706291199,0.07046890258789062,0.47310343384742737,0.21976616978645325,-0.18496935069561005,0.5618956089019775,-0.21706339716911316,-0.06308247894048691,0.6258923411369324,0.08595810830593109,-0.3815438747406006,-0.2838115096092224,-0.43996965885162354,0.6600438952445984,0.09150832891464233,0.42492547631263733,0.3078623116016388,-0.4956185817718506,0.01507838536053896,-0.20768636465072632,0.40314367413520813,-0.11369747668504715,-1.375531792640686,-0.7205154895782471,-0.12596459686756134,0.08293107151985168,-0.5309839248657227,-0.19440829753875732,0.027009958401322365,0.24524463713169098,-0.321894109249115,0.251878559589386,0.25816482305526733,0.5343317985534668,-0.29393327236175537,0.08244919031858444,0.13375166058540344,0.4129568636417389,-0.6004644632339478,0.0617678128182888,0.5786113739013672,-0.10194389522075653,-0.18600907921791077,0.11408886313438416,0.014406751841306686,0.6412463784217834,0.2268405705690384,-0.3643689453601837]},"inputBias":{"rows":64,"columns":1,"weights":[-0.31446048617362976,0.1893799901008606,-0.34582629799842834,0.5696864128112793,1.1161807775497437,-1.802996277809143,-0.7404173612594604,-1.2668064832687378,-1.398916244506836,0.056258514523506165,-1.0106464624404907,1.2463022470474243,-0.9400261640548706,1.8578354120254517,-0.35720357298851013,0.7388688921928406,1.1365748643875122,-0.1279866248369217,0.4345068037509918,1.0956721305847168,-0.636579692363739,0.8460989594459534,0.08358468860387802,-0.9823657274246216,-2.0797481536865234,0.27522844076156616,-0.38285723328590393,-1.7684694528579712,0.8972432017326355,-0.6454998850822449,-1.0638008117675781,0.6918864846229553,-1.3094526529312134,-1.102482557296753,1.3520112037658691,-0.45183122158050537,0.5063608288764954,0.34769538044929504,-0.5257971882820129,-0.7318083047866821,0.693498969078064,-0.13251705467700958,-1.219683051109314,-1.3619590997695923,-0.18953336775302887,-0.9886501431465149,-0.04551516845822334,0.9186410903930664,-0.6276525855064392,-0.9333941340446472,-0.9715681672096252,0.6421642899513245,1.205977439880371,-0.9254558682441711,-0.25923973321914673,-0.21361808478832245,0.27247700095176697,-0.8341372013092041,-0.3777642250061035,-0.4831346869468689,-1.624550461769104,-1.5089621543884277,-1.771371603012085,-0.0001868769759312272]},"forgetMatrix":{"rows":64,"columns":1,"weights":[-1.3442660570144653,-1.3359001874923706,0.9582158327102661,0.4301859736442566,1.387295126914978,-1.065649390220642,0.6668060421943665,-0.440853089094162,-0.45269256830215454,-0.48945075273513794,-0.5610063672065735,-1.9486616849899292,-0.41224437952041626,0.4841594994068146,-1.0481029748916626,0.8642897009849548,0.4435754120349884,1.5128594636917114,-1.4143770933151245,-0.6155703067779541,-0.2979262173175812,-1.413071632385254,1.5647491216659546,-0.6768969893455505,-0.2391808182001114,0.24447953701019287,-1.2312053442001343,0.8488095998764038,2.3905222415924072,1.9394642114639282,-0.28485772013664246,-0.3351098299026489,-0.8715813755989075,-1.1356068849563599,2.3909525871276855,-0.9163634777069092,1.8491076231002808,1.2566016912460327,0.5558975338935852,1.2659709453582764,0.7353618144989014,0.5653433799743652,0.2275359332561493,1.6531811952590942,-0.2883945405483246,0.15192250907421112,2.1383721828460693,0.5177571177482605,-0.5020666122436523,-0.5671476125717163,1.0096395015716553,0.8251540660858154,-1.7598992586135864,1.6123641729354858,1.1522678136825562,-1.3565294742584229,1.9009963274002075,0.6107733249664307,-1.253394365310669,-0.25205814838409424,-1.0645887851715088,-1.0297715663909912,0.46478724479675293,-0.598114013671875]},"forgetHidden":{"rows":64,"columns":64,"weights":[0.4965069591999054,-0.2577568292617798,0.4741406738758087,0.7019740343093872,0.36559155583381653,0.4102639853954315,0.33601173758506775,0.04425312951207161,0.056538768112659454,-0.13728946447372437,-0.24311938881874084,0.2963639497756958,-0.054557036608457565,-0.24519243836402893,0.08205325901508331,0.026633869856595993,0.36935195326805115,0.30994686484336853,-0.33814510703086853,0.04078453406691551,0.18990996479988098,-0.3304954469203949,-0.4262009263038635,-0.039037883281707764,-0.03028026409447193,0.5494508147239685,-0.1639178991317749,-0.36981868743896484,-0.6914309859275818,0.5005714297294617,-0.4316297173500061,0.22615639865398407,-0.43909692764282227,-0.47186508774757385,-0.5954809784889221,-0.1662425696849823,0.7056854963302612,0.32965633273124695,-0.08755002170801163,0.2099616378545761,0.27359116077423096,-0.6817319393157959,-0.055635251104831696,0.06676556915044785,-0.23020555078983307,0.09258569777011871,-0.4864318370819092,-0.2842426598072052,0.1093333438038826,0.04718683287501335,-0.3617275357246399,-0.15892799198627472,-0.3197304308414459,0.31862398982048035,-0.6692489981651306,-0.0849173292517662,0.5319187641143799,-0.3164485692977905,-0.02110295742750168,-0.03481240198016167,0.10673459619283676,0.3654380440711975,0.40455469489097595,-0.051360875368118286,0.02778555080294609,-0.1140376627445221,0.12335795164108276,0.49316632747650146,0.5868368744850159,-0.0937676951289177,0.060968007892370224,0.03767068684101105,-0.00772881181910634,-0.01349545270204544,0.03183180093765259,0.16544988751411438,0.038136277347803116,-0.3246823251247406,-0.02404259890317917,0.5892542600631714,0.10312477499246597,0.08149021863937378,-0.15461477637290955,-0.757359504699707,0.029279403388500214,-0.10331159830093384,-0.07574436068534851,-0.05036742240190506,0.07545245438814163,0.27884185314178467,-0.044243745505809784,0.039508137851953506,-0.35555556416511536,0.09440337121486664,0.08446299284696579,0.10395205765962601,-0.02870972454547882,-0.005601606331765652,-0.24327720701694489,-0.05822310224175453,0.2520015835762024,0.5492563843727112,-0.28267544507980347,0.06091219559311867,0.6057334542274475,-0.569256603717804,-0.07727636396884918,-0.010964399203658104,-0.1468171924352646,0.03095811977982521,-0.004157704766839743,0.32638055086135864,0.05560389533638954,0.0048691448755562305,-0.15176908671855927,0.3461604714393616,-0.21989277005195618,0.3120405673980713,-0.44884157180786133,-0.04044133052229881,0.15158192813396454,0.04645369574427605,-0.017973005771636963,0.10100559145212173,0.0033423483837395906,-0.030293714255094528,0.09025390446186066,-0.07330983877182007,0.627998411655426,-0.9602304697036743,-0.9459568858146667,-0.4983093738555908,0.6684793829917908,-0.2713530957698822,-0.3035415709018707,0.4880366623401642,0.350455105304718,-1.8689196109771729,-0.45409706234931946,0.6839758157730103,-0.3645811080932617,-0.6061212420463562,-0.3383336663246155,0.9214038848876953,-0.34987470507621765,1.1178021430969238,-1.0122946500778198,-1.269521713256836,-0.40905845165252686,-1.0482453107833862,-0.16904276609420776,-0.5892572402954102,0.07203087955713272,0.5251162648200989,-0.6526059508323669,0.6459240913391113,0.5495712161064148,-0.7027975916862488,0.3988548517227173,0.2279534637928009,1.2230825424194336,0.7027501463890076,0.08140035718679428,-1.406982421875,-0.07431777566671371,0.7230984568595886,-0.7119231820106506,0.42438971996307373,1.7219181060791016,-0.9244596362113953,-0.5315765738487244,0.9716396331787109,-0.055407606065273285,0.3449854552745819,1.5528689622879028,1.918041467666626,-0.509609043598175,0.3704592287540436,-1.2408250570297241,0.9633057117462158,-0.24689550697803497,0.19323886930942535,-0.47935664653778076,0.33599036931991577,-0.7922711372375488,1.9503633975982666,-0.2524782121181488,0.5699442028999329,-1.2589211463928223,-1.148374080657959,-1.1357001066207886,-0.5206185579299927,0.7544825077056885,-0.590793251991272,-1.3839024305343628,-2.353935956954956,-3.271413564682007,0.47058749198913574,0.6183886528015137,0.5624624490737915,0.19105154275894165,-2.144927978515625,-0.7262065410614014,-1.1424304246902466,-0.6595734357833862,-0.030534865334630013,0.16836503148078918,-1.2880744934082031,1.1954787969589233,2.0072100162506104,-0.6881353259086609,0.33681783080101013,-2.5518789291381836,-0.9219639897346497,1.4265929460525513,-0.51674884557724,0.11836469918489456,-2.818155288696289,-0.9077025055885315,0.04152367264032364,1.2401655912399292,0.6287015080451965,-2.3809585571289062,1.1917790174484253,0.27588874101638794,-0.7484445571899414,-0.385098934173584,-1.5700311660766602,-0.35332995653152466,-1.6303040981292725,2.2319843769073486,1.9509135484695435,0.46673914790153503,2.1820731163024902,0.35838383436203003,-0.1117117628455162,-1.0319405794143677,-0.6614738702774048,1.420373797416687,-0.3841433823108673,-0.9043610692024231,0.5398997068405151,0.6970810294151306,-0.11191834509372711,-0.8688797354698181,-4.988312721252441,1.1603935956954956,0.16257257759571075,-1.6410619020462036,1.5418652296066284,-0.11980906128883362,-1.3353197574615479,-0.7642265558242798,1.2947165966033936,0.34494641423225403,-0.7015488147735596,-0.016661694273352623,0.4879473149776459,-0.259792685508728,-0.4883321523666382,-1.6073803901672363,-1.5612376928329468,0.1349228173494339,0.03397216647863388,-0.32499247789382935,-0.5243211984634399,-0.12588727474212646,-0.09269693493843079,-0.03787539526820183,-0.13044209778308868,0.023935822769999504,-0.5766492486000061,-0.37324386835098267,1.1230833530426025,0.6564526557922363,0.1996520310640335,-1.027929425239563,0.5794939398765564,0.1408512145280838,0.11699417233467102,-0.1564369648694992,-1.4543029069900513,-0.2017863392829895,0.8448722958564758,1.1844096183776855,-0.7667203545570374,-0.369345098733902,0.30125245451927185,0.8707461953163147,-0.4004308879375458,0.9241183996200562,-0.19666996598243713,-0.6558359265327454,0.1326921433210373,-0.4450199604034424,-0.71890789270401,0.4379577040672302,1.5033655166625977,-0.5539370179176331,-1.1704912185668945,0.5276484489440918,-0.024514473974704742,-0.11300985515117645,1.6873186826705933,-0.6560280919075012,-0.213059201836586,-1.1307111978530884,1.152275800704956,0.5378601551055908,-0.7320383191108704,-1.014791488647461,0.49554428458213806,0.31993743777275085,0.6358676552772522,0.11896272003650665,-0.07561045140028,-0.6691209673881531,-0.5709809064865112,-0.4365319311618805,0.025327494367957115,0.5090401768684387,-0.03275098279118538,1.276355504989624,1.538392424583435,1.4084277153015137,0.21125753223896027,0.2853437066078186,0.2676026225090027,0.0016657214146107435,2.326923370361328,-0.041189923882484436,-0.10352533310651779,-0.07812659442424774,0.28694310784339905,0.6118848323822021,0.6580480337142944,0.3239273726940155,0.6124631762504578,0.09896014630794525,0.20229288935661316,-1.1434040069580078,-0.1423266977071762,-0.9595651626586914,-0.23401039838790894,-0.12353596091270447,0.8583666086196899,-0.4571780264377594,-0.5791745781898499,-0.8843562602996826,0.7102153301239014,0.8123282790184021,0.006888724397867918,-0.8776360154151917,-0.40536051988601685,-0.5158016085624695,0.3705808222293854,0.28646546602249146,1.4127026796340942,-0.8528990745544434,-0.7646211385726929,0.17119933664798737,-1.1215829849243164,-0.3310767710208893,-0.5622967481613159,-0.20992673933506012,0.021024366840720177,-1.1644748449325562,0.4861569404602051,0.6073434948921204,0.08895527571439743,-0.2608397603034973,-0.17685328423976898,0.36572736501693726,1.6699899435043335,-1.8398879766464233,-0.9545490741729736,1.2536824941635132,-2.102423906326294,-0.5265836119651794,0.16899099946022034,-0.6426149606704712,-1.1511284112930298,0.593863844871521,-0.2985416054725647,0.3630974292755127,-1.2574176788330078,-0.19617009162902832,-0.005252320319414139,0.8342577815055847,-1.1799228191375732,-1.1311438083648682,0.1988498866558075,0.19311879575252533,-0.72283935546875,-0.6055331826210022,0.6394315361976624,-0.21301783621311188,-1.8132669925689697,-0.5658965110778809,1.9416390657424927,0.2968021333217621,-0.03295614570379257,-1.2097835540771484,-1.587565302848816,-0.672266960144043,-1.179628610610962,0.826383113861084,-0.31523412466049194,0.08033017814159393,0.7777908444404602,-0.6230077743530273,1.223982334136963,0.5440014004707336,-0.9680967330932617,0.9683851003646851,-0.14628838002681732,0.7150379419326782,1.1443662643432617,0.7002968788146973,0.11576617509126663,-1.158657431602478,0.5324376821517944,0.7299715876579285,1.0925923585891724,2.3861441612243652,-1.8257029056549072,-0.8816449046134949,0.32546550035476685,0.43526193499565125,0.07999899983406067,1.4169921875,1.0721540451049805,0.6277967691421509,0.2284107357263565,0.3182283937931061,1.6294199228286743,-1.3976269960403442,0.1285250037908554,0.8968356251716614,-0.9294982552528381,-0.7926576137542725,1.1576757431030273,0.3115227520465851,0.22699818015098572,-0.7959915995597839,-0.5856706500053406,-0.9837297797203064,-0.25406110286712646,-0.06053205206990242,-0.08219122886657715,-0.05124833062291145,0.014326276257634163,0.35891085863113403,-0.2908441424369812,0.0061242287047207355,-0.139389768242836,-0.008024224080145359,0.2083432972431183,0.029955793172121048,0.11940468847751617,-0.0033290227875113487,-0.13641875982284546,-0.03287520259618759,0.4372439384460449,0.11721040308475494,0.04451756179332733,-0.043242745101451874,-0.3912268877029419,0.008734793402254581,-0.10736501216888428,-0.06981167942285538,0.07653863728046417,0.10704479366540909,0.31046512722969055,0.053777217864990234,-0.05526043102145195,-0.12005215883255005,0.055028416216373444,0.19871504604816437,0.02802535705268383,-0.00046922184992581606,-0.008486645296216011,-0.09475500881671906,0.05850651115179062,-0.030670886859297752,0.41330546140670776,-0.22332341969013214,-0.24808230996131897,0.3980083167552948,-0.3881804347038269,-0.24685415625572205,-0.300571084022522,-0.035317856818437576,-0.01769610308110714,-0.012652339413762093,0.34741631150245667,-0.0035041142255067825,0.027047764509916306,-0.23940590023994446,0.22316330671310425,0.001469166367314756,0.36632028222084045,-0.27534645795822144,0.04331694915890694,-0.0022452862467616796,-0.224277526140213,-0.07227739691734314,0.2429305464029312,-0.06735388189554214,0.06219160556793213,-0.042023081332445145,0.0572490468621254,0.07197830826044083,-0.12014717608690262,-0.035390984266996384,0.14152605831623077,0.26220816373825073,-0.30061614513397217,0.06419343501329422,-0.1580866575241089,0.0815814658999443,0.1552557498216629,-0.022044455632567406,-0.04820045828819275,-0.03620519861578941,-0.018979817628860474,-0.013739184476435184,0.35578659176826477,0.11795265227556229,-0.016033180058002472,-0.014758969657123089,-0.4033788740634918,0.1289786845445633,-0.10010600835084915,-0.045383062213659286,0.15965665876865387,0.11758973449468613,0.33281180262565613,-0.02425673045217991,-0.06006681174039841,-0.06633810698986053,0.08248218148946762,0.19701635837554932,-0.022600427269935608,0.018360376358032227,-0.08011185377836227,-0.08192632347345352,-0.060248032212257385,0.08411126583814621,0.3084855377674103,-0.18783704936504364,-0.1646784245967865,0.2855879068374634,-0.26287388801574707,-0.20861826837062836,-0.22402380406856537,0.030171457678079605,0.01336849294602871,0.03123413771390915,0.2424353063106537,0.06144310534000397,0.050016265362501144,-0.2266637533903122,0.28216904401779175,-0.09970922768115997,0.1725737452507019,-0.2578164041042328,0.046301763504743576,0.023671496659517288,-0.19089820981025696,-0.010195338167250156,0.24466708302497864,0.061861392110586166,0.035685691982507706,0.09191100299358368,-0.004079073201864958,-0.03892838582396507,-0.06473143398761749,1.5484880208969116,3.313615560531616,2.5207793712615967,-1.1777936220169067,1.6559678316116333,0.13581019639968872,-0.08789721876382828,3.03682541847229,0.05369546636939049,1.125745415687561,0.02441084012389183,-0.7956507802009583,0.20014724135398865,1.8009271621704102,0.3087742030620575,-1.330621361732483,-0.008142031729221344,-1.7268565893173218,1.6787323951721191,1.0026259422302246,-1.906360149383545,-0.010405576787889004,-0.004684196785092354,2.932107925415039,0.07091513276100159,-1.4149519205093384,-2.139829635620117,1.2746176719665527,-0.10966154932975769,0.8057243227958679,-2.219630241394043,-1.1652480363845825,-3.0955116748809814,0.743679404258728,0.28864195942878723,1.2715768814086914,-2.383540391921997,-0.8987016677856445,1.8481268882751465,-4.302219867706299,-0.11432547867298126,0.39855650067329407,-0.6468788981437683,0.6717382669448853,-1.4797762632369995,1.5449130535125732,-0.38163095712661743,-0.09714432805776596,-0.3871280550956726,0.12460723519325256,-0.06723464280366898,2.270987033843994,-1.9110641479492188,-0.12794718146324158,1.1595693826675415,-2.8798747062683105,0.2358991503715515,-0.2739661931991577,-0.48152053356170654,1.1776853799819946,1.9419361352920532,0.004055245779454708,0.11365513503551483,-0.06816249340772629,0.21434108912944794,0.2500537633895874,0.14820970594882965,0.13609866797924042,0.08204475790262222,-0.00021951647067908198,0.0782775804400444,-0.052427180111408234,0.006116130854934454,0.12765192985534668,-0.021616913378238678,-0.07333819568157196,-0.017737150192260742,0.09315335005521774,0.05042280629277229,0.13328364491462708,-0.06573371589183807,-0.12136176973581314,0.05325592681765556,-0.053396448493003845,-0.13330045342445374,0.06182386353611946,-0.012164542451500893,0.2741889953613281,0.004199616611003876,-0.015233960002660751,-0.251650333404541,0.2838273346424103,-0.14861084520816803,-0.009917285293340683,-0.08669333159923553,-0.1806173324584961,-0.17905914783477783,0.0324808694422245,0.1849813610315323,0.12281341850757599,-0.11210805177688599,-0.04055219143629074,0.19087928533554077,-0.21707089245319366,-0.03700317442417145,-0.037457022815942764,-0.10525545477867126,-0.0788281112909317,-0.09260960668325424,-0.1265609711408615,-0.017196767032146454,0.08970563113689423,-0.09866636246442795,-0.09437579661607742,-0.10422740876674652,0.07907330244779587,-0.2868248522281647,-0.053934529423713684,0.08731298893690109,-0.11003413796424866,-0.07839518785476685,0.011088098399341106,-0.07301647961139679,0.1731848120689392,0.16881847381591797,-0.07081829011440277,0.5823579430580139,-0.4892016053199768,1.048830270767212,0.7831555604934692,0.3969264626502991,0.3319862186908722,0.8930227160453796,0.5734138488769531,0.620580792427063,-0.4765864908695221,-0.5673218369483948,1.1540321111679077,-0.5567111968994141,0.22020083665847778,0.5500147342681885,-0.04910586029291153,0.7081242203712463,-0.2689468562602997,-0.46374842524528503,-0.04897177591919899,0.6280137300491333,-0.3733486533164978,-0.80736243724823,-0.49308574199676514,0.3831273913383484,0.8763195276260376,-0.5916853547096252,-0.920665442943573,-1.0058449506759644,0.7980804443359375,-0.7992153763771057,0.5277756452560425,-0.36760303378105164,-0.7069450616836548,-0.9478151798248291,-0.486528217792511,0.9866355657577515,0.2554885745048523,-0.32790693640708923,0.3318229913711548,