if (!window.increasingByteSequence) window.increasingByteSequence = {}

window.increasingByteSequence.model = {"type":"LSTMTimeStep","options":{"inputSize":1,"inputRange":0,"hiddenLayers":[32,16,32],"outputSize":1,"decayRate":0.999,"smoothEps":1e-8,"regc":0.000001,"clipval":5,"maxPredictionLength":100,"dataFormatter":{"indexTable":{},"characterTable":{},"characters":[],"specialIndexes":[]}},"hiddenLayers":[{"inputMatrix":{"rows":32,"columns":1,"weights":[-0.8877846598625183,1.7510055303573608,1.1439591646194458,-0.4931197762489319,1.2832785844802856,-0.141031414270401,0.18892307579517365,-0.4287261962890625,2.235412836074829,-0.37103360891342163,-0.33416861295700073,-0.9376264810562134,0.024364687502384186,0.2200710028409958,0.6997726559638977,6.147007465362549,-1.935865879058838,1.0677448511123657,0.12380606681108475,-1.0274418592453003,1.5617421865463257,-0.9617623686790466,0.6962973475456238,0.8067970275878906,-0.522418200969696,1.340519905090332,1.0748941898345947,1.7749742269515991,-0.430655837059021,2.2005860805511475,1.496856927871704,4.863750457763672]},"inputHidden":{"rows":32,"columns":32,"weights":[4.027007579803467,-0.7503339052200317,-0.8756710290908813,-4.137758255004883,2.304800033569336,-2.7019777297973633,2.2108404636383057,-0.8904415369033813,-0.11197512596845627,1.7161709070205688,0.33803051710128784,0.6049678325653076,1.4740606546401978,2.230821132659912,2.064500093460083,-1.1961183547973633,2.3488330841064453,4.334517955780029,-1.2348710298538208,-3.125478982925415,1.063460111618042,-7.9279375076293945,1.0571200847625732,-0.03660475090146065,2.532058000564575,1.2492663860321045,2.4866158962249756,-0.8639747500419617,-4.144817352294922,-1.2491508722305298,-1.1822128295898438,2.2321221828460693,-0.20788277685642242,-0.5977889895439148,-0.1281551718711853,0.3717648684978485,-0.14213433861732483,0.34081345796585083,-0.0049648527055978775,-0.1726086437702179,0.8579303026199341,-0.9090040326118469,0.1245216652750969,0.04094042629003525,0.009149439632892609,-1.1780345439910889,-0.27462777495384216,-0.2902730703353882,-1.5540820360183716,-0.7783558368682861,0.6235724687576294,0.9793030619621277,-0.665825366973877,0.26649209856987,0.6614306569099426,-2.3597147464752197,-0.7740539312362671,-0.5922058820724487,-0.5461817383766174,1.913909912109375,0.15482494235038757,-0.06158975884318352,-0.28037551045417786,2.265371084213257,-1.2521893978118896,1.7563005685806274,-1.9278676509857178,0.36821720004081726,-2.7028985023498535,1.5276012420654297,-1.081645131111145,0.08826953917741776,-0.4154687821865082,-0.9012710452079773,-0.8904010057449341,-0.24746309220790863,-0.4465959370136261,2.302912473678589,-1.2429068088531494,-0.7965891361236572,1.049226999282837,-1.9513391256332397,2.3059723377227783,-0.020073020830750465,-0.07016504555940628,2.3477389812469482,-3.8915798664093018,-0.570770263671875,-0.9871147274971008,-3.1315722465515137,-1.2376086711883545,1.5414365530014038,1.8222485780715942,0.7268288731575012,0.06149154528975487,0.026631813496351242,2.899509906768799,-0.038167811930179596,-0.4549148678779602,-3.2185726165771484,1.4757634401321411,-0.7967676520347595,4.147215843200684,-2.869419813156128,1.4037166833877563,3.186776638031006,1.0439889430999756,-2.0885696411132812,2.024874687194824,1.1644796133041382,3.266458511352539,-1.3892581462860107,1.5357868671417236,2.881925106048584,-2.633681297302246,-0.7997084259986877,0.969301700592041,-4.410856246948242,-0.5773299336433411,-1.4631099700927734,3.133117198944092,-2.2629711627960205,1.6473288536071777,0.17071960866451263,-2.625035524368286,-4.139005661010742,-1.3481166362762451,0.8088797330856323,-1.6761879920959473,0.5734118223190308,-1.4449630975723267,1.7718679904937744,-2.7120578289031982,1.893314003944397,-0.9994226098060608,1.9825359582901,-0.3730045258998871,-2.8133182525634766,-2.1998744010925293,1.6903934478759766,-1.856709599494934,0.6070056557655334,-1.8960630893707275,-2.177949905395508,-0.9209495782852173,0.42439815402030945,1.9981306791305542,1.441076636314392,-0.25474032759666443,-0.7407508492469788,0.4097155034542084,-2.262437105178833,-1.853755235671997,2.122389316558838,-0.8774412274360657,1.8894405364990234,-0.556110143661499,2.367694616317749,0.7932612299919128,-0.16884616017341614,-1.9906318187713623,-1.2731443643569946,-1.025578498840332,2.3045499324798584,-3.770946979522705,3.1297664642333984,-1.2692567110061646,-0.31599870324134827,1.3755722045898438,-1.7078648805618286,-1.7310611009597778,1.1364729404449463,-1.4818123579025269,-1.7807966470718384,-1.581986665725708,-0.9821338057518005,-0.8091524839401245,-1.5813502073287964,1.981337070465088,0.2505260109901428,-1.0340094566345215,0.9185237884521484,0.4600597620010376,0.47163528203964233,-2.0020904541015625,0.804923951625824,-1.37120521068573,-0.9454306364059448,1.572400450706482,2.3806052207946777,1.0551483631134033,1.156453251838684,2.330099105834961,1.6269729137420654,-3.336277723312378,-0.5172426104545593,-1.788122534751892,2.376915454864502,-0.23882365226745605,0.9950283169746399,-0.3247453272342682,0.7233553528785706,-1.0542213916778564,0.8186256885528564,-2.9242653846740723,0.782418966293335,2.165370225906372,-2.6241602897644043,-2.002344846725464,-0.20999780297279358,-1.6688305139541626,2.9977118968963623,-1.65727698802948,-3.7628660202026367,0.12342862039804459,1.1895068883895874,1.7341086864471436,-3.422592878341675,-2.33901047706604,0.15898074209690094,-2.80248761177063,-2.0153932571411133,-2.305140256881714,-0.1652441769838333,-3.141594171524048,0.41644948720932007,-1.3498470783233643,4.387482166290283,-3.0812432765960693,1.8556188344955444,-0.5231701135635376,2.1199791431427,-2.2728817462921143,-0.9473721385002136,-2.5405807495117188,-1.2230280637741089,-2.5499141216278076,-1.9309608936309814,-1.344804048538208,1.8572529554367065,-0.3435240685939789,-4.091986179351807,1.514719009399414,1.3278132677078247,-2.1205153465270996,2.6403942108154297,2.855984926223755,-0.21145664155483246,-1.5808809995651245,0.40948182344436646,-0.7700766921043396,1.57659113407135,3.1116340160369873,0.4230027496814728,1.4350212812423706,-3.7874693870544434,1.5321950912475586,0.2568758726119995,-1.1101468801498413,0.3697644770145416,-1.3917189836502075,0.9710720181465149,0.6796354651451111,1.0243531465530396,0.7259085178375244,0.17137835919857025,0.3099111318588257,-0.6707420349121094,-0.11388597637414932,-1.8412742614746094,0.666377604007721,-2.1199326515197754,0.6842936277389526,-1.5754661560058594,-0.1537521630525589,0.957496166229248,-0.18424949049949646,-0.06358069181442261,-3.169312000274658,-0.7256335616111755,0.3931402862071991,-1.9538246393203735,1.3731330633163452,1.5262948274612427,-0.8506113290786743,0.3775799572467804,1.1929601430892944,2.7393064498901367,5.77443265914917,1.9873334169387817,-3.816068410873413,-0.08148272335529327,-3.092252492904663,3.297415018081665,3.0914788246154785,3.5149104595184326,-3.59354567527771,0.2594800591468811,-2.4763176441192627,-1.2015804052352905,-3.49828839302063,-0.42046478390693665,3.0259158611297607,-0.8960371613502502,0.5458055138587952,-0.6112132668495178,0.32945582270622253,1.626147985458374,0.25514891743659973,-6.317113876342773,-0.4604426622390747,2.288853168487549,1.035914659500122,-3.898148536682129,-2.772578477859497,0.32812848687171936,-4.680840492248535,0.7099772095680237,-1.0817962884902954,0.8214162588119507,-3.125605344772339,-0.3063127398490906,-1.364176630973816,-1.1494479179382324,0.3385876417160034,0.3179742693901062,-0.1079835444688797,-0.04626805707812309,0.8642719388008118,0.44343796372413635,0.0418999083340168,2.6256844997406006,0.4905681014060974,0.4834674000740051,-1.7873605489730835,-4.582032680511475,-1.6768577098846436,1.7683573961257935,-0.577527642250061,-0.8061655759811401,2.5941758155822754,-2.2580676078796387,-2.271397113800049,0.9567978382110596,0.5158684253692627,-0.7490941286087036,-0.2967533767223358,1.314823031425476,-1.6246823072433472,-0.7259970307350159,-2.2933530807495117,2.578622341156006,1.7079881429672241,0.12313797324895859,-2.0459277629852295,-1.3765919208526611,3.352687120437622,1.0630621910095215,2.0046963691711426,2.5952935218811035,-2.0408785343170166,2.001146078109741,-5.572987079620361,-3.033496856689453,-3.49273943901062,-4.642541885375977,2.926151990890503,-0.8513658046722412,-2.5918540954589844,1.2019051313400269,-0.21878089010715485,3.500037908554077,-3.912179946899414,-0.9303932785987854,0.8801597952842712,3.087536096572876,1.8420814275741577,4.464657783508301,-2.950038194656372,-5.076219081878662,-2.0181679725646973,0.7796177268028259,0.9826876521110535,1.551601767539978,-2.7901744842529297,1.4711910486221313,-0.5757312774658203,2.7512776851654053,-1.6792492866516113,2.3913445472717285,-0.439097136259079,1.9775043725967407,-1.3077540397644043,-2.8305504322052,-2.4496874809265137,0.5781153440475464,-1.2157539129257202,-1.8479187488555908,-0.35756227374076843,-0.23707716166973114,-1.9146459102630615,-2.0064587593078613,2.6555535793304443,1.058701992034912,-1.3569445610046387,1.7956608533859253,0.527153730392456,-1.676418423652649,-2.9334638118743896,0.5769826173782349,-2.2352373600006104,-0.4854186177253723,0.9997904300689697,2.1215081214904785,0.8632025122642517,-0.3084093928337097,1.3379369974136353,-0.12486550956964493,-2.3929898738861084,-3.543642520904541,-0.035703327506780624,-0.7005143761634827,3.2781825065612793,-0.9854278564453125,3.2259562015533447,1.4479749202728271,0.3322044610977173,-2.22796368598938,0.3789348900318146,-0.5761625170707703,1.8560717105865479,-3.7057952880859375,-1.1751765012741089,3.5258002281188965,-1.3509364128112793,0.32430925965309143,-0.5916893482208252,-1.565433144569397,-1.0988740921020508,-2.0110368728637695,1.2230556011199951,-4.169559001922607,-1.92069673538208,2.6157026290893555,-1.8978382349014282,-0.3968242406845093,-3.1817495822906494,2.5371577739715576,-0.1690395325422287,2.36968731880188,-1.970475673675537,0.13031740486621857,-2.9322376251220703,1.6733735799789429,-0.3816176652908325,2.3458478450775146,-4.013113021850586,0.17899976670742035,-2.4487006664276123,0.8843360543251038,-0.4669428765773773,1.7459712028503418,-0.8004534244537354,-0.9856794476509094,-1.0436170101165771,0.6636976003646851,-0.1539730727672577,1.508516550064087,-0.8890345692634583,0.5046627521514893,1.377601981163025,-0.44442829489707947,0.08768337219953537,-0.15275366604328156,-1.6555891036987305,-0.3147259056568146,0.07199767231941223,0.06506095081567764,2.575610637664795,0.0631856918334961,0.9860422611236572,0.2063240259885788,0.45700961351394653,-1.0337204933166504,1.5691312551498413,-0.14620083570480347,1.1489425897598267,-0.8457484841346741,-0.22845785319805145,0.9466536045074463,0.1671433448791504,-0.9174194931983948,0.22437377274036407,0.4191489517688751,1.1444990634918213,0.8979025483131409,-0.023842642083764076,0.9760558605194092,-1.0962295532226562,0.025358809158205986,0.5028460621833801,-0.6836071014404297,-0.6816372871398926,0.26432639360427856,1.0295227766036987,0.5476342439651489,0.20453104376792908,-0.7160071134567261,-1.0975624322891235,-0.3930312395095825,-0.8418728113174438,-0.23953433334827423,0.36334583163261414,-2.2112650871276855,2.056570529937744,-1.1023564338684082,1.2657182216644287,-1.335707426071167,-0.16336406767368317,-0.998989462852478,2.0452401638031006,0.49863606691360474,0.8632057309150696,3.453737258911133,1.429486632347107,1.5446217060089111,-1.1647553443908691,0.6743755340576172,0.7815179228782654,0.7656804919242859,-0.4894147515296936,-0.5473401546478271,0.6259033679962158,0.03244182467460632,-1.6042920351028442,0.3903368413448334,0.5133366584777832,1.9851700067520142,1.0861561298370361,-0.89372318983078,-0.05988457426428795,-0.6054211258888245,-1.048805594444275,-0.8903633952140808,1.614438533782959,-0.7484170794487,-1.399612307548523,-1.7633471488952637,-1.3936593532562256,0.43756645917892456,2.2189419269561768,-0.20835600793361664,0.7937469482421875,1.7064441442489624,-0.2460058480501175,-1.4647798538208008,-1.0399513244628906,0.7997894883155823,1.9720817804336548,-2.2577273845672607,-1.7319966554641724,0.14340095221996307,-2.000859498977661,1.650960087776184,-1.1142761707305908,-1.4663797616958618,-1.1046062707901,0.9306115508079529,1.7312896251678467,-2.237236738204956,-1.6883904933929443,1.9178268909454346,-3.062671422958374,-1.2195847034454346,-3.1924338340759277,-0.7019331455230713,2.3755297660827637,1.7938275337219238,1.112747073173523,-2.214416027069092,0.46400952339172363,-0.6772897839546204,4.860228061676025,-1.769191026687622,2.6926028728485107,3.566257953643799,1.9853731393814087,1.3284968137741089,0.3484371304512024,0.8821632266044617,1.5334116220474243,-0.5315104722976685,0.8077021837234497,1.1985327005386353,-1.6559971570968628,0.03680216521024704,2.4749956130981445,-1.1728500127792358,0.6707996726036072,-1.2618321180343628,1.9764132499694824,-1.4807015657424927,1.4883500337600708,-1.9762194156646729,-1.5012670755386353,-3.717144250869751,-2.576939582824707,3.1152381896972656,-1.1957836151123047,0.9547738432884216,-0.7342285513877869,0.923068106174469,-1.0620990991592407,0.9649177193641663,-0.5253874063491821,1.0315239429473877,-0.7344077825546265,-0.8342924118041992,-1.315726637840271,0.65601646900177,-0.33269113302230835,-0.4163336157798767,-0.7057414650917053,-1.1233946084976196,-0.3811800181865692,-0.5932446122169495,1.2901676893234253,-0.00015762471593916416,-0.45017102360725403,0.816067636013031,-0.08317655324935913,-0.3470386266708374,-1.3053841590881348,-0.08520182222127914,-0.5803754329681396,-0.003096155123785138,0.9763543009757996,1.661907434463501,0.16520223021507263,0.5253929495811462,2.4113285541534424,-1.4531233310699463,-0.8542906045913696,-2.800921678543091,0.594394862651825,-0.9999011754989624,-1.149915099143982,-1.6046165227890015,2.480607271194458,3.0149569511413574,0.3614214360713959,0.4763922393321991,0.6672354936599731,-1.122054934501648,-0.5522324442863464,-2.4022183418273926,2.323374032974243,1.1893582344055176,-3.0923869609832764,-0.8401170372962952,0.24808596074581146,0.39907383918762207,2.0115442276000977,1.9645954370498657,2.8101580142974854,-0.04333391413092613,1.1518739461898804,-0.3333251476287842,0.9146651029586792,-1.2982394695281982,-2.9594225883483887,-3.91593337059021,5.000260829925537,-4.1986188888549805,-0.08120156079530716,-5.040625095367432,1.1574959754943848,-2.0661110877990723,3.554198980331421,-3.9394378662109375,2.2157788276672363,5.309756278991699,2.7277939319610596,-5.485472679138184,2.0983235836029053,3.817558526992798,4.13451623916626,-2.132418394088745,3.5291996002197266,4.688536643981934,-5.527943134307861,-1.0368854999542236,4.751222133636475,-3.1228067874908447,-1.3877822160720825,2.9620678424835205,5.6852874755859375,0.030562056228518486,2.0432732105255127,1.563271403312683,-2.7281904220581055,-6.466814041137695,-5.768064498901367,2.1023972034454346,3.172828435897827,-0.9721182584762573,3.117823839187622,-3.9496757984161377,3.3639228343963623,-1.097285509109497,0.22425860166549683,-1.0440306663513184,4.818028450012207,0.7671339511871338,2.6450695991516113,0.1922711431980133,0.07688295841217041,1.6827119588851929,0.1689891815185547,-2.5829648971557617,-0.8823317289352417,2.429655075073242,-0.3730289936065674,-0.2711876332759857,-0.7132969498634338,-2.4451096057891846,-3.125260829925537,-1.0295811891555786,0.5790662169456482,0.01271790824830532,-0.06289339065551758,1.1693015098571777,-4.210678577423096,-0.8385724425315857,-1.7536038160324097,2.9306674003601074,2.527198314666748,-1.8228888511657715,0.7045835256576538,-2.6240148544311523,-0.0594734288752079,-2.9780941009521484,1.4644486904144287,-2.3431365489959717,0.5394758582115173,2.465799331665039,2.889336347579956,-1.5992929935455322,1.6898736953735352,2.186605453491211,1.5235707759857178,0.9821872115135193,1.4593560695648193,1.827847957611084,-2.32265305519104,-1.3587384223937988,2.1782240867614746,-1.6139565706253052,-0.4892745614051819,0.8046979308128357,2.446256160736084,-0.48794540762901306,1.55353581905365,0.470773309469223,-1.660333275794983,-2.923769235610962,-1.6109660863876343,0.33655014634132385,1.4128376245498657,1.5839223861694336,-1.0398797988891602,-3.422757625579834,1.6342617273330688,-1.6208409070968628,1.0440887212753296,-0.02122412994503975,0.9310210347175598,1.6163091659545898,2.0511531829833984,-0.8136411309242249,1.2081032991409302,4.844723224639893,3.3052079677581787,-3.239593029022217,-1.3371154069900513,5.265895843505859,-1.235806941986084,-1.5923901796340942,0.15684299170970917,-0.278776615858078,-1.5992460250854492,-2.378904342651367,2.176495313644409,0.8740679621696472,-1.1133410930633545,2.0864744186401367,-1.957051396369934,-3.2666873931884766,-2.6891825199127197,3.1445252895355225,1.642713189125061,-1.1960703134536743,-0.7914273738861084,-2.4119720458984375,0.19108633697032928,-2.319453477859497,1.111747145652771,-2.975041151046753,1.1462321281433105,1.5326513051986694,1.5730762481689453,-1.1151753664016724,2.469597578048706,1.7316440343856812,1.4898364543914795,2.044307231903076,2.6285626888275146,1.9136040210723877,-2.217582941055298,-2.161876916885376,-0.07214905321598053,-2.5360333919525146,-1.369780421257019,2.298762559890747,2.2087483406066895,1.731995940208435,3.59061336517334,-0.8197805285453796,-0.8921988606452942,-1.3378912210464478,-1.5865756273269653,-2.349963903427124,0.8938836455345154,-1.3219367265701294,2.0046041011810303,-0.9803991913795471,2.086205244064331,-0.48967939615249634,0.9567062258720398,-0.569752037525177,0.9484685659408569,0.8933114409446716,1.3536890745162964,-0.12331840395927429,1.2237794399261475,1.3507018089294434,1.1197758913040161,1.1502151489257812,0.9578316807746887,-0.45562079548835754,-1.0650742053985596,-0.4189564287662506,0.846714198589325,-0.38384899497032166,-1.7370657920837402,1.1596311330795288,1.1026735305786133,0.4911453127861023,0.9255232810974121,-0.5301422476768494,-0.6178406476974487,-1.7324116230010986,0.09388681501150131,-2.5065269470214844,1.4733794927597046,-2.33268141746521,1.740724802017212,-2.239284038543701,0.6877330541610718,-1.607204794883728,-0.9675760865211487,-2.8048384189605713,2.881560802459717,1.4674510955810547,2.080888032913208,-0.37810686230659485,2.9633238315582275,-0.5407490134239197,0.044262178242206573,-0.7590371370315552,-2.201718807220459,1.4329296350479126,-2.215304136276245,-2.0066521167755127,1.7978588342666626,0.2810872197151184,-1.2689563035964966,1.201928734779358,1.9481866359710693,-2.6082639694213867,-0.2801417112350464,1.2146718502044678,-1.1337699890136719,-2.46073579788208,-5.863342761993408,-2.2900891304016113,2.9269604682922363,1.6103217601776123,0.02548944018781185,-2.312899589538574,4.97536039352417,-3.2685842514038086,2.6358067989349365,-1.821589708328247,-0.9119716286659241,2.1381678581237793,1.266291856765747,0.4027756154537201,1.3611464500427246,1.8551559448242188,2.769007682800293,-0.12325968593358994,2.6184117794036865,2.045285224914551,-2.736403226852417,-3.1789114475250244,0.6268389821052551,-4.963443756103516,0.3848930597305298,0.8795313835144043,3.35530948638916,0.3200969398021698,3.247218608856201,-1.0809080600738525,-0.8818143606185913,-1.0182684659957886,-0.39191383123397827,-0.17650410532951355,-1.7847464084625244,2.461299419403076,-2.1047890186309814,1.586065649986267,-2.1981115341186523,3.1814615726470947,-2.1068248748779297,3.523037910461426,-1.724124550819397,-3.0033891201019287,-2.112297773361206,-0.3728608191013336,-2.6772115230560303,-1.5261744260787964,-1.42782723903656,-0.3815042972564697,0.0629328042268753,-1.795556664466858,1.6250824928283691,1.2678179740905762,-1.996978998184204,0.8237061500549316,2.352754592895508,-1.7244672775268555,-1.74764883518219,-1.0873948335647583,-0.6698178648948669,0.30001407861709595,-0.0024546273052692413,3.017164945602417,1.9140170812606812,1.855059027671814,-2.3453478813171387,-0.15672630071640015,-1.9037224054336548,0.9867778420448303,-2.0558722019195557,2.2970240116119385,-1.2281745672225952,1.4314359426498413,0.633842408657074,-1.6265662908554077,-1.719792127609253,2.005584239959717,-1.7361440658569336,-1.9852843284606934,-1.2540462017059326,-1.6941876411437988,-2.124300003051758,-2.6287975311279297,0.6886385679244995,0.8989839553833008,1.3699164390563965,2.6343560218811035,-2.8399345874786377,-3.5966360569000244,-1.7438420057296753,-0.6908387541770935,-1.7681251764297485,-1.6338492631912231,2.379621744155884,1.9649020433425903,4.6252760887146,1.0453153848648071,-0.03452574461698532,0.8081502318382263,-0.1827886998653412,-0.25664979219436646,1.5530983209609985,-1.9737728834152222,2.399487018585205,-1.4916465282440186,0.5855420231819153,1.3255164623260498,1.0749033689498901,0.5601596832275391,1.3199461698532104,-1.5206668376922607,2.5674843788146973,-0.3515658676624298,0.992988646030426,-0.023426493629813194,0.07339296489953995,-0.5394145250320435,2.034695625305176,0.4970921277999878,0.25261327624320984,-3.262085437774658,0.1928580403327942,-0.597733199596405,0.9019291996955872,-1.2002058029174805,0.15953953564167023,-1.2230544090270996,-1.2307275533676147,0.35024672746658325]},"inputBias":{"rows":32,"columns":1,"weights":[-1.5540680885314941,-0.43550795316696167,1.6434201002120972,0.6916840672492981,4.4219512939453125,1.3410587310791016,0.08417267352342606,1.0648528337478638,-1.11723792552948,-0.40881815552711487,1.6087061166763306,-1.981674313545227,0.9548326134681702,-0.04880954697728157,-1.6681945323944092,5.245060920715332,-0.08199640363454819,0.44235795736312866,0.19554433226585388,-0.32393336296081543,-0.44929611682891846,-1.904819130897522,-1.1607489585876465,-0.42022356390953064,0.4661261737346649,1.2130111455917358,2.963644504547119,1.6620749235153198,-1.2384183406829834,0.33342474699020386,-2.1384060382843018,3.29465651512146]},"forgetMatrix":{"rows":32,"columns":1,"weights":[1.4441572427749634,2.0247645378112793,3.079167604446411,0.7933847904205322,-2.5657811164855957,0.2895202040672302,0.21231302618980408,-1.2644710540771484,-0.10308967530727386,1.4255825281143188,1.5574781894683838,3.7995681762695312,-1.6016762256622314,-0.41911542415618896,0.4368838965892792,1.252170205116272,1.481838583946228,1.0317010879516602,1.4077186584472656,-0.7623107433319092,-0.6112623810768127,-0.8913438320159912,0.5349830985069275,1.9115610122680664,1.1893095970153809,-1.0439382791519165,0.2054620236158371,-1.6035645008087158,0.2117038071155548,2.848714828491211,-2.3167054653167725,1.9852557182312012]},"forgetHidden":{"rows":32,"columns":32,"weights":[3.0475687980651855,0.5117472410202026,-1.1207077503204346,-2.919787645339966,3.168163299560547,0.1960766315460205,2.824384927749634,-2.829049587249756,2.164097547531128,3.263880968093872,0.6484115719795227,-2.0079190731048584,-0.06348513066768646,1.875301718711853,3.028507709503174,-1.157409906387329,0.503963828086853,2.542423963546753,-3.4606685638427734,-0.3422098159790039,1.1824533939361572,-1.8600444793701172,-3.647533416748047,0.6634660959243774,3.665201187133789,-2.4331417083740234,0.2806173861026764,-2.8872125148773193,-2.3961238861083984,-2.9351625442504883,-2.6463961601257324,0.02780759334564209,2.692643642425537,-1.2457361221313477,-1.113304853439331,-2.908749580383301,3.06760573387146,-1.6894547939300537,2.4737040996551514,-3.1414291858673096,1.1521493196487427,2.763779401779175,1.191519021987915,-2.088503837585449,1.6903800964355469,0.25382930040359497,2.4601006507873535,-1.6256921291351318,0.8675041794776917,2.8552513122558594,-2.9981727600097656,-0.758320689201355,-1.9395889043807983,-2.065502405166626,-2.0406384468078613,-0.2891184985637665,2.996854782104492,-1.7573727369308472,1.1097198724746704,-3.325378179550171,-2.6346323490142822,-3.385037660598755,-3.904940366744995,1.114654541015625,1.3117456436157227,-1.1629351377487183,0.7556545734405518,-1.457054615020752,1.8343207836151123,-0.6950719356536865,0.9849450588226318,-1.5607073307037354,1.0927740335464478,1.215572476387024,0.9157105684280396,-1.1682215929031372,1.2025413513183594,1.5808403491973877,1.00556218624115,1.770586609840393,0.7829429507255554,1.4667912721633911,-1.5294958353042603,-0.6842118501663208,1.32777738571167,-0.9231242537498474,-0.4194016754627228,1.055963158607483,1.2779070138931274,0.9367145895957947,1.2839041948318481,-0.7788201570510864,-1.038360834121704,-1.9668664932250977,-1.4940119981765747,0.41769829392433167,2.195086717605591,-1.5041519403457642,0.4248531758785248,-0.7949729561805725,1.2729333639144897,-1.326375961303711,1.6225175857543945,-1.3826117515563965,1.683832049369812,1.7818619012832642,1.8173785209655762,-0.35727211833000183,0.9583539366722107,0.7309231162071228,1.9830502271652222,0.2349749356508255,0.9539479613304138,1.0958694219589233,-2.0018179416656494,-0.4291084110736847,1.4396604299545288,-1.7950996160507202,-1.4001587629318237,0.5589376091957092,2.055269956588745,-0.9592612981796265,0.9186043739318848,-0.2529197633266449,-1.2504515647888184,-2.575735569000244,-1.9461904764175415,-0.1860072761774063,-1.518656849861145,1.1083476543426514,-1.3057876825332642,1.6776174306869507,-1.1477339267730713,1.1849522590637207,-1.3862866163253784,1.1571028232574463,-0.8183906674385071,-1.424277663230896,-1.320087194442749,1.2186740636825562,-0.5574535131454468,-0.5391370058059692,-1.4725728034973145,-0.9028226733207703,-0.02595667541027069,-1.347262978553772,1.6742465496063232,-0.00736615713685751,-0.4623839855194092,1.2704229354858398,0.4944169819355011,-0.1077842265367508,-1.557171106338501,-0.6824197769165039,-0.3775976598262787,-0.1361115276813507,1.4518818855285645,2.1115126609802246,0.9744406938552856,-0.2549341320991516,0.8797853589057922,1.2824443578720093,-1.7192575931549072,-1.7136224508285522,0.5897588729858398,-0.9836868047714233,1.268518090248108,-0.0331779308617115,-1.001196265220642,1.292380928993225,0.1366356760263443,-1.5405997037887573,0.38335779309272766,-2.856369972229004,1.3329212665557861,-0.3740837275981903,0.1668122559785843,1.1355949640274048,-0.7725347876548767,-0.13210678100585938,-2.8528213500976562,-1.934614658355713,2.592486619949341,1.9385662078857422,1.2701483964920044,2.0742263793945312,0.5537985563278198,-0.9433780908584595,-1.52877676486969,-1.0755031108856201,-1.481329321861267,0.5050032734870911,0.7995734810829163,1.372904896736145,-1.3168259859085083,-2.2443325519561768,-0.14497551321983337,3.7862021923065186,-0.05926494300365448,1.2638461589813232,-1.2447898387908936,-0.9524879455566406,-1.0803844928741455,0.9767300486564636,-3.0502288341522217,0.20561426877975464,0.14429199695587158,-0.9913052916526794,-0.9199185967445374,2.549138307571411,-0.5345336198806763,1.9655370712280273,0.35376447439193726,-1.1443068981170654,1.4115115404129028,0.4544646739959717,0.95941162109375,1.674533486366272,-2.372636318206787,0.10377507656812668,-1.4014700651168823,1.0686795711517334,-1.2570267915725708,-0.279825359582901,-1.1584402322769165,0.9125493168830872,-1.0899043083190918,0.9633327722549438,-1.2924014329910278,1.5846831798553467,-1.2587641477584839,1.4578992128372192,-0.25989678502082825,-1.4921140670776367,-1.5694228410720825,1.0530264377593994,-1.5866624116897583,-3.044672727584839,-2.137404441833496,-1.289973258972168,-1.0955212116241455,-1.5228246450424194,1.4096195697784424,0.7237855195999146,-1.0596582889556885,0.8615832924842834,2.000760793685913,0.06485797464847565,-1.537641167640686,1.2428430318832397,-1.8053102493286133,-1.2868962287902832,0.6427295207977295,2.082440137863159,0.5612467527389526,-2.1709890365600586,-4.440905570983887,4.49307107925415,-0.8203476071357727,2.7984697818756104,-5.562341690063477,3.685600519180298,-3.690239906311035,1.1332075595855713,-1.94125497341156,-4.4605817794799805,-3.5911524295806885,4.250373363494873,-4.495991230010986,-2.190281867980957,-3.8942198753356934,0.3334639072418213,-4.943914413452148,-3.311188220977783,2.3440053462982178,4.475748062133789,-3.379877805709839,3.4470229148864746,-0.18860821425914764,-2.2676234245300293,-4.440039157867432,-1.560097336769104,-5.915473461151123,1.7030346393585205,3.036177158355713,1.9991422891616821,-0.48218950629234314,-2.825308322906494,1.9630470275878906,-2.79801607131958,-0.3189527094364166,-1.6121426820755005,1.9740238189697266,-1.4126520156860352,0.4286513328552246,-0.19767311215400696,1.9559987783432007,2.441901206970215,1.1644505262374878,-0.34398019313812256,0.6973776817321777,0.4760478734970093,0.5801585912704468,0.2580554187297821,1.3345112800598145,1.4891365766525269,-2.2641115188598633,-1.0516330003738403,1.4532043933868408,-1.1360490322113037,-2.1826651096343994,1.8414126634597778,2.3471031188964844,-0.3412283957004547,1.0573453903198242,0.26426011323928833,-0.6293936371803284,-1.1815978288650513,-1.5393198728561401,-2.1061878204345703,0.23057879507541656,-0.7025039196014404,2.137131452560425,-0.8533538579940796,2.4168167114257812,-0.09927353262901306,0.5704557299613953,-1.3655414581298828,0.981962263584137,1.4179975986480713,2.5889229774475098,2.4042866230010986,2.3168885707855225,3.2802915573120117,0.7421903610229492,-0.7402844429016113,0.164498433470726,0.6812412738800049,-1.454843282699585,-0.2779395878314972,2.4118287563323975,0.39765089750289917,-0.8418119549751282,0.36678269505500793,0.9249280095100403,0.3348976671695709,0.17214453220367432,-0.0690564215183258,0.6426095366477966,-3.697199583053589,-1.182408094406128,-0.6970763206481934,1.9881632328033447,0.7222935557365417,-4.742854118347168,-2.668565273284912,1.1498521566390991,0.8648859858512878,1.14411199092865,0.7086260318756104,-0.8316878080368042,2.682067632675171,-1.5704777240753174,-0.2212005853652954,-1.6913838386535645,4.46012544631958,-0.012398624792695045,-1.2335606813430786,0.4065817594528198,1.3251179456710815,-2.4809629917144775,-0.27319228649139404,0.8522154688835144,-0.7614017128944397,0.9856388568878174,2.611968517303467,3.7990806102752686,-1.1024510860443115,-0.782492995262146,-0.6283004283905029,-0.163474440574646,-1.7070344686508179,-2.366410493850708,0.1506349742412567,-0.8066076636314392,0.9130911827087402,-0.6189030408859253,0.9685372710227966,-0.817979633808136,0.955986499786377,-0.3546000123023987,1.1254732608795166,-0.8005901575088501,-0.7441374659538269,-1.2184596061706543,0.4146040678024292,-0.6691181063652039,-0.6615764498710632,-0.4108484983444214,-0.8518561124801636,0.03505057096481323,-1.0187410116195679,0.9488950967788696,0.024210529401898384,-0.41312986612319946,0.29961228370666504,-0.12474944442510605,0.06452775746583939,-0.9568278789520264,-0.46020346879959106,-0.4801795780658722,0.46196573972702026,0.469295859336853,1.3846945762634277,0.4254823625087738,0.25405019521713257,1.3861589431762695,2.4436452388763428,-6.9778571128845215,-2.2445852756500244,0.2854456603527069,1.5404753684997559,1.3667887449264526,2.2594826221466064,-5.742092132568359,1.0608893632888794,-0.5997117757797241,0.8675280809402466,-1.1687941551208496,3.0837087631225586,3.368579149246216,-5.660850524902344,-0.21997056901454926,1.778450846672058,-0.6062020063400269,0.35299214720726013,-1.5571929216384888,-3.1783969402313232,0.7225791811943054,-1.8549505472183228,2.1858761310577393,-1.6884454488754272,-1.9274929761886597,-4.201335906982422,-2.2157909870147705,-1.8927903175354004,0.5226772427558899,2.6874313354492188,1.2298178672790527,2.4604694843292236,-1.6184194087982178,-1.5683754682540894,-2.2579197883605957,0.992727518081665,-0.05971552059054375,2.556431770324707,-4.759571075439453,0.18330052495002747,-0.7410908937454224,-0.5413127541542053,-1.3645941019058228,0.832578718662262,1.2129809856414795,-1.6034680604934692,-0.68727707862854,0.39374566078186035,-0.3776181936264038,0.4272436201572418,-1.1260838508605957,-0.8525575399398804,2.174940824508667,1.0877169370651245,0.009763653390109539,1.6737455129623413,-2.618002414703369,-1.494917631149292,-0.5135563611984253,2.0286364555358887,1.3155219554901123,3.5621471405029297,-0.6694497466087341,-5.802097320556641,-2.123365640640259,1.0727035999298096,-0.08271995931863785,-2.161583185195923,1.1059880256652832,-3.3977184295654297,4.355190277099609,-0.2649761736392975,2.448481559753418,-0.14841799437999725,3.314052104949951,1.284525752067566,1.2616984844207764,-0.7617977857589722,3.2453157901763916,-2.516366958618164,0.5851176381111145,-2.782956838607788,1.1814860105514526,0.15129204094409943,-5.205036640167236,-1.9480348825454712,-0.4627113938331604,0.11557308584451675,1.5119634866714478,4.3288798332214355,-0.26815134286880493,0.32572901248931885,-0.28368672728538513,3.095608949661255,1.5563716888427734,-0.975908637046814,1.373540997505188,-1.9258893728256226,2.640120267868042,-0.3272487223148346,0.016779830679297447,-0.7788797616958618,-0.18318700790405273,1.4919719696044922,0.5649352669715881,0.5065524578094482,1.2399916648864746,0.902235209941864,-0.4988867938518524,1.3647488355636597,1.368067979812622,0.11703449487686157,-1.7281150817871094,-0.45553532242774963,0.4684180021286011,-1.1691725254058838,-2.5835907459259033,1.5654736757278442,1.7301145792007446,-0.03181150183081627,1.3382245302200317,-0.5606803894042969,-1.4000664949417114,-1.8648486137390137,-1.2049604654312134,-0.9532833695411682,2.7387869358062744,-0.1123720183968544,-3.0093276500701904,-1.1905848979949951,-0.6388269066810608,3.4677376747131348,1.630178451538086,2.3644633293151855,-1.691847801208496,0.8382518887519836,-1.5674471855163574,-1.5589728355407715,-2.7638192176818848,-2.74261736869812,2.2739224433898926,-2.1912100315093994,1.946224331855774,-1.0609804391860962,-2.056839942932129,1.7394824028015137,-1.674132227897644,-3.2785303592681885,-0.38722583651542664,1.8394235372543335,2.4211504459381104,-3.396507978439331,-0.6660599112510681,2.8960120677948,-4.730194091796875,-1.2394527196884155,-1.8443242311477661,-0.12864813208580017,2.2002925872802734,-2.1995153427124023,1.1783154010772705,-2.4736363887786865,1.2014015913009644,-1.5721495151519775,1.6237484216690063,-1.9057186841964722,2.415639638900757,2.474269151687622,1.666921854019165,-1.40077543258667,0.9224031567573547,1.0103788375854492,1.0646220445632935,0.5656357407569885,1.2050601243972778,1.1609418392181396,-2.498645305633545,-0.7391769886016846,1.1522194147109985,-1.410047173500061,-1.2105529308319092,0.863152801990509,2.4814724922180176,-0.20400556921958923,1.0599241256713867,-0.32500848174095154,-1.6615906953811646,-2.4729294776916504,-2.03729510307312,-0.8675963282585144,-0.3782743215560913,0.6113883256912231,-0.33382782340049744,0.6439663767814636,-0.3856070935726166,0.652759313583374,-0.183863565325737,0.8349525928497314,-0.5036615133285522,-0.3459315001964569,-0.8444452881813049,0.3370552659034729,-0.3938336670398712,-0.3981475532054901,-0.2094302475452423,-0.3802683651447296,-0.09130150824785233,-0.7292388081550598,0.7081661820411682,0.04833381250500679,-0.15085184574127197,0.2992115020751953,-0.28224340081214905,-0.09264875203371048,-0.6127861738204956,-0.2863442301750183,-0.334016352891922,0.30174511671066284,0.19896674156188965,0.7135933041572571,0.2893965542316437,0.3971915543079376,-4.513780117034912,-1.1510852575302124,1.2350999116897583,-0.44080305099487305,0.41115710139274597,-0.9283676743507385,-0.5453780293464661,-1.7517963647842407,2.7883245944976807,0.5656222105026245,2.3203399181365967,-2.9019131660461426,1.7808020114898682,2.890329360961914,-1.002862811088562,-2.4656286239624023,-2.2468326091766357,3.6732566356658936,-0.16669853031635284,-0.9975730776786804,-0.15978726744651794,-1.3651974201202393,-1.36759352684021,-2.5891737937927246,-0.10799393057823181,-0.6528961658477783,-0.23571188747882843,-1.0731059312820435,1.302277684211731,-3.841055154800415,-2.0594046115875244,-1.7125794887542725,-1.468559980392456,1.3846497535705566,0.0749477744102478,1.4965190887451172,-0.16127584874629974,1.9022655487060547,-0.7641582489013672,0.1322784423828125,-0.5793473720550537,-0.8955442309379578,-2.8343489170074463,1.3753381967544556,-1.8310058116912842,-0.35346367955207825,-0.4611501693725586,-0.9897170066833496,-1.2072032690048218,0.4654134511947632,1.5317072868347168,0.8309186697006226,-2.7526495456695557,1.4092916250228882,-0.46186894178390503,-1.7781267166137695,-1.3245961666107178,-1.0895193815231323,-2.011812210083008,1.2550128698349,1.3398982286453247,1.2543575763702393,-0.16289357841014862,-0.9138697385787964,-0.39937785267829895,-2.3451178073883057,0.8911049365997314,-1.5685741901397705,-0.2553170621395111,-1.3400050401687622,0.046624720096588135,-0.3400265574455261,0.9113730192184448,-0.22062011063098907,1.065035343170166,-0.47269687056541443,0.12440726161003113,1.9629813432693481,-0.7184869647026062,-1.335542917251587,-0.7052313089370728,2.295175075531006,0.08179337531328201,0.08962591737508774,2.8902204036712646,0.9414520859718323,0.7921680808067322,-0.5854604244232178,-0.14814504981040955,0.34959137439727783,-0.5586659908294678,1.8305959701538086,0.5576325058937073,0.5951545834541321,0.9270687699317932,2.5894196033477783,1.5608863830566406,-0.02535165660083294,0.38648656010627747,-1.4760870933532715,0.9662376642227173,-0.6673411726951599,0.5112906694412231,-0.9289429187774658,-0.3106369078159332,1.3182638883590698,0.45942163467407227,-0.8819242715835571,0.4526653587818146,0.1387845277786255,0.564751148223877,1.3721425533294678,0.5282235145568848,0.9601922631263733,-1.562072992324829,-0.3683936893939972,0.0776611939072609,-1.2957825660705566,1.1947269439697266,1.5964726209640503,1.5798105001449585,0.5741881132125854,0.34700271487236023,-0.6576840877532959,-0.6868611574172974,-1.2925424575805664,-0.6423472166061401,-0.8945620059967041,2.3925132751464844,-1.9010341167449951,0.015296482481062412,-2.450359344482422,1.2239927053451538,-2.1501059532165527,1.1012173891067505,-1.3258419036865234,1.6888608932495117,2.766174793243408,2.1462173461914062,-1.2920053005218506,1.3757619857788086,1.0095688104629517,1.3988566398620605,0.4215103089809418,1.6569924354553223,1.749642014503479,-2.628373622894287,-1.2141715288162231,2.340975284576416,-1.6856780052185059,-0.20522433519363403,1.4450078010559082,2.411853551864624,-0.8121421337127686,1.5809452533721924,0.3232853412628174,-1.431609869003296,-2.694624185562134,-3.122424364089966,-0.04420480877161026,0.7193849086761475,2.220810890197754,0.01867738738656044,-0.874377429485321,-3.7939634323120117,1.52101731300354,-0.20146504044532776,1.2604641914367676,-2.2780299186706543,1.334418773651123,-2.2732350826263428,-1.1141141653060913,-0.7497553825378418,-2.4904816150665283,-2.449463367462158,-1.0264439582824707,-0.12294333428144455,-1.149189829826355,-0.8960842490196228,0.879957377910614,-1.9874411821365356,-1.9627773761749268,-3.691870927810669,3.7025930881500244,1.3363556861877441,-3.59505295753479,0.08867095410823822,1.2161500453948975,0.5505585074424744,0.19717496633529663,-0.130140483379364,0.31343716382980347,0.3301788568496704,-1.4840399026870728,0.8300755620002747,1.1916395425796509,0.18698878586292267,0.9600198864936829,-0.9033336639404297,1.0278154611587524,1.459879755973816,-0.4992310702800751,-0.2172921597957611,-0.31115907430648804,0.40418869256973267,0.25387024879455566,-2.665304183959961,-0.5708113312721252,0.4198204576969147,-1.7046089172363281,0.34671345353126526,1.0154415369033813,-0.34363773465156555,-0.4770720899105072,-1.2235467433929443,0.4380529224872589,-0.3006361126899719,-1.8655831813812256,-0.005294486414641142,2.03175950050354,-0.4250687062740326,-0.022182919085025787,-1.6861343383789062,-0.2934044897556305,-2.5942728519439697,0.4490349292755127,-0.21664811670780182,2.4186971187591553,-2.4249799251556396,3.508836507797241,-3.2867538928985596,-0.027198323979973793,1.8531981706619263,-2.5618064403533936,-3.9338464736938477,1.2588298320770264,-3.7149863243103027,-3.037025213241577,-2.1093811988830566,1.2006237506866455,-1.710067868232727,0.19727399945259094,2.5098865032196045,0.5477532744407654,-3.5367624759674072,3.3962557315826416,-2.0360934734344482,-4.132981300354004,-2.115358829498291,-1.0505497455596924,-3.102228879928589,0.5280699729919434,1.7773230075836182,2.7884490489959717,1.7065175771713257,-2.946253538131714,1.8181813955307007,0.35897135734558105,-1.7993944883346558,-2.822838068008423,1.3781911134719849,0.6600085496902466,1.6080902814865112,0.6011905074119568,-0.5688768029212952,1.9315917491912842,0.6344816088676453,-2.588472843170166,-1.237687110900879,0.3676641285419464,2.116971731185913,-2.1350715160369873,-0.11973170191049576,2.6747474670410156,-0.3072910010814667,1.10807466506958,4.328670978546143,-2.1534361839294434,-1.1809250116348267,0.38734668493270874,1.3875478506088257,-3.027322769165039,-1.3344752788543701,1.323811411857605,-1.690297245979309,-1.5372889041900635,-2.2672979831695557,1.1461001634597778,-0.10348387062549591,0.9737988114356995,-0.32071658968925476,1.0117706060409546,-1.4898459911346436,2.269977569580078,-0.851601243019104,3.348865509033203,-0.26571616530418396,-2.8234753608703613,-2.2369823455810547,2.114672899246216,-1.6361000537872314,-1.2278043031692505,-1.8679003715515137,1.6013303995132446,-0.3648146986961365,-2.806210994720459,1.4193617105484009,0.8988729119300842,-3.278425693511963,1.3698612451553345,-1.9278842210769653,2.6264989376068115,-1.4116885662078857,-0.9802340865135193,-0.5375878810882568,-0.8802888989448547,0.6260054111480713,2.1820950508117676,1.8683695793151855,0.13107310235500336,-1.0633896589279175,1.4912316799163818,-0.3557644784450531,1.2487475872039795,-0.9311561584472656,1.2031291723251343,-0.9902637600898743,1.1734479665756226,-1.2043691873550415,-0.9600321650505066,-1.1480413675308228,0.742098867893219,-0.6500574350357056,-0.9274184703826904,-0.9824888110160828,-0.1857103705406189,-0.2013918161392212,-1.0851080417633057,1.1918002367019653,0.2831414043903351,-1.1343390941619873,1.0200785398483276,-0.4119766652584076,-0.7421452403068542,-1.1626715660095215,-0.13557258248329163,-0.6232264041900635,0.07796750962734222,0.979424774646759,1.6479039192199707,0.48404401540756226,-0.6989666223526001,2.6822357177734375,-2.099856376647949,-0.9564273953437805,-2.912349224090576,-0.18726323544979095,-1.6180763244628906,2.358351707458496,-2.8956871032714844,1.7794758081436157,2.235292434692383,1.6492536067962646,-2.1604652404785156,1.2258741855621338,2.4931859970092773,2.346586227416992,-0.180463507771492,0.5487274527549744,1.7692304849624634,-2.9234743118286133,-0.47505635023117065,2.6224842071533203,-1.9413963556289673,-1.5351933240890503,1.2563635110855103,2.6971194744110107,-0.6045944094657898,1.081510305404663,0.7125093936920166,-2.605468273162842,-2.746312141418457,-1.7315292358398438,0.9320234060287476]},"forgetBias":{"rows":32,"columns":1,"weights":[0,0,0,0,0,0,0,0,0,0,0,0,0,0,0,0,0,0,0,0,0,0,0,0,0,0,0,0,0,0,0,0]},"outputMatrix":{"rows":32,"columns":1,"weights":[-0.7048435807228088,1.1621092557907104,0.8212239742279053,-0.11525273323059082,0.9398756623268127,-0.9671734571456909,-0.31993141770362854,0.055940788239240646,2.0774474143981934,-0.302568644285202,0.37069234251976013,0.516582190990448,-0.015525946393609047,-0.21033063530921936,-0.2065005898475647,6.0300469398498535,0.24835875630378723,-0.05362042039632797,-0.49644023180007935,-1.1273107528686523,0.25587353110313416,-1.9223798513412476,1.6237112283706665,-2.219090461730957,-0.41411954164505005,1.5354610681533813,-1.427758812904358,0.1270018219947815,-0.46352332830429077,1.6806589365005493,0.7277010679244995,3.7405145168304443]},"outputHidden":{"rows":32,"columns":32,"weights":[4.246922492980957,-0.531102180480957,-1.5925586223602295,-2.7621421813964844,0.3298061192035675,0.6533825397491455,6.230884075164795,-1.0676827430725098,2.337700605392456,3.8066768646240234,0.2805625796318054,-4.943090915679932,-0.4312385320663452,1.3678354024887085,2.316344976425171,-1.9027338027954102,0.3192852735519409,0.7313628196716309,-2.645120620727539,-0.07477694749832153,1.4413813352584839,-4.514612674713135,-0.9092608094215393,2.405100107192993,2.0757923126220703,-1.213163137435913,-0.4015018939971924,2.3314623832702637,-2.549954652786255,-4.289150714874268,-4.601560592651367,2.021408796310425,-1.4476169347763062,-3.345612049102783,-0.6849014163017273,1.3381553888320923,-1.2818375825881958,0.0326351523399353,-1.3601620197296143,0.7251467704772949,2.8505735397338867,-1.6001975536346436,0.7614316940307617,1.6857599020004272,0.22250905632972717,0.6303429007530212,-1.2162681818008423,-1.8857669830322266,0.5990565419197083,-1.095561146736145,1.107869267463684,1.1687616109848022,0.9237749576568604,0.9852007627487183,0.059035297483205795,-0.31683409214019775,-1.8183062076568604,2.8155651092529297,-0.3981490433216095,2.733072280883789,0.9880455136299133,1.4660639762878418,3.3415780067443848,3.7984728813171387,-0.7737544178962708,-2.4418370723724365,-0.5420622825622559,0.7655435800552368,-1.205376386642456,-0.6507782936096191,0.5758695602416992,-1.0238540172576904,2.87385630607605,-0.17870815098285675,-0.29025357961654663,2.323669195175171,0.8844720125198364,2.9563350677490234,-1.24320387840271,-2.3414556980133057,1.7092869281768799,1.4895668029785156,1.7637231349945068,-1.793349027633667,2.0891010761260986,1.588173270225525,-1.2472561597824097,-0.6895849108695984,-0.7478476166725159,-2.6266794204711914,0.938701868057251,1.6569480895996094,1.7997244596481323,-0.006006541196256876,-3.261948823928833,3.35618257522583,1.9047681093215942,0.6359541416168213,-1.2891515493392944,-0.9523872137069702,-0.23766125738620758,1.2542009353637695,3.538177728652954,0.38897988200187683,0.42047539353370667,1.2632710933685303,-0.518673300743103,-1.3232827186584473,-1.131774663925171,0.9247143864631653,1.6191481351852417,-1.870604395866394,-0.7448358535766602,0.5391899943351746,-0.5276269316673279,1.1156166791915894,-1.2707128524780273,-3.0335533618927,-2.3939995765686035,-0.1840663105249405,0.4951574504375458,-1.9942622184753418,-0.46535417437553406,2.177323818206787,-2.0926575660705566,-3.458646059036255,-2.9465205669403076,3.134854555130005,-2.5079379081726074,1.963763952255249,0.3342951536178589,2.7599544525146484,-3.730910062789917,1.4385173320770264,-2.582615375518799,2.1598048210144043,2.0514097213745117,-3.0979511737823486,-0.8735690116882324,3.4915997982025146,-1.8640612363815308,0.22228848934173584,-2.0739076137542725,-2.1996779441833496,-0.4674733281135559,-0.04040854424238205,2.8210527896881104,1.8681730031967163,-1.3032838106155396,3.1467864513397217,-2.8447179794311523,-5.028274059295654,-3.0219993591308594,-1.7479068040847778,-1.2290507555007935,2.274026870727539,2.184701919555664,2.9607036113739014,1.551025629043579,-0.4099423289299011,-1.3359819650650024,1.3691006898880005,-2.203155040740967,1.0956577062606812,-0.3747795820236206,2.547145366668701,0.05405405908823013,1.0170562267303467,-2.0010101795196533,-1.5704222917556763,-1.4859553575515747,0.45831620693206787,-1.548660397529602,-2.757080554962158,-0.5762249231338501,-1.6243832111358643,-0.7628465890884399,-0.7849617004394531,1.0939326286315918,0.35294631123542786,-0.8836514353752136,0.0977289006114006,0.19413034617900848,-1.4780683517456055,-1.410125970840454,-1.4508814811706543,-1.3466964960098267,-0.6886590123176575,0.985435962677002,0.8031728267669678,-0.22752368450164795,-0.4374594986438751,3.5369229316711426,0.4706507623195648,-2.360955238342285,-2.7155280113220215,-0.8427165150642395,2.2280092239379883,5.185499668121338,-1.0404200553894043,-0.4262852966785431,4.421174049377441,-0.6736354231834412,-3.7897369861602783,-0.9394081234931946,2.5414021015167236,4.732376575469971,-1.5813381671905518,1.2994486093521118,2.0616023540496826,-3.076788902282715,1.9222639799118042,0.45134803652763367,-5.273212432861328,-0.9470374584197998,-2.298654317855835,4.035404682159424,-3.3637731075286865,1.4040974378585815,2.155259609222412,-3.4133243560791016,-3.3198742866516113,-2.214210033416748,-0.8651422262191772,-1.0568218231201172,-0.14647968113422394,-1.4566670656204224,2.4721949100494385,0.7937800288200378,1.6615315675735474,2.3561954498291016,-0.3065335154533386,-0.7891873717308044,1.4806914329528809,-2.2348406314849854,-1.6698280572891235,-2.4941325187683105,-0.7529004812240601,1.3165363073349,0.7804809212684631,-0.9064527750015259,-1.274547815322876,-1.044612169265747,1.8621586561203003,-1.1981669664382935,0.3523704707622528,0.1291598081588745,-0.33313101530075073,0.8880794644355774,-1.0240191221237183,-1.0784302949905396,0.015499372966587543,0.9290897846221924,-0.6065834164619446,0.03517305105924606,-2.357051372528076,-1.3686189651489258,0.18113146722316742,0.11743377894163132,2.055737257003784,-0.7553703784942627,1.1588146686553955,-0.7311139106750488,2.1675169467926025,0.891012966632843,-1.1882363557815552,0.8478983640670776,1.317650318145752,-0.7919675707817078,-2.0535407066345215,-1.5144562721252441,-0.4139117896556854,0.46848371624946594,-2.474454879760742,1.499779462814331,1.498510479927063,-1.2856919765472412,1.494174838066101,-2.441380262374878,-1.0250295400619507,-1.3638120889663696,-0.802966833114624,0.6944085955619812,0.1970607191324234,1.4055691957473755,0.5269041657447815,0.2596341669559479,2.374674081802368,1.2808364629745483,-1.1071161031723022,-0.40755340456962585,-1.335652232170105,0.09299713373184204,-1.402747631072998,6.239681243896484,-2.5325262546539307,0.8511824607849121,2.1914381980895996,2.385225534439087,-1.8862895965576172,2.6447863578796387,1.1045811176300049,4.369589805603027,-0.33684098720550537,1.4031758308410645,2.5708401203155518,-2.4815902709960938,1.518585443496704,0.9403265118598938,-5.779226779937744,-0.723178505897522,0.9558186531066895,2.8892600536346436,-1.33738374710083,2.8363754749298096,0.6380861401557922,-2.082979440689087,-1.8019003868103027,-1.5018160343170166,0.5284200310707092,-0.1361924707889557,0.4244006872177124,0.21915113925933838,0.5867631435394287,0.7058696150779724,1.0282291173934937,-0.33258095383644104,0.8601185083389282,-0.033949851989746094,0.2656559646129608,-0.6525405645370483,2.5541839599609375,-0.054174236953258514,1.3396787643432617,-0.7113720774650574,-2.2965266704559326,-1.4804490804672241,-0.07172903418540955,0.039848629385232925,-0.008094639517366886,1.8862695693969727,0.5964980721473694,-0.31174853444099426,-1.185173749923706,-0.1294090896844864,0.9629970192909241,-1.1317760944366455,2.071638822555542,-0.34869375824928284,-0.17642810940742493,-1.9578529596328735,-1.6192234754562378,3.874526262283325,-0.7732133865356445,-2.209364891052246,-3.016601085662842,0.29495441913604736,-0.07304533571004868,3.9919819831848145,-1.7019305229187012,-0.21501174569129944,3.7401211261749268,-0.1505727767944336,-3.5007834434509277,-0.2687768042087555,0.4672236740589142,3.361402750015259,-0.3878905773162842,2.049248695373535,0.8700669407844543,-3.574734687805176,-0.30795764923095703,1.7477912902832031,-3.6481716632843018,-1.727054476737976,1.7327001094818115,3.6274023056030273,-1.5976107120513916,1.5317604541778564,0.5184171795845032,-0.8573070764541626,-3.273961067199707,-3.232560634613037,1.109416127204895,-2.673034191131592,1.373843789100647,-0.15562044084072113,2.6259260177612305,-1.1938297748565674,2.296912431716919,-0.8065328001976013,1.9623653888702393,-1.1402792930603027,-2.620314598083496,-2.205686330795288,0.7155437469482422,-1.1002707481384277,-1.8605504035949707,-0.8656654953956604,-0.39861348271369934,-2.0735104084014893,-2.044534921646118,2.562537908554077,0.7847426533699036,-1.3454129695892334,1.832166075706482,0.48615387082099915,-1.8566430807113647,-2.783440351486206,0.47638624906539917,-2.220689296722412,-0.2621753215789795,1.2562779188156128,1.9144800901412964,0.6876922845840454,-0.4820665717124939,-0.9702338576316833,0.5144008994102478,-0.6935624480247498,0.09790957719087601,-1.6448270082473755,0.6233479380607605,-0.618857204914093,-0.8749858736991882,0.05315057933330536,0.5879524946212769,0.09918557107448578,2.4401204586029053,-1.174258828163147,2.989274501800537,0.06533417105674744,-1.1954611539840698,2.3196005821228027,3.8072915077209473,2.0591225624084473,2.3837780952453613,0.5850875377655029,-0.22746194899082184,1.010968804359436,-3.9255549907684326,0.38855883479118347,-3.747795820236206,-1.2001347541809082,0.0534365214407444,-0.6919092535972595,0.5765594840049744,-0.18029917776584625,-2.3024635314941406,3.505946636199951,3.567789077758789,-3.8878695964813232,-2.9730138778686523,2.575221300125122,5.020855903625488,6.811241626739502,2.5310022830963135,-2.639164686203003,3.975465774536133,-3.9689781665802,-2.750182628631592,-6.149407386779785,1.0598647594451904,5.312795162200928,-0.4888761043548584,-1.3322029113769531,1.8984895944595337,-3.7209556102752686,4.398174285888672,-0.9068496227264404,-6.103732585906982,1.0730820894241333,0.9759579300880432,5.399902820587158,-2.8297603130340576,-2.097057819366455,-1.2495793104171753,-3.7003209590911865,-2.5230464935302734,-0.9419499635696411,-0.8845973014831543,1.0944527387619019,0.14138662815093994,0.615967869758606,-1.1911325454711914,1.3210201263427734,-0.15739116072654724,1.2859455347061157,-0.8355826139450073,-0.2390301674604416,0.9348209500312805,0.19948610663414001,-1.086794137954712,0.2992047369480133,0.3872433006763458,1.114113450050354,1.480387806892395,0.27649447321891785,0.9942311644554138,-1.0524072647094727,-0.19315679371356964,0.5516145825386047,-1.2671912908554077,-0.7117850184440613,0.34948551654815674,1.0524317026138306,0.8043028712272644,0.2633892893791199,-0.9474809765815735,-1.1885920763015747,-0.41163942217826843,-0.6054075956344604,-0.4921259880065918,0.9888337254524231,0.40333446860313416,2.1839609146118164,-3.24948787689209,3.1026644706726074,-0.14011679589748383,-0.7069621682167053,-0.6217482686042786,1.1022447347640991,0.41461148858070374,1.6664292812347412,2.5169546604156494,0.8610072731971741,2.7770895957946777,-0.586043655872345,-1.7782965898513794,1.000840425491333,2.6888620853424072,-1.6213722229003906,-0.8000752329826355,-0.398573100566864,-5.07061767578125,-6.627431869506836,-0.00805902574211359,1.2834936380386353,3.0165889263153076,1.6969727277755737,-1.051557183265686,-3.7833876609802246,-0.9166010022163391,-3.044820785522461,0.0035499106161296368,2.5212135314941406,0.6204094290733337,0.23824723064899445,-2.373628854751587,-1.3220058679580688,-1.2318718433380127,3.3071987628936768,-2.7652647495269775,0.8306301236152649,1.7103638648986816,2.3196451663970947,-0.20423714816570282,2.005260944366455,1.5897213220596313,2.0557639598846436,-0.8642581105232239,-0.777361273765564,4.850566864013672,-2.2924978733062744,1.2138899564743042,0.40657883882522583,-4.9698028564453125,-1.027346134185791,-4.773785591125488,2.0656986236572266,-0.8976572155952454,2.3903703689575195,1.1373088359832764,-3.069500684738159,-1.2137198448181152,-0.41116517782211304,0.43134552240371704,-0.7556876540184021,-0.11188644915819168,-1.065726637840271,-0.9590451717376709,0.48171278834342957,-0.2518630921840668,2.8418819904327393,-0.17479510605335236,1.0450106859207153,1.4025415182113647,-0.5067301392555237,-5.007406234741211,-0.9071181416511536,-1.2937067747116089,1.8652527332305908,0.33709806203842163,0.6555371880531311,-0.9180998206138611,-2.1066792011260986,0.24408221244812012,-1.0139456987380981,-2.455467939376831,2.8741934299468994,5.219442844390869,0.9672410488128662,3.7181756496429443,0.18915337324142456,0.7710003852844238,0.20351450145244598,-2.319988489151001,1.5870928764343262,2.0372884273529053,-1.3192838430404663,1.1799030303955078,-0.8081422448158264,1.311607837677002,-0.999629020690918,1.3189878463745117,-0.4931660592556,1.353711724281311,-1.084642767906189,-1.0906856060028076,-1.478219747543335,0.6807512044906616,-0.6826400756835938,-0.8600518107414246,-0.6554713845252991,-1.0239394903182983,-0.5800013542175293,-1.3446143865585327,1.373757243156433,0.2221527248620987,-0.74593186378479,0.8383798003196716,-0.07367412745952606,-0.3730006814002991,-1.3702998161315918,-0.688368022441864,-0.7650448679924011,0.4960136413574219,1.0364590883255005,1.7130615711212158,0.5519882440567017,0.624786376953125,-0.9571958780288696,0.16360124945640564,-2.727705717086792,0.7379016876220703,-1.7425150871276855,-2.6381750106811523,1.376875877380371,-4.0632452964782715,1.8134820461273193,-0.4396491050720215,1.840073823928833,2.936509847640991,2.155472755432129,0.5211084485054016,0.5005092620849609,0.614410936832428,2.688429594039917,1.0223774909973145,-0.012893387116491795,-2.072251081466675,-2.463759183883667,-0.673448383808136,-1.106744647026062,-6.234926700592041,-0.4989551603794098,-3.6512703895568848,1.8232368230819702,2.412806510925293,1.7761619091033936,0.406680166721344,-1.4615492820739746,-4.8248291015625,4.216197967529297,-1.5243698358535767,-2.6055140495300293,-4.243811130523682,2.865330457687378,0.10517964512109756,4.897740840911865,-3.8400378227233887,-0.4365372955799103,4.376321315765381,2.549022912979126,-7.250387668609619,1.5621483325958252,5.043485164642334,6.238036155700684,-5.528635501861572,-0.34080618619918823,6.632693290710449,-5.488801002502441,-0.7393514513969421,0.04556233808398247,-4.515839576721191,-0.4558543562889099,-2.9617323875427246,4.498260974884033,-1.0711004734039307,-0.7344213724136353,5.696070671081543,-3.871603488922119,-6.809924602508545,-6.846574306488037,4.614211082458496,2.815248727798462,-0.31113049387931824,-0.8613802790641785,-1.6388089656829834,0.5674864649772644,0.4392361342906952,-0.31311431527137756,1.3224066495895386,0.19192838668823242,2.203592538833618,-1.7375762462615967,1.1646945476531982,-2.4201953411102295,0.7397486567497253,-0.33489036560058594,-2.785750389099121,0.07443549484014511,-1.4154940843582153,-2.280836582183838,1.656717300415039,-0.7395657896995544,-3.362571954727173,-2.99592661857605,0.6078272461891174,2.4413812160491943,-3.3927218914031982,0.2498474419116974,3.6346287727355957,-2.0981292724609375,-0.1717151254415512,-4.266263484954834,0.7463721036911011,3.437337875366211,-1.8281898498535156,-1.0312082767486572,-3.421968936920166,4.751066207885742,-1.3484405279159546,4.125875949859619,-1.5027064085006714,-0.7317534685134888,3.5938618183135986,1.1109381914138794,-2.968839645385742,0.6654028296470642,-2.2977747917175293,4.335994243621826,-2.9675068855285645,0.825453519821167,2.517561674118042,-2.996737241744995,-0.26770997047424316,0.08669198304414749,-3.1925857067108154,1.0840891599655151,3.8561642169952393,3.355137348175049,1.7367308139801025,0.6699923276901245,0.5224258899688721,-3.247379779815674,-3.857483386993408,-3.985344648361206,3.3659515380859375,1.5212178230285645,-1.334686279296875,0.19685451686382294,-2.912050247192383,0.6388432383537292,-2.6848037242889404,5.092182636260986,-3.1207752227783203,1.2071086168289185,1.7746353149414062,3.339139699935913,-1.7332056760787964,3.955251455307007,2.7927753925323486,3.1585164070129395,-0.6991283297538757,3.8956174850463867,2.7275550365448,-2.573913812637329,-0.37845686078071594,1.7352313995361328,-4.800848484039307,-0.7849653363227844,-0.04271601140499115,2.5371804237365723,-1.2650421857833862,4.96694278717041,1.1265608072280884,-3.161433696746826,-2.6246511936187744,-1.7935370206832886,1.005270004272461,2.030813217163086,-2.118907928466797,-0.5796279907226562,-2.7068300247192383,0.03463021293282509,-1.2626264095306396,-0.024907352402806282,-2.6483142375946045,2.3217666149139404,2.4996328353881836,1.1880797147750854,-0.3683966100215912,2.148439645767212,1.5787376165390015,-0.02023508958518505,0.5639600157737732,2.847532033920288,2.0660958290100098,-2.759918451309204,-2.49784517288208,0.8156300187110901,-2.6763596534729004,-1.0959229469299316,0.9016265869140625,2.5961880683898926,0.5239620208740234,2.439035415649414,-1.059427261352539,-0.4484575092792511,-1.862612247467041,-2.9359052181243896,-1.8655108213424683,0.43431833386421204,-0.9299166798591614,1.7700303792953491,-0.26001784205436707,2.248669385910034,-1.089910626411438,1.018417477607727,-1.1964600086212158,2.496429681777954,0.6340735554695129,1.0027209520339966,0.4255606234073639,1.1823320388793945,2.4417777061462402,-0.029727565124630928,1.0643917322158813,0.753225564956665,-0.46412962675094604,-0.416648268699646,-0.035501524806022644,0.42660337686538696,0.39782193303108215,-2.3948137760162354,0.4852559566497803,0.36393922567367554,-0.06025639921426773,0.4823800325393677,0.6264674067497253,-0.1845204085111618,-2.187216281890869,-1.0978569984436035,-1.7024540901184082,0.18618007004261017,0.9179934859275818,0.935248851776123,-1.8934470415115356,2.2056124210357666,-4.591850757598877,0.5637004971504211,-4.791252136230469,2.5510356426239014,0.21569669246673584,3.46036434173584,1.2474287748336792,4.862104415893555,-1.5103849172592163,2.1856162548065186,-2.4173364639282227,0.2300836741924286,1.2096093893051147,0.5161526799201965,-4.623060703277588,1.9978023767471313,0.1977728307247162,-0.4481613039970398,0.028602182865142822,0.7790828347206116,0.5439499616622925,0.7763106822967529,2.4923486709594727,-0.7132509350776672,-0.4060564935207367,-0.5865150690078735,1.1239792108535767,1.8622593879699707,0.6909319758415222,0.3408147990703583,-0.8880093097686768,3.0862693786621094,-1.2389477491378784,3.2796685695648193,0.7293595671653748,1.1804604530334473,1.7129031419754028,1.7280051708221436,-1.220703125,-0.2864374816417694,3.446528434753418,1.7875722646713257,0.1462559849023819,0.07701101899147034,3.6882574558258057,-1.2498873472213745,-1.6358647346496582,0.7920857071876526,-3.7199649810791016,-0.3271825313568115,-2.4263811111450195,2.017853260040283,0.15512584149837494,0.8015742897987366,0.10991793125867844,-2.837156295776367,-1.087751030921936,-1.249119758605957,1.4761381149291992,-2.776200532913208,-2.354490280151367,0.9531885981559753,2.603229522705078,-0.2970040440559387,3.531405210494995,-2.5088415145874023,4.319380760192871,-0.11735479533672333,-2.6871466636657715,-3.5015366077423096,2.66029953956604,-1.9405189752578735,-0.11122936010360718,-2.6815428733825684,2.7782416343688965,0.9841997027397156,-2.739090919494629,1.923719882965088,1.5376042127609253,0.41936761140823364,-0.015104495920240879,-1.8407384157180786,-4.981058597564697,-2.746087074279785,-1.6759705543518066,-0.7770572900772095,0.9311726093292236,2.0037808418273926,1.8301563262939453,1.4289367198944092,-3.2395355701446533,-1.9390804767608643,1.4424570798873901,0.8991069197654724,1.5833165645599365,1.3387510776519775,2.311722755432129,-1.4568421840667725,2.4731509685516357,0.4962269067764282,-1.372978925704956,-0.5112066864967346,-0.08928637206554413,-1.6936923265457153,-0.6457496285438538,-1.5992685556411743,0.9223639369010925,1.0730159282684326,-1.0492604970932007,1.1215832233428955,1.2983896732330322,-1.0909618139266968,-0.47144997119903564,-6.118083953857422,-6.921661376953125,-1.4238654375076294,1.044857144355774,0.47192850708961487,3.131098508834839,1.763140320777893,-1.8210333585739136,3.496218204498291,-0.20060402154922485,1.376045823097229,-0.2508327066898346,-0.40060514211654663,-1.6208207607269287,1.5917326211929321,0.6337171792984009,1.3699562549591064,-1.9584670066833496,1.3811017274856567,1.5767292976379395,0.36837130784988403,-1.6750131845474243,0.6878714561462402,-0.7451265454292297,2.0004971027374268,0.5358104705810547,1.3058152198791504,1.4031903743743896,-1.6599799394607544,-0.3572094142436981,2.501542568206787,-1.5470136404037476,-0.6135470271110535,-1.6947256326675415,1.6849685907363892,0.20743566751480103,0.4191371500492096,-0.5702903270721436,-1.4643539190292358,-1.0565522909164429,-3.162985324859619,-0.65870600938797]},"outputBias":{"rows":32,"columns":1,"weights":[-1.5082236528396606,-1.1494697332382202,2.291600227355957,0.41043293476104736,4.462979316711426,0.4118594229221344,-0.9662668108940125,0.5386242866516113,-1.708182454109192,-0.9666754007339478,1.9333006143569946,-2.143838882446289,0.8891844153404236,0.09484083950519562,-1.6191495656967163,5.345737457275391,-0.29390236735343933,-0.18451209366321564,0.28348302841186523,-0.4248237609863281,-1.8086650371551514,-2.3269309997558594,-2.2199974060058594,-0.11784227192401886,0.037988509982824326,1.2711682319641113,1.9795453548431396,0.9959027767181396,-1.3179758787155151,0.36837923526763916,-1.6885738372802734,2.685906410217285]},"cellActivationMatrix":{"rows":32,"columns":1,"weights":[0.12263962626457214,-0.22399857640266418,-0.31984055042266846,-0.8619511723518372,-0.7172957062721252,-2.2990574836730957,0.1228618249297142,-2.9308838844299316,0.5862829089164734,0.37836483120918274,3.135178327560425,0.7695611715316772,3.4286627769470215,0.03519632667303085,-0.2042839378118515,-1.0571694374084473,1.7835001945495605,0.9025634527206421,-0.5366223454475403,-3.077709674835205,0.23539435863494873,0.05287830904126167,-0.31777119636535645,1.533523678779602,0.5724653005599976,-0.6567352414131165,3.567599296569824,0.9834330081939697,-0.23976734280586243,-1.1121408939361572,-0.7915957570075989,0.1792190670967102]},"cellActivationHidden":{"rows":32,"columns":32,"weights":[0.3735600411891937,-1.28452467918396,1.5041149854660034,-2.110595941543579,0.5654869079589844,-1.2245104312896729,0.10710665583610535,-0.2226167470216751,0.8978913426399231,-0.06472744792699814,0.9827172160148621,1.5431715250015259,0.8134518265724182,1.8205353021621704,-0.0957428365945816,0.4240599572658539,-0.35025477409362793,1.3296910524368286,-0.4164543151855469,-0.10043426603078842,1.0665680170059204,-0.7251986265182495,-0.05623530596494675,-0.3963962197303772,0.43839630484580994,1.2890549898147583,-0.17368140816688538,0.11035986989736557,-0.8580127954483032,-0.3535350263118744,-0.5414230227470398,1.1186938285827637,0.6430509090423584,-3.2749600410461426,1.776563286781311,-0.5935987234115601,-1.789244532585144,-0.3011397123336792,0.3692500591278076,-1.6385166645050049,0.5767982006072998,0.8110085725784302,1.5946656465530396,-1.3303834199905396,0.6154959797859192,1.8622157573699951,0.6596014499664307,-0.5831398963928223,-0.3187429904937744,0.1514967828989029,-1.538753628730774,-0.6217794418334961,1.0020300149917603,0.07084670662879944,-1.500868558883667,0.6373769044876099,0.5426995754241943,-0.43658673763275146,-1.2524592876434326,-0.9345999956130981,-0.24263042211532593,-2.1540074348449707,-0.5996013283729553,0.05169067159295082,-1.8463767766952515,1.050188660621643,-0.2041565179824829,1.2414071559906006,-0.8990002870559692,1.6001530885696411,-1.8003748655319214,1.5902913808822632,-0.32994696497917175,-2.6568546295166016,-1.6332294940948486,1.6069813966751099,-1.7662385702133179,-0.6314617395401001,-1.4814788103103638,-0.3012882471084595,-1.3020470142364502,-0.809887707233429,2.42016339302063,0.4429172873497009,-2.0346486568450928,0.8222477436065674,0.8125196099281311,-0.4924338459968567,-2.316807985305786,1.3221991062164307,-1.8836424350738525,-1.026720643043518,1.1549441814422607,2.640751838684082,2.0807573795318604,-0.7411137223243713,0.3811761438846588,-0.032203882932662964,0.1686522513628006,-0.11563532799482346,-0.29893139004707336,1.596871256828308,-0.687667965888977,2.1034536361694336,-0.4083297550678253,-0.4785866141319275,0.0016388881485909224,-1.0623515844345093,-1.0753471851348877,-1.106194019317627,-0.20952239632606506,0.6480133533477783,0.6175118088722229,-1.0423953533172607,-0.11009366810321808,0.6075486540794373,-0.36510100960731506,0.12161758542060852,-0.25498324632644653,0.573992133140564,0.033147893846035004,-1.0375109910964966,0.6979187726974487,0.6010143756866455,-0.1395154744386673,1.0146875381469727,0.22909295558929443,-1.1760698556900024,2.4733328819274902,-0.7432613968849182,0.24703802168369293,-2.6149566173553467,0.38564562797546387,-1.805015206336975,2.4559645652770996,-2.833327054977417,-0.2427392452955246,2.887831449508667,2.86429500579834,-1.2957943677902222,3.0759365558624268,1.7781659364700317,2.299192190170288,-2.4973580837249756,1.3580420017242432,2.1615583896636963,-4.614656448364258,-1.2987877130508423,-2.2751591205596924,-1.8915882110595703,-0.41876479983329773,1.8516048192977905,2.8322255611419678,-1.3701450824737549,1.853519082069397,-0.9705988764762878,-2.4045205116271973,-3.498957633972168,-2.9507458209991455,0.28428709506988525,-0.17157450318336487,0.31482407450675964,0.36712905764579773,0.24402335286140442,0.24212980270385742,0.177444189786911,-0.17062462866306305,0.20644135773181915,-0.286624938249588,-0.16297580301761627,-0.26940712332725525,0.15898649394512177,0.25103023648262024,-0.35593381524086,-0.20095451176166534,0.32497891783714294,0.2518414258956909,-0.20538923144340515,0.15003538131713867,-0.26966118812561035,-0.2914240062236786,0.19035494327545166,-0.12182911485433578,0.26696446537971497,-0.18476828932762146,0.27050456404685974,0.22556807100772858,-0.3018966317176819,0.14457175135612488,0.29820486903190613,0.1304161697626114,-0.33328527212142944,1.5654932260513306,-1.2305123805999756,1.2923539876937866,-1.2429026365280151,0.729701042175293,-0.19114606082439423,2.0325093269348145,-1.0744585990905762,0.8905476331710815,2.107800245285034,0.9834663271903992,-1.1229743957519531,0.2740671932697296,1.2708771228790283,1.7572649717330933,-0.4370388686656952,0.7820467948913574,0.047040633857250214,-2.209041118621826,0.11575519293546677,2.1146080493927,-1.4598201513290405,-1.5006717443466187,1.0804380178451538,2.0310399532318115,-0.8714947700500488,0.6191844344139099,0.6627209782600403,-1.3002047538757324,-2.267609119415283,-1.6822305917739868,-0.3488447964191437,-0.4224468469619751,0.40278029441833496,0.3143100440502167,0.45805540680885315,0.06321275234222412,0.3975588381290436,-0.36704379320144653,0.35842466354370117,-0.3565092086791992,-0.398301362991333,-0.4535369873046875,0.46339118480682373,0.15304455161094666,-0.47733163833618164,-0.4387630820274353,0.1145491823554039,0.23074035346508026,-0.4376969337463379,0.48533815145492554,-0.2528323829174042,-0.44806888699531555,0.5587633848190308,-0.1016501933336258,0.035171329975128174,-0.4516945481300354,0.39764025807380676,0.19296596944332123,-0.31259167194366455,0.5283671617507935,0.48948147892951965,0.4339211583137512,-0.4200606346130371,-1.6064738035202026,0.3684515058994293,-1.3057194948196411,1.485759973526001,-1.3200984001159668,0.09124365448951721,-1.431291937828064,0.5578082799911499,-0.8866252303123474,-1.6508578062057495,0.12063611298799515,1.5887229442596436,-0.30066514015197754,-1.058153510093689,-1.4521005153656006,0.627686619758606,-0.7151176929473877,-1.0352745056152344,0.7321326732635498,0.027457717806100845,-0.10019943863153458,1.4454901218414307,0.8906541466712952,2.0469701290130615,-1.4629597663879395,0.9189983010292053,0.3947303593158722,0.8551625609397888,1.4425435066223145,2.014864206314087,0.5385152697563171,-0.9006080031394958,1.2484921216964722,-1.0108484029769897,0.8082271218299866,-1.0541094541549683,0.6531782150268555,-0.4954940974712372,1.1403506994247437,-0.42183777689933777,0.6900347471237183,1.3786566257476807,1.086362600326538,-0.6999303698539734,-0.18557095527648926,0.8408910632133484,0.7456573247909546,0.5735418796539307,0.8444877862930298,-0.21236735582351685,-1.329809308052063,-0.02021661028265953,0.9171833992004395,-1.1952147483825684,-0.980307936668396,0.420598566532135,1.3789561986923218,-0.5120041370391846,0.627045214176178,-0.1555522084236145,-1.427134394645691,-1.2109460830688477,-0.626846969127655,-0.17503337562084198,-0.3910622000694275,-0.07557342946529388,-0.030358530580997467,0.3057584762573242,0.230585515499115,0.5055661201477051,-0.30492258071899414,0.29755011200904846,-0.18349051475524902,-0.37036246061325073,-0.3491164743900299,0.2463626265525818,0.06144268065690994,3.211001396179199,-0.23785282671451569,0.09119594842195511,0.0270368792116642,-0.30168417096138,0.3006228804588318,-0.0016456833109259605,1.4124791622161865,0.16487804055213928,-0.19292214512825012,0.0033497223630547523,-0.2889561653137207,-0.028188558295369148,0.07494363188743591,-0.0020953945349901915,0.25907886028289795,-0.19527077674865723,0.4925719201564789,2.1633412837982178,-1.0023436546325684,-0.026592478156089783,0.6473599672317505,0.7800871729850769,-1.0534031391143799,-0.48752477765083313,-2.578643321990967,-1.0962954759597778,-0.9394199252128601,-1.776448130607605,1.8531450033187866,2.2087600231170654,1.2937617301940918,0.7329491972923279,-2.3936188220977783,-0.08630049973726273,0.17263996601104736,0.10888107120990753,0.7130166292190552,-0.5261579751968384,1.5137513875961304,0.882112443447113,1.3490896224975586,0.18520519137382507,-0.7271488308906555,0.7792959809303284,0.545445442199707,-1.405051827430725,1.481886625289917,-0.11362221837043762,-0.8961822390556335,-1.6989423036575317,0.27464422583580017,-0.07685842365026474,-0.15045799314975739,-0.1650974303483963,-0.3426910638809204,-0.22425030171871185,0.2462611198425293,-0.24132932722568512,0.08862171322107315,0.25914186239242554,0.06398019939661026,-0.22843743860721588,-0.06888483464717865,-0.3233552575111389,0.2169031798839569,-0.1885918229818344,-0.08032940328121185,0.2725146412849426,-0.23364205658435822,0.17165134847164154,-0.28926435112953186,-0.27732858061790466,0.36566439270973206,-0.1077410951256752,0.22793129086494446,-0.08743514865636826,-0.0903383195400238,0.05341816693544388,-0.1975812315940857,-0.11477858573198318,-0.29442286491394043,-0.2847656309604645,0.5186814665794373,-3.002215623855591,-0.5656400322914124,-1.4310739040374756,2.323457956314087,1.0188109874725342,2.2314841747283936,-0.39956218004226685,1.691469669342041,1.5620743036270142,-1.280369520187378,-0.5197523236274719,-0.4827122986316681,0.2306644469499588,1.4061930179595947,-2.6380202770233154,-2.4433705806732178,1.6405084133148193,-1.0631704330444336,1.4084540605545044,-0.13822482526302338,-0.4879471957683563,-3.6821277141571045,-3.0801260471343994,0.8717219829559326,-2.602896213531494,-1.125369668006897,2.1566121578216553,-0.672447919845581,-4.867922306060791,-3.8892996311187744,3.2332839965820312,2.2892372608184814,0.45465949177742004,-0.6324178576469421,-2.869983434677124,1.639920711517334,-0.13636426627635956,2.668682813644409,0.8973422646522522,-1.652580738067627,2.469341278076172,-0.11049947887659073,-1.7621707916259766,-0.9627005457878113,1.1169012784957886,1.9425710439682007,-0.09986370801925659,2.4382293224334717,1.5817551612854004,-2.234957695007324,0.24996836483478546,0.7115927934646606,-3.283658504486084,1.0929336547851562,1.6491106748580933,2.980567216873169,0.14121395349502563,-0.21006853878498077,-0.09328353404998779,-1.9386448860168457,-0.8542107343673706,-1.9219330549240112,0.044328317046165466,1.0318268537521362,0.39212194085121155,0.5829483866691589,-1.0716577768325806,0.6238415837287903,0.41298139095306396,1.1437119245529175,0.22535200417041779,-0.5581362843513489,1.2146031856536865,-0.17936094105243683,-0.7900817394256592,-0.478921502828598,0.5809366106987,1.6541591882705688,-1.1835076808929443,0.05805438011884689,0.4676266014575958,-0.710212230682373,-0.49345701932907104,-0.11193282902240753,-1.3292988538742065,0.5074917078018188,0.13792361319065094,0.9688242077827454,0.559101939201355,-0.16869352757930756,-0.608848512172699,-0.6531966328620911,-0.9084523916244507,-0.3102782666683197,0.09447191655635834,0.458237886428833,-0.5310371518135071,0.6745249629020691,-0.49622979760169983,0.47705838084220886,-0.47404220700263977,0.2570040225982666,-0.484291672706604,0.22008579969406128,0.3849804997444153,0.6885567307472229,-0.17418687045574188,0.0028901277109980583,0.002600737614557147,0.22492769360542297,0.7198610901832581,0.008139644749462605,0.39391741156578064,-0.5027114748954773,0.08686335384845734,-0.07243582606315613,-0.4049617350101471,0.35013481974601746,-0.0769648402929306,0.5457133650779724,0.4183726906776428,0.016735946759581566,-0.22660711407661438,-0.361721396446228,-0.880120038986206,-0.3133981227874756,-0.24539771676063538,-0.47765758633613586,-1.6652922630310059,-1.7549936771392822,0.27114322781562805,1.2134482860565186,1.7414491176605225,-0.0945877805352211,2.8426153659820557,2.542210340499878,-0.048518646508455276,-4.576867580413818,1.1159437894821167,-3.9339215755462646,1.2082873582839966,-0.1114690899848938,-1.9705557823181152,-1.6757729053497314,1.5893502235412598,0.4821496605873108,3.338873863220215,-0.2799445688724518,0.2637959122657776,-1.0153119564056396,-2.571695566177368,-0.45261141657829285,-1.0623751878738403,-3.010990858078003,3.1322951316833496,0.3829866051673889,-3.820932626724243,-2.4312245845794678,0.7914617657661438,-0.9305269122123718,1.523141622543335,-0.6094204783439636,1.4627420902252197,-0.961188018321991,1.1449925899505615,-0.4610878825187683,1.0564581155776978,-1.4118671417236328,-0.9235156774520874,-1.4969691038131714,0.6706393361091614,-0.3572368025779724,-1.3273088932037354,-0.5945106148719788,-1.2587709426879883,-0.4267183542251587,-0.9171789288520813,1.4966857433319092,0.0714244395494461,-1.2393211126327515,0.7531855702400208,0.14564324915409088,-0.179098978638649,-1.4572455883026123,-0.14843575656414032,-0.7847316265106201,0.2858371138572693,0.6463339924812317,1.656018614768982,0.6360626220703125,-0.07643318176269531,0.0078004454262554646,-0.13866430521011353,0.39468660950660706,0.07141540199518204,0.5483189225196838,0.031586047261953354,-0.032372038811445236,0.07737810164690018,0.003302603494375944,-0.04370138421654701,0.16013647615909576,-0.11848854273557663,0.26710018515586853,0.44696223735809326,0.038295235484838486,0.477360337972641,0.2171628475189209,-0.03319334238767624,0.039892710745334625,-0.22103144228458405,0.4459454119205475,0.2128334492444992,-0.3782763183116913,0.15878836810588837,-0.01975846290588379,0.22299905121326447,0.31844836473464966,-0.18385057151317596,0.10864920914173126,-0.21624906361103058,0.23087528347969055,0.35387080907821655,-0.654607355594635,-0.33037030696868896,-1.2728596925735474,0.3419390618801117,4.188310146331787,-0.03512507677078247,-0.07351622730493546,1.7102687358856201,-1.2956266403198242,-0.47757619619369507,-1.5891034603118896,-3.410862445831299,2.947136640548706,3.7314939498901367,-1.2258837223052979,-1.2534061670303345,0.8446221947669983,-1.6695935726165771,0.42082861065864563,-2.2790801525115967,-0.3055577278137207,1.8770540952682495,-2.260418653488159,-0.7418762445449829,-0.5724602937698364,-0.2863771319389343,1.0700619220733643,0.49166861176490784,0.7021179795265198,-0.9023785591125488,0.6550262570381165,0.2840527296066284,-0.6924167275428772,1.6119983196258545,-0.8972337245941162,0.5237671136856079,-0.8648321032524109,1.3970377445220947,0.4682965874671936,0.4795813262462616,-1.6809953451156616,-0.5826898813247681,-2.0314419269561768,0.011192642152309418,-1.8135486841201782,-3.0410351753234863,0.09316157549619675,-0.7724688053131104,-0.6520838141441345,-1.8680188655853271,0.5377116203308105,0.7437177896499634,-2.017817258834839,0.9035806059837341,-0.7548108100891113,0.35880643129348755,-0.4994756877422333,-0.8475712537765503,-0.632885217666626,-0.13242284953594208,-0.015115390531718731,1.5262035131454468,0.8682794570922852,-0.8395920991897583,0.4577358365058899,0.7790049314498901,-0.31195181608200073,-0.9892004132270813,3.65647554397583,-1.498642921447754,0.38138777017593384,-0.6143063306808472,-1.8062752485275269,0.7053439021110535,0.8908195495605469,-0.10672657936811447,1.5626767873764038,-1.1714969873428345,0.09150134027004242,-1.5582588911056519,0.8784933090209961,0.9642361998558044,-0.8645657300949097,-0.5773610472679138,-1.103487491607666,-0.3895108997821808,-2.061605215072632,0.010539023205637932,0.45106327533721924,2.8243119716644287,0.33081671595573425,-2.3552043437957764,-0.7572362422943115,-0.7731904983520508,-1.1532642841339111,1.2698438167572021,1.028393030166626,-0.8176128268241882,0.23232220113277435,-1.0346083641052246,0.8992367386817932,-0.9621694684028625,0.796238362789154,-1.0698069334030151,0.6811266541481018,1.040963888168335,0.9377695322036743,-0.8077185750007629,0.3306935131549835,1.5034197568893433,0.8761718273162842,0.7135412096977234,-0.007318668067455292,1.0940070152282715,-0.9464046955108643,0.04489025101065636,0.7375263571739197,-0.7560809850692749,-0.0913686752319336,0.21235129237174988,1.0492806434631348,0.21000711619853973,-0.11833669990301132,0.34756359457969666,-0.9996165633201599,-2.46366548538208,-0.5581732988357544,0.774629533290863,0.8906753063201904,-1.6075809001922607,0.9779275059700012,-1.2300983667373657,1.0439367294311523,-1.0631765127182007,0.4542650580406189,-1.0009536743164062,1.217844009399414,0.8186328411102295,1.4513345956802368,-0.2991756498813629,0.47166889905929565,1.2834362983703613,0.478867769241333,0.8181328177452087,0.5166921615600586,0.4387671947479248,-1.2382930517196655,-0.4078234136104584,0.6259564161300659,-1.0483193397521973,-0.27986249327659607,0.5361975431442261,1.2166271209716797,0.3184313178062439,0.5461539030075073,-0.9342020153999329,-0.9219703078269958,-1.5043994188308716,-0.8675156235694885,0.01655755005776882,0.9916219115257263,1.7411844730377197,-0.7575877904891968,-0.7325566411018372,0.8317602872848511,-0.7294212579727173,1.2585352659225464,0.5845417976379395,-6.61301851272583,0.9451727867126465,-2.1441917419433594,-1.8499256372451782,-1.8939979076385498,-2.6523079872131348,1.5512555837631226,-1.8772796392440796,-1.5686630010604858,0.9231805801391602,-1.7016695737838745,1.4785069227218628,-2.180049419403076,-0.6035705804824829,1.4267113208770752,-1.1941999197006226,0.8802146911621094,1.0776469707489014,-1.899688482284546,-1.3153973817825317,-1.0167917013168335,-0.08379344642162323,1.5896321535110474,2.6144416332244873,0.30416104197502136,-0.4295121729373932,0.36058616638183594,-0.2749013900756836,0.5066816210746765,-0.2202795147895813,0.03744077682495117,-0.22202259302139282,0.11752800643444061,0.1792132705450058,0.4972825050354004,0.12349768728017807,-0.0708865076303482,-0.23282542824745178,0.04675957188010216,0.3078700006008148,-0.13868941366672516,0.2157195806503296,-0.31650587916374207,0.18346014618873596,-0.2843590974807739,-0.2179761826992035,0.4793606996536255,-0.1665366142988205,0.30028679966926575,0.3843454122543335,-0.12154368311166763,-0.35796523094177246,-0.10816112905740738,-0.9625712633132935,-0.32693901658058167,-0.5259267687797546,-1.5795150995254517,0.5652188658714294,1.1723999977111816,1.7712805271148682,0.968163788318634,0.8716214895248413,-1.7236384153366089,1.3884203433990479,-1.0754402875900269,-1.7998645305633545,-0.8368927240371704,0.8137853741645813,0.1605275571346283,-0.853181004524231,-1.5015645027160645,2.4673285484313965,0.7077639698982239,-1.6707953214645386,1.7285106182098389,-1.622503399848938,-1.4165610074996948,1.8738676309585571,0.5680398941040039,0.2995155155658722,-1.5659483671188354,1.551762580871582,0.8366683721542358,-1.4984318017959595,1.6159974336624146,1.5369174480438232,0.6569226980209351,-2.065958023071289,-0.3281687796115875,0.3740794062614441,-1.291715145111084,0.37094202637672424,-0.7632429599761963,2.356632947921753,-0.11880350112915039,0.49368351697921753,0.005325468722730875,-0.32194647192955017,-1.3705731630325317,0.28947535157203674,-1.7987035512924194,-1.1933997869491577,-1.2856605052947998,-0.11240361630916595,0.2838779389858246,-1.3646984100341797,0.6475633978843689,1.1337882280349731,-0.9116659760475159,1.1807314157485962,-0.4911090135574341,0.6040370464324951,-0.6771247982978821,-1.1265685558319092,0.17020568251609802,-0.45969873666763306,0.6039694547653198,1.63846755027771,1.9601315259933472,-1.1108709573745728,-0.17177444696426392,-0.3293464183807373,0.22789281606674194,-0.06023452430963516,0.10753284394741058,0.33560070395469666,-0.24334318935871124,0.37345457077026367,0.36894509196281433,-0.2638041377067566,-0.3385658264160156,0.5386027097702026,-0.21170596778392792,0.6189461946487427,-0.5730921030044556,-0.05184466391801834,-0.20139215886592865,-0.2762937843799591,0.3087061941623688,0.14714758098125458,0.06500716507434845,0.7790828943252563,-0.03436991572380066,-0.2892685830593109,-0.32635965943336487,-0.4605063796043396,-0.46408405900001526,0.18617761135101318,0.4312562346458435,-0.021444100886583328,0.4443354308605194,0.07534725219011307,-0.3744702637195587,0.8050956726074219,-0.9032320380210876,1.2508496046066284,0.20288826525211334,0.8632779121398926,-0.4915836453437805,2.0517125129699707,-1.3545626401901245,-1.0108472108840942,-1.3225910663604736,0.5987751483917236,-0.3862272799015045,-0.923160970211029,-0.12348871678113937,0.3225366473197937,-0.42622023820877075,-1.1114615201950073,1.0211081504821777,0.22926171123981476,-1.9288537502288818,0.8218739032745361,-0.6365984082221985,-0.4903678297996521,-1.2171807289123535,0.3517647981643677,-0.4305458664894104,-1.6152184009552002,0.615286111831665,0.6804817318916321,1.3214073181152344,-0.4128633141517639,0.12440916895866394,0.5115182995796204,-2.288942813873291,-0.18735261261463165,-0.09136661887168884,1.9854837656021118,0.6696321368217468,2.3939056396484375,-0.46431857347488403,0.6405386924743652,-2.1077418327331543,-2.9427473545074463,-4.354803085327148,-0.7382092475891113,2.2395079135894775,-0.026028480380773544,-3.8001461029052734,0.40385180711746216,-0.07554270327091217,4.370382308959961,-0.6306573152542114,-1.0100089311599731,-1.4216746091842651,0.42418259382247925,0.19217023253440857,0.8266741037368774,-3.844689130783081,-0.11790825426578522,-0.032356295734643936,-0.26028886437416077,-0.047628771513700485,-0.5479803681373596]},"cellActivationBias":{"rows":32,"columns":1,"weights":[-0.11181987822055817,-0.5266890525817871,1.263564944267273,-0.6094103455543518,2.6608762741088867,-2.4831197261810303,-0.6380288004875183,-2.647608995437622,-0.11633189022541046,0.0008083580178208649,4.076934814453125,0.37383341789245605,4.116213321685791,1.3057817220687866,-0.14345136284828186,1.7556508779525757,2.173184394836426,0.7398173809051514,-0.43170663714408875,-3.478850841522217,1.0666779279708862,0.272388219833374,0.4768873155117035,1.5843298435211182,0.30783811211586,1.3896136283874512,4.017787456512451,-1.4359512329101562,0.5356213450431824,-0.8640819787979126,0.006901306565850973,-0.2176128774881363]}},{"inputMatrix":{"rows":16,"columns":32,"weights":[2.854994773864746,1.2249633073806763,-1.8922209739685059,-1.926163673400879,0.7330429553985596,1.5098861455917358,2.2557621002197266,0.6119682788848877,-0.38685810565948486,3.063565492630005,-0.3520487844944,-2.3027138710021973,-0.15384817123413086,2.837825298309326,2.440930128097534,1.072633147239685,0.699397623538971,2.0995593070983887,-1.0443134307861328,-1.0370277166366577,2.9014382362365723,-0.5111433267593384,2.229752779006958,1.4579745531082153,3.132399320602417,0.8836933970451355,0.12517958879470825,-2.744136333465576,-2.2905702590942383,-0.2011195421218872,-1.0172514915466309,-0.9524388909339905,2.34482741355896,0.16454996168613434,-0.5683004260063171,-1.456836223602295,-1.0174717903137207,-1.0034589767456055,1.9657471179962158,-1.0663278102874756,0.263223797082901,1.5872567892074585,0.756460428237915,-2.1678664684295654,0.5767674446105957,-1.0853660106658936,1.259778380393982,-0.6666160821914673,1.7148041725158691,-0.16300395131111145,-3.374227285385132,-0.5783725380897522,0.03426855430006981,-1.5150226354599,-0.8642974495887756,2.111297130584717,1.9231449365615845,-1.6331000328063965,2.0247373580932617,-0.014387416653335094,-1.2725564241409302,-3.016458749771118,-4.225072383880615,0.8118509650230408,1.679823637008667,-1.841745138168335,-2.6470131874084473,-1.3844010829925537,-4.794692516326904,0.49937862157821655,2.731818914413452,-1.3277369737625122,11.493224143981934,2.4355220794677734,-1.7901310920715332,-1.0362310409545898,-0.1850312054157257,1.6191166639328003,1.8713403940200806,4.906030178070068,0.8467129468917847,-1.1733306646347046,-1.9932200908660889,-2.031385898590088,1.6438966989517212,-0.31743988394737244,-1.7991671562194824,4.310285568237305,1.7957801818847656,-6.299790382385254,-0.8331499695777893,1.8793951272964478,-0.898381769657135,2.72765851020813,-3.7078027725219727,1.7750805616378784,2.12808895111084,-2.1578335762023926,1.5343798398971558,-3.0393378734588623,1.1255096197128296,-2.1300976276397705,1.8996788263320923,-1.0862606763839722,2.2575221061706543,1.5181092023849487,2.3882720470428467,-1.037781000137329,1.3516528606414795,0.3052551746368408,1.669111967086792,0.25135570764541626,0.2586219012737274,2.0985357761383057,-2.1118533611297607,-0.4741802215576172,0.42115819454193115,-1.3540846109390259,-0.8521869778633118,-0.30154380202293396,1.8411771059036255,0.1451285034418106,0.9804933667182922,0.32833945751190186,-2.394888162612915,-2.5196123123168945,-1.1036794185638428,1.3608123064041138,-2.327425718307495,1.2829349040985107,-2.2716567516326904,2.779547929763794,0.3619134724140167,5.846445083618164,-2.8544788360595703,0.4529702961444855,5.057576656341553,-0.4663255512714386,-1.0684610605239868,1.9909634590148926,-6.196771144866943,2.415287494659424,-2.36936616897583,-0.33101627230644226,0.2092612236738205,-2.1001172065734863,2.511530637741089,5.236215114593506,6.376552104949951,0.4964965879917145,-6.351900100708008,-4.709036827087402,-1.8064099550247192,-11.821907043457031,-4.343468189239502,3.850149631500244,0.7332406044006348,0.12056120485067368,-1.5657830238342285,-1.2258507013320923,3.8154499530792236,-3.816286087036133,0.2007780820131302,-3.989570140838623,0.2825886607170105,-2.321723461151123,1.4186943769454956,-2.6129374504089355,2.9930944442749023,3.7336232662200928,2.4654293060302734,-2.949625253677368,1.4232099056243896,-0.20181120932102203,1.9655393362045288,-0.40197306871414185,1.176112413406372,2.364595413208008,-4.0566725730896,-0.7952038645744324,0.20078884065151215,-0.7747174501419067,-2.1346232891082764,0.2589445412158966,4.148773193359375,-0.4493253827095032,1.600342869758606,1.2811870574951172,-3.220386266708374,-4.734778881072998,-3.1213526725769043,1.2998167276382446,0.1602606177330017,-0.39063769578933716,1.3559482097625732,1.3663318157196045,-0.030850915238261223,0.18934650719165802,0.10290509462356567,-0.42635858058929443,-3.6127512454986572,-0.5006057024002075,-0.8459879755973816,1.4810614585876465,-0.38836511969566345,-0.6268398761749268,-0.36850765347480774,2.9556164741516113,0.7105308771133423,-0.5329083204269409,-0.14048877358436584,0.16481944918632507,1.6597142219543457,-1.6892085075378418,2.804324150085449,1.8030545711517334,0.09488154202699661,0.5874854326248169,0.12831340730190277,-2.062352180480957,-0.1280679702758789,0.47199565172195435,2.4685699939727783,-3.1695504188537598,2.9712870121002197,2.0060250759124756,-2.4583489894866943,-2.3389673233032227,1.0551167726516724,0.9258834719657898,2.4456422328948975,0.6883723139762878,-3.389890432357788,1.2303218841552734,-0.109380804002285,0.8099480867385864,-1.6127103567123413,1.8436609506607056,1.7567673921585083,3.956019163131714,2.4516353607177734,1.6962158679962158,0.3162135183811188,-0.23066958785057068,-0.6631399989128113,-2.3672702312469482,2.074509859085083,2.1561334133148193,3.10296368598938,1.0119961500167847,-0.41006436944007874,-3.7594172954559326,-2.4467461109161377,0.9472787976264954,0.6653760671615601,-0.2150607854127884,-0.8402898907661438,0.8048135638237,-0.45076054334640503,0.7871196269989014,-0.5406421422958374,0.6175916790962219,-0.05650939419865608,0.18729473650455475,-0.1290893256664276,-1.9915701150894165,-1.1696199178695679,0.7348005771636963,-0.6754271388053894,0.5439539551734924,-0.4556112289428711,0.18167588114738464,-1.0620090961456299,-0.1764451414346695,0.6733424663543701,0.36351004242897034,-0.5625957250595093,-0.00573170930147171,0.37799790501594543,1.0945268869400024,-1.9633113145828247,0.9293925762176514,-0.7821798920631409,-1.7319635152816772,1.278540849685669,2.548030376434326,1.4792346954345703,-0.3795740008354187,-0.5728131532669067,1.3499195575714111,-1.467231273651123,0.698147177696228,-0.8670020699501038,0.7054544687271118,-1.2208596467971802,1.4456982612609863,-0.7689096331596375,-1.5098910331726074,-1.1642628908157349,0.31758731603622437,-1.0423998832702637,0.3373686671257019,-1.7447965145111084,-0.6000795960426331,-0.22052979469299316,-1.8519234657287598,0.6817453503608704,-0.11086082458496094,-0.16390667855739594,1.0840067863464355,0.7680969834327698,-1.1343849897384644,-1.8826318979263306,0.4491172134876251,-0.9277671575546265,-0.3728964626789093,1.3822777271270752,1.0927678346633911,0.31808045506477356,-0.6185363531112671,1.8504973649978638,-2.05782151222229,0.040501080453395844,-2.2625467777252197,0.2545367181301117,-1.4717235565185547,2.047809600830078,-2.5802881717681885,2.319247007369995,2.4086334705352783,1.5463005304336548,-2.0579779148101807,0.1650220900774002,1.5902972221374512,1.3289527893066406,-0.3517369329929352,-0.1874474734067917,1.67154061794281,-3.2321770191192627,0.2073887586593628,1.575461745262146,-2.1164121627807617,-1.1487529277801514,0.34538641571998596,2.1982686519622803,0.2258031815290451,0.14219936728477478,0.5900053381919861,-1.9386242628097534,-3.275578260421753,-2.0490715503692627,0.47534987330436707,2.1771023273468018,-0.9309496879577637,-2.4314324855804443,-2.721069812774658,0.152364581823349,-0.2219933569431305,2.335986852645874,0.8144030570983887,2.310868501663208,2.414916753768921,-0.9206281900405884,-3.023758888244629,-1.1213455200195312,0.2746763825416565,3.1687018871307373,-5.865751266479492,-1.3911190032958984,3.521066427230835,-2.0850441455841064,2.113311529159546,1.0185374021530151,-2.783661127090454,-1.6335992813110352,-3.40112042427063,2.3975706100463867,-0.08307141810655594,-1.4244743585586548,0.7405622005462646,-2.3386638164520264,-5.2231268882751465,-3.5978572368621826,3.4925312995910645,4.5854268074035645,-0.08701922744512558,0.6650041341781616,-5.159670352935791,8.125178337097168,-5.138465404510498,3.1005699634552,-2.7956573963165283,-0.9862785935401917,3.2735393047332764,1.3850594758987427,-1.2778784036636353,0.6346831321716309,0.11397973448038101,2.4977526664733887,1.3949116468429565,0.7332028746604919,2.079803705215454,-3.6954174041748047,-0.9449061751365662,0.059067536145448685,0.2492297887802124,1.8245959281921387,0.24843920767307281,4.334739685058594,2.5005147457122803,1.6528615951538086,-1.7723363637924194,-2.971020221710205,-1.189395785331726,0.5130075216293335,-4.034422397613525,3.6457526683807373,-1.2082295417785645,-2.854163408279419,-2.439533233642578,-2.5316162109375,5.33480978012085,2.028312921524048,0.5766382217407227,1.0078191757202148,3.3917899131774902,-1.7589596509933472,-1.1016000509262085,-2.6944825649261475,-3.143563747406006,0.7316697835922241,-2.002986431121826,-1.4559012651443481,-0.7684748768806458,-3.837712287902832,2.819692373275757,-3.3489530086517334,-1.5101617574691772,-2.4626264572143555,0.012453441508114338,3.1838877201080322,-4.148928165435791,-2.2400662899017334,7.630833148956299,-3.425889015197754,-2.0058460235595703,-3.751502275466919,2.8056082725524902,1.9520084857940674,-0.05261741206049919,3.3036863803863525,-2.7789454460144043,4.298038005828857,-3.1716792583465576,2.4262466430664062,-2.5759084224700928,0.1636684089899063,2.3931503295898438,2.6009249687194824,-3.333397626876831,2.867396593093872,4.04529333114624,4.431596755981445,1.3797754049301147,0.023672232404351234,2.243727922439575,-1.0554125308990479,-0.41453373432159424,2.14789080619812,-1.7216159105300903,1.7622480392456055,1.2148956060409546,3.2053894996643066,1.5799148082733154,2.458261013031006,-0.5137700438499451,-1.1095936298370361,-0.5549359321594238,0.017368227243423462,-1.0864107608795166,4.056166648864746,-0.8517677783966064,3.8815183639526367,-4.702703475952148,5.596108913421631,-5.08540153503418,2.9407155513763428,-1.2775723934173584,0.25452324748039246,3.1810266971588135,1.8168898820877075,-3.133214235305786,1.1333351135253906,1.9262113571166992,3.2531259059906006,1.3277467489242554,3.1618454456329346,3.0477523803710938,-3.912242889404297,-2.095937490463257,-0.6339569687843323,-2.763484001159668,2.2516515254974365,1.1630457639694214,5.152237415313721,1.7165439128875732,5.1352620124816895,-1.8108114004135132,-2.1634933948516846,1.4019713401794434,2.449103832244873,-3.3260786533355713]},"inputHidden":{"rows":16,"columns":16,"weights":[1.7803080081939697,-3.906392812728882,1.1818461418151855,-0.5090300440788269,0.32398903369903564,-0.8646755814552307,-0.9849668145179749,-1.629235029220581,-0.905804455280304,-0.9417665004730225,-2.170041561126709,-3.1940042972564697,-2.50972318649292,1.9062210321426392,1.9917066097259521,1.7303560972213745,1.1183844804763794,0.843404233455658,-1.6137906312942505,0.9300211668014526,2.7866415977478027,2.842270851135254,1.217128872871399,-3.1696951389312744,1.6823279857635498,1.6364959478378296,1.8581650257110596,0.7658562064170837,1.3309680223464966,0.36669328808784485,-2.4439008235931396,-0.28229743242263794,1.6744807958602905,-0.23051872849464417,2.8333187103271484,-3.318641424179077,-0.13233615458011627,-5.643450736999512,-1.8010205030441284,-2.287099838256836,-0.7143075466156006,-0.1981188803911209,1.0196455717086792,1.0074952840805054,0.8447206020355225,3.740272283554077,-7.053862571716309,1.2878965139389038,0.04870991036295891,0.6879153251647949,-0.2965669631958008,-0.4454970359802246,1.2624297142028809,0.6926456689834595,0.2778981924057007,-0.5524989366531372,0.3555198609828949,0.36450639367103577,0.592989444732666,0.06222502514719963,0.4938822090625763,0.42175009846687317,-0.4332723021507263,0.23155291378498077,0.30707746744155884,0.11106240004301071,2.746150016784668,-2.0097274780273438,0.30280447006225586,7.547248363494873,-0.16445790231227875,0.8097373843193054,0.41053271293640137,0.5957660675048828,-4.897655963897705,3.468423843383789,-0.2720834016799927,-2.781155824661255,5.441153526306152,3.0823733806610107,2.0144381523132324,-0.4699871242046356,-1.8557043075561523,-1.200295090675354,1.330138087272644,0.7364308834075928,1.597191333770752,-1.9768809080123901,2.1716134548187256,1.979956030845642,0.8461742401123047,-0.6315728425979614,-0.8476666212081909,1.314180850982666,-1.9098387956619263,-0.06664512306451797,-1.4939790964126587,0.534298300743103,1.229670524597168,-0.815713107585907,-0.964759886264801,1.9297465085983276,-0.8533767461776733,1.659507155418396,-1.2346112728118896,-1.204897403717041,0.22756563127040863,0.012292897328734398,0.4582425355911255,-1.0129104852676392,2.0034146308898926,2.3321876525878906,-0.11585930734872818,-0.15369758009910583,0.8975269198417664,-1.9468281269073486,1.8863927125930786,2.065300226211548,-0.14801128208637238,-1.9193283319473267,-1.238959550857544,-1.1403791904449463,-2.7553584575653076,-0.7619056701660156,1.0079694986343384,0.675402820110321,-1.0469399690628052,2.0970139503479004,-0.3840920925140381,0.9642338752746582,0.7680966258049011,1.7856998443603516,-1.4965074062347412,-0.17989999055862427,-0.047191962599754333,-0.3444092869758606,-0.368404746055603,-0.33078595995903015,-0.8359472155570984,1.5476202964782715,0.5134050250053406,-1.7473506927490234,0.6346802711486816,-2.2433013916015625,-0.6531411409378052,0.20369389653205872,0.25753599405288696,1.514636754989624,-1.138567566871643,1.2912925481796265,-0.10441363602876663,-0.0041807955130934715,-0.31525537371635437,-0.400322288274765,-0.9652303457260132,1.8136407136917114,0.23783686757087708,-1.4530220031738281,0.6884716749191284,-0.27386143803596497,1.3147670030593872,0.6007605791091919,-1.6377838850021362,-1.4852579832077026,0.0976913571357727,0.48872610926628113,1.1435860395431519,-1.0612659454345703,1.1951137781143188,0.638303279876709,0.3994012475013733,0.0705265924334526,0.3339504599571228,1.751599669456482,-0.3771068751811981,1.3475279808044434,2.7343127727508545,1.1253132820129395,-6.251062393188477,-4.306559085845947,4.968818664550781,3.52709698677063,0.703991174697876,-5.285855770111084,1.206379771232605,1.4427720308303833,0.948525607585907,-1.3989661931991577,3.523726224899292,3.940110206604004,2.2435567378997803,10.232950210571289,1.7007120847702026,0.6268540024757385,-1.1501610279083252,-0.5311539769172668,2.3216519355773926,2.2286925315856934,1.0028886795043945,-2.215756416320801,0.5807176828384399,-0.5167121291160583,1.8977100849151611,0.4957312047481537,1.4100593328475952,1.7644338607788086,-1.3486011028289795,-1.471155047416687,4.050435543060303,-0.6610476970672607,-2.228578567504883,-1.8539695739746094,1.2889760732650757,0.984025239944458,0.625068724155426,-3.433732748031616,1.5660202503204346,1.585862636566162,1.3860961198806763,2.5781843662261963,-1.5103790760040283,1.872954249382019,-0.03405655175447464,1.7202857732772827,2.7992115020751953,-0.29908132553100586,0.36141237616539,0.06394751369953156,0.20553700625896454,0.3441565930843353,-0.851637601852417,0.5280070900917053,-1.15522301197052,-1.209165334701538,-1.369321584701538,-0.716417133808136,1.1010724306106567,1.5700842142105103,4.118724822998047,-0.36878466606140137,1.4851125478744507,0.7630282044410706,-1.2402693033218384,-1.6255550384521484,1.378743290901184,-1.2188862562179565,-0.744579553604126,-0.6563142538070679,-0.505898118019104,-0.8512723445892334,1.367555022239685,