if (!window.increasingByteSequence) window.increasingByteSequence = {}

window.increasingByteSequence.model = {"type":"LSTMTimeStep","options":{"inputSize":1,"inputRange":0,"hiddenLayers":[32,16,32],"outputSize":1,"decayRate":0.999,"smoothEps":1e-8,"regc":0.000001,"clipval":5,"maxPredictionLength":100,"dataFormatter":{"indexTable":{},"characterTable":{},"characters":[],"specialIndexes":[]}},"hiddenLayers":[{"inputMatrix":{"rows":32,"columns":1,"weights":[-0.0012757680378854275,1.6875667572021484,-0.2413945198059082,0.03392641618847847,1.660911202430725,0.17769645154476166,-0.017705164849758148,-0.09582024812698364,1.3338570594787598,0.13990947604179382,-0.4686524271965027,0.17209747433662415,-0.6007253527641296,0.4950609803199768,0.21207600831985474,1.2296139001846313,-0.7297973036766052,0.20317994058132172,-0.18276292085647583,-0.6698657274246216,0.4376656711101532,-0.3736141324043274,0.680159866809845,-0.6437787413597107,0.13979333639144897,0.23438264429569244,-0.6332014203071594,0.2662610113620758,-0.31978192925453186,1.8856428861618042,2.06512451171875,1.0466015338897705]},"inputHidden":{"rows":32,"columns":32,"weights":[0.6981160640716553,-0.6425256729125977,-0.11211179196834564,-0.7069531679153442,0.21546949446201324,-0.6777744889259338,0.6909404397010803,-0.6426580548286438,0.5952004790306091,0.7104208469390869,0.6840925216674805,-0.6760892868041992,-0.06963565945625305,0.6416767835617065,0.679969310760498,-0.1038527861237526,-0.033677659928798676,0.6292799115180969,-0.6196481585502625,-0.004651423543691635,0.07058132439851761,-0.6062644720077515,0.21312315762043,0.029029328376054764,0.7042471170425415,-0.1701863408088684,-0.0915108174085617,-0.11472033709287643,-0.5873583555221558,-1.1302235126495361,-0.4381729066371918,0.5283910036087036,-0.037152037024497986,-0.4016244411468506,-0.14822892844676971,0.004480753093957901,-0.7929715514183044,-0.0608825609087944,0.08939478546380997,-0.06389128416776657,1.0077621936798096,0.003754096105694771,-0.12409352511167526,-0.022343911230564117,-0.1090519055724144,-0.9246293902397156,0.03614060953259468,0.01752324216067791,-0.2932558059692383,-0.04671335592865944,-0.09580909460783005,0.33818140625953674,-0.3043680787086487,-0.107803113758564,0.1761510670185089,-1.3360079526901245,-0.04938110336661339,0.2198430299758911,-0.0814664214849472,0.28128474950790405,-0.1046910434961319,0.6513491272926331,-0.09458155930042267,-0.6825584173202515,-0.2868753969669342,0.27476993203163147,0.12268733233213425,0.33917054533958435,0.1676146686077118,0.31484684348106384,-0.2486109584569931,0.32689136266708374,-0.322274386882782,-0.27106335759162903,-0.2541970908641815,0.33185774087905884,0.108756422996521,0.11117271333932877,-0.32521095871925354,0.17815233767032623,0.16222265362739563,-0.270954966545105,0.2692291736602783,-0.13363316655158997,0.03667018935084343,0.2237866371870041,-0.26727017760276794,0.19407278299331665,-0.33293578028678894,0.14190398156642914,0.14106746017932892,-0.14881497621536255,0.25367704033851624,0.3058052361011505,-0.0791160985827446,0.14565344154834747,0.660551130771637,-0.5722776651382446,-0.15074113011360168,-0.6613609790802002,-0.02235574834048748,-0.5622413158416748,0.6088942289352417,-0.5666233897209167,0.5267502069473267,0.580630898475647,0.5066832900047302,-0.6623215675354004,-0.1983947604894638,1.0389026403427124,0.6222266554832458,-0.24179306626319885,-0.16812285780906677,0.5868298411369324,-0.6211890578269958,0.1678297519683838,0.29702821373939514,-0.5897069573402405,0.17154064774513245,-0.11024168878793716,0.6146469712257385,-0.16375568509101868,-0.21016719937324524,0.11202460527420044,-0.5424951314926147,-1.2909729480743408,-0.24404054880142212,0.6808292269706726,-0.7321153283119202,0.336722195148468,0.21558396518230438,0.7193096280097961,-0.8406965136528015,0.387233704328537,-0.6647987365722656,0.5868115425109863,-0.5652655959129333,-0.6956524848937988,-0.24472248554229736,0.697251558303833,0.19108398258686066,-0.04635246843099594,-0.7232553958892822,0.050494495779275894,0.09161695837974548,-0.6901137232780457,0.6855825185775757,-0.09037462621927261,0.14522290229797363,0.597106397151947,-0.38754236698150635,-0.23937930166721344,-0.6358519196510315,0.10587865859270096,0.302234023809433,-0.2889667749404907,0.677884578704834,1.2885733842849731,0.2606409788131714,0.20915524661540985,0.3664367198944092,-0.4088873565196991,-0.11389245837926865,-0.359462708234787,-0.05219107121229172,-0.34276074171066284,0.3701772689819336,-0.3189365267753601,0.35319772362709045,0.4253571033477783,0.3193890154361725,-0.38665705919265747,-0.12247087061405182,0.72462397813797,0.3390984535217285,-0.16259607672691345,-0.1686934232711792,0.3961732089519501,-0.4209612011909485,0.13953721523284912,0.11404602974653244,-0.3872790038585663,0.28345581889152527,-0.16965413093566895,0.393910676240921,-0.1903812438249588,-0.14552639424800873,0.1459430456161499,-0.3832494020462036,-0.9000227451324463,-0.3320426940917969,0.23290930688381195,0.7554027438163757,-0.6035863161087036,-0.029832839965820312,-0.6478336453437805,0.1464298665523529,-0.6564807295799255,0.626598596572876,-0.7235141396522522,0.4995792508125305,0.7300059795379639,0.5582517385482788,-0.7417120933532715,-0.0475420206785202,0.9423473477363586,0.7054905295372009,-0.16477638483047485,-0.060269974172115326,0.7339888215065002,-0.7175682783126831,0.10323585569858551,0.28391194343566895,-0.6580689549446106,0.23312713205814362,-0.025953205302357674,0.7368124723434448,-0.1225164532661438,-0.0640842467546463,-0.0006378560792654753,-0.6761434078216553,-1.2770637273788452,-0.3769861161708832,0.606922447681427,0.5327227115631104,-0.537253737449646,-0.16126517951488495,-0.5390061736106873,-0.013219845481216908,-0.40382620692253113,0.5074900388717651,-0.5042219161987305,0.4561418890953064,0.4839022159576416,0.48044469952583313,-0.4990883767604828,-0.2399672418832779,0.5941338539123535,0.4911513328552246,-0.26414239406585693,-0.2112918198108673,0.45773646235466003,-0.4332892894744873,0.1653408706188202,0.0707293450832367,-0.43459030985832214,0.16048206388950348,-0.18922290205955505,0.4808977544307709,-0.18980000913143158,-0.15467503666877747,0.12878911197185516,-0.4769894480705261,-0.948950469493866,-0.23965984582901,0.423855721950531,-0.25009581446647644,-0.5544729232788086,0.4877735674381256,0.21586649119853973,-0.10768012702465057,-0.2626537084579468,-0.2585642635822296,-0.21890263259410858,1.0708014965057373,-0.17130903899669647,0.7899243831634521,0.2611464262008667,0.5353623032569885,-0.2968918979167938,-0.18784859776496887,-0.4016401767730713,0.27838999032974243,-0.22245265543460846,0.16640806198120117,-0.307505339384079,-0.12280593067407608,0.12999826669692993,-0.11805585026741028,-1.782931923866272,-0.19294105470180511,0.2110423594713211,0.6283670663833618,-0.1958370953798294,0.24087686836719513,0.0331096313893795,-0.20408615469932556,-0.06933140754699707,0.6025852560997009,-0.7294822335243225,-0.08275096863508224,-0.5947920083999634,0.2443924993276596,-0.5980740189552307,0.570037841796875,-0.6540365815162659,0.6734427809715271,0.6345996260643005,0.5666232109069824,-0.5931910872459412,-0.0279022678732872,0.5423261523246765,0.5906792283058167,-0.07497736811637878,0.035104263573884964,0.6378042101860046,-0.5753132700920105,0.018992137163877487,0.04047917574644089,-0.5546639561653137,0.13529129326343536,-0.004731419496238232,0.5710248351097107,-0.0621851421892643,0.0036550641525536776,-0.13913898169994354,-0.6465323567390442,-0.8179497718811035,-0.4573849141597748,0.5003929138183594,-0.4636889398097992,0.761261522769928,0.013296850025653839,0.4527972936630249,0.36428430676460266,0.4991944134235382,-0.481993168592453,0.46026965975761414,-0.9203576445579529,-0.4828623831272125,-0.4784854054450989,0.4582546651363373,-0.10398564487695694,0.23108434677124023,-0.4786418080329895,-0.02629854530096054,-0.05430741608142853,-0.40937402844429016,0.4722796380519867,0.039438921958208084,0.31847280263900757,0.5328531861305237,-0.45646125078201294,-0.03131464123725891,-0.491802841424942,0.07689842581748962,-0.056425776332616806,-0.12335310876369476,0.46225666999816895,0.2473604828119278,0.3314257562160492,-0.02049095183610916,0.6159944534301758,-0.6351204514503479,-0.13861815631389618,-0.5669472217559814,0.054257284849882126,-0.5764434933662415,0.5639020204544067,-0.5310440063476562,0.5926559567451477,0.6444360613822937,0.5536953210830688,-0.5726079344749451,-0.18308939039707184,0.881403923034668,0.6319590210914612,-0.11486127972602844,-0.07742886990308762,0.6105527281761169,-0.5569329261779785,0.10356489568948746,0.13554394245147705,-0.5432697534561157,0.19959676265716553,-0.11536811292171478,0.5979336500167847,-0.18552641570568085,-0.18528538942337036,0.11947738379240036,-0.5153610110282898,-1.2129600048065186,-0.30520617961883545,0.49787914752960205,-0.36947864294052124,0.10666144639253616,0.07009928673505783,0.3495473265647888,0.02542058937251568,0.37441885471343994,-0.3120117783546448,0.40854611992836,-0.22279950976371765,-0.44751808047294617,-0.2612799108028412,0.38726115226745605,0.11653050780296326,0.1219824030995369,-0.3125635087490082,0.14475387334823608,0.12182174623012543,-0.35086044669151306,0.3372986912727356,-0.08903818577528,0.1722741276025772,0.34210044145584106,-0.3011491596698761,0.06600497663021088,-0.3178828954696655,0.09775707870721817,0.07751744985580444,-0.13289202749729156,0.34046709537506104,0.4401383399963379,0.015330499969422817,0.1980312615633011,-0.190054789185524,-0.07005412876605988,-0.5082701444625854,0.10656174272298813,-1.1373465061187744,0.2132849544286728,-0.08973589539527893,0.20013919472694397,0.7144133448600769,-0.2194957137107849,-0.24433979392051697,0.24562618136405945,-0.3944360315799713,-1.5769667625427246,-0.1672670543193817,-0.6191080212593079,-0.44800591468811035,-0.25218847393989563,0.14066538214683533,0.5288850665092468,-0.9768993854522705,0.08890402317047119,0.20202884078025818,-1.395586609840393,-0.2395564317703247,-0.47647228837013245,-0.48848551511764526,0.8720442056655884,0.10610207170248032,1.300089955329895,-0.29449689388275146,-0.8849431872367859,0.5893828272819519,-0.5496948957443237,-0.16767765581607819,-0.6009742617607117,0.02992280013859272,-0.5609066486358643,0.5379539728164673,-0.6150274276733398,0.45365145802497864,0.6014288067817688,0.43908777832984924,-0.6206830143928528,-0.14988066256046295,1.0928549766540527,0.5624359846115112,-0.1848045140504837,-0.09358269721269608,0.5485693216323853,-0.5764678120613098,0.166312113404274,0.4912051558494568,-0.5818740725517273,0.2547537088394165,-0.15153823792934418,0.598624050617218,-0.14961424469947815,-0.13609710335731506,0.14930659532546997,-0.5537639260292053,-1.3582980632781982,-0.2748911380767822,0.6336400508880615,-0.44510769844055176,0.5457484126091003,0.0005118129774928093,0.4267609119415283,0.21543745696544647,0.38208767771720886,-0.27606794238090515,0.40367835760116577,-0.41103193163871765,-0.3880937099456787,-0.3772250711917877,0.43078258633613586,0.08004537224769592,0.27866482734680176,-0.30836689472198486,0.08925673365592957,0.06739239394664764,-0.4220077395439148,0.33506515622138977,-0.0770798921585083,0.19333907961845398,0.2682475745677948,-0.2547704577445984,-0.015092042274773121,-0.41523846983909607,-0.00809833500534296,0.044761668890714645,-0.2294732928276062,0.3319307267665863,0.3484693169593811,-0.09306631237268448,0.18557730317115784,-0.4264196753501892,0.1995691955089569,0.045218247920274734,0.37481650710105896,0.012817276641726494,0.34204116463661194,-0.3887498378753662,0.3618876039981842,-0.22340309619903564,-0.35838642716407776,-0.3378283679485321,0.3710835576057434,0.12620697915554047,-0.010276658460497856,-0.3257492780685425,0.019438019022345543,0.1590542495250702,-0.43426811695098877,0.32309290766716003,-0.1310669183731079,0.1830844283103943,0.3614917993545532,-0.3068588972091675,0.11416877806186676,-0.36403897404670715,0.07538164407014847,0.06985649466514587,-0.10438626259565353,0.40521156787872314,0.5991681814193726,0.13286885619163513,0.2072773426771164,0.6612719297409058,-0.489734023809433,-0.16033224761486053,-0.6682453751564026,0.1432022899389267,-0.6053892374038696,0.5817888975143433,-0.5667585730552673,0.4599122107028961,0.5976042747497559,0.5861300230026245,-0.6962481141090393,-0.12603028118610382,1.0911883115768433,0.6216277480125427,-0.18940503895282745,-0.16543352603912354,0.6477819085121155,-0.5917260646820068,0.08112093806266785,0.0893058031797409,-0.5310384631156921,0.2924664318561554,-0.09156547486782074,0.661918580532074,-0.10461237281560898,-0.1186981052160263,0.018189916387200356,-0.6536568403244019,-1.2291518449783325,-0.3624585270881653,0.6610485315322876,0.7709977626800537,-0.6320882439613342,-0.10683829337358475,-0.7312191724777222,0.173723965883255,-0.6594893336296082,0.672062873840332,-0.7156489491462708,0.5252901315689087,0.688211977481842,0.6315274834632874,-0.7369588613510132,-0.03677728399634361,0.8793840408325195,0.7116439938545227,-0.11116258800029755,-0.08641160279512405,0.7698068618774414,-0.6817991137504578,0.10253488272428513,0.2485596090555191,-0.6042118668556213,0.26226308941841125,-0.13868595659732819,0.7737074494361877,-0.12368100881576538,-0.0627065896987915,-0.027543984353542328,-0.7215151190757751,-1.3323924541473389,-0.2907799482345581,0.5652126669883728,-0.2928602993488312,0.2110646516084671,0.18759843707084656,0.25777843594551086,0.0025715974625200033,0.3825986981391907,-0.24907782673835754,0.36337152123451233,-0.220799520611763,-0.3031097650527954,-0.29777801036834717,0.3339366316795349,0.19912227988243103,0.06873930990695953,-0.34178590774536133,0.20194391906261444,0.13340052962303162,-0.3181222677230835,0.28806424140930176,-0.10623754560947418,0.10334131121635437,0.2547553777694702,-0.31069695949554443,0.1323956698179245,-0.3320036232471466,0.13645561039447784,0.1385957896709442,-0.19409091770648956,0.30134257674217224,0.6471891403198242,0.008938017301261425,0.1085120290517807,-0.09537310153245926,0.7657238841056824,-0.5618470907211304,0.13028132915496826,-0.9445801973342896,0.1466245949268341,-0.11528504639863968,0.11096017062664032,0.11460766196250916,-0.10962512344121933,-0.30535322427749634,0.12424956262111664,-0.5016522407531738,-1.5251981019973755,-0.052864644676446915,-0.3998922109603882,-0.570224404335022,-0.14275723695755005,0.1317228078842163,0.655119001865387,-0.9625710844993591,0.09642639756202698,0.5245386958122253,-0.878002405166626,-0.13591228425502777,-0.34125465154647827,-0.5594741702079773,0.6615801453590393,0.04373479261994362,1.1727147102355957,-0.4061863422393799,-1.0408709049224854,0.8534469604492188,-0.6691834330558777,-0.15098713338375092,-0.820085883140564,0.032759763300418854,-0.6163065433502197,0.7903764843940735,-0.6678163409233093,0.538774847984314,0.776016891002655,0.5543884038925171,-0.8112627267837524,-0.2045217901468277,1.0067377090454102,0.8539012670516968,-0.19996125996112823,-0.14268027245998383,0.7825798988342285,-0.8320026397705078,0.19455134868621826,0.8017447590827942,-0.8021381497383118,0.2711440324783325,0.022898733615875244,0.8312902450561523,-0.2278062105178833,-0.1971481442451477,0.10474006831645966,-0.6840667724609375,-1.619566559791565,-0.31781384348869324,0.6928444504737854,0.5748186707496643,-0.49218329787254333,-0.09019211679697037,-0.5281049013137817,1.0236499309539795,-0.6766470670700073,0.5135324597358704,-0.6156755089759827,0.37812140583992004,0.5862870216369629,0.6985670924186707,-0.5465952754020691,-0.06669334322214127,-0.13281196355819702,0.5599319934844971,-0.3610575795173645,0.07335654646158218,0.6744734644889832,-0.5303542613983154,-0.1447695791721344,-0.28278791904449463,-0.5271512269973755,0.02519632875919342,-0.2681502103805542,0.5359664559364319,-0.5010541677474976,0.07802245765924454,0.0243533905595541,-0.6875696778297424,-0.4742250144481659,-0.38018813729286194,0.24360620975494385,1.3026642799377441,-0.7821781635284424,0.18832647800445557,-1.4057642221450806,-0.0671362578868866,-1.3305011987686157,1.2802833318710327,-1.242028832435608,0.6487564444541931,1.2290982007980347,1.4941308498382568,-1.3419657945632935,-0.07858230173587799,1.207412838935852,1.3830654621124268,-0.2068067491054535,-0.046642985194921494,1.3167990446090698,-1.3057069778442383,0.0232540275901556,0.9635124206542969,-1.2588064670562744,0.26832300424575806,-0.005800239741802216,1.3339409828186035,-0.008294044062495232,0.11758023500442505,0.1488887518644333,-1.2529034614562988,-1.4756335020065308,-0.14459602534770966,0.7229917049407959,0.6573430895805359,-0.5230981111526489,-0.09841448068618774,-0.6684732437133789,0.0798235833644867,-0.5838906168937683,0.5995972752571106,-0.623421311378479,0.4588235914707184,0.6179301738739014,0.5282701849937439,-0.615272045135498,-0.03172953054308891,0.7897952795028687,0.6471965312957764,-0.12453243136405945,-0.06650878489017487,0.60115647315979,-0.5956937670707703,0.04975394904613495,0.1782149076461792,-0.5494613647460938,0.2078743875026703,-0.07727301865816116,0.6626073122024536,-0.0661160945892334,-0.1414550244808197,0.024222243577241898,-0.6390977501869202,-1.2578247785568237,-0.36614394187927246,0.5413562655448914,-0.41765397787094116,0.252961128950119,0.008475602604448795,0.393825888633728,0.1945706158876419,0.3377698063850403,-0.38229653239250183,0.4417480230331421,-0.1843043863773346,-0.4417245090007782,-0.32846853137016296,0.41465070843696594,0.07442908734083176,0.25871071219444275,-0.4283389747142792,0.08617106825113297,0.13420464098453522,-0.4688766598701477,0.3983905613422394,-0.11124919354915619,0.14623352885246277,0.3125452697277069,-0.3345075249671936,0.12880952656269073,-0.48087745904922485,-0.027329489588737488,0.1049189418554306,-0.07428547739982605,0.4559939503669739,0.4805382788181305,0.08933645486831665,0.3276497721672058,-0.2521394193172455,0.2135818749666214,0.21376891434192657,0.16417092084884644,0.43155568838119507,0.194621741771698,-0.17402324080467224,0.23621860146522522,-0.1670624315738678,-0.19902081787586212,-0.14604522287845612,0.17458175122737885,0.2393936812877655,0.21968978643417358,-0.22107276320457458,0.13797211647033691,0.23711225390434265,-0.2860752046108246,0.2571554183959961,-0.2023724466562271,0.1386391520500183,0.25110897421836853,-0.25758078694343567,0.18956388533115387,-0.2516637444496155,0.225174680352211,0.1609991192817688,-0.14543423056602478,0.2646765112876892,0.013149091973900795,0.008736689575016499,0.17623765766620636,-0.45754677057266235,0.6769906282424927,0.060535646975040436,0.44312554597854614,-0.15549056231975555,0.521282970905304,-0.3765861690044403,0.4935697317123413,-0.5572945475578308,-0.48586925864219666,-0.4478890597820282,0.37644946575164795,-0.03919845446944237,0.018396003171801567,-0.4281073212623596,0.07470767199993134,0.06940030306577682,-0.4667288064956665,0.3987804353237152,-0.12011844664812088,0.04687328264117241,0.3083443343639374,-0.22518818080425262,-0.0020243173930794,-0.480535626411438,-0.017494941130280495,0.07093818485736847,-0.06013045832514763,0.40407678484916687,0.6349354386329651,-0.09226967394351959,0.21099747717380524,0.7086277604103088,-0.6060206890106201,-0.12466712296009064,-0.6316204071044922,0.1691572517156601,-0.6487658023834229,0.6557363867759705,-0.6099303960800171,0.6897220015525818,0.615566611289978,0.7348758578300476,-0.6177716851234436,-0.06303410977125168,0.43337610363960266,0.6407841444015503,-0.3156753480434418,-0.035356711596250534,0.719990074634552,-0.6626494526863098,0.07672549039125443,0.08260044455528259,-0.6823054552078247,0.05078654736280441,-0.0992886945605278,0.7049159407615662,-0.3166193962097168,-0.12851858139038086,-0.02569708786904812,-0.5947895646095276,-0.8232338428497314,-0.3458200991153717,0.43895453214645386,-1.2099382877349854,0.24625155329704285,0.3589972257614136,1.1902095079421997,0.026331713423132896,0.5120846033096313,-1.1107337474822998,0.549150288105011,0.21801410615444183,-1.2051624059677124,-0.4157257378101349,1.365273356437683,0.37796056270599365,-0.019603939726948738,-1.2899699211120605,0.11446629464626312,0.1955663561820984,-1.2011733055114746,1.2621008157730103,-0.07813863456249237,0.07588206976652145,1.1117783784866333,-0.8117850422859192,-2.6651482582092285,-1.254724144935608,0.4638519585132599,0.3128174841403961,-0.7418840527534485,1.0253986120224,1.120708703994751,-0.053867362439632416,0.4293832778930664,-0.34750989079475403,-1.0262305736541748,-0.3548966348171234,0.32747459411621094,-0.2952263355255127,0.055308397859334946,-0.3367723524570465,0.020171428099274635,1.4787566661834717,-0.38349005579948425,-0.18132944405078888,0.33636975288391113,0.1321762353181839,0.4234781563282013,-0.3799656331539154,-0.6776437759399414,-0.026208369061350822,-0.35177847743034363,0.34039103984832764,-0.08014686405658722,0.32542163133621216,0.36071324348449707,-0.9896913170814514,-1.7228370904922485,-0.4027174711227417,0.1155346930027008,0.056762341409921646,0.31115320324897766,0.24828049540519714,-0.038792990148067474,-0.3741297423839569,0.6847285628318787,-0.30288389325141907,-0.09872687608003616,-0.1066097766160965,0.1852952241897583,-0.5919991135597229,-0.2579945921897888,-0.22132593393325806,0.025643888860940933,0.46412262320518494,-0.21166351437568665,0.12376141548156738,0.2703525424003601,-0.044220831245183945,-0.2823347747325897,-0.2704072594642639,-0.23043705523014069,-0.2801113426685333,-0.22248566150665283,0.2710348665714264,0.39077815413475037,-0.1610925942659378,0.1875753551721573,0.14294219017028809,-2.1188440322875977,-0.2297162264585495,-0.34974125027656555,-0.0978005975484848,0.02744077704846859,0.20893731713294983,0.6210874915122986,0.10635881870985031,0.026466064155101776]},"inputBias":{"rows":32,"columns":1,"weights":[0.5289926528930664,-0.8293283581733704,-0.31683218479156494,0.5810117125511169,1.8261997699737549,0.6854143142700195,0.4406564235687256,0.4983600676059723,-0.8893373012542725,0.5114538669586182,0.9466583132743835,0.7255064249038696,-0.158010333776474,-0.07546215504407883,0.7282280325889587,0.5935571789741516,-0.19402070343494415,0.6269736289978027,0.3278844356536865,-0.20031967759132385,-0.4499205946922302,0.21041084825992584,-0.6919283866882324,-0.7414458394050598,0.6457198858261108,0.40028154850006104,-0.31502440571784973,0.6511394381523132,0.0971081331372261,1.6898313760757446,-2.5307118892669678,-0.6982566714286804]},"forgetMatrix":{"rows":32,"columns":1,"weights":[-0.6385217308998108,-0.49911704659461975,-0.030369769781827927,0.40813568234443665,-0.36733564734458923,-0.4415290057659149,-0.6619930863380432,-0.20744667947292328,-0.18494270741939545,-0.5582581162452698,-0.31799575686454773,0.27336227893829346,-0.03486528620123863,0.5440170168876648,0.4119431674480438,-0.21067535877227783,0.002057305769994855,-0.5803560018539429,0.29208260774612427,-0.017375117167830467,0.5321201682090759,-0.6931244134902954,0.454197496175766,0.5167680978775024,0.2729710042476654,-0.1984134167432785,-0.07770264893770218,0.15423358976840973,0.32895755767822266,2.0109078884124756,-0.8586728572845459,0.3832515776157379]},"forgetHidden":{"rows":32,"columns":32,"weights":[-0.09451083838939667,0.35835179686546326,-0.18595567345619202,0.10110168159008026,0.4402201175689697,0.0765988826751709,-0.02827332727611065,0.13927409052848816,-0.11022350192070007,-0.08968351781368256,0.13817602396011353,0.08563803881406784,-0.23128412663936615,-1.0011234283447266,-0.14193697273731232,-0.12423978000879288,-0.24533168971538544,-0.09582945704460144,0.06019232049584389,0.14357584714889526,-0.9897803068161011,0.04902166128158569,-0.3774794936180115,-0.08419042080640793,-0.020505521446466446,-0.17262637615203857,-0.30986329913139343,-0.08189376443624496,0.1377217024564743,0.700520932674408,0.17897285521030426,-0.5771496891975403,-0.2202063500881195,1.4738541841506958,-0.4142840802669525,0.06687940657138824,1.5025060176849365,0.10883036255836487,-0.05054838955402374,-0.058125272393226624,-1.3875681161880493,-0.1871069222688675,-0.7842958569526672,0.06546364724636078,-0.49559131264686584,-0.5279914140701294,-0.07960276305675507,0.1300174593925476,-0.2314787060022354,-0.13132703304290771,0.038022637367248535,0.21887217462062836,-0.6057693958282471,0.14763469994068146,0.4471983015537262,-0.008805396035313606,-0.027328984811902046,-0.44320744276046753,-0.5875601768493652,-0.36835649609565735,-0.010286036878824234,0.12160284072160721,-0.9198920726776123,-1.1282788515090942,-0.19983398914337158,0.19153504073619843,0.19784235954284668,0.25169864296913147,0.1797831952571869,0.2476387619972229,-0.21821874380111694,0.253287672996521,-0.21504220366477966,-0.2566143572330475,-0.24537986516952515,0.1880020946264267,0.16730564832687378,0.21126581728458405,-0.22415395081043243,0.20916227996349335,0.22728079557418823,-0.22492270171642303,0.20038598775863647,-0.18055643141269684,0.2605946362018585,0.2821658253669739,-0.2527068853378296,0.14865122735500336,-0.26710936427116394,0.22024153172969818,0.20177024602890015,-0.24438197910785675,0.284715861082077,0.2578389048576355,0.21689549088478088,0.20282967388629913,0.676082193851471,-0.35633209347724915,-0.1740538775920868,-0.7077190279960632,0.1420973837375641,-0.5825599431991577,0.6864250302314758,-0.5348248481750488,0.29353004693984985,0.6955366730690002,0.6419500112533569,-0.7157006859779358,-0.18084309995174408,0.18851786851882935,0.7174504995346069,-0.19611237943172455,-0.13949283957481384,0.6407548785209656,-0.7053735852241516,0.1815992295742035,-0.0927964523434639,-0.6502508521080017,0.09866020828485489,-0.06296425312757492,0.6984107494354248,-0.22335827350616455,-0.2101440727710724,0.09679152071475983,-0.5675811767578125,-0.8666214942932129,-0.16233724355697632,0.16966450214385986,-0.46779167652130127,0.21848146617412567,0.1759892851114273,0.535041332244873,-0.050688453018665314,0.2870766520500183,-0.5208389759063721,0.5142465829849243,-0.1664305478334427,-0.5394238829612732,-0.3153046667575836,0.4952431619167328,0.13246197998523712,-0.218986377120018,-0.48422718048095703,0.15671120584011078,0.18480078876018524,-0.43793973326683044,0.5437048077583313,-0.19726121425628662,-0.1476207673549652,0.43857166171073914,-0.35716164112091064,-0.05420590564608574,-0.4562526345252991,0.16534122824668884,0.1524762660264969,-0.18792277574539185,0.48865222930908203,0.6419470906257629,0.1592140644788742,-0.11863428354263306,-0.19172821938991547,0.013665641658008099,-0.2809310555458069,0.2041739970445633,-0.11073044687509537,0.14048954844474792,-0.09811413288116455,0.16498148441314697,-0.032936543226242065,-0.13173656165599823,0.11159691959619522,0.185746967792511,-0.3666166663169861,-0.6399177312850952,-0.2266882359981537,-0.2212226390838623,-0.3510913550853729,-0.16063709557056427,0.20093564689159393,0.2809458076953888,-0.6008127331733704,0.18054425716400146,-0.22851848602294922,-0.2669204771518707,-0.18958036601543427,-0.2931000590324402,-0.28327473998069763,0.28328925371170044,0.1995169222354889,0.5634859204292297,0.17708711326122284,-0.20916518568992615,-0.08707994967699051,0.4125403165817261,-0.2045624852180481,0.1333162784576416,0.38165831565856934,0.10689739137887955,-0.03485614433884621,0.15140855312347412,-0.07239289581775665,-0.07285112142562866,0.11101135611534119,0.12096942216157913,-0.2393750250339508,-0.6894124150276184,-0.05706685781478882,-0.15817412734031677,-0.1989438831806183,-0.10844030976295471,0.11388418823480606,0.1958276480436325,-0.7970144152641296,0.11629736423492432,-0.37133926153182983,-0.32276037335395813,-0.07024955004453659,-0.1553446352481842,-0.19856734573841095,0.08183573931455612,0.17512020468711853,0.5136580467224121,0.2184501588344574,-0.3129866123199463,-0.030207199975848198,0.3107159435749054,-0.34110674262046814,0.023794472217559814,0.7436471581459045,-0.0409400574862957,0.05097569152712822,-0.03144146502017975,-0.19480928778648376,0.03819343447685242,0.11762622743844986,-0.027291420847177505,-0.32892680168151855,-0.5535016059875488,-0.030806656926870346,-0.03187944367527962,-0.18732286989688873,-0.0027341435197740793,0.04806295409798622,0.0994308739900589,-0.6236715316772461,0.039437707513570786,0.253127783536911,-0.06941306591033936,-0.024381199851632118,-0.16599451005458832,-0.3262677490711212,-0.048568245023489,0.019648399204015732,0.11283694952726364,0.04053299501538277,-0.5608054995536804,-0.18020819127559662,2.1532628536224365,-0.4626789093017578,0.13379798829555511,0.1569567620754242,0.07735945284366608,-0.10672508925199509,0.09389567375183105,-1.6276028156280518,-0.1370507925748825,-1.0065652132034302,0.11910907924175262,-0.5795450210571289,-1.35628342628479,-0.06745186448097229,-0.3397313356399536,-0.4729083180427551,-0.051291003823280334,0.07156089693307877,0.45727184414863586,-1.4072431325912476,0.06954743713140488,1.0273107290267944,0.07012729346752167,-0.03317226842045784,-0.26903921365737915,-0.5248653888702393,0.72010338306427,0.030187297612428665,0.09328482300043106,-1.4212987422943115,-1.5790107250213623,-0.10701855272054672,0.18683220446109772,-0.23465295135974884,0.17690922319889069,0.3264023959636688,0.14818783104419708,-0.11783284693956375,0.21496112644672394,-0.2016368806362152,-0.19253452122211456,-0.009280557744204998,0.13206380605697632,-0.32104724645614624,-0.9657903909683228,-0.19816309213638306,-0.08519727736711502,-0.3760632872581482,-0.1177540048956871,0.16847246885299683,0.354262113571167,-0.9448685646057129,0.15144634246826172,-0.2137271761894226,-0.333739697933197,-0.15332505106925964,-0.14436320960521698,-0.34150609374046326,-0.0383903831243515,0.15678103268146515,0.626889705657959,0.47868406772613525,-0.5192939043045044,0.0634269267320633,0.04841999709606171,0.2672274112701416,0.02906055934727192,1.1085922718048096,-0.10254207998514175,-0.00919567421078682,-0.05262761190533638,-0.32649415731430054,0.029395313933491707,0.10660925507545471,-0.006446104496717453,0.3099967837333679,1.386890172958374,-0.013348158448934555,0.306672066450119,0.44698792695999146,0.004212332423776388,-0.053353000432252884,-0.41764360666275024,0.9154190421104431,0.002993649337440729,-0.35799452662467957,0.2185104489326477,0.057623546570539474,0.2021849900484085,0.4265909194946289,-0.4769580662250519,-0.01715252734720707,-0.862835705280304,0.23131389915943146,0.8817986845970154,0.6264173984527588,-0.13806012272834778,-0.050890516489744186,-0.598918616771698,0.41493338346481323,-0.5681207776069641,0.6403118371963501,-0.6329538822174072,0.2496286779642105,0.6626357436180115,0.6094592213630676,-0.5857714414596558,-0.06993044167757034,-0.1458217054605484,0.6367220878601074,-0.2294531613588333,0.009816460311412811,0.6527647972106934,-0.6529614329338074,-0.10755234211683273,-0.34897661209106445,-0.6088414788246155,0.015759281814098358,0.22280117869377136,0.589335560798645,-0.16702859103679657,-0.03598315268754959,-0.1283222883939743,-0.6331338286399841,-0.4773859977722168,-0.4147762358188629,-0.08346572518348694,-0.31479477882385254,0.1427782028913498,0.20458146929740906,0.24718593060970306,0.22870104014873505,0.29517731070518494,-0.21970891952514648,0.26241591572761536,-0.21158726513385773,-0.2754155099391937,-0.1849231868982315,0.2296122908592224,0.12106362730264664,-0.026548026129603386,-0.19101828336715698,0.13888920843601227,0.22405968606472015,-0.3078702390193939,0.21171942353248596,-0.1519409716129303,0.05983381345868111,0.21837933361530304,-0.28196269273757935,0.14095540344715118,-0.28229469060897827,0.1938946694135666,0.1395321637392044,-0.15047800540924072,0.3018191456794739,0.2769908905029297,0.12486860901117325,-0.06670942157506943,0.6006666421890259,-0.4811069369316101,-0.27970919013023376,-0.7182348370552063,0.05785147845745087,-0.6329209208488464,0.625787079334259,-0.5698588490486145,0.13180536031723022,0.5375178456306458,0.7070621252059937,-0.74568110704422,0.034602221101522446,0.6355447769165039,0.8740019798278809,-0.26162445545196533,-0.034452881664037704,0.6059907078742981,-0.6288537979125977,0.15947888791561127,0.3540681302547455,-0.6361698508262634,0.2827571928501129,-0.02698139101266861,0.6737320423126221,-0.2692612409591675,-0.15190181136131287,0.2409430295228958,-0.6568009853363037,-1.389509916305542,0.0673377737402916,0.2248810976743698,0.7179016470909119,-0.30808213353157043,-0.16261695325374603,-0.765736997127533,0.20705899596214294,-0.5991182923316956,0.743442714214325,-0.6426047086715698,0.3429573178291321,0.6651500463485718,0.7175611257553101,-0.7149658799171448,-0.14221762120723724,0.2196113020181656,0.7753657102584839,-0.24200457334518433,-0.13889946043491364,0.6709223985671997,-0.7474557161331177,0.06935281306505203,0.047613319009542465,-0.660845935344696,0.09550123661756516,0.04267100617289543,0.7488572001457214,-0.13695035874843597,-0.0995221734046936,0.09662017226219177,-0.6281507611274719,-0.8281658887863159,-0.16103270649909973,0.15855376422405243,-0.3479251563549042,0.19356438517570496,0.10814035683870316,0.31873273849487305,0.07414298504590988,0.34852781891822815,-0.26785650849342346,0.3280700743198395,-0.20741522312164307,-0.3212839961051941,-0.3155251443386078,0.35530832409858704,0.12029891461133957,0.11833731830120087,-0.3442016839981079,0.1482468694448471,0.23146140575408936,-0.29975709319114685,0.3393980860710144,-0.2035195380449295,0.19565266370773315,0.27812379598617554,-0.24804829061031342,0.10495834052562714,-0.356229305267334,0.1849784255027771,0.14235509932041168,-0.2039605677127838,0.28934213519096375,0.32178083062171936,0.14959436655044556,0.07849111407995224,-0.2582126259803772,0.16925212740898132,0.17943061888217926,0.2333284318447113,0.1550879031419754,0.2792569100856781,-0.20615611970424652,0.21520686149597168,-0.17217788100242615,-0.21765293180942535,-0.20351947844028473,0.27387458086013794,0.19510899484157562,0.017249858006834984,-0.25106191635131836,0.16663043200969696,0.1540907472372055,-0.22436834871768951,0.23938095569610596,-0.18776220083236694,0.07241876423358917,0.2843396067619324,-0.2371855080127716,0.12525297701358795,-0.3006580173969269,0.22087940573692322,0.18616291880607605,-0.1780862659215927,0.276666522026062,0.19761192798614502,0.11385659128427505,0.027363315224647522,-0.04715714603662491,0.46486082673072815,-0.30458223819732666,0.09506841003894806,0.5230299830436707,0.10919851809740067,-0.1253799945116043,0.137307807803154,-0.33699890971183777,-0.10773781687021255,0.060821253806352615,0.06412572413682938,-0.42403581738471985,-0.6819599866867065,-0.0687360167503357,-0.09438703209161758,-0.3140920102596283,-0.06917504966259003,0.13656102120876312,0.29278722405433655,-0.8035486340522766,0.0972432866692543,-0.21145956218242645,-0.06539813429117203,-0.02217019349336624,-0.11925546824932098,-0.4001537263393402,-0.08895733952522278,0.09476688504219055,0.43493208289146423,0.44282352924346924,-0.5222429633140564,0.8046486377716064,-0.15828503668308258,-0.11078070104122162,-0.7762650847434998,0.3009328246116638,-0.6435805559158325,0.7626473903656006,-0.6379221677780151,0.26288682222366333,0.6843061447143555,0.7134461998939514,-0.8012592196464539,-0.07652615010738373,-0.025363318622112274,0.7458240389823914,-0.2314925193786621,-0.12074500322341919,0.7442123889923096,-0.7534549832344055,0.036381255835294724,-0.23825307190418243,-0.7543253302574158,0.11785072833299637,-0.011216583661735058,0.6971858739852905,-0.17975585162639618,-0.09401918202638626,-0.03917665779590607,-0.6890863180160522,-0.6558852791786194,-0.2647625505924225,-0.04589984938502312,-0.23936593532562256,0.06770990788936615,0.21564140915870667,0.20647501945495605,0.20966224372386932,0.22180594503879547,-0.23048903048038483,0.28589239716529846,-0.18259961903095245,-0.20790359377861023,-0.26435309648513794,0.2965051531791687,0.19144150614738464,0.05924640968441963,-0.21488294005393982,0.22340503334999084,0.13800661265850067,-0.28718188405036926,0.26054108142852783,-0.15165004134178162,0.10191241651773453,0.30412909388542175,-0.25322699546813965,0.01296705286949873,-0.2447901964187622,0.26300010085105896,0.23099356889724731,-0.242468923330307,0.2310175597667694,0.1415795534849167,0.09686750918626785,0.09137032181024551,0.540672242641449,-0.47200363874435425,-0.20508985221385956,-0.5323855876922607,-0.01943052001297474,-0.5054143667221069,0.48124808073043823,-0.4504914879798889,0.1714542806148529,0.4865823984146118,0.5871922373771667,-0.5116522312164307,-0.07388826459646225,0.6482829451560974,0.6690298318862915,-0.3393009305000305,-0.20576757192611694,0.49899205565452576,-0.4636509418487549,0.15869347751140594,0.3991217017173767,-0.5263145565986633,0.2913881540298462,-0.02605571784079075,0.5541136860847473,-0.2472739964723587,-0.13174515962600708,0.24180658161640167,-0.514722466468811,-1.6415517330169678,0.057989563792943954,0.2334856390953064,0.1558499038219452,0.7674006819725037,-0.0563804991543293,-0.15309540927410126,0.7747519016265869,-0.04264385625720024,0.0721127912402153,0.04275395721197128,-0.2448733001947403,0.13157448172569275,0.19252502918243408,-0.07775174081325531,-0.10581956803798676,-0.508324146270752,0.1519821733236313,-0.004611100535839796,-0.0228022038936615,0.15048065781593323,-0.059763457626104355,0.05561297759413719,-0.7507721185684204,-0.1411030888557434,-0.15821592509746552,0.29716137051582336,0.08817359060049057,-0.005173472687602043,-0.18328970670700073,-0.2236865758895874,-0.02083023078739643,0.41815444827079773,0.13781900703907013,-0.004250518977642059,0.1438995897769928,-0.04197072982788086,-0.18382911384105682,-0.24110905826091766,-0.44764992594718933,-0.12040276825428009,0.2257777452468872,-0.1582118719816208,0.04492843896150589,0.24828806519508362,0.1655917465686798,-0.25457334518432617,-0.19941069185733795,-0.5173262357711792,0.1939544677734375,-0.25408536195755005,-0.2399561107158661,0.1674039363861084,-0.2173590362071991,0.265180766582489,-0.28689828515052795,-0.1734711080789566,0.26800552010536194,-0.16327866911888123,0.2629634737968445,-0.20664183795452118,-0.17506292462348938,0.22435814142227173,-0.17482300102710724,0.23960141837596893,-0.23970665037631989,-0.2885681390762329,0.5934342741966248,0.3154545724391937,0.11231228709220886,-0.597781240940094,0.0785030648112297,-0.3978034257888794,0.48560261726379395,-0.4240167737007141,-0.448534220457077,0.47418272495269775,-0.0622587725520134,-0.6286079287528992,0.15063437819480896,-0.27083292603492737,0.5801235437393188,0.13665428757667542,0.12387777119874954,0.49494969844818115,-0.5488540530204773,-0.07167249172925949,-0.38684776425361633,-0.5397601127624512,0.49739328026771545,0.758339524269104,0.49745675921440125,0.09114009141921997,0.08064078539609909,-0.11097611486911774,-0.4460972249507904,-0.45158687233924866,-0.19273440539836884,-0.4421883821487427,0.6625222563743591,-0.20575213432312012,-0.07345277816057205,-0.6369580626487732,0.400152325630188,-0.6247308850288391,0.6357616186141968,-0.6077749729156494,0.27839815616607666,0.5521624684333801,0.6783366799354553,-0.6132532954216003,-0.027718117460608482,-0.082177072763443,0.6147836446762085,-0.2151239514350891,-0.014359681867063046,0.6143219470977783,-0.6356954574584961,-0.0868983119726181,-0.3435712158679962,-0.6350014805793762,0.0924997329711914,0.12601538002490997,0.6439509391784668,-0.14286386966705322,0.007068189326673746,-0.1463637351989746,-0.5810157060623169,-0.42728784680366516,-0.426398366689682,-0.030742214992642403,-0.3243957459926605,0.18654441833496094,0.10774445533752441,0.2753714919090271,0.16384540498256683,0.3163672983646393,-0.3445509672164917,0.333207368850708,-0.16002614796161652,-0.3019573390483856,-0.22990840673446655,0.3179064095020294,0.14897586405277252,0.15971043705940247,-0.3462793827056885,0.17836517095565796,0.23519271612167358,-0.3215102255344391,0.2687571346759796,-0.19416067004203796,0.19005824625492096,0.22704634070396423,-0.24961215257644653,0.16976511478424072,-0.30471011996269226,0.21023602783679962,0.15862908959388733,-0.1741030514240265,0.2487819343805313,0.3100827634334564,0.187971830368042,0.23428039252758026,-0.2644945979118347,0.08407345414161682,0.23196634650230408,0.22185584902763367,0.19211991131305695,0.21437716484069824,-0.2173786163330078,0.27723923325538635,-0.1530856341123581,-0.21416498720645905,-0.18405812978744507,0.26294898986816406,0.18830902874469757,0.09036686271429062,-0.2617771327495575,0.18570303916931152,0.1814989149570465,-0.23843061923980713,0.17868441343307495,-0.22253425419330597,0.20404303073883057,0.22203563153743744,-0.23047322034835815,0.09769511222839355,-0.2638147473335266,0.2682288885116577,0.25089168548583984,-0.19659565389156342,0.20292893052101135,0.1459333449602127,0.09745948016643524,0.07128018885850906,-0.4040542244911194,0.19306421279907227,0.16312390565872192,0.2974187135696411,0.07312646508216858,0.37745901942253113,-0.36386817693710327,0.3631139397621155,-0.19890113174915314,-0.37057632207870483,-0.36445051431655884,0.3318822681903839,0.12880785763263702,0.14345119893550873,-0.3824993371963501,0.16128429770469666,0.21187815070152283,-0.31214064359664917,0.40152066946029663,-0.235820934176445,0.1478642076253891,0.37675490975379944,-0.3653523921966553,-0.06961100548505783,-0.39557647705078125,0.1838187575340271,0.20218336582183838,-0.06967010349035263,0.32288166880607605,0.2914479374885559,0.13872091472148895,0.08868511021137238,0.5375032424926758,-0.33247342705726624,-0.2116539627313614,-0.4805653393268585,0.3496115803718567,-0.5797752141952515,0.4853250980377197,-0.537574052810669,0.36445069313049316,0.5493354797363281,0.5648526549339294,-0.5735403895378113,-0.14777235686779022,-0.014974778518080711,0.5299708843231201,-0.2395135760307312,-0.07889074087142944,0.5908309817314148,-0.5086520314216614,0.07387315481901169,-0.10305672138929367,-0.49773621559143066,0.048259392380714417,0.11528124660253525,0.5702555775642395,-0.2890985906124115,-0.0635661780834198,-0.013261973857879639,-0.5231207609176636,-0.48491746187210083,-0.23330365121364594,0.13259996473789215,-0.815407931804657,-0.05124833062291145,0.47444555163383484,0.7918011546134949,0.045404981821775436,0.16451102495193481,-0.733580470085144,0.5180549621582031,0.36532631516456604,-0.7541302442550659,-0.22464589774608612,0.9184873700141907,0.45848792791366577,-0.22434750199317932,-0.8491360545158386,0.6528310179710388,0.3639855682849884,-0.7785478830337524,0.8050336241722107,-0.2729809284210205,0.015293273143470287,0.7599142789840698,-0.6076139211654663,-1.3394129276275635,-0.8892239928245544,0.5805758237838745,0.49119970202445984,-1.1910223960876465,0.7388041615486145,1.0492141246795654,0.4935627281665802,0.35591569542884827,-0.586948573589325,0.7086344957351685,0.15421271324157715,0.6430383920669556,-0.10503968596458435,0.37691688537597656,-0.59511399269104,0.4945582449436188,-0.4790915250778198,-0.4905678331851959,-0.2663065493106842,0.5299082398414612,0.020907849073410034,-0.49286291003227234,-0.5937371850013733,0.13931065797805786,-0.04550084471702576,-0.5021167397499084,0.5916066765785217,0.11804035305976868,-0.4035390019416809,0.5392777919769287,-0.3409944474697113,-0.4819386899471283,-0.6066028475761414,0.198439359664917,-0.19014622271060944,-0.10198447108268738,0.594965398311615,0.6808125376701355,-0.10526695847511292,-0.4136888086795807,0.5404341220855713,-0.31880107522010803,-0.24269446730613708,-0.590768575668335,0.05313286930322647,-0.4632134437561035,0.5658215880393982,-0.41746786236763,0.020359694957733154,0.4529326856136322,0.535563588142395,-0.49205365777015686,-0.07166523486375809,0.4588717520236969,0.6666461825370789,-0.30780699849128723,-0.05460669845342636,0.44877561926841736,-0.46949756145477295,0.13221479952335358,0.2051784247159958,-0.5200410485267639,0.20023460686206818,0.05055593326687813,0.4463442265987396,-0.28389570116996765,-0.07625807076692581,0.2873285114765167,-0.4577709138393402,-1.072163462638855,0.12133339047431946,0.15540510416030884]},"forgetBias":{"rows":32,"columns":1,"weights":[0,0,0,0,0,0,0,0,0,0,0,0,0,0,0,0,0,0,0,0,0,0,0,0,0,0,0,0,0,0,0,0]},"outputMatrix":{"rows":32,"columns":1,"weights":[-0.1424812525510788,2.011629581451416,-0.15688376128673553,-0.22387246787548065,1.6301319599151611,-1.130342960357666,-0.56828373670578,-0.34180188179016113,1.871699333190918,-0.20004843175411224,-0.430897057056427,-0.09527423977851868,-0.586945652961731,-0.08806106448173523,-0.4727911055088043,1.3807467222213745,-0.6896762251853943,-0.32862770557403564,-0.08683795481920242,-0.7089532017707825,-0.04022173210978508,-0.5287426114082336,0.9045897722244263,-2.5400891304016113,-0.23876424133777618,0.29422178864479065,-0.6105769276618958,0.17348618805408478,-0.1671939194202423,2.346184492111206,2.0054588317871094,0.985779345035553]},"outputHidden":{"rows":32,"columns":32,"weights":[0.7258673906326294,-0.6388834118843079,-0.10101692378520966,-0.7305842041969299,0.402342289686203,-0.6523923873901367,0.7189173698425293,-0.7107272744178772,0.5938933491706848,0.7296249866485596,0.6051743030548096,-0.774934709072113,-0.0204656720161438,0.8676953911781311,0.7743422389030457,-0.17213015258312225,0.04187682643532753,0.7039328217506409,-0.7568349242210388,0.03666921332478523,0.10811128467321396,-0.6852307319641113,0.19789424538612366,0.0630098432302475,0.7590792775154114,-0.09764501452445984,-0.020233698189258575,-0.1157916933298111,-0.7371834516525269,-1.2287044525146484,-0.5046864748001099,0.5586758852005005,-0.4878281354904175,-0.1589546501636505,0.14313241839408875,0.3555883765220642,-0.5974166393280029,-0.19013826549053192,-0.4235440790653229,0.12123597413301468,1.3940296173095703,-0.4524722397327423,0.3639010787010193,0.4471059739589691,0.19093486666679382,-0.06589065492153168,-0.45024198293685913,-0.36227574944496155,-0.08893097192049026,-0.4510374665260315,0.42408040165901184,0.07419539242982864,-0.12780682742595673,0.449227899312973,-1.1197675466537476,-2.940474510192871,-0.5148983001708984,0.34222862124443054,0.1820773035287857,0.14342810213565826,0.42195719480514526,0.516495406627655,-0.13011011481285095,0.4394339919090271,-0.40874791145324707,0.3072446882724762,0.1457739621400833,0.3450632095336914,0.12114546447992325,0.30284446477890015,-0.35152146220207214,0.4234030246734619,-0.3499008119106293,-0.3398984968662262,-0.3091921806335449,0.29608699679374695,0.08684096485376358,0.039579857140779495,-0.28854039311408997,0.11118471622467041,0.18171852827072144,-0.3046601414680481,0.30213987827301025,-0.10062824934720993,0.07355405390262604,0.2914259433746338,-0.3329611122608185,0.14886797964572906,-0.37074559926986694,0.14271484315395355,0.18419530987739563,-0.13625290989875793,0.3062877058982849,0.37330394983291626,-0.005030187778174877,0.10963174700737,0.830877423286438,-0.5733230113983154,-0.17532727122306824,-0.7545416355133057,0.31455618143081665,-0.6312630772590637,0.8494129776954651,-0.6685893535614014,0.43612849712371826,0.8643769025802612,0.607759952545166,-0.8373066186904907,-0.17433230578899384,1.1200482845306396,0.853398859500885,-0.2727074921131134,-0.1427249312400818,0.7427039742469788,-0.8429238796234131,0.04836830496788025,0.08544685691595078,-0.7734901309013367,0.051728975027799606,0.08810403943061829,0.7683225274085999,-0.23564612865447998,-0.15914088487625122,-0.005789247807115316,-0.6958960294723511,-1.4200056791305542,-0.4547494053840637,0.7239697575569153,-0.5512818098068237,0.43428847193717957,0.2895457446575165,0.6431442499160767,-0.6750986576080322,0.2881024479866028,-0.5421642661094666,0.539101243019104,-0.5428354144096375,-0.6149840354919434,-0.08826017379760742,0.6646447777748108,0.2786717712879181,-0.14191855490207672,-0.5456166863441467,0.20033861696720123,0.23231293261051178,-0.6128833889961243,0.6242136359214783,-0.08142323046922684,0.056303225457668304,0.48833656311035156,-0.33940020203590393,-0.18770408630371094,-0.6221843361854553,0.30369508266448975,0.3879307210445404,-0.3732075095176697,0.5904844403266907,1.3064343929290771,0.3378464877605438,0.08088978379964828,-0.10103588551282883,0.5831239223480225,-0.3846724331378937,0.14394554495811462,0.7113696932792664,0.0676252692937851,-0.20444461703300476,0.26993727684020996,-0.22246824204921722,-0.18474537134170532,-0.025088433176279068,0.16965067386627197,-0.3305072784423828,-1.1356481313705444,-0.24063795804977417,-0.03690991550683975,-0.056572847068309784,-0.15839746594429016,0.20643125474452972,0.0668569803237915,-1.0435233116149902,0.22913597524166107,-0.05592941492795944,-0.12656539678573608,-0.17404839396476746,-0.37538692355155945,-0.32490652799606323,-0.07572367042303085,0.21237066388130188,0.39849066734313965,0.2599301338195801,-0.6216356158256531,0.8834916353225708,-0.5182949900627136,-0.05453643202781677,-0.8031409382820129,0.567089319229126,-0.8298449516296387,0.8139253854751587,-0.8656988739967346,0.4347105324268341,0.9273245334625244,0.793701708316803,-0.8558431267738342,0.07299114763736725,0.7499181628227234,0.8488454222679138,-0.203818216919899,-0.013042731210589409,0.8707087635993958,-0.8882954716682434,-0.0286342091858387,0.05059722438454628,-0.8370922207832336,0.1223771795630455,0.03384300693869591,0.9372879266738892,-0.10293881595134735,0.02382870949804783,-0.10145900398492813,-0.8555811643600464,-1.2459266185760498,-0.5136532187461853,0.5055230855941772,0.0639839768409729,-0.36290135979652405,-0.13353833556175232,-0.10602762550115585,0.8584764003753662,-0.11973775178194046,0.0803951770067215,-0.028253797441720963,0.21159319579601288,0.04321952909231186,0.24021238088607788,-0.01156286709010601,-0.03536812961101532,-0.30550381541252136,0.05936500057578087,-0.04049566388130188,0.13409273326396942,0.11784227937459946,-0.0803757831454277,-0.132523775100708,-0.4187636375427246,-0.06363152712583542,0.004686704371124506,-0.5250711441040039,0.09303949773311615,-0.3646821677684784,-0.004588417708873749,-0.04152877628803253,-0.03783302381634712,-0.07183234393596649,0.16798503696918488,0.0574072003364563,-0.53336501121521,0.025674711912870407,0.5528550148010254,0.5787039399147034,0.1805315613746643,-0.10075696557760239,-0.5872818231582642,-0.022829096764326096,0.8749974370002747,-0.49049198627471924,0.6085119843482971,0.6353008151054382,0.49782779812812805,-0.012656886130571365,-0.5443525314331055,-0.2075428068637848,0.3580446243286133,-0.5334544777870178,0.5488981604576111,-0.30696237087249756,0.27076706290245056,0.5025328993797302,-0.8211610913276672,-3.319856882095337,-0.6323455572128296,0.3048420250415802,0.5197019577026367,-0.3774426579475403,0.4823359549045563,0.3383137285709381,-0.8441094160079956,0.5844827890396118,0.7400671243667603,-0.581784188747406,0.1459721326828003,-0.7043949365615845,0.36016014218330383,-0.6356151700019836,0.6424392461776733,-0.6717645525932312,0.42350056767463684,0.6322146654129028,0.5942352414131165,-0.6107738614082336,0.11584671586751938,0.15189889073371887,0.6825580596923828,-0.11177634447813034,0.07810098677873611,0.6729153990745544,-0.6200606226921082,-0.08237560838460922,-0.034241411834955215,-0.6131076216697693,0.07119490951299667,0.023304108530282974,0.7070908546447754,-0.12919114530086517,0.1452869474887848,-0.1829971820116043,-0.5780987739562988,-0.6507471203804016,-0.5438638925552368,0.23630991578102112,-0.5865063071250916,0.6591007709503174,-0.21780498325824738,0.6253028512001038,0.6321426033973694,0.6037790775299072,-0.6169858574867249,0.6089576482772827,-0.8577991724014282,-0.5711782574653625,-0.5319112539291382,0.579719066619873,-0.18748171627521515,0.5773307085037231,-0.6387830972671509,-0.22456054389476776,-0.17204630374908447,-0.5787697434425354,0.5703458786010742,0.09622936695814133,0.4307096302509308,0.6018958687782288,-0.37243956327438354,0.05958421528339386,-0.5941317677497864,-0.2267044633626938,-0.15973369777202606,0.05632147565484047,0.615039587020874,0.14145641028881073,0.5760865807533264,0.1432829350233078,0.7405217289924622,-0.6364293694496155,-0.07033975422382355,-0.793878972530365,0.441965788602829,-0.6968076825141907,0.7487547397613525,-0.7202363610267639,0.5797334909439087,0.737014889717102,0.6425299048423767,-0.7301880121231079,-0.034546878188848495,0.5878896713256836,0.7112566232681274,-0.14901654422283173,0.05663919448852539,0.7398428320884705,-0.7002425789833069,-0.04133716970682144,0.06680429726839066,-0.7136873006820679,0.05962928757071495,0.10967450588941574,0.7732787728309631,-0.15196916460990906,-0.011198285035789013,-0.05820928141474724,-0.7394118309020996,-1.218512773513794,-0.35700419545173645,0.43386322259902954,-0.42616724967956543,0.23749549686908722,0.044142525643110275,0.34169119596481323,0.0651923418045044,0.43913087248802185,-0.3656477928161621,0.45658078789711,-0.22658288478851318,-0.4238598942756653,-0.2266668677330017,0.37427791953086853,0.0052330573089420795,0.06144176423549652,-0.32608935236930847,0.10499344766139984,0.07945520430803299,-0.39668309688568115,0.3444339334964752,-0.1045936644077301,0.19680450856685638,0.2814064025878906,-0.3406425714492798,0.1344963014125824,-0.4280098080635071,0.08878769725561142,0.057716067880392075,-0.07493703812360764,0.34968581795692444,0.5200007557868958,0.08653198927640915,0.13319021463394165,-0.2921075224876404,-0.5240059494972229,-0.5350062251091003,0.2246924340724945,-1.1166250705718994,0.16946765780448914,-0.2197488695383072,0.19984273612499237,1.0459522008895874,-0.20071643590927124,-0.10029222816228867,0.3120686709880829,-0.4854643940925598,0.15277209877967834,-0.2617855966091156,-0.6307082176208496,-0.3826684355735779,-0.21882309019565582,0.19713599979877472,0.48956337571144104,0.26806312799453735,0.1700262874364853,-0.43524643778800964,-3.078287363052368,-0.27394673228263855,-0.48803579807281494,-0.5636733770370483,0.771010160446167,0.14948448538780212,0.9546181559562683,0.2898101210594177,0.2976648211479187,0.8792734742164612,-0.5589388012886047,-0.07586002349853516,-0.8836396932601929,0.42823097109794617,-0.7755341529846191,0.8520637154579163,-0.7996425032615662,0.37503454089164734,0.9707655906677246,0.6604423522949219,-0.8963268995285034,-0.06520980596542358,1.1426516771316528,0.8916360139846802,-0.12140168249607086,-0.0509672649204731,0.8495367169380188,-0.8692341446876526,0.041672319173812866,0.20477913320064545,-0.7769290208816528,0.19186200201511383,0.040370870381593704,0.887680172920227,-0.1470998227596283,-0.08929886668920517,-0.059390075504779816,-0.8329766988754272,-1.5526814460754395,-0.44105446338653564,0.7186594009399414,-0.42735931277275085,0.5721179246902466,-0.03872084617614746,0.3554331958293915,0.2583678364753723,0.5474002361297607,-0.3498677611351013,0.4481350779533386,-0.4579109251499176,-0.4406310021877289,-0.41863808035850525,0.40773725509643555,0.010208192281425,0.23751474916934967,-0.4265792965888977,0.10879292339086533,0.10498721897602081,-0.4811480939388275,0.45657631754875183,-0.07086367905139923,0.18621546030044556,0.3206045627593994,-0.3075561225414276,-0.11571311950683594,-0.45691391825675964,-0.04940052330493927,0.028548039495944977,-0.12439796328544617,0.43415898084640503,0.36004507541656494,0.009337012656033039,0.22022053599357605,-0.4075362980365753,0.25244179368019104,0.058115024119615555,0.42046135663986206,0.004455818794667721,0.4007501006126404,-0.4026849567890167,0.3916892111301422,-0.2949864864349365,-0.41810545325279236,-0.22975492477416992,0.4161171615123749,0.09902302920818329,0.06292325258255005,-0.4024522006511688,0.044725239276885986,0.11046125739812851,-0.45606479048728943,0.36910638213157654,-0.08662732690572739,0.08477025479078293,0.2984524667263031,-0.4021609425544739,0.07961887121200562,-0.4009719491004944,0.03889754042029381,0.07852975279092789,-0.12329547107219696,0.34189462661743164,0.6530035138130188,0.09456565231084824,0.21130569279193878,0.6321534514427185,-0.30549386143684387,0.15948767960071564,-0.5584596395492554,0.5456429719924927,-0.5665187239646912,0.5064540505409241,-0.5424563884735107,0.2865251898765564,0.6554949283599854,0.5298420786857605,-0.5377761125564575,0.2621062695980072,-0.2218228131532669,0.5096459984779358,-0.20760874450206757,0.16666296124458313,0.5828701257705688,-0.5266026854515076,-0.20569738745689392,-0.4231422245502472,-0.5914248824119568,0.041224896907806396,0.05011071264743805,0.5774901509284973,-0.1787935495376587,0.270123690366745,-0.1048247367143631,-0.5723096132278442,-0.6180285215377808,-0.4596881866455078,-0.07649347931146622,0.8376191258430481,-0.4689711332321167,-0.1085180714726448,-0.7723968029022217,0.27521711587905884,-0.6036030054092407,0.7919292449951172,-0.7436224222183228,0.4425417184829712,0.8428810834884644,0.5541220307350159,-0.785887598991394,-0.09780658781528473,1.5103460550308228,0.8344787955284119,-0.09021918475627899,-0.12490460276603699,0.7667233943939209,-0.7644062042236328,0.08829654008150101,0.2798094153404236,-0.7966552376747131,0.23405957221984863,0.07687226682901382,0.7745068669319153,-0.12760351598262787,-0.05102206766605377,0.034397635608911514,-0.7038580775260925,-1.5779701471328735,-0.5343707203865051,0.9102356433868408,-0.3305242657661438,0.20614853501319885,0.1180124431848526,0.2806074917316437,0.0733790397644043,0.29732292890548706,-0.30292245745658875,0.35811877250671387,-0.28809794783592224,-0.32475343346595764,-0.3486144244670868,0.3689012825489044,0.1613045036792755,-0.008545315824449062,-0.30890917778015137,0.1684761792421341,0.08972229808568954,-0.40993738174438477,0.29299965500831604,-0.16147609055042267,0.15258106589317322,0.25436100363731384,-0.2634528875350952,0.1941201537847519,-0.312482625246048,0.08154678344726562,0.130381777882576,-0.1310119330883026,0.3889828026294708,0.6799928545951843,0.096271812915802,0.12060210853815079,-0.14385691285133362,0.2507440745830536,-0.890619695186615,0.13937413692474365,-0.8237049579620361,0.19702762365341187,-0.08725302666425705,-0.04478107765316963,0.43997523188591003,-0.08773676306009293,-0.45126593112945557,0.12240493297576904,-0.7148218750953674,-0.5065387487411499,-0.056551024317741394,-0.5019949674606323,-0.5646757483482361,-0.07987122237682343,0.12414982169866562,0.6400706171989441,0.04011556878685951,0.03759840130805969,-0.5707146525382996,-3.50839900970459,-0.0931958332657814,-0.514074444770813,-0.8504774570465088,0.8751392960548401,0.003983115311712027,0.49142757058143616,-0.6086310148239136,-0.4213317632675171,0.8527465462684631,-0.6059957146644592,-0.19990409910678864,-0.8898799419403076,0.11600698530673981,-0.6876376867294312,0.8439906239509583,-0.7084075808525085,0.425703227519989,0.8128731846809387,0.5904443860054016,-0.8921443223953247,-0.20462895929813385,1.295697569847107,0.9371467232704163,-0.23020115494728088,-0.150857612490654,0.7694610357284546,-0.8750941157341003,0.2125764787197113,1.0900380611419678,-0.8302383422851562,0.3282691538333893,0.16655008494853973,0.8685310482978821,-0.1740647405385971,-0.14653128385543823,0.10953164845705032,-0.7216042876243591,-2.0278053283691406,-0.3341905176639557,0.7218828201293945,0.4707919955253601,-0.016299119219183922,-0.047094911336898804,-0.44786959886550903,1.1277227401733398,-0.3958599269390106,0.4834294617176056,-0.5010446310043335,0.19507081806659698,0.5074976086616516,0.2264327108860016,-0.4406769573688507,-0.19578251242637634,-0.4149080216884613,0.5119704604148865,-0.2883867919445038,0.030268771573901176,0.5037952661514282,-0.41805335879325867,-0.15599042177200317,-0.285277783870697,-0.43279486894607544,-0.5002841949462891,-1.6440303325653076,0.49381566047668457,-0.5925391316413879,-0.16259296238422394,-0.13753323256969452,-0.5223776698112488,-0.34524276852607727,-0.532310426235199,-0.6141737699508667,1.015987753868103,-0.021242383867502213,0.18242238461971283,-0.9637353420257568,0.8267924189567566,-0.7622255086898804,0.9165191054344177,-0.8048414587974548,-0.483587384223938,0.9590502381324768,1.0418922901153564,-1.0811879634857178,0.4462790787220001,0.2878483533859253,0.9848006963729858,0.36659589409828186,0.1665625274181366,0.996977686882019,-1.0051411390304565,-0.12467490136623383,-0.23477576673030853,-0.8798323273658752,0.9724764823913574,2.833155870437622,0.9977827668190002,0.1490812748670578,0.5471571683883667,-0.2053559422492981,-0.7818265557289124,-1.2423993349075317,0.26450982689857483,-0.002106916392222047,0.7995299100875854,-0.5269140005111694,0.17777876555919647,-0.6493616700172424,0.5134605765342712,-0.7150261402130127,0.6442580819129944,-0.6656721234321594,0.48845145106315613,0.7570316195487976,0.691013753414154,-0.6779407858848572,0.2694343626499176,0.2972181737422943,0.6558422446250916,-0.14134295284748077,0.1663438379764557,0.6518069505691528,-0.6470561027526855,-0.17774741351604462,-0.10967674851417542,-0.6508287191390991,0.08473335206508636,0.057228922843933105,0.7429993152618408,-0.08682180196046829,0.2874722480773926,-0.21264712512493134,-0.648001492023468,-0.8282489776611328,-0.6215003728866577,0.14547263085842133,-0.4212549030780792,0.24437956511974335,0.04076887294650078,0.38555994629859924,0.1995246559381485,0.3704011142253876,-0.4201427102088928,0.4192458689212799,-0.2963639497756958,-0.5077372789382935,-0.27353957295417786,0.5151429176330566,-0.008535206317901611,0.22669640183448792,-0.37392204999923706,0.020408036187291145,0.0700739249587059,-0.4620841443538666,0.3919263780117035,-0.12017159163951874,0.23448850214481354,0.393444299697876,-0.3150244355201721,0.11727610975503922,-0.4431847035884857,0.0033981245942413807,0.10823316127061844,-0.03853167966008186,0.4799426794052124,0.5263723134994507,0.09734146296977997,0.23331665992736816,-0.24810978770256042,0.2639721632003784,0.1780388355255127,0.18278509378433228,0.36135587096214294,0.21073685586452484,-0.1910489946603775,0.302814245223999,-0.13880720734596252,-0.22608736157417297,-0.18187806010246277,0.23963779211044312,0.16881491243839264,0.18487785756587982,-0.24369654059410095,0.21082282066345215,0.17554844915866852,-0.22482828795909882,0.18630918860435486,-0.26977384090423584,0.09732171148061752,0.23641422390937805,-0.2196464240550995,0.19277890026569366,-0.2277955710887909,0.1740245372056961,0.2559863030910492,-0.1704775094985962,0.21140305697917938,0.04959418624639511,-0.019851025193929672,0.1973392814397812,-0.5224061608314514,0.6007304191589355,-0.07396671921014786,0.409471333026886,-0.25924959778785706,0.49160653352737427,-0.43525487184524536,0.48137298226356506,-0.6531752347946167,-0.4648173451423645,-0.4147612750530243,0.4411872327327728,-0.10791952162981033,0.06865489482879639,-0.3999864161014557,-0.011370553635060787,0.02536381594836712,-0.49392229318618774,0.4626726806163788,-0.056622207164764404,0.062371812760829926,0.3926042318344116,-0.2265848070383072,-0.06493724137544632,-0.5037049651145935,-0.06280790269374847,-0.08325004577636719,-0.04908009618520737,0.49809202551841736,0.7761059403419495,-0.0585477389395237,0.13421431183815002,0.5551505088806152,-0.6003291606903076,-0.009058980271220207,-0.5548220872879028,0.3864514231681824,-0.5185024738311768,0.5716256499290466,-0.5803003907203674,0.656011700630188,0.5717747211456299,0.5189732313156128,-0.6146566271781921,0.07708227634429932,0.2568679451942444,0.5649425387382507,-0.230108842253685,0.0654401108622551,0.61770099401474,-0.5811043381690979,-0.04014327749609947,-0.15571801364421844,-0.503541886806488,-0.10057660192251205,-0.1418153941631317,0.5429191589355469,-0.4079909026622772,0.20439724624156952,0.07224725931882858,-0.5449793934822083,-0.4796181917190552,-0.3802807033061981,0.5675027966499329,-1.1944878101348877,0.1884956955909729,0.4360257387161255,1.111289143562317,-0.2220800369977951,0.24052764475345612,-1.076059103012085,0.6545037627220154,0.48073431849479675,-1.1611207723617554,-0.3297479450702667,1.2146053314208984,0.4884684979915619,-0.2146206796169281,-1.199022889137268,0.5950758457183838,0.39936521649360657,-1.0648436546325684,1.1628767251968384,-0.3828732967376709,-0.05289791524410248,1.0641878843307495,-0.4489428400993347,-2.368103265762329,-1.2411770820617676,0.5603795647621155,0.3797520101070404,-1.2172669172286987,0.9246565103530884,1.1203622817993164,-0.030827928334474564,0.11967454105615616,-0.17905640602111816,-0.8189045190811157,-0.01605524867773056,0.12740062177181244,-0.6222211718559265,-0.10205002874135971,-0.20867732167243958,-0.10792652517557144,1.1759005784988403,-0.13934096693992615,-0.0028150882571935654,0.2221710979938507,0.2268686592578888,0.4056802988052368,-0.23566946387290955,-0.4028770625591278,-0.04431045055389404,-0.21992935240268707,0.22194528579711914,0.0475306361913681,0.42657214403152466,0.18763406574726105,-0.5741246938705444,-1.9723823070526123,-0.22712016105651855,0.205793559551239,0.1511303037405014,0.20215807855129242,0.1377560943365097,-0.44195035099983215,-0.4952300190925598,0.7842722535133362,-0.33313092589378357,0.5071833729743958,-0.5924397706985474,0.2090933620929718,-0.19693143665790558,0.37059903144836426,-0.2806992828845978,-0.0024619537871330976,0.5471349358558655,-0.2813129723072052,-0.20596857368946075,0.24061760306358337,-0.6436552405357361,-0.6498211026191711,-0.2306695133447647,-0.24012388288974762,-0.5747700333595276,-0.2966979146003723,0.20823825895786285,0.6604618430137634,-0.08658448606729507,0.2928377389907837,-0.39797475934028625,-3.4819397926330566,-0.21451477706432343,-0.29256170988082886,-0.731509268283844,0.5901181101799011,0.17804254591464996,0.7368283271789551,-0.9141376614570618,-0.0038696445990353823]},"outputBias":{"rows":32,"columns":1,"weights":[0.34784430265426636,-1.2699930667877197,-0.3037791848182678,0.29168665409088135,1.8795825242996216,-0.08258834481239319,-0.10207841545343399,-0.07026825845241547,-1.207651972770691,0.14903323352336884,1.0012096166610718,0.43395403027534485,-0.16680805385112762,-0.080291748046875,0.1813150942325592,0.626911461353302,-0.20403634011745453,0.07550053298473358,0.3108901381492615,-0.22421276569366455,-0.4957754611968994,0.018925108015537262,-0.8038808107376099,-0.7796710133552551,0.24008359014987946,0.3950135409832001,-0.31179434061050415,0.6779668927192688,0.019036665558815002,1.8030588626861572,-2.2149343490600586,-0.7605589032173157]},"cellActivationMatrix":{"rows":32,"columns":1,"weights":[1.1047039031982422,-0.5597094297409058,-0.3798246383666992,-1.2301232814788818,-1.161706566810608,-1.1181870698928833,1.1088805198669434,-1.0825018882751465,0.5870453715324402,1.1063202619552612,0.5415118932723999,-1.1805630922317505,-0.012974750250577927,-0.1463751494884491,1.1516598463058472,-1.2909636497497559,-0.05637152120471001,1.1024854183197021,-1.1748346090316772,0.031748197972774506,-0.14012695848941803,-1.1665925979614258,-0.9163536429405212,0.16060177981853485,1.1564081907272339,-0.9780546426773071,0.09356967359781265,1.1536407470703125,-1.11048424243927,-0.6126747131347656,-0.6310132741928101,0.17638655006885529]},"cellActivationHidden":{"rows":32,"columns":32,"weights":[0.2610698640346527,-0.3609960675239563,-0.3607671856880188,-0.22353756427764893,-0.20179632306098938,-0.23020373284816742,0.184509739279747,-0.16014227271080017,0.35034579038619995,0.2046501338481903,0.25469329953193665,-0.18986298143863678,-0.311542272567749,0.46751779317855835,0.24848875403404236,-0.33889031410217285,-0.24662430584430695,0.16321314871311188,-0.2952333390712738,0.3337783217430115,0.3793996572494507,-0.2255736142396927,0.1270662099123001,-0.2476361095905304,0.19591812789440155,-0.33756691217422485,-0.26019206643104553,0.2933896481990814,-0.22745561599731445,-0.36111584305763245,-0.1424642652273178,0.29332441091537476,0.7454848885536194,-0.28116247057914734,0.02362029254436493,-0.7003018260002136,-0.2871544361114502,-0.6710631251335144,0.6676369309425354,-0.7313828468322754,0.11433172971010208,0.664242684841156,0.3523666262626648,-0.6771615147590637,-0.024470336735248566,0.5929738283157349,0.6853715181350708,-0.1324824094772339,-0.08138890564441681,0.6428343653678894,-0.6954043507575989,0.04844148829579353,-0.025409674271941185,-0.6187035441398621,0.34022268652915955,0.14881475269794464,0.6807160377502441,-0.09775060415267944,-0.03719177097082138,0.09404660761356354,-0.6300596594810486,-1.588937759399414,-0.6073817014694214,0.36717578768730164,0.24082250893115997,-0.2377658486366272,-0.2438851296901703,-0.2162007838487625,-0.2820580303668976,-0.23788586258888245,0.24130241572856903,-0.2674684524536133,0.2164314091205597,0.2338072657585144,0.19622400403022766,-0.29067566990852356,-0.2826424837112427,0.16077789664268494,0.2191927134990692,-0.27876394987106323,-0.264597088098526,0.2243669480085373,-0.2368267923593521,0.25903287529945374,-0.2194060981273651,-0.2806568443775177,0.249733105301857,-0.22309355437755585,0.27187517285346985,-0.2582117021083832,-0.23701980710029602,0.21137864887714386,-0.23399966955184937,-0.14546947181224823,-0.32098013162612915,0.24529030919075012,-0.18017542362213135,0.3804614841938019,0.30507010221481323,0.19716602563858032,0.24623139202594757,0.2026902586221695,-0.2637466490268707,0.16269122064113617,-0.3440152406692505,-0.22516652941703796,-0.24484460055828094,0.15901492536067963,0.33579060435295105,-0.38910433650016785,-0.2512587904930115,0.3474199175834656,0.3092648386955261,-0.14824330806732178,0.21138697862625122,-0.3313734829425812,-0.3064822554588318,0.20628191530704498,-0.08652303367853165,0.20417946577072144,-0.24545538425445557,0.28659549355506897,0.3309697210788727,-0.3598755896091461,0.23318162560462952,0.2556230425834656,0.06867707520723343,-0.2778080105781555,0.6597017645835876,0.3085525929927826,0.0026690098457038403,-0.6228293180465698,-0.024678410962224007,-0.5343838334083557,0.6841849684715271,-0.634885311126709,-0.3723779320716858,0.6928927898406982,0.26707133650779724,-0.6740313172340393,-0.045357488095760345,-0.1735057383775711,0.6709186434745789,-0.007931802421808243,-0.0597614124417305,0.6462412476539612,-0.5888346433639526,0.14089857041835785,-0.514305830001831,-0.6206790208816528,0.7290320992469788,-0.02829645946621895,0.7205148935317993,0.07468347996473312,-0.13633993268013,-0.19411851465702057,-0.7172899842262268,-0.690301775932312,-0.5745090842247009,-0.21885356307029724,-0.18395362794399261,0.3283851146697998,0.39116203784942627,0.260165274143219,0.2614927887916565,0.18549394607543945,-0.18183937668800354,0.21573525667190552,-0.2982606589794159,-0.17424927651882172,-0.280261367559433,0.1698233038187027,0.2652096152305603,-0.37339839339256287,-0.21471546590328217,0.3402244448661804,0.2660118043422699,-0.21244332194328308,0.16097737848758698,-0.284098356962204,-0.30723080039024353,0.2054431140422821,-0.13181445002555847,0.27690690755844116,-0.19783267378807068,0.28142496943473816,0.2380005419254303,-0.31786680221557617,0.15586623549461365,0.30813711881637573,0.13726301491260529,-0.3508152961730957,0.18554121255874634,-0.4759489893913269,-0.4535221457481384,-0.12986688315868378,-0.35098615288734436,-0.11621192842721939,0.18992631137371063,-0.14288952946662903,0.5257477760314941,0.10434716194868088,0.2927372455596924,-0.12715394794940948,-0.43030068278312683,0.6445307731628418,0.23503808677196503,-0.4012802243232727,-0.334776908159256,0.1344597339630127,-0.2133650928735733,0.3865557909011841,0.36304208636283875,-0.2354097217321396,0.05836956948041916,-0.3412127196788788,0.10558448731899261,-0.39737793803215027,-0.341201514005661,0.41963252425193787,-0.1994466930627823,-0.44240298867225647,-0.02638486959040165,0.5099138021469116,-0.19529442489147186,0.28721287846565247,0.2749468684196472,0.23164013028144836,0.25911062955856323,0.2769898772239685,-0.24418534338474274,0.2629837691783905,-0.28277990221977234,-0.18361908197402954,-0.29752659797668457,0.23867478966712952,0.2571939527988434,-0.30538278818130493,-0.20343700051307678,0.32669907808303833,0.26751044392585754,-0.22069288790225983,0.25533878803253174,-0.2876618504524231,-0.271446168422699,0.2637292146682739,-0.1268572211265564,0.2334466129541397,-0.21557141840457916,0.2501769959926605,0.26924437284469604,-0.2980736494064331,0.28165552020072937,0.2989954352378845,0.130392923951149,-0.240387424826622,-0.6791527271270752,0.30303484201431274,-0.01503417082130909,0.6344172954559326,0.11334380507469177,0.6168351173400879,-0.5856040716171265,0.5990647077560425,-0.19990277290344238,-0.691979169845581,-0.33319708704948425,0.722494900226593,0.01531838160008192,-0.9302050471305847,-0.6402340531349182,0.08750356733798981,-0.049374841153621674,-0.5948954224586487,0.6038881540298462,0.0005079177208244801,0.0799824520945549,0.5194294452667236,-0.3529101312160492,-0.006479806732386351,-0.6540582776069641,0.10567035526037216,0.058442696928977966,-0.05762301757931709,0.6008654236793518,1.3177727460861206,0.5801518559455872,-0.6764820218086243,0.15815116465091705,-0.32057908177375793,-0.3854427635669708,-0.22948935627937317,-0.32840850949287415,-0.14741842448711395,0.2131010740995407,-0.11780524998903275,0.3825799226760864,0.21364940702915192,0.32302629947662354,-0.23153355717658997,-0.393740177154541,0.36285632848739624,0.17912817001342773,-0.3595588207244873,-0.2741416394710541,0.19790706038475037,-0.23276552557945251,0.3350597321987152,0.3358739912509918,-0.1939021497964859,0.12304903566837311,-0.3030872642993927,0.17819470167160034,-0.3742154836654663,-0.2994491755962372,0.3770928382873535,-0.23638729751110077,-0.2539258599281311,-0.1752351075410843,0.3158770203590393,-0.5102249979972839,-0.31047964096069336,0.0068772826343774796,0.4466312527656555,0.19487440586090088,0.4776996970176697,-0.4463731348514557,0.4416581988334656,0.01297583058476448,-0.4949593245983124,-0.29112958908081055,0.40155017375946045,0.0649108812212944,3.3789002895355225,-0.36573702096939087,0.041588786989450455,0.022642305120825768,-0.4277012348175049,0.4471510648727417,-0.0020044806879013777,1.5224734544754028,0.33199819922447205,-0.3942834436893463,0.0012436523102223873,-0.4270802438259125,-0.0035735040437430143,0.061961524188518524,-0.0003661058144643903,0.4096764922142029,-0.1456289291381836,0.6973687410354614,2.312821626663208,-0.17282481491565704,0.2920241057872772,0.35362768173217773,0.2263099104166031,0.252399206161499,0.1909249871969223,-0.2827490568161011,0.2326740026473999,-0.33914390206336975,-0.22407501935958862,-0.2692358195781708,0.17347051203250885,0.3111402690410614,-0.4017815589904785,-0.20736655592918396,0.28535953164100647,0.24119077622890472,-0.20730680227279663,0.20557180047035217,-0.2598085105419159,-0.34562915563583374,0.2564489245414734,-0.18495996296405792,0.2749466896057129,-0.25756171345710754,0.3249072730541229,0.28656935691833496,-0.3353334963321686,0.25380825996398926,0.31543591618537903,0.11842922866344452,-0.3236081004142761,0.3787570297718048,-0.1467326283454895,-0.10296112298965454,-0.2618751525878906,-0.1647348403930664,-0.3010195195674896,0.3242948055267334,-0.3278352618217468,0.14094983041286469,0.36472201347351074,0.1940598040819168,-0.332253634929657,-0.0540805459022522,-0.2975168228149414,0.3153650164604187,-0.029370296746492386,-0.08257217705249786,0.3742944598197937,-0.33504384756088257,0.1791122704744339,-0.2579628825187683,-0.319394588470459,0.35490119457244873,-0.11289611458778381,0.33069759607315063,-0.06311506778001785,-0.0839746966958046,0.04850791394710541,-0.26596009731292725,-0.3284437358379364,-0.31852930784225464,-0.27724090218544006,-0.336993932723999,0.35110265016555786,-0.029680024832487106,0.3253743350505829,0.49629753828048706,0.2583743929862976,-0.30231568217277527,0.37102949619293213,-0.2186611443758011,-0.2893446981906891,-0.11960680782794952,0.3316847085952759,0.037912767380476,-0.007566596381366253,-0.18517474830150604,0.05452706292271614,0.09210780262947083,-0.28638073801994324,0.3173968195915222,-0.15065832436084747,0.09132590889930725,0.21995750069618225,-0.45810577273368835,0.0667024478316307,-0.24234752357006073,-0.02928515337407589,0.10589993745088577,-0.07066008448600769,0.32873791456222534,0.3089679777622223,0.287557452917099,-0.04871222376823425,0.11829614639282227,-0.4870761036872864,-0.4588887393474579,-0.13548643887043,-0.3278581202030182,-0.14588528871536255,0.10137395560741425,-0.05713661015033722,0.5086253881454468,0.11733885854482651,0.2868306338787079,-0.12299683690071106,-0.42315053939819336,0.6829478144645691,0.15687109529972076,-0.4801805317401886,-0.3747103214263916,0.1064310371875763,-0.09010181576013565,0.4352159798145294,0.40482795238494873,-0.1330564171075821,0.049429334700107574,-0.3618538975715637,0.07798746228218079,-0.4297291934490204,-0.41698428988456726,0.45064109563827515,-0.121773861348629,-0.4554831385612488,-0.06696541607379913,0.3968673348426819,0.31709638237953186,-0.16763021051883698,-0.1184193566441536,-0.34692490100860596,-0.13854993879795074,-0.29830044507980347,0.27181464433670044,-0.3892207443714142,0.09751694649457932,0.37667548656463623,0.2490534633398056,-0.3259689509868622,-0.15087200701236725,0.20333579182624817,0.27280572056770325,-0.3036227226257324,-0.22773469984531403,0.29153212904930115,-0.25494369864463806,0.1547936052083969,-0.17442914843559265,-0.2857216000556946,0.25062471628189087,-0.3010390102863312,0.3046894669532776,-0.14732205867767334,-0.16381114721298218,0.15597328543663025,-0.2622256875038147,-0.4701123535633087,-0.3529554307460785,0.21173115074634552,0.29250502586364746,-0.09821870177984238,-0.11457870155572891,-0.2982597053050995,-0.20045606791973114,-0.34228193759918213,0.30136626958847046,-0.37208274006843567,0.09091592580080032,0.32366517186164856,0.29001572728157043,-0.33342406153678894,-0.16143172979354858,-0.15514488518238068,0.22600921988487244,-0.03652207553386688,-0.10551220178604126,0.2759700119495392,-0.25041663646698,0.11238884925842285,-0.22460831701755524,-0.29972752928733826,0.3259309232234955,-0.19356708228588104,0.24916282296180725,-0.0755549743771553,-0.15343879163265228,0.1322447657585144,-0.25528016686439514,-0.250504732131958,-0.28625038266181946,0.005232086405158043,0.18404462933540344,-0.3074358403682709,-0.341593861579895,-0.1877041459083557,-0.26230713725090027,-0.2241879552602768,0.2094239592552185,-0.18887481093406677,0.38945338129997253,0.2103986144065857,0.26748356223106384,-0.20596341788768768,-0.28809264302253723,0.32394713163375854,0.2687442898750305,-0.3479425609111786,-0.23851056396961212,0.15553298592567444,-0.26960641145706177,0.24459291994571686,0.34744274616241455,-0.18915674090385437,0.1237117275595665,-0.23257851600646973,0.15200337767601013,-0.38294973969459534,-0.3201368451118469,0.3718808591365814,-0.21851184964179993,-0.34248945116996765,-0.18592901527881622,0.3140227198600769,-0.1486739069223404,0.448974072933197,0.4095302224159241,0.15327952802181244,0.357766717672348,0.165024995803833,-0.19679774343967438,0.1015157550573349,-0.5204841494560242,-0.10432346165180206,-0.30279016494750977,0.17934048175811768,0.4627665877342224,-0.5075746178627014,-0.19019493460655212,0.4363732933998108,0.3715161681175232,-0.08397191017866135,0.11084474623203278,-0.33649173378944397,-0.46357476711273193,0.1756610870361328,-0.07353968918323517,0.37291041016578674,-0.09702872484922409,0.3969799280166626,0.3516041338443756,-0.4563637673854828,0.176028311252594,0.319364458322525,0.016344042494893074,-0.3900844156742096,-0.23436997830867767,0.14557966589927673,0.21482114493846893,0.3114689886569977,0.1602959781885147,0.25148242712020874,-0.24007482826709747,0.33169108629226685,-0.23890149593353271,-0.31367596983909607,-0.2009001225233078,0.2242748737335205,0.14776065945625305,0.28859636187553406,-0.20538535714149475,0.12604881823062897,0.20198768377304077,-0.3158348500728607,0.30114951729774475,-0.20609180629253387,0.2850106358528137,0.2818309962749481,-0.22416673600673676,0.1779046654701233,-0.26044124364852905,0.1734965741634369,0.23558247089385986,-0.20698317885398865,0.268717885017395,0.18449139595031738,0.2628072500228882,0.25428852438926697,-0.4303988218307495,0.13498279452323914,-0.10668245702981949,0.3695315420627594,0.6171184182167053,0.4147176742553711,-0.394806444644928,0.4716883599758148,-0.004782078322023153,-0.4006917476654053,-0.23570503294467926,0.41553980112075806,-0.07678686082363129,0.023625584319233894,-0.30985328555107117,-0.09909568727016449,0.034302495419979095,-0.480988472700119,0.4155880808830261,-0.10837548971176147,0.19184510409832,0.3335608243942261,-0.6050366163253784,-0.01712881773710251,-0.4152832329273224,-0.1328531950712204,0.0010328198550269008,-0.052741639316082,0.40129533410072327,0.3478659391403198,0.41427531838417053,-0.029450276866555214,-0.09447257965803146,0.5299410820007324,0.3761287033557892,0.19696220755577087,0.36115187406539917,0.08677924424409866,-0.22546309232711792,0.1591355949640274,-0.5058668851852417,-0.09468158334493637,-0.30273300409317017,0.1081964373588562,0.4031975567340851,-0.6545645594596863,-0.16355767846107483,0.4495985805988312,0.34802842140197754,-0.17319002747535706,0.19856074452400208,-0.31236451864242554,-0.486257940530777,0.2532905638217926,-0.04259336739778519,0.24778565764427185,-0.17571108043193817,0.41789892315864563,0.3735237419605255,-0.3775842785835266,0.13748688995838165,0.5213807225227356,0.041291285306215286,-0.4222884774208069,0.6278123259544373,-0.897422730922699,-0.22298265993595123,-0.6220902800559998,0.0653659924864769,-0.5786490440368652,0.5399398803710938,-0.589248776435852,0.7249749302864075,0.6385373473167419,0.6075944304466248,-0.6471222639083862,-0.13471560180187225,0.5201910138130188,0.5827705264091492,-0.37630027532577515,-0.1326133757829666,0.6020048260688782,-0.610690712928772,0.2011634260416031,0.31054621934890747,-0.5355987548828125,-0.14653457701206207,-0.29424363374710083,0.5989380478858948,-0.428082674741745,-0.17397147417068481,0.2494850754737854,-0.5452275276184082,-0.9736962914466858,-0.3494994342327118,0.535628616809845,0.446880042552948,-0.6146384477615356,-0.1537359654903412,-0.42348313331604004,-0.02374832145869732,-0.3937462866306305,0.3222042918205261,-0.36430007219314575,0.5030304193496704,0.40415307879447937,0.2863273024559021,-0.37474480271339417,-0.11509379744529724,0.9601283669471741,0.4490627348423004,-0.14796416461467743,-0.13493745028972626,0.4248068332672119,-0.35817497968673706,0.11539474129676819,0.11960414797067642,-0.3407433032989502,0.2813463807106018,-0.060160208493471146,0.41416946053504944,-0.20309653878211975,-0.12906016409397125,0.16583937406539917,-0.4178302586078644,-1.483492136001587,-0.2788918912410736,0.4203132688999176,0.12940628826618195,-0.42731907963752747,-0.40796995162963867,-0.20295235514640808,-0.27171796560287476,-0.1705254465341568,0.16785027086734772,-0.12718935310840607,0.4082237482070923,0.18401537835597992,0.3064017593860626,-0.15846212208271027,-0.35339030623435974,0.4795217216014862,0.19922737777233124,-0.46186763048171997,-0.3542410135269165,0.08181304484605789,-0.22453086078166962,0.291174054145813,0.4024532735347748,-0.20991972088813782,0.10314135253429413,-0.3614403307437897,0.12698888778686523,-0.42520761489868164,-0.29915696382522583,0.4305102527141571,-0.1694985330104828,-0.2538039982318878,-0.08171946555376053,0.33191046118736267,0.3665403127670288,-0.20228010416030884,-0.14398953318595886,-0.2554553151130676,-0.35510292649269104,-0.2720782458782196,0.27087751030921936,-0.3066268265247345,0.18218255043029785,0.3600867986679077,0.2618218660354614,-0.31283366680145264,-0.18599891662597656,0.132770374417305,0.3011045753955841,-0.2385503053665161,-0.19090548157691956,0.30530214309692383,-0.26302674412727356,0.20370204746723175,-0.21307341754436493,-0.24195678532123566,0.21840587258338928,-0.2631342113018036,0.34932008385658264,-0.19493362307548523,-0.16046026349067688,0.03077876754105091,-0.3147836923599243,-0.2136814445257187,-0.33558037877082825,0.26594048738479614,0.32269006967544556,-0.1697264462709427,-0.21451851725578308,-0.23468878865242004,-0.19818876683712006,-0.24336345493793488,0.2021469920873642,-0.299805611371994,0.1648668795824051,0.24757900834083557,0.2385692149400711,-0.29299411177635193,-0.21923622488975525,-0.19772769510746002,0.20484918355941772,-0.25231292843818665,-0.18200822174549103,0.2650826871395111,-0.29652103781700134,0.2170362025499344,-0.240060493350029,-0.24136053025722504,0.2687435746192932,-0.24051406979560852,0.2456410974264145,-0.21492153406143188,-0.17750908434391022,0.2185284048318863,-0.2310393899679184,-0.27195030450820923,-0.23513014614582062,-0.17737314105033875,-0.24385540187358856,0.16651226580142975,0.1362481266260147,0.24148480594158173,0.18854936957359314,0.22012457251548767,-0.2318444550037384,0.21444201469421387,-0.08441350609064102,-0.25850942730903625,-0.1753683090209961,0.26868242025375366,0.19202084839344025,-0.09317845851182938,-0.19220300018787384,0.1994629055261612,0.15372303128242493,-0.30095425248146057,0.2573815584182739,-0.1869812309741974,0.30914047360420227,0.188137486577034,-0.27142977714538574,0.1826353818178177,-0.2027035802602768,0.172750785946846,0.18416708707809448,-0.20114187896251678,0.1970554143190384,0.14501968026161194,0.34390655159950256,-0.12236890941858292,-0.1908763200044632,0.2517072856426239,0.25389155745506287,0.23490405082702637,0.3072115480899811,0.24760310351848602,-0.21075184643268585,0.195564866065979,-0.28416553139686584,-0.16778767108917236,-0.2961997985839844,0.1763290911912918,0.25869572162628174,-0.24480140209197998,-0.2698151767253876,0.30959999561309814,0.27693983912467957,-0.22388796508312225,0.24455922842025757,-0.3057926297187805,-0.24770213663578033,0.2912192940711975,-0.1528494954109192,0.2307910919189453,-0.17988550662994385,0.3016006052494049,0.3130810856819153,-0.33764252066612244,0.21065564453601837,0.2719140350818634,0.08176706731319427,-0.20616017282009125,-0.18967761099338531,0.09419402480125427,0.21874763071537018,0.18250568211078644,0.1907556653022766,0.18506088852882385,-0.20921365916728973,0.2030518501996994,-0.08097780495882034,-0.21209752559661865,-0.24931401014328003,0.24517719447612762,0.2311365306377411,0.43259721994400024,-0.25779035687446594,0.30344027280807495,0.30107539892196655,-0.2835915982723236,0.27269354462623596,-0.2760832607746124,0.27975258231163025,0.2507631182670593,-0.25168949365615845,0.2344401478767395,-0.275493860244751,0.20728915929794312,0.2176792025566101,-0.21134313941001892,0.28009653091430664,0.13920584321022034,0.09652885049581528,0.30095556378364563,-0.24129527807235718,0.474060982465744,0.004905989859253168,0.2720398008823395,0.5960327386856079,0.23274125158786774,-0.2426290512084961,0.33645573258399963,-0.34964656829833984,-0.24320872128009796,-0.2296137660741806,0.2872738838195801,0.0183953195810318,-0.3174135982990265,-0.236815944314003,-0.05633823946118355,0.05596157908439636,-0.32377469539642334,0.27771317958831787,-0.06826351583003998,-0.2687036693096161,0.33703726530075073,-0.7077934741973877,0.17499001324176788,-0.3051359951496124,-0.1170378178358078,0.060082823038101196,-0.18823570013046265,0.36111509799957275,0.526208758354187,-0.036320507526397705,-0.14401815831661224,-0.6183332800865173,0.03952346369624138,0.030837388709187508,0.6145291328430176,0.14029769599437714,0.5336288809776306,-0.57081139087677,0.623111367225647,-0.11421496421098709,-0.5583184957504272,-0.2751842439174652,0.6234138011932373,-0.01313045620918274,-0.20151785016059875,-0.5723192095756531,0.1217418909072876,0.06299145519733429,-0.6709486842155457,0.6103000044822693,-0.06676871329545975,0.2680065631866455,0.5310215353965759,-0.3003480136394501,0.08686380088329315,-0.6410492658615112,0.0511636957526207,0.08812803030014038,-0.056836843490600586,0.6193981766700745,0.7370063066482544,0.4276587665081024,0.026568342000246048]},"cellActivationBias":{"rows":32,"columns":1,"weights":[1.2771350145339966,-0.1368376463651657,0.6857162714004517,-1.3418145179748535,1.9883384704589844,-1.365484595298767,1.3581293821334839,-1.2240158319473267,0.15708668529987335,1.3173459768295288,1.6436948776245117,-1.279002070426941,0.6160082221031189,0.867515504360199,1.460930585861206,1.9368921518325806,0.47797727584838867,1.3354746103286743,-1.3980904817581177,-0.4613383114337921,0.5604405999183655,-1.2983466386795044,-0.12571334838867188,0.5425747036933899,1.4086401462554932,1.2463126182556152,0.6797431707382202,-0.8219920992851257,-1.189821720123291,-1.6295076608657837,0.23258395493030548,0.12464990466833115]}},{"inputMatrix":{"rows":16,"columns":32,"weights":[0.34227055311203003,-0.13205617666244507,-0.14716999232769012,-0.3022374212741852,-0.6272895336151123,-0.40772488713264465,0.49067947268486023,-0.43740296363830566,0.17932583391666412,0.35663700103759766,0.10313746333122253,-0.310587614774704,0.1010599210858345,0.10584992915391922,0.3161299526691437,-0.43120303750038147,0.21348673105239868,0.32061967253685,-0.41028842329978943,-0.15397951006889343,0.11147709935903549,-0.45355653762817383,0.4900919497013092,0.3065424859523773,0.35447001457214355,-0.07364945113658905,0.10018249601125717,-0.2398405522108078,-0.4166625142097473,0.1787595897912979,-0.8709720969200134,-0.17124560475349426,0.22486580908298492,0.3263342082500458,-0.051945772022008896,-0.12185598909854889,0.2567274570465088,-0.2188367396593094,0.13552509248256683,-0.23883941769599915,-0.28644266724586487,0.1483592540025711,0.17669950425624847,-0.23111161589622498,-0.04040100425481796,-0.0644833892583847,0.15600132942199707,0.03933011367917061,0.08039574325084686,0.1602356880903244,-0.1653817743062973,-0.07017866522073746,-0.06807238608598709,-0.2068636268377304,0.47115999460220337,0.12097222357988358,0.1313270777463913,-0.05938420444726944,0.07125910371541977,-0.02504151687026024,-0.19039028882980347,-0.03160005062818527,-0.09478751569986343,-0.17105326056480408,0.6697822213172913,-1.3022806644439697,-0.4057457149028778,-0.6449277400970459,-1.5129107236862183,-0.2603379189968109,0.4694778323173523,-0.28359663486480713,1.2692346572875977,0.5926291346549988,0.2358728051185608,-0.6284593939781189,-0.16563042998313904,-0.27528372406959534,0.5770623683929443,-0.6867867708206177,-0.20316410064697266,0.509107768535614,-0.5411195158958435,0.20267027616500854,-0.23582932353019714,-0.5930666327476501,-0.32962626218795776,1.897075891494751,0.5074064135551453,-0.5368946194648743,-0.15077434480190277,0.6458015441894531,-0.5336517095565796,0.8563936948776245,0.25762033462524414,0.3670721650123596,0.42120376229286194,0.014468896202743053,-0.0871153250336647,-0.40667155385017395,-0.11922553181648254,-0.40946730971336365,0.403747022151947,-0.4561873972415924,0.011973602697253227,0.47230666875839233,0.4068039357662201,-0.46656858921051025,-0.016774345189332962,0.07378064841032028,0.45163559913635254,-0.092666395008564,0.10124298930168152,0.4555041790008545,-0.4780958294868469,-0.13082654774188995,0.01589854061603546,-0.45791494846343994,0.47164133191108704,-0.0737951248884201,0.37928691506385803,-0.09207683056592941,0.004839194007217884,0.07543431967496872,-0.4082529544830322,-0.47408145666122437,-0.2765609622001648,-0.03787577152252197,-0.4009735584259033,-0.14401909708976746,-0.5114638209342957,0.4768989682197571,-0.20837363600730896,0.49850985407829285,-0.4903961718082428,0.4950662851333618,0.20649868249893188,-0.43829378485679626,-0.042218469083309174,0.47523075342178345,-0.334307998418808,0.17693807184696198,-0.4993804693222046,-0.47636720538139343,-0.28782811760902405,-0.500847339630127,0.49380871653556824,0.3244285583496094,0.14889581501483917,0.4479748606681824,-0.10740046948194504,0.020838072523474693,-0.43476325273513794,-0.561458945274353,-0.33338358998298645,0.6245474815368652,0.4134584665298462,0.15377280116081238,0.2060946673154831,0.04386693984270096,0.9509551525115967,-0.3324127197265625,0.007905235514044762,-0.8192138075828552,0.09782670438289642,-0.8244587182998657,0.755006730556488,-0.8331311345100403,0.14329704642295837,0.9270865321159363,0.8235901594161987,-0.878655731678009,-0.1547735035419464,0.7444511651992798,0.888260543346405,-0.09735366702079773,-0.16738411784172058,0.9127389788627625,-0.8902314305305481,0.08882493525743484,0.5306957960128784,-0.8174008131027222,0.05439654365181923,-0.12715673446655273,0.9382001161575317,-0.18938221037387848,-0.1363333910703659,0.22669368982315063,-0.7995529770851135,-1.0060709714889526,0.25035813450813293,0.45516204833984375,0.3442096412181854,-0.016553444787859917,-0.03307172656059265,-0.2941962480545044,-0.41934439539909363,-0.3626927435398102,0.41441774368286133,-0.3443771004676819,0.20703275501728058,0.2564808428287506,0.21223951876163483,-0.3211377263069153,0.005878043361008167,-0.09856464713811874,0.38647037744522095,-0.07827210426330566,0.1382988840341568,0.3245818614959717,-0.3158097267150879,-0.0949341431260109,-0.07227598875761032,-0.39253532886505127,0.580592155456543,0.13636335730552673,0.3365318179130554,0.01809341460466385,0.08710134029388428,-0.00985910277813673,-0.3575657308101654,-0.4114950895309448,-0.3981582224369049,-0.105593740940094,0.5065345168113708,-0.5404262542724609,-0.1638239473104477,-0.5142123103141785,-0.4686076045036316,-0.3303338289260864,0.42032331228256226,-0.3562695384025574,0.5832533836364746,0.4707896113395691,0.27936282753944397,-0.5426309704780579,0.009634939953684807,-0.018817655742168427,0.4857882559299469,-0.3341282904148102,0.060286082327365875,0.4065638482570648,-0.517037570476532,-0.03972431272268295,0.05152606964111328,-0.4288983941078186,0.435760498046875,0.3855094015598297,0.5064821243286133,-0.27438610792160034,0.04272664338350296,0.2025907337665558,-0.48353269696235657,-0.5227352976799011,-0.2858051657676697,0.06906505674123764,0.37489765882492065,-0.20450381934642792,0.01936512254178524,-0.38567957282066345,-0.8870062828063965,-0.43124786019325256,0.4854418933391571,-0.4838847815990448,0.11500929296016693,0.3486882150173187,-0.2034631073474884,-0.3696746826171875,0.029856907203793526,-0.6042994856834412,0.4195210039615631,0.23729704320430756,-0.006617429666221142,0.31890299916267395,-0.3863619565963745,-0.07270930707454681,-0.584744393825531,-0.630018949508667,0.259599894285202,2.3947553634643555,0.28846243023872375,0.17170724272727966,0.03294632211327553,-0.42618125677108765,-0.3624550402164459,1.917663335800171,0.8831595778465271,-0.27502357959747314,0.22558285295963287,0.542430579662323,-0.015306249260902405,-0.21376490592956543,-0.6054465770721436,-0.4380990266799927,0.36766472458839417,-0.29838624596595764,-0.40977972745895386,0.25148826837539673,0.2780347168445587,-0.18913033604621887,0.012188207358121872,-0.27250513434410095,0.3020533621311188,-0.05476733297109604,0.13692419230937958,0.29052287340164185,-0.2451099157333374,-0.14548325538635254,-0.18720437586307526,-0.3914591372013092,0.6667730808258057,0.06513198465108871,0.2614445686340332,0.24764105677604675,0.07129623740911484,-0.38071903586387634,-0.27520519495010376,0.004254576284438372,-0.17663682997226715,-0.2914159595966339,0.6943340301513672,-1.0624712705612183,-0.3118240535259247,-0.6941972374916077,-0.023105649277567863,-0.6670273542404175,0.6395437717437744,-0.7634031176567078,0.9306621551513672,0.6304709315299988,0.6134388446807861,-0.7333182692527771,-0.164268359541893,1.1158663034439087,0.641930878162384,-0.30620208382606506,-0.28417494893074036,0.689970076084137,-0.5989637970924377,0.19244983792304993,0.8708548545837402,-0.5889284610748291,-0.17376147210597992,-0.23120878636837006,0.6466661095619202,-0.2522870898246765,-0.24939732253551483,0.2548609972000122,-0.6876198649406433,-1.2295855283737183,-0.3943781852722168,0.6733171343803406,-0.7030219435691833,-0.634602963924408,-0.4796156585216522,0.6949856877326965,0.021708087995648384,0.7034761309623718,-0.635303795337677,0.6163542866706848,0.7314658164978027,-0.630289614200592,-0.6713122725486755,0.7441067695617676,-0.6276859045028687,0.8905097246170044,-0.680954098701477,-0.4065602421760559,-0.7128993272781372,-0.6667149662971497,0.696376383304596,0.6995008587837219,0.9251560568809509,0.6237689256668091,-0.39886999130249023,-0.24375911056995392,-0.6773443818092346,-0.43573638796806335,-0.6398957371711731,0.36726564168930054,0.628201425075531,0.6318162679672241,0.7164693474769592,0.6319180727005005,-0.5674422383308411,0.5703652501106262,-0.0554446205496788,0.5781236290931702,1.0638537406921387,0.4167555868625641,-0.5463241934776306,0.22582925856113434,-0.3109557330608368,-0.6198963522911072,-0.31270742416381836,0.5893476009368896,-0.13032537698745728,-0.37215468287467957,-0.5931925177574158,0.39424845576286316,0.006054879166185856,-0.5832598209381104,0.5842468738555908,-0.05523141473531723,0.10763683915138245,0.6007778644561768,0.3358254134654999,-0.4252893030643463,-0.6409013867378235,0.315449595451355,-0.14285527169704437,-0.4196176528930664,0.5807456374168396,0.17393365502357483,0.8435277938842773,-0.11775986850261688,-0.5058039426803589,-0.5804194211959839,-0.03333214670419693,0.5141652226448059,-0.15050199627876282,0.5810707211494446,-0.5594670176506042,0.5367052555084229,0.7727201581001282,-0.5027185678482056,-0.4838266968727112,0.4864673614501953,-0.30586037039756775,0.298773854970932,-0.591757595539093,0.1131134033203125,-0.30618324875831604,-0.5886418223381042,0.5539923906326294,0.33087214827537537,0.23377034068107605,0.5636910796165466,-0.6046645045280457,-0.39141422510147095,-0.5413476824760437,-0.05651918798685074,-0.23780617117881775,0.19729569554328918,0.5568117499351501,0.5343022346496582,1.229449987411499,0.38614559173583984,0.3535219728946686,0.1278846710920334,-0.20900699496269226,-0.3056548535823822,-0.4974636137485504,-0.363739937543869,0.3708747327327728,-0.387587308883667,-0.004042882937937975,0.2545456886291504,0.32285988330841064,-0.22736722230911255,0.015082573518157005,-0.007661896292120218,0.3467197120189667,-0.24362997710704803,0.0821119174361229,0.2925525903701782,-0.36313673853874207,-0.04638008400797844,0.05213652178645134,-0.417641282081604,0.30386534333229065,-0.007196227088570595,0.28524813055992126,-0.13087695837020874,0.04093105345964432,0.05144652724266052,-0.3663056194782257,-0.006240593735128641,-0.05161409452557564,-0.055597592145204544,0.44245409965515137,-1.3433092832565308,0.08078633248806,-0.370940238237381,-1.0722230672836304,-0.7554090619087219,0.4264729917049408,-0.5218493938446045,1.1771626472473145,0.42558446526527405,0.4466794431209564,-0.35051125288009644,0.02633633278310299,-0.0311605092138052,0.3586422801017761,-0.03970812261104584,0.04767053946852684,0.42835190892219543,-0.3279990553855896,-0.005937210749834776,0.127482607960701,-0.40370675921440125,0.23908333480358124,0.47740045189857483,0.3870357275009155,0.044918667525053024,-0.004386112559586763,-0.05618922412395477,-0.43863391876220703,1.6598469018936157,1.0420126914978027,0.6004336476325989]},"inputHidden":{"rows":16,"columns":16,"weights":[-0.04390173405408859,-0.27083292603492737,-0.2687869966030121,-0.3256953954696655,0.31674641370773315,0.38120806217193604,0.44437292218208313,-0.2816730737686157,0.3194737136363983,0.30687180161476135,0.2415609210729599,0.23886793851852417,-0.34656381607055664,-0.24072742462158203,-0.27842479944229126,0.4208276569843292,-0.21517080068588257,0.2552272379398346,0.07744316756725311,0.20590193569660187,-0.17124688625335693,-0.13994111120700836,-0.0371483750641346,-0.006914875470101833,-0.1324462741613388,-0.17243275046348572,0.09795873612165451,0.47667497396469116,0.32615864276885986,-0.342057466506958,0.19951671361923218,-0.2661808431148529,-0.035398125648498535,-0.005813499912619591,0.07834068685770035,-0.15800896286964417,-0.23377150297164917,-0.06531815975904465,0.18741323053836823,0.0626300647854805,0.1456298828125,0.08891944587230682,-0.09738922119140625,0.8131389021873474,0.10294853895902634,-0.4320763945579529,-0.10250336676836014,0.02344513311982155,-0.2038286030292511,-0.020168565213680267,0.09560453146696091,0.11185858398675919,-0.11451121419668198,-0.3001701235771179,-0.1186811774969101,-0.029137564823031425,-0.11984076350927353,-0.12647520005702972,-0.15409088134765625,0.2652696669101715,0.18594661355018616,-0.2268437296152115,0.10400006175041199,-0.4260246455669403,-0.2497626692056656,0.3062936067581177,0.23320525884628296,0.29349711537361145,-0.28407883644104004,0.11971370875835419,-0.1784193217754364,0.26494285464286804,-0.35366979241371155,-0.30053895711898804,0.058160267770290375,0.40485328435897827,0.38807204365730286,-0.3765397369861603,0.33765122294425964,0.05153196305036545,0.2308325618505478,-0.4266175329685211,-0.09077461063861847,-0.39321136474609375,-0.1006011888384819,-0.2106163501739502,0.17977334558963776,-0.29946935176849365,0.5262837409973145,0.3016095757484436,0.1511891484260559,-0.15482664108276367,-0.5002885460853577,0.2339990735054016,-0.4163988530635834,-0.17673979699611664,-0.11542495340108871,-0.25162455439567566,-0.2517752945423126,-0.3186955451965332,0.16603051126003265,-0.04951625317335129,0.33099985122680664,-0.33138447999954224,0.271119087934494,0.3335686922073364,-0.020422164350748062,0.17390267550945282,-0.30662643909454346,-0.12469467520713806,-0.2804531753063202,-0.01749483123421669,0.06398709118366241,-0.11471692472696304,