if (!window.increasingByteSequence) window.increasingByteSequence = {}

window.increasingByteSequence.model = {
    "type": "LSTM",
    "options": {
        "inputSize": 20,
        "inputRange": 20,
        "hiddenLayers": [
            64,
            32,
            16,
            32,
            64
        ],
        "outputSize": 20,
        "decayRate": 0.999,
        "smoothEps": 1e-8,
        "regc": 0.000001,
        "clipval": 5,
        "maxPredictionLength": 100,
        "dataFormatter": {
            "indexTable": {},
            "characterTable": {},
            "characters": [],
            "specialIndexes": []
        }
    },
    "trainOpts": {
        "iterations": 20000,
        "errorThresh": 0.005,
        "log": false,
        "logPeriod": 10,
        "learningRate": 0.01,
        "callbackPeriod": 10,
        "timeout": "Infinity"
    },
    "input": {
        "rows": 21,
        "columns": 20,
        "weights": [
            0.001029869308695197,
            -0.025657830759882927,
            0.01939905621111393,
            0.018713118508458138,
            0.024280445650219917,
            -0.044840257614851,
            0.05421541631221771,
            0.05486706271767616,
            0.06116018071770668,
            -0.014543374069035053,
            0.06234036386013031,
            -0.012258360162377357,
            -0.057172741740942,
            -0.04469437897205353,
            -0.03239884600043297,
            -0.05669688433408737,
            0.06142781302332878,
            0.0306144617497921,
            0.05732318013906479,
            -0.009618413634598255,
            -0.0266505628824234,
            -0.0249899011105299,
            -0.015898238867521286,
            -0.010880197398364544,
            -0.06030074879527092,
            0.016239965334534645,
            0.06184263899922371,
            0.02152988128364086,
            -0.07765045017004013,
            0.0044408636167645454,
            0.03396562859416008,
            -0.005395655054599047,
            -0.026191605255007744,
            0.07122401893138885,
            -0.07751371711492538,
            0.00960181187838316,
            0.04579782858490944,
            0.02077312208712101,
            0.003280600067228079,
            -0.07520459592342377,
            -0.07263026386499405,
            0.03979920595884323,
            -0.020689373835921288,
            -0.07555317133665085,
            -0.05207741633057594,
            -0.0013745434116572142,
            0.07810001075267792,
            -0.019150927662849426,
            0.04689299315214157,
            -0.014584125950932503,
            0.025217019021511078,
            0.04845176637172699,
            -0.07730721682310104,
            0.07033119350671768,
            -0.07452589273452759,
            0.05260313302278519,
            0.0038398809265345335,
            0.016556449234485626,
            0.03797747939825058,
            0.06304891407489777,
            0.07239825278520584,
            0.047178227454423904,
            0.06995025277137756,
            0.058900851756334305,
            0.026734089478850365,
            0.044160399585962296,
            -0.0007299790740944445,
            0.06978917121887207,
            -0.03804415091872215,
            -0.06178700178861618,
            0.0027053614612668753,
            0.015076389536261559,
            0.04071573168039322,
            0.042603906244039536,
            -0.04427909478545189,
            0.0723707377910614,
            0.014905573800206184,
            -0.03005218133330345,
            0.07972240447998047,
            0.06156224012374878,
            -0.050685860216617584,
            -0.012923667207360268,
            -0.04001067206263542,
            0.04090317711234093,
            -0.060838453471660614,
            0.005245806649327278,
            -0.014479465782642365,
            -0.043239958584308624,
            -0.0363098680973053,
            -0.07555165141820908,
            0.02429826557636261,
            0.055058639496564865,
            0.00463678315281868,
            0.05298781394958496,
            0.04367898032069206,
            -0.06090822070837021,
            -0.04540950804948807,
            -0.07149291783571243,
            -0.018926670774817467,
            0.05700509622693062,
            -0.0005686422227881849,
            0.029496842995285988,
            0.0587872713804245,
            0.012532079592347145,
            -0.05628542974591255,
            -0.00984472781419754,
            0.05568410083651543,
            -0.0034360727295279503,
            -0.02266800031065941,
            0.03261668235063553,
            0.051996711641550064,
            0.07625377178192139,
            0.016176579520106316,
            -0.019022751599550247,
            0.06315481662750244,
            0.010171128436923027,
            -0.002770460909232497,
            0.05294382572174072,
            0.07212309539318085,
            -0.008003342896699905,
            -0.03253218159079552,
            -0.04170570150017738,
            0.07021714001893997,
            0.041483137756586075,
            0.07301151007413864,
            -0.027074500918388367,
            -0.042132098227739334,
            -0.011726951226592064,
            0.0739789754152298,
            0.0729917511343956,
            -0.07634156942367554,
            -0.049335580319166183,
            0.0027573525439947844,
            -0.02609676495194435,
            0.005272834096103907,
            0.025448273867368698,
            0.04701732471585274,
            0.05101115629076958,
            0.04082297906279564,
            -0.031267691403627396,
            -0.03344278782606125,
            0.026330921798944473,
            -0.05725181847810745,
            -0.008934669196605682,
            -0.01500789262354374,
            0.03168618306517601,
            0.05417865887284279,
            -0.06339646130800247,
            -0.04335372895002365,
            0.06391459703445435,
            0.02953099086880684,
            -0.07825808972120285,
            0.0112597132101655,
            0.0011956037487834692,
            -0.0073660584166646,
            -0.04062465950846672,
            0.024208448827266693,
            0.02812834270298481,
            0.020089849829673767,
            -0.012969257310032845,
            0.04175741225481033,
            0.006079371087253094,
            -0.043685924261808395,
            0.041562870144844055,
            -0.02845470979809761,
            0.07725340873003006,
            -0.01298552006483078,
            0.06643355637788773,
            -0.000005264389528747415,
            -0.009383279830217361,
            -0.07997556775808334,
            0.023166310042142868,
            -0.005164474248886108,
            0.018621737137436867,
            0.04233957454562187,
            -0.054878320544958115,
            0.04993379861116409,
            0.053581032902002335,
            0.07529960572719574,
            0.04784421622753143,
            -0.04758705198764801,
            -0.04052652791142464,
            -0.0699848160147667,
            0.06596873700618744,
            0.024295108392834663,
            -0.056363917887210846,
            -0.013014604337513447,
            -0.060091834515333176,
            -0.012703530490398407,
            -0.021830059587955475,
            -0.037339985370635986,
            0.05874715372920036,
            -0.006427465938031673,
            0.06182567775249481,
            0.04947394132614136,
            0.049999844282865524,
            -0.06265958398580551,
            0.0553765669465065,
            0.06697336584329605,
            -0.07825347781181335,
            0.07573295384645462,
            0.07836771011352539,
            0.0016115671023726463,
            0.025255734100937843,
            0.052869606763124466,
            0.0546519011259079,
            -0.07981592416763306,
            -0.010610051453113556,
            0.05897073075175285,
            -0.06827362626791,
            0.01571531966328621,
            0.04199686646461487,
            -0.027080344036221504,
            -0.04137757048010826,
            -0.04325009509921074,
            -0.017495281994342804,
            -0.06755366921424866,
            0.05810712277889252,
            0.05664791166782379,
            -0.0009402948780916631,
            -0.014443974010646343,
            0.03271077573299408,
            0.0399068146944046,
            0.014944602735340595,
            0.05050855502486229,
            0.028145693242549896,
            0.009196547791361809,
            0.025406695902347565,
            -0.050812531262636185,
            0.0480213426053524,
            0.032273318618535995,
            -0.05343232303857803,
            -0.018092766404151917,
            0.0189142394810915,
            -0.07738374918699265,
            -0.04973291978240013,
            0.05643075704574585,
            0.032649923115968704,
            -0.05148440971970558,
            0.06803593784570694,
            -0.07254116237163544,
            0.07905378192663193,
            -0.022284094244241714,
            0.006105712149292231,
            -0.025625810027122498,
            -0.03478485718369484,
            0.0684230774641037,
            -0.04514693096280098,
            0.009207941591739655,
            -0.014530986547470093,
            -0.06493514776229858,
            0.036000993102788925,
            0.046756960451602936,
            -0.0773741826415062,
            -0.040772631764411926,
            -0.06755275279283524,
            -0.0221857950091362,
            0.07079020887613297,
            0.001834911061450839,
            -0.012759264558553696,
            0.031030794605612755,
            0.030633380636572838,
            -0.03324386104941368,
            -0.06336922198534012,
            0.039220161736011505,
            -0.03293567895889282,
            -0.0017656796844676137,
            0.022653037682175636,
            -0.020935887470841408,
            -0.06727749109268188,
            -0.0013981587253510952,
            -0.0004606420698110014,
            -0.014918777160346508,
            0.04969165474176407,
            0.02767603099346161,
            0.0738942101597786,
            0.03533872216939926,
            -0.060456156730651855,
            0.0453399159014225,
            -0.06995625048875809,
            0.058989640325307846,
            -0.06931451708078384,
            0.044203225523233414,
            0.026501188054680824,
            0.06489381194114685,
            0.0736805647611618,
            0.02974088117480278,
            -0.037059761583805084,
            0.044754546135663986,
            0.009480839595198631,
            -0.07970674335956573,
            -0.030961593613028526,
            0.0351664163172245,
            -0.021187864243984222,
            -0.02339821308851242,
            -0.03038875013589859,
            -0.013820524327456951,
            -0.005668920464813709,
            0.01608441397547722,
            0.05791168659925461,
            -0.06998402625322342,
            -0.012584463693201542,
            -0.052739959210157394,
            0.06449458748102188,
            0.001794973504729569,
            -0.07247605174779892,
            -0.002697315998375416,
            0.046113621443510056,
            -0.06858687102794647,
            -0.0450383760035038,
            0.004484265111386776,
            -0.06604019552469254,
            -0.02557430788874626,
            0.0024111701641231775,
            0.018589789047837257,
            0.04540706425905228,
            0.030086325481534004,
            -0.06997720152139664,
            -0.03379251807928085,
            0.013851391151547432,
            0.06576550006866455,
            -0.061763156205415726,
            0.030147558078169823,
            0.04628247022628784,
            0.0013912958092987537,
            -0.0088538508862257,
            -0.012189376167953014,
            -0.05713517591357231,
            -0.032031040638685226,
            -0.04358867183327675,
            -0.02204105071723461,
            0.033581845462322235,
            0.0022732813376933336,
            -0.07486415654420853,
            0.004113389179110527,
            0.06298886239528656,
            -0.05066535249352455,
            -0.06307508796453476,
            -0.06136336922645569,
            -0.07173670083284378,
            0.06895539909601212,
            0.002797706751152873,
            -0.03923642635345459,
            0.01341097429394722,
            -0.028141412883996964,
            0.04443433880805969,
            0.07292172312736511,
            -0.034519013017416,
            0.022300589829683304,
            -0.06018522381782532,
            0.01873817667365074,
            0.014145566150546074,
            -0.008240118622779846,
            -0.044947609305381775,
            0.046596117317676544,
            0.021870924159884453,
            0.0775551125407219,
            0.018034378066658974,
            -0.026199089363217354,
            0.028625361621379852,
            0.011434085667133331,
            -0.06979425251483917,
            0.046247467398643494,
            -0.06791546195745468,
            0.07431944459676743,
            0.01888621225953102,
            0.03171909227967262,
            -0.02721121907234192,
            -0.028270192444324493,
            0.05957398936152458,
            -0.031623732298612595,
            0.006414396222680807,
            0.05767252296209335,
            0.0055427527986466885,
            0.02316058985888958,
            0.06978511065244675,
            0.0660799890756607,
            -0.031727422028779984,
            0.05510762333869934,
            0.019985085353255272,
            -0.00337579264305532,
            -0.0615958608686924,
            -0.04026332125067711,
            -0.0732918307185173,
            0.07444325089454651,
            0.009320296347141266,
            0.06074361130595207,
            0.06452669948339462,
            -0.03562764823436737,
            -0.024377843365073204,
            -0.0382772758603096,
            0.006513682659715414,
            -0.022666405886411667,
            -0.0008946097223088145,
            0.037018805742263794,
            0.07138781249523163,
            0.059258587658405304,
            0.04119745269417763,
            -0.042583443224430084,
            0.022029921412467957,
            -0.02213505282998085,
            0.02506609633564949,
            0.013703162781894207,
            0.06118175387382507,
            0.07009556889533997,
            -0.014227801002562046,
            -0.05526953190565109,
            0.005960441194474697,
            -0.06851841509342194,
            -0.013847504742443562,
            0.035667624324560165,
            0.07769858092069626,
            0.03564426302909851,
            -0.06342586129903793,
            -0.041226815432310104,
            0.01817428134381771,
            -0.06344738602638245,
            -0.013085385784506798,
            -0.04865081235766411,
            -0.06575097143650055
        ]
    },
    "hiddenLayers": [
        {
            "inputMatrix": {
                "rows": 64,
                "columns": 20,
                "weights": [
                    -0.03632809966802597,
                    -0.04284913092851639,
                    -0.012865789234638214,
                    -0.037951428443193436,
                    -0.06691821664571762,
                    0.057598523795604706,
                    0.044745463877916336,
                    0.020829616114497185,
                    0.0774373710155487,
                    -0.010421081446111202,
                    -0.036812059581279755,
                    -0.034519072622060776,
                    -0.06707826256752014,
                    0.04539765417575836,
                    0.031752098351716995,
                    -0.01185624860227108,
                    0.0042532035149633884,
                    -0.07846742868423462,
                    0.03922993317246437,
                    0.00198208331130445,
                    -0.008342832326889038,
                    -0.07710922509431839,
                    0.02570270374417305,
                    0.07456868141889572,
                    -0.04066228121519089,
                    0.0458318330347538,
                    0.043252624571323395,
                    -0.06976833194494247,
                    -0.051577165722846985,
                    0.06181412190198898,
                    0.019093194976449013,
                    0.015568425878882408,
                    0.05767566338181496,
                    0.03418432176113129,
                    -0.005963056348264217,
                    0.02326134406030178,
                    0.019885584712028503,
                    -0.06127490848302841,
                    0.03466330096125603,
                    -0.07300280034542084,
                    -0.06479799747467041,
                    0.018004104495048523,
                    0.017481673508882523,
                    -0.00592873664572835,
                    -0.042540647089481354,
                    -0.05836997181177139,
                    -0.0727960392832756,
                    -0.022948505356907845,
                    -0.07801953703165054,
                    -0.033855512738227844,
                    -0.04454636573791504,
                    0.06291096657514572,
                    0.004816844128072262,
                    0.03197000175714493,
                    -0.05697280913591385,
                    0.06094786524772644,
                    -0.02480490505695343,
                    0.0633559301495552,
                    -0.014549181796610355,
                    0.06354742497205734,
                    0.05415285751223564,
                    -0.06803378462791443,
                    -0.06912048906087875,
                    0.07454671710729599,
                    -0.008246487006545067,
                    0.002770309569314122,
                    -0.0636565238237381,
                    0.030261654406785965,
                    -0.03847820311784744,
                    0.02924860641360283,
                    -0.0702868327498436,
                    0.06090010330080986,
                    0.027365919202566147,
                    0.05121562257409096,
                    -0.0002847285650204867,
                    -0.05715849623084068,
                    -0.04680318012833595,
                    -0.019398584961891174,
                    0.06535273790359497,
                    0.07124140858650208,
                    -0.056732211261987686,
                    -0.027978582307696342,
                    0.07319272309541702,
                    -0.04875733330845833,
                    -0.016051623970270157,
                    0.02771085686981678,
                    -0.0408758744597435,
                    -0.044597480446100235,
                    0.02697543427348137,
                    -0.01993929035961628,
                    -0.03259913623332977,
                    0.013980288058519363,
                    0.07524507492780685,
                    0.07139735668897629,
                    0.044727571308612823,
                    0.03248599171638489,
                    -0.026919495314359665,
                    -0.018628472462296486,
                    -0.01267445832490921,
                    -0.01770840771496296,
                    -0.013509247452020645,
                    0.0740400105714798,
                    0.050676293671131134,
                    -0.05508749186992645,
                    0.0515429712831974,
                    0.057776130735874176,
                    0.03367902338504791,
                    -0.06758036464452744,
                    -0.04179007187485695,
                    0.04553905129432678,
                    0.05277662351727486,
                    -0.06252092123031616,
                    -0.050751689821481705,
                    0.03301577642560005,
                    -0.05184275284409523,
                    0.05296618118882179,
                    -0.0689384862780571,
                    0.0610712468624115,
                    -0.016861790791153908,
                    -0.0028899384196847677,
                    0.0065506091341376305,
                    0.04520142078399658,
                    0.016047531738877296,
                    0.020993230864405632,
                    0.06435279548168182,
                    0.055318426340818405,
                    -0.005972971208393574,
                    0.04424507915973663,
                    -0.0508163720369339,
                    -0.06489109247922897,
                    -0.029897719621658325,
                    -0.037112023681402206,
                    -0.06455636769533157,
                    0.031485021114349365,
                    -0.054070938378572464,
                    -0.023479370400309563,
                    0.005900287069380283,
                    -0.02959250472486019,
                    0.040901873260736465,
                    -0.057434890419244766,
                    -0.042203180491924286,
                    0.05911925807595253,
                    0.056351438164711,
                    0.008638907223939896,
                    0.003272472880780697,
                    0.0695968046784401,
                    -0.06872082501649857,
                    -0.045897334814071655,
                    0.02219737134873867,
                    -0.03597530722618103,
                    -0.035794492810964584,
                    0.027935784310102463,
                    0.04141811653971672,
                    0.026575827971100807,
                    0.06889697164297104,
                    0.06692830473184586,
                    0.06571120768785477,
                    -0.02990911900997162,
                    -0.025677282363176346,
                    0.07613662630319595,
                    -0.07696102559566498,
                    -0.013757179491221905,
                    0.015860194340348244,
                    0.041418612003326416,
                    -0.03991611301898956,
                    0.01350246649235487,
                    0.057886697351932526,
                    0.003173652570694685,
                    -0.004104039631783962,
                    0.076250359416008,
                    0.07189024984836578,
                    0.05662509426474571,
                    -0.006700356025248766,
                    0.03491157665848732,
                    -0.06815407425165176,
                    -0.01886339671909809,
                    -0.013013799674808979,
                    0.009471254423260689,
                    -0.04219543933868408,
                    -0.03422638028860092,
                    -0.0640789344906807,
                    0.07939715683460236,
                    0.005086296703666449,
                    -0.03744436055421829,
                    -0.06891777366399765,
                    0.07905706018209457,
                    0.00045853492338210344,
                    0.0008377647027373314,
                    -0.045642029494047165,
                    0.0523180291056633,
                    0.0004311828233767301,
                    -0.029229965060949326,
                    -0.047885097563266754,
                    -0.05074983090162277,
                    0.0636882409453392,
                    -0.05366748943924904,
                    -0.026530884206295013,
                    0.008848227560520172,
                    -0.05832096189260483,
                    -0.00748819625005126,
                    -0.019005732610821724,
                    -0.07383313775062561,
                    -0.019394416362047195,
                    -0.045899003744125366,
                    0.06231500208377838,
                    0.031297843903303146,
                    0.0030217901803553104,
                    0.047064170241355896,
                    -0.02308151125907898,
                    -0.06227150931954384,
                    0.04131396487355232,
                    0.0623234398663044,
                    0.013169988989830017,
                    0.07019326090812683,
                    0.0010507182450965047,
                    -0.047874826937913895,
                    -0.001085437834262848,
                    -0.03452302888035774,
                    0.03673834726214409,
                    0.03076092340052128,
                    0.022788386791944504,
                    0.045273713767528534,
                    0.0550256110727787,
                    0.04508718103170395,
                    0.07124418020248413,
                    -0.04152727127075195,
                    0.02788727544248104,
                    -0.059002310037612915,
                    -0.07689198106527328,
                    -0.07150142639875412,
                    0.04751075431704521,
                    0.006183629855513573,
                    -0.030603008344769478,
                    -0.056791555136442184,
                    0.07817908376455307,
                    0.03829331323504448,
                    -0.06447270512580872,
                    -0.009969924576580524,
                    0.01936168596148491,
                    -0.01812218502163887,
                    0.014004943892359734,
                    -0.03169525787234306,
                    0.053220100700855255,
                    0.03432226553559303,
                    -0.06296960264444351,
                    0.057492587715387344,
                    -0.04325109347701073,
                    0.06131589785218239,
                    0.043975718319416046,
                    -0.03367123752832413,
                    0.05931380018591881,
                    0.0005009857122786343,
                    0.06688035279512405,
                    0.03669685125350952,
                    -0.028536356985569,
                    0.010112561285495758,
                    0.046418361365795135,
                    -0.011292701587080956,
                    -0.0391056090593338,
                    -0.07718195021152496,
                    -0.05236003175377846,
                    0.02413874678313732,
                    0.07247309386730194,
                    -0.008539426140487194,
                    -0.05242105945944786,
                    0.03360532596707344,
                    -0.014201508834958076,
                    0.004945781081914902,
                    0.044995710253715515,
                    -0.028448503464460373,
                    -0.010572700761258602,
                    -0.03221753239631653,
                    0.05981578677892685,
                    0.05628090351819992,
                    0.050956569612026215,
                    0.0658169537782669,
                    -0.05088866874575615,
                    0.03479689359664917,
                    0.008771306835114956,
                    -0.04135076329112053,
                    -0.06403116881847382,
                    -0.002549088094383478,
                    -0.04977881908416748,
                    -0.07549934089183807,
                    -0.05824350193142891,
                    -0.005912336055189371,
                    -0.05680554360151291,
                    -0.06448226422071457,
                    -0.07075075060129166,
                    -0.06248762086033821,
                    -0.07566415518522263,
                    0.021479200571775436,
                    0.033266372978687286,
                    0.04761514440178871,
                    0.07132649421691895,
                    0.006897997111082077,
                    -0.0025067708920687437,
                    0.02242550440132618,
                    -0.0323290154337883,
                    0.01719275303184986,
                    0.035778265446424484,
                    -0.01786469854414463,
                    0.015580601990222931,
                    -0.0036041734274476767,
                    0.059365201741456985,
                    -0.028624726459383965,
                    -0.07216467708349228,
                    -0.011133342981338501,
                    -0.036420151591300964,
                    -0.004307931289076805,
                    0.041041068732738495,
                    -0.0180532094091177,
                    -0.006525023840367794,
                    0.010381174273788929,
                    -0.0028195453342050314,
                    0.0357302725315094,
                    0.042756710201501846,
                    0.04664916545152664,
                    0.003989878576248884,
                    0.007154479622840881,
                    -0.022523777559399605,
                    -0.0635715126991272,
                    -0.06363320350646973,
                    0.05044698342680931,
                    0.005101094488054514,
                    -0.015727000311017036,
                    0.03190338984131813,
                    -0.0024129359517246485,
                    -0.04527435451745987,
                    -0.03915996477007866,
                    0.06141452118754387,
                    0.0002898814855143428,
                    0.012095088139176369,
                    -0.05412353202700615,
                    -0.03788784146308899,
                    -0.05418673902750015,
                    -0.054461341351270676,
                    -0.07650337368249893,
                    -0.008166668005287647,
                    -0.053992148488759995,
                    -0.052504319697618484,
                    0.006109934765845537,
                    -0.03026535175740719,
                    0.054546110332012177,
                    0.009090272709727287,
                    -0.0184224471449852,
                    -0.009959896095097065,
                    -0.062074851244688034,
                    0.0792125016450882,
                    0.05183305963873863,
                    0.04413118213415146,
                    -0.03845652937889099,
                    0.07666396349668503,
                    0.07361086457967758,
                    0.07838849723339081,
                    0.07398393750190735,
                    -0.006189718376845121,
                    0.07087107747793198,
                    0.06061253324151039,
                    -0.04252324625849724,
                    -0.00922064483165741,
                    0.008803191594779491,
                    -0.013221347704529762,
                    -0.0702807828783989,
                    0.021629691123962402,
                    0.02292095310986042,
                    0.04985181242227554,
                    0.04422570392489433,
                    0.02510436251759529,
                    0.06918630003929138,
                    0.015804994851350784,
                    0.022015206515789032,
                    0.011147912591695786,
                    0.07842294126749039,
                    0.031280647963285446,
                    -0.010958706960082054,
                    -0.01882505975663662,
                    0.009628343395888805,
                    0.056052058935165405,
                    -0.013497653417289257,
                    -0.047008734196424484,
                    -0.05995810404419899,
                    0.023599637672305107,
                    -0.02377920411527157,
                    0.06280779093503952,
                    0.03539638593792915,
                    -0.045896291732788086,
                    0.047557491809129715,
                    -0.024251410737633705,
                    0.028891930356621742,
                    0.06208938732743263,
                    0.07229972630739212,
                    0.07534272968769073,
                    -0.02770337462425232,
                    0.061306826770305634,
                    0.018493235111236572,
                    -0.014581259340047836,
                    -0.025974204763770103,
                    -0.07654355466365814,
                    0.020896967500448227,
                    -0.03207704797387123,
                    -0.042774565517902374,
                    0.05044778063893318,
                    -0.03804707154631615,
                    0.06509850174188614,
                    -0.013489365577697754,
                    -0.05963585525751114,
                    0.03695026412606239,
                    -0.07895050942897797,
                    -0.028480837121605873,
                    -0.05697079747915268,
                    -0.07678557187318802,
                    0.03269575908780098,
                    0.07833277434110641,
                    0.07459802180528641,
                    -0.02040940523147583,
                    -0.033483926206827164,
                    0.04451150447130203,
                    0.058466117829084396,
                    -0.04722341150045395,
                    0.07043538987636566,
                    0.06649473309516907,
                    0.0039043924771249294,
                    -0.05088973417878151,
                    0.013815445825457573,
                    -0.06746537238359451,
                    -0.053651224821805954,
                    0.02342948131263256,
                    -0.06346606463193893,
                    -0.06923536956310272,
                    -0.014987881295382977,
                    0.03238275274634361,
                    0.0037090179976075888,
                    -0.06945890188217163,
                    -0.057953305542469025,
                    -0.02301238290965557,
                    0.04859231412410736,
                    -0.05680616945028305,
                    0.0707651749253273,
                    -0.006338584236800671,
                    0.04973433166742325,
                    0.03560888394713402,
                    -0.05658982694149017,
                    -0.053081098943948746,
                    0.03791764751076698,
                    -0.012024498544633389,
                    0.06820019334554672,
                    0.020107004791498184,
                    0.05012644827365875,
                    -0.07409270107746124,
                    -0.04827854409813881,
                    -0.00043424093746580184,
                    -0.06966763734817505,
                    0.013361205346882343,
                    0.07344324886798859,
                    0.07996953278779984,
                    0.0032337296288460493,
                    -0.03682319074869156,
                    -0.07333686947822571,
                    -0.06459857523441315,
                    0.004849730990827084,
                    0.007942487485706806,
                    0.02314763329923153,
                    0.04234504699707031,
                    0.03776843845844269,
                    0.011160220019519329,
                    -0.043452318757772446,
                    0.0326976403594017,
                    -0.04748400300741196,
                    -0.008514195680618286,
                    -0.023004205897450447,
                    0.021674510091543198,
                    0.003693723352625966,
                    -0.07888174057006836,
                    -0.0194255281239748,
                    -0.062214650213718414,
                    -0.06430364400148392,
                    0.04309093579649925,
                    0.050726547837257385,
                    0.07450519502162933,
                    -0.015039630234241486,
                    0.03192560374736786,
                    -0.06986115127801895,
                    0.04038046672940254,
                    -0.07545416057109833,
                    0.05584144964814186,
                    -0.027469510212540627,
                    0.055738817900419235,
                    0.052426137030124664,
                    0.04838643595576286,
                    -0.03294925019145012,
                    -0.0365632101893425,
                    0.06634879857301712,
                    0.06229258328676224,
                    -0.04836467280983925,
                    0.060649722814559937,
                    -0.0018454421078786254,
                    0.04993940889835358,
                    -0.07091129571199417,
                    0.026043593883514404,
                    0.020834045484662056,
                    0.05280696600675583,
                    -0.03074275515973568,
                    -0.042688243091106415,
                    -0.07699442654848099,
                    0.07648639380931854,
                    0.03774185851216316,
                    0.07940520346164703,
                    0.019132515415549278,
                    -0.056695837527513504,
                    -0.005244964733719826,
                    0.03872457519173622,
                    0.011219946667551994,
                    -0.012919840402901173,
                    0.04725595936179161,
                    -0.009133819490671158,
                    -0.048311203718185425,
                    0.07345961779356003,
                    0.01961296796798706,
                    0.07137937098741531,
                    0.034902893006801605,
                    0.017354771494865417,
                    0.016350358724594116,
                    0.06988687068223953,
                    -0.010458620265126228,
                    0.0739336684346199,
                    0.05174488574266434,
                    -0.007532723713666201,
                    -0.014974655583500862,
                    0.07330284267663956,
                    0.07651650160551071,
                    0.03626343980431557,
                    0.034244995564222336,
                    0.07158160954713821,
                    0.03317913040518761,
                    -0.06375138461589813,
                    -0.0663759857416153,
                    -0.008332605473697186,
                    0.030161092057824135,
                    -0.005753923207521439,
                    -0.05731317028403282,
                    -0.02209673635661602,
                    0.00200494728051126,
                    0.05097497999668121,
                    -0.06370957940816879,
                    0.010001418180763721,
                    0.07782088220119476,
                    -0.07884890586137772,
                    -0.0331246443092823,
                    -0.06759656220674515,
                    0.02089080773293972,
                    -0.05821097269654274,
                    -0.020101092755794525,
                    0.008024424314498901,
                    -0.02796393446624279,
                    0.05094737932085991,
                    0.045991770923137665,
                    -0.05452140420675278,
                    0.045217689126729965,
                    0.06603941321372986,
                    0.06416404247283936,
                    -0.019184771925210953,
                    0.00008417187200393528,
                    0.0556970052421093,
                    -0.037622299045324326,
                    -0.020545734092593193,
                    -0.03889460861682892,
                    0.06407785415649414,
                    -0.004172937944531441,
                    -0.07712681591510773,
                    0.05522679537534714,
                    -0.0049496907740831375,
                    -0.043989915400743484,
                    0.0018628457328304648,
                    0.03927881270647049,
                    -0.04665769636631012,
                    0.0005815323675051332,
                    -0.050958868116140366,
                    0.023912640288472176,
                    0.014286215417087078,
                    -0.04518979787826538,
                    -0.05825871601700783,
                    -0.0625113844871521,
                    -0.04204753786325455,
                    0.026397906243801117,
                    -0.02375023253262043,
                    0.06963808089494705,
                    -0.019529802724719048,
                    0.04581473022699356,
                    -0.03154728189110756,
                    0.028964675962924957,
                    -0.024118943139910698,
                    0.024586550891399384,
                    -0.06396297365427017,
                    0.04686354473233223,
                    -0.07502031326293945,
                    0.05912288650870323,
                    -0.054170284420251846,
                    0.06701403111219406,
                    -0.05280965939164162,
                    0.005285630933940411,
                    -0.03876623511314392,
                    0.04896623641252518,
                    0.048947397619485855,
                    -0.013033462688326836,
                    0.03044493868947029,
                    0.07344257831573486,
                    0.013761536218225956,
                    -0.05535396188497543,
                    -0.07549368590116501,
                    -0.020730867981910706,
                    0.07896146178245544,
                    0.009203284978866577,
                    -0.037378039211034775,
                    -0.004928251262754202,
                    0.004514841828495264,
                    -0.00006579393811989576,
                    0.007031392306089401,
                    -0.052834589034318924,
                    -0.0038859203923493624,
                    -0.07285059988498688,
                    -0.037689756602048874,
                    0.011987950652837753,
                    -0.035090263932943344,
                    -0.02313937060534954,
                    0.03872103989124298,
                    0.01597580872476101,
                    -0.015286669135093689,
                    -0.055334534496068954,
                    0.05793873965740204,
                    0.02664133720099926,
                    -0.019428404048085213,
                    0.06371025741100311,
                    0.07840344309806824,
                    0.013915854506194592,
                    -0.03325929492712021,
                    -0.00227450137026608,
                    -0.0759492814540863,
                    0.05201922729611397,
                    -0.004495645873248577,
                    -0.00413660379126668,
                    0.06296935677528381,
                    -0.041592299938201904,
                    0.062077391892671585,
                    0.041743699461221695,
                    0.06291108578443527,
                    0.017322974279522896,
                    -0.010431498289108276,
                    0.007464494556188583,
                    0.04625872150063515,
                    0.05960152670741081,
                    0.022679895162582397,
                    -0.07168059051036835,
                    -0.044087741523981094,
                    -0.0460330955684185,
                    0.04743342846632004,
                    0.034629713743925095,
                    -0.060985080897808075,
                    -0.0031677470542490482,
                    0.07564423978328705,
                    -0.030514148995280266,
                    0.07869154214859009,
                    0.0710749477148056,
                    0.012236664071679115,
                    0.013008765876293182,
                    -0.06877868622541428,
                    0.07563174515962601,
                    0.06429849565029144,
                    0.058466169983148575,
                    0.02947981283068657,
                    -0.03451644629240036,
                    -0.03464800491929054,
                    0.040291495621204376,
                    -0.05231628939509392,
                    -0.025655293837189674,
                    -0.05020337551832199,
                    0.029562508687376976,
                    0.04553591459989548,
                    -0.06353617459535599,
                    0.01685442589223385,
                    0.05546438694000244,
                    -0.0002268745010951534,
                    0.005454448517411947,
                    -0.06773575395345688,
                    0.04004908353090286,
                    -0.06275997310876846,
                    -0.03191651031374931,
                    -0.033789440989494324,
                    -0.06720342487096786,
                    0.06004340574145317,
                    0.01912718638777733,
                    -0.009276045486330986,
                    0.03340122848749161,
                    -0.07935871928930283,
                    -0.029244977980852127,
                    -0.0504411980509758,
                    0.05549439787864685,
                    0.010490253567695618,
                    -0.03312179446220398,
                    -0.07696760445833206,
                    -0.0032399711199104786,
                    -0.04206050559878349,
                    0.01576591283082962,
                    -0.030067482963204384,
                    -0.042651254683732986,
                    0.04269250109791756,
                    0.023407237604260445,
                    -0.015247534960508347,
                    -0.06017553433775902,
                    0.015449254773557186,
                    0.06055460870265961,
                    0.005082396324723959,
                    -0.02412456087768078,
                    -0.04079464077949524,
                    -0.05623452737927437,
                    0.016627531498670578,
                    0.07163708657026291,
                    -0.06961731612682343,
                    0.028176389634609222,
                    -0.009216846898198128,
                    -0.011840006336569786,
                    -0.013978300616145134,
                    0.033319141715765,
                    -0.025735195726156235,
                    -0.03549502044916153,
                    -0.014324961230158806,
                    0.0040819295682013035,
                    -0.025796132162213326,
                    0.06892447173595428,
                    0.0049204109236598015,
                    -0.05750163644552231,
                    -0.0026295685674995184,
                    -0.02665926143527031,
                    0.046532001346349716,
                    -0.07885697484016418,
                    -0.030577097088098526,
                    0.055923741310834885,
                    -0.010225621052086353,
                    -0.06270723789930344,
                    0.019399812445044518,
                    0.05078209564089775,
                    0.07245898991823196,
                    0.011823057197034359,
                    -0.0029287319630384445,
                    -0.04243868216872215,
                    -0.026341265067458153,
                    -0.00403432734310627,
                    -0.02441949024796486,
                    -0.05616937577724457,
                    0.0038199229165911674,
                    -0.00461036991328001,
                    0.06171203777194023,
                    -0.004011346958577633,
                    -0.07213837653398514,
                    0.044912178069353104,
                    0.016209054738283157,
                    -0.02936435677111149,
                    0.07369131594896317,
                    0.0660204216837883,
                    -0.04121532291173935,
                    0.05945764482021332,
                    -0.020881790667772293,
                    -0.03724726289510727,
                    0.07103164494037628,
                    -0.07955756038427353,
                    -0.06208530440926552,
                    0.06452764570713043,
                    0.07417106628417969,
                    -0.03627793490886688,
                    -0.06587130576372147,
                    -0.007900349795818329,
                    -0.01661108061671257,
                    0.06520456075668335,
                    -0.06777992844581604,
                    -0.04513216391205788,
                    0.008514989167451859,
                    -0.03557523712515831,
                    -0.0007618388044647872,
                    0.06396545469760895,
                    0.02988300658762455,
                    0.05327063798904419,
                    0.005535315256565809,
                    -0.0070861405692994595,
                    0.07486189156770706,
                    0.0012589646503329277,
                    -0.06757956743240356,
                    -0.01010742224752903,
                    -0.036483168601989746,
                    -0.05914773792028427,
                    0.00253701931796968,
                    0.05424727499485016,
                    0.014478068798780441,
                    0.07723826915025711,
                    0.056015923619270325,
                    0.006601384375244379,
                    -0.033704906702041626,
                    -0.06058567762374878,
                    -0.07671754062175751,
                    -0.05662595108151436,
                    0.039316073060035706,
                    -0.07163488864898682,
                    0.0403597354888916,
                    0.0742761492729187,
                    -0.07925306260585785,
                    -0.06809362769126892,
                    0.017543859779834747,
                    -0.07572068274021149,
                    -0.018703555688261986,
                    0.0643601343035698,
                    0.06947354227304459,
                    0.020287716761231422,
                    0.0035986669827252626,
                    -0.002053692936897278,
                    -0.06587722897529602,
                    -0.053113341331481934,
                    0.06482366472482681,
                    0.019634176045656204,
                    0.06707455962896347,
                    -0.03581710532307625,
                    0.056490276008844376,
                    0.036126427352428436,
                    0.016452694311738014,
                    -0.038779519498348236,
                    0.05145784467458725,
                    -0.07102211564779282,
                    0.039536863565444946,
                    0.000450729246949777,
                    -0.06230092793703079,
                    0.06472630798816681,
                    -0.05599350109696388,
                    -0.0494997613132,
                    -0.009501812048256397,
                    0.020369336009025574,
                    0.038255393505096436,
                    -0.03521132841706276,
                    -0.07336883991956711,
                    -0.0650877133011818,
                    -0.06065891310572624,
                    0.05937444418668747,
                    -0.02015511319041252,
                    -0.011744424700737,
                    -0.045939672738313675,
                    0.034856490790843964,
                    -0.0184614397585392,
                    0.0701964795589447,
                    -0.045088108628988266,
                    0.009483667090535164,
                    0.0530020035803318,
                    -0.017592215910553932,
                    0.03993183374404907,
                    0.07475637644529343,
                    -0.009849734604358673,
                    0.04647108539938927,
                    -0.03129751235246658,
                    -0.013241921551525593,
                    0.054018326103687286,
                    -0.06656933575868607,
                    -0.03662068396806717,
                    0.04811747744679451,
                    -0.009355622343719006,
                    0.061993710696697235,
                    0.042833950370550156,
                    -0.052525632083415985,
                    0.041388992220163345,
                    -0.06683295965194702,
                    -0.040183354169130325,
                    -0.042575109750032425,
                    0.0020151238422840834,
                    0.00799549464136362,
                    -0.00046897048014216125,
                    0.07567516714334488,
                    0.04703756794333458,
                    -0.02590167336165905,
                    -0.06795570999383926,
                    -0.012334114871919155,
                    0.014597414061427116,
                    -0.07629615813493729,
                    0.05964716523885727,
                    -0.005864035338163376,
                    0.046880729496479034,
                    0.07400135695934296,
                    0.026452934369444847,
                    -0.02681446075439453,
                    0.055386222898960114,
                    -0.03985409066081047,
                    -0.028545478358864784,
                    0.0028686444275081158,
                    0.026455622166395187,
                    0.006359036546200514,
                    0.04961959645152092,
                    -0.016128022223711014,
                    -0.04777277633547783,
                    -0.06553497165441513,
                    0.021993722766637802,
                    0.008596290834248066,
                    0.06406146287918091,
                    0.0661703571677208,
                    -0.07935573160648346,
                    0.0127180190756917,
                    0.05971188098192215,
                    0.00011083215213147923,
                    -0.06883963942527771,
                    -0.031178591772913933,
                    0.02875411882996559,
                    0.026319947093725204,
                    -0.02252507396042347,
                    0.008742894977331161,
                    0.07727537304162979,
                    0.010236318223178387,
                    -0.07340167462825775,
                    -0.0062357536517083645,
                    -0.007360858377069235,
                    0.017196666449308395,
                    0.06924579292535782,
                    0.035432297736406326,
                    -0.04448474198579788,
                    0.07467467337846756,
                    -0.015700174495577812,
                    0.060214813798666,
                    0.06708342581987381,
                    0.018139107152819633,
                    -0.04940230771899223,
                    0.056006744503974915,
                    -0.03914332017302513,
                    -0.026688149198889732,
                    -0.0658458024263382,
                    -0.04299149662256241,
                    0.03500247001647949,
                    -0.04782490432262421,
                    -0.04172609746456146,
                    0.008829507976770401,
                    -0.058419119566679,
                    0.017897609621286392,
                    0.0679679587483406,
                    0.03063039295375347,
                    0.008661666885018349,
                    -0.042039185762405396,
                    0.021861059591174126,
                    0.0029296705033630133,
                    -0.0033486296888440847,
                    0.06984973698854446,
                    0.0009631363209336996,
                    0.06312830746173859,
                    -0.06373883038759232,
                    0.049277614802122116,
                    0.04385015740990639,
                    0.07175039499998093,
                    0.05025293305516243,
                    -0.02146908827126026,
                    0.02955484576523304,
                    -0.02714335173368454,
                    -0.01659836620092392,
                    -0.06549312174320221,
                    -0.03937762975692749,
                    0.01789170876145363,
                    -0.0034901495091617107,
                    0.0193021297454834,
                    -0.017057199031114578,
                    0.0780821219086647,
                    0.06938471645116806,
                    -0.011670274659991264,
                    0.03603777289390564,
                    0.06719265133142471,
                    -0.049447931349277496,
                    -0.0645393580198288,
                    0.018184026703238487,
                    -0.06128714233636856,
                    0.03168892115354538,
                    0.052611686289310455,
                    -0.03704090043902397,
                    0.006230165250599384,
                    -0.053605709224939346,
                    0.0565863698720932,
                    0.027357088401913643,
                    0.06486064195632935,
                    -0.026561925187706947,
                    -0.02407066524028778,
                    -0.052371785044670105,
                    0.025472333654761314,
                    0.040467552840709686,
                    0.014490699395537376,
                    0.024244556203484535,
                    -0.0026466313283890486,
                    -0.05569446459412575,
                    -0.0036730547435581684,
                    -0.07709240913391113,
                    0.001257304917089641,
                    0.03113459050655365,
                    0.0616120919585228,
                    0.07921062409877777,
                    -0.01264006644487381,
                    0.023771442472934723,
                    0.07551111280918121,
                    -0.016375461593270302,
                    0.0656721219420433,
                    0.07335793226957321,
                    0.03313840180635452,
                    0.04606959596276283,
                    -0.0038838954642415047,
                    0.07562346011400223,
                    -0.014032975770533085,
                    -0.032217562198638916,
                    0.03066025860607624,
                    -0.04339573159813881,
                    -0.008917942643165588,
                    -0.04208510369062424,
                    0.06545130908489227,
                    0.013582119718194008,
                    -0.008248594589531422,
                    -0.05633841082453728,
                    -0.042795076966285706,
                    0.029468625783920288,
                    -0.06140053644776344,
                    -0.07357537001371384,
                    0.01872059889137745,
                    -0.008453065529465675,
                    -0.04086387902498245,
                    0.07785159349441528,
                    0.03604397922754288,
                    0.0237683467566967,
                    -0.017385359853506088,
                    -0.01910494454205036,
                    0.04539937525987625,
                    -0.04406287148594856,
                    0.04943453148007393,
                    0.06080757454037666,
                    -0.0019075522432103753,
                    0.05962391570210457,
                    -0.07736990600824356,
                    -0.058693237602710724,
                    -0.07638853043317795,
                    0.012854856438934803,
                    -0.027062954381108284,
                    -0.05247490108013153,
                    -0.07412997633218765,
                    -0.06892096996307373,
                    -0.0027167245279997587,
                    -0.059574924409389496,
                    -0.062244199216365814,
                    0.028534289449453354,
                    -0.03294559568166733,
                    -0.05143783986568451,
                    0.07185547798871994,
                    0.02296399138867855,
                    0.03958490118384361,
                    -0.011014910414814949,
                    -0.05841901898384094,
                    -0.05407368764281273,
                    -0.046613842248916626,
                    -0.040874041616916656,
                    0.06134074926376343,
                    0.060716938227415085,
                    0.06743204593658447,
                    -0.06389211863279343,
                    0.02285609021782875,
                    0.06300291419029236,
                    -0.0344969742000103,
                    0.046669796109199524,
                    0.0716160461306572,
                    0.0122838718816638,
                    -0.0511922761797905,
                    -0.03493518754839897,
                    -0.014514483511447906,
                    -0.06217296048998833,
                    0.020333992317318916,
                    -0.01511492021381855,
                    -0.01500637736171484,
                    -0.05957711860537529,
                    -0.0292434673756361,
                    0.008475513197481632,
                    0.024939412251114845,
                    0.022114915773272514,
                    -0.017364228144288063,
                    -0.07481922209262848,
                    -0.030093418434262276,
                    0.003759303130209446,
                    0.07733194530010223,
                    0.002074222546070814,
                    -0.022928006947040558,
                    -0.05391595885157585,
                    0.023799492046236992,
                    -0.009871406480669975,
                    -0.07466701418161392,
                    0.05847890302538872,
                    0.07754171639680862,
                    0.06282107532024384,
                    0.041694581508636475,
                    0.0070281922817230225,
                    0.00717195076867938,
                    -0.03848014399409294,
                    -0.045961759984493256,
                    -0.0379212349653244,
                    -0.016208188608288765,
                    -0.03694651648402214,
                    0.011210054159164429,
                    0.07707426697015762,
                    -0.0696425512433052,
                    0.015325612388551235,
                    -0.0685957819223404,
                    -0.03671703860163689,
                    -0.03608217090368271,
                    -0.051642775535583496,
                    0.05227256193757057,
                    -0.04425013065338135,
                    0.051826443523168564,
                    0.021223284304142,
                    0.00925724022090435,
                    -0.024353057146072388,
                    -0.010314355604350567,
                    0.04764493927359581,
                    -0.07690077275037766,
                    0.0047255572862923145,
                    -0.013448240235447884,
                    0.04789673164486885,
                    -0.06389358639717102,
                    0.06569243222475052,
                    0.06874856352806091,
                    0.06318014115095139,
                    0.07078389823436737,
                    0.06212694197893143,
                    -0.06382431089878082,
                    0.03375981003046036,
                    0.07096301019191742,
                    0.033267877995967865,
                    0.07349288463592529,
                    -0.008414169773459435,
                    0.06633614748716354,
                    -0.05898504704236984,
                    -0.028736216947436333,
                    0.0068370625376701355,
                    -0.019917702302336693,
                    0.07047155499458313,
                    -0.023656237870454788,
                    0.006229918450117111,
                    0.011812977492809296,
                    -0.059960704296827316,
                    0.05252411589026451,
                    0.052777521312236786,
                    0.04059829190373421,
                    0.02178720012307167,
                    0.04111909121274948,
                    0.019298171624541283,
                    -0.07508832216262817,
                    -0.001392633537761867,
                    0.025569511577486992,
                    -0.07954753935337067,
                    -0.07770577073097229,
                    -0.019094040617346764,
                    0.05589551478624344,
                    0.0580085813999176,
                    -0.06342702358961105,
                    0.07210760563611984,
                    -0.07986179739236832,
                    -0.004229954909533262,
                    0.07682398706674576,
                    -0.03440618887543678,
                    0.015088198706507683,
                    -0.05528495833277702,
                    0.036055032163858414,
                    0.018193263560533524,
                    -0.04229455813765526,
                    -0.05027436092495918,
                    -0.05357108637690544,
                    -0.045496270060539246,
                    0.07655477523803711,
                    -0.018695436418056488,
                    -0.0035470793955028057,
                    0.04248245060443878,
                    0.07729347795248032,
                    -0.05351930484175682,
                    0.0129700331017375,
                    -0.02296512760221958,
                    0.026913955807685852,
                    0.07034599035978317,
                    -0.024813899770379066,
                    -0.04824560880661011,
                    -0.04821091890335083,
                    0.04578179866075516,
                    0.021718259900808334,
                    -0.0691438615322113,
                    0.038084156811237335,
                    0.03863958269357681,
                    0.00868786871433258,
                    0.029811393469572067,
                    0.05939300358295441,
                    -0.0072759054601192474,
                    -0.06743279099464417,
                    -0.04238879308104515,
                    -0.05330463498830795,
                    -0.016821032389998436,
                    -0.00012487050844356418,
                    0.044687669724226,
                    -0.0001289219071622938,
                    -0.0205807127058506,
                    0.019698958843946457,
                    -0.014049689285457134,
                    -0.04140714928507805,
                    -0.022004583850502968,
                    -0.017423342913389206,
                    0.00042148056672886014,
                    -0.04723070561885834,
                    -0.03225374221801758,
                    0.022697655484080315,
                    0.009819763712584972,
                    0.07382577657699585,
                    -0.03506917506456375,
                    0.06056322529911995,
                    0.008346541784703732,
                    0.02509601227939129,
                    0.009770768694579601,
                    -0.0427255816757679,
                    -0.027349645271897316,
                    0.03265821188688278,
                    -0.0637437030673027,
                    0.035734981298446655,
                    -0.03189931809902191,
                    -0.014246223494410515,
                    0.03219836577773094,
                    0.06444977223873138,
                    0.03650500997900963,
                    -0.019579578191041946,
                    0.023533564060926437,
                    0.05546650290489197,
                    0.068968266248703,
                    -0.018280956894159317,
                    -0.07666098326444626,
                    0.0780939981341362,
                    0.00821011420339346,
                    -0.07180973887443542,
                    -0.0451027937233448,
                    0.054939135909080505,
                    0.03262711316347122,
                    -0.019629286602139473,
                    0.006100737955421209,
                    0.05887070298194885,
                    0.014620528556406498,
                    0.016285644844174385,
                    -0.019993945956230164,
                    -0.005094288848340511,
                    0.033707842230796814,
                    0.06523958593606949,
                    -0.04330754280090332,
                    -0.005011012312024832,
                    -0.06905333697795868,
                    -0.010483416728675365,
                    0.06213737279176712,
                    0.03831242024898529,
                    -0.027254028245806694,
                    0.07405519485473633,
                    -0.0361819863319397,
                    -0.01564340852200985,
                    0.0015766837168484926,
                    -0.07684621959924698,
                    0.00871303677558899,
                    0.02350815199315548,
                    -0.01057790219783783,
                    -0.057564012706279755,
                    -0.0672602578997612,
                    -0.07095886021852493,
                    -0.05891767144203186,
                    -0.06822427362203598,
                    -0.015503781847655773,
                    -0.037389904260635376,
                    -0.05533462390303612,
                    0.06604607403278351,
                    0.07840710133314133,
                    -0.002775222063064575,
                    0.06369335949420929,
                    0.06555762141942978,
                    0.030220674350857735,
                    -0.0792689248919487,
                    -0.028180086985230446,
                    -0.05445856973528862,
                    -0.0128291305154562,
                    -0.005160194355994463,
                    -0.07616931945085526,
                    -0.04315074533224106,
                    0.06421825289726257,
                    0.01737404428422451,
                    0.05642804503440857
                ]
            },
            "inputHidden": {
                "rows": 64,
                "columns": 64,
                "weights": [
                    -0.06659121811389923,
                    -0.06831169128417969,
                    0.01664578728377819,
                    0.07644198089838028,
                    0.012485121376812458,
                    -0.030793702229857445,
                    0.010035501793026924,
                    0.06731393933296204,
                    0.06977948546409607,
                    0.04837606102228165,
                    0.06389199942350388,
                    0.025252675637602806,
                    -0.013382775709033012,
                    -0.012920538894832134,
                    -0.07612234354019165,
                    0.026522574946284294,
                    -0.055268965661525726,
                    -0.0020767413079738617,
                    -0.04487895220518112,
                    -0.041275378316640854,
                    0.06149057298898697,
                    0.032143961638212204,
                    -0.05599682778120041,
                    -0.07086573541164398,
                    -0.05944572389125824,
                    0.036052580922842026,
                    0.04824215546250343,
                    0.059949085116386414,
                    0.06836352497339249,
                    0.07049250602722168,
                    -0.037821609526872635,
                    0.07605261355638504,
                    0.07925604283809662,
                    -0.007057276554405689,
                    0.0702279731631279,
                    0.035375505685806274,
                    -0.06338732689619064,
                    -0.05491141229867935,
                    0.05386216938495636,
                    -0.016641337424516678,
                    -0.030934715643525124,
                    0.0041379486210644245,
                    -0.0002556854742579162,
                    0.06894557923078537,
                    -0.06486432254314423,
                    0.051632121205329895,
                    0.014408862218260765,
                    -0.04385657235980034,
                    0.025729656219482422,
                    0.008706838823854923,
                    -0.004999134689569473,
                    -0.06780948489904404,
                    -0.06376691162586212,
                    0.017536669969558716,
                    -0.010968934744596481,
                    0.05492023751139641,
                    -0.060128483921289444,
                    -0.057843685150146484,
                    -0.01169690489768982,
                    -0.007209601812064648,
                    0.008652526885271072,
                    0.009692276827991009,
                    -0.01676730252802372,
                    0.01399558037519455,
                    -0.02196596749126911,
                    -0.07845116406679153,
                    0.06673455983400345,
                    -0.03236717730760574,
                    0.03529253229498863,
                    -0.015409001149237156,
                    -0.0478917695581913,
                    0.0626121237874031,
                    0.0630561113357544,
                    -0.01580449379980564,
                    0.014488031156361103,
                    0.05642246454954147,
                    -0.006674953270703554,
                    -0.04495905712246895,
                    0.07106216251850128,
                    -0.058709755539894104,
                    0.05384466052055359,
                    -0.046353936195373535,
                    -0.07401159405708313,
                    0.040058039128780365,
                    -0.029191024601459503,
                    -0.032639335840940475,
                    -0.05145619809627533,
                    -0.024531645700335503,
                    -0.04413440078496933,
                    -0.02488812990486622,
                    -0.07150252163410187,
                    -0.014457087963819504,
                    -0.07653958350419998,
                    0.009337189607322216,
                    -0.03745962679386139,
                    -0.026373431086540222,
                    -0.05867009609937668,
                    -0.05509862303733826,
                    -0.06625857949256897,
                    -0.0517965666949749,
                    0.0338570699095726,
                    -0.0011738988105207682,
                    -0.03037838824093342,
                    -0.047935180366039276,
                    -0.019847657531499863,
                    0.06832107156515121,
                    -0.0035789497196674347,
                    -0.004021188244223595,
                    0.06637521833181381,
                    -0.052381061017513275,
                    0.06033525615930557,
                    -0.0588807687163353,
                    0.05356624722480774,
                    -0.05891893804073334,
                    0.06688281893730164,
                    -0.007651696912944317,
                    0.06466473639011383,
                    -0.009955770336091518,
                    0.07560165971517563,
                    -0.029964927583932877,
                    -0.0005241614999249578,
                    -0.023518573492765427,
                    0.014121850952506065,
                    -0.022690284997224808,
                    -0.04566005617380142,
                    -0.05911778658628464,
                    -0.002621547318994999,
                    -0.032765500247478485,
                    -0.051483284682035446,
                    -0.03612777590751648,
                    -0.07070693373680115,
                    0.047138702124357224,
                    0.06463371217250824,
                    -0.013688025064766407,
                    0.0349879115819931,
                    -0.03515755385160446,
                    0.07360982894897461,
                    -0.04275078698992729,
                    0.03431330621242523,
                    -0.008551597595214844,
                    -0.008334756828844547,
                    -0.06622346490621567,
                    0.07363129407167435,
                    0.07535345107316971,
                    -0.007064734119921923,
                    0.005334644578397274,
                    0.04164554923772812,
                    0.03248441591858864,
                    0.05249358341097832,
                    0.028563018888235092,
                    0.06966908276081085,
                    0.07920819520950317,
                    -0.05342673882842064,
                    0.006994139868766069,
                    0.05817500129342079,
                    0.03258888050913811,
                    -0.005072294734418392,
                    0.03315708041191101,
                    0.04117798060178757,
                    0.018440283834934235,
                    -0.07520688325166702,
                    -0.05531206727027893,
                    -0.04807067662477493,
                    0.0391109399497509,
                    -0.07193661481142044,
                    0.03385845199227333,
                    0.0742306187748909,
                    -0.06900525093078613,
                    0.037033334374427795,
                    0.07638508081436157,
                    0.03637159243226051,
                    -0.04279276728630066,
                    -0.05804350599646568,
                    0.03832453861832619,
                    0.002738325158134103,
                    -0.055112436413764954,
                    -0.07593820989131927,
                    -0.07237111777067184,
                    0.042230792343616486,
                    -0.06927498430013657,
                    0.04353216290473938,
                    0.009404227137565613,
                    0.03843841329216957,
                    -0.07975495606660843,
                    0.07692427188158035,
                    0.026529565453529358,
                    0.07714545726776123,
                    -0.03040672093629837,
                    0.058291081339120865,
                    0.0031778353732079268,
                    0.067117840051651,
                    -0.04849210008978844,
                    -0.06279075890779495,
                    0.0472855344414711,
                    0.01393826026469469,
                    0.04033587500452995,
                    0.03758634254336357,
                    0.008483904413878918,
                    0.07369353622198105,
                    0.06328561156988144,
                    -0.07626983523368835,
                    0.044067710638046265,
                    -0.022333133965730667,
                    -0.05962465703487396,
                    0.06988852471113205,
                    0.07341784238815308,
                    0.04477763921022415,
                    -0.06025264412164688,
                    0.06676370650529861,
                    0.038736846297979355,
                    -0.06324893236160278,
                    0.027207260951399803,
                    -0.03634590283036232,
                    0.065653957426548,
                    0.028894387185573578,
                    -0.009535403922200203,
                    -0.04161607846617699,
                    -0.06989035755395889,
                    0.02132474072277546,
                    -0.05347660928964615,
                    -0.06030729040503502,
                    0.025592228397727013,
                    0.03710760176181793,
                    0.0405401773750782,
                    -0.03631545603275299,
                    -0.041792988777160645,
                    0.006390685215592384,
                    0.06537306308746338,
                    -0.061908140778541565,
                    0.01623314805328846,
                    0.073176808655262,
                    0.03452182561159134,
                    -0.03614351153373718,
                    0.06641767919063568,
                    0.01757858693599701,
                    -0.061414651572704315,
                    -0.005150013603270054,
                    0.004721621051430702,
                    -0.003171967575326562,
                    0.015285690315067768,
                    0.004207046236842871,
                    -0.07998159527778625,
                    -0.07512801140546799,
                    0.00234379805624485,
                    0.0013584522530436516,
                    0.008026648312807083,
                    -0.04823276028037071,
                    0.02186533249914646,
                    0.06263121217489243,
                    0.009901405312120914,
                    0.037527214735746384,
                    0.007797884754836559,
                    0.04232572391629219,
                    0.0494622141122818,
                    -0.017777549102902412,
                    -0.027216454967856407,
                    0.008782229386270046,
                    -0.016301311552524567,
                    0.04597967490553856,
                    -0.004303706344217062,
                    -0.0792742371559143,
                    -0.060524530708789825,
                    -0.06854578107595444,
                    0.06373855471611023,
                    -0.07204847037792206,
                    -0.04020111262798309,
                    0.008909964002668858,
                    -0.00392130296677351,
                    0.0392882414162159,
                    -0.06801601499319077,
                    0.06550011038780212,
                    -0.0587991364300251,
                    -0.022336548194289207,
                    -0.05947675183415413,
                    0.04222032055258751,
                    0.04843143746256828,
                    -0.0798245221376419,
                    -0.06224413216114044,
                    -0.001877930131740868,
                    0.05690190941095352,
                    -0.07470642775297165,
                    -0.0503951832652092,
                    0.07147538661956787,
                    -0.053970929235219955,
                    0.05908336862921715,
                    -0.00509840389713645,
                    -0.019865956157445908,
                    -0.074429951608181,
                    0.046662285923957825,
                    0.03949906304478645,
                    -0.03732152655720711,
                    0.02008887007832527,
                    0.043814223259687424,
                    -0.009097402915358543,
                    0.053302086889743805,
                    -0.027134304866194725,
                    -0.0467706173658371,
                    0.057821210473775864,
                    -0.03424984589219093,
                    0.03509523719549179,
                    -0.03514576330780983,
                    0.04131075367331505,
                    -0.011255151592195034,
                    0.023183345794677734,
                    -0.004598356317728758,
                    -0.04047144204378128,
                    -0.07852526754140854,
                    -0.054673630744218826,
                    0.06001315638422966,
                    -0.06670782715082169,
                    -0.03598135709762573,
                    0.008687665686011314,
                    -0.041946735233068466,
                    0.05883665755391121,
                    0.029154496267437935,
                    -0.04325036332011223,
                    -0.07175009697675705,
                    -0.07857419550418854,
                    -0.02325461618602276,
                    -0.021693915128707886,
                    0.06831468641757965,
                    0.01397787407040596,
                    -0.06302039325237274,
                    0.006957531441003084,
                    -0.06621374934911728,
                    -0.004453966394066811,
                    -0.043424904346466064,
                    -0.02048518881201744,
                    0.04737956449389458,
                    0.06519933044910431,
                    -0.05322805419564247,
                    -0.06684131920337677,
                    -0.06910917162895203,
                    -0.06588564068078995,
                    0.06583726406097412,
                    -0.03307589143514633,
                    0.05075589194893837,
                    -0.014083615504205227,
                    0.04477730765938759,
                    -0.014987071976065636,
                    -0.02108261175453663,
                    -0.07244431972503662,
                    -0.0034995621535927057,
                    -0.06008881703019142,
                    -0.009234941564500332,
                    -0.0027334578335285187,
                    -0.00461224652826786,
                    -0.009946852922439575,
                    0.06647425889968872,
                    -0.029689522460103035,
                    -0.006368678994476795,
                    0.07728620618581772,
                    0.02534719742834568,
                    -0.05937394127249718,
                    -0.014158518053591251,
                    0.00045802659587934613,
                    0.038958385586738586,
                    -0.042888715863227844,
                    -0.04734240099787712,
                    0.022753652185201645,
                    -0.015132694505155087,
                    0.07071695476770401,
                    -0.041865088045597076,
                    -0.03881155699491501,
                    0.00023235296248458326,
                    -0.03736884146928787,
                    0.01845545507967472,
                    0.03323277458548546,
                    0.051401786506175995,
                    0.01762748695909977,
                    0.049630727618932724,
                    0.01358676515519619,
                    0.07491244375705719,
                    0.05146075785160065,
                    -0.061572469770908356,
                    -0.050103362649679184,
                    0.03770427033305168,
                    0.06341175734996796,
                    0.06734257936477661,
                    -0.05355168879032135,
                    0.06181326135993004,
                    0.012161261402070522,
                    -0.03545135259628296,
                    0.031186187639832497,
                    0.0026262179017066956,
                    -0.011820442974567413,
                    -0.06241581216454506,
                    -0.03218158334493637,
                    -0.009485891088843346,
                    0.011146043427288532,
                    -0.018597612157464027,
                    -0.016448505222797394,
                    0.002620516112074256,
                    0.0412629172205925,
                    0.03361409902572632,
                    0.07881045341491699,
                    0.06027379259467125,
                    -0.004254009108990431,
                    0.07433638721704483,
                    -0.05460632964968681,
                    0.025452012196183205,
                    0.0401577427983284,
                    -0.05286183953285217,
                    -0.03661684691905975,
                    0.01262906938791275,
                    0.009046866558492184,
                    0.002897694008424878,
                    -0.05427755042910576,
                    -0.006294635124504566,
                    -0.03481298312544823,
                    0.006525129545480013,
                    -0.018446261063218117,
                    -0.025444485247135162,
                    -0.07569408416748047,
                    -0.0422392375767231,
                    0.04210033267736435,
                    -0.01637667417526245,
                    -0.00046829506754875183,
                    -0.04732055217027664,
                    -0.028789766132831573,
                    -0.020853018388152122,
                    -0.03261438012123108,
                    -0.07664959132671356,
                    0.029538076370954514,
                    0.03475309535861015,
                    -0.01951684057712555,
                    -0.03377293422818184,
                    -0.01389499194920063,
                    -0.07233194261789322,
                    -0.024526819586753845,
                    -0.008375527337193489,
                    -0.014177432283759117,
                    -0.0780753493309021,
                    -0.057275403290987015,
                    -0.05944061279296875,
                    0.0620608888566494,
                    -0.009673982858657837,
                    0.020115531980991364,
                    0.06905178725719452,
                    -0.015612732619047165,
                    0.030826687812805176,
                    0.07592962682247162,
                    -0.07821210473775864,
                    0.043570540845394135,
                    0.058070987462997437,
                    -0.06624235212802887,
                    0.021207988262176514,
                    0.07185167819261551,
                    -0.06173758953809738,
                    -0.05466337502002716,
                    -0.030076799914240837,
                    0.029805714264512062,
                    -0.07958908379077911,
                    0.04182770475745201,
                    -0.07535013556480408,
                    0.0589560903608799,
                    0.06461363285779953,
                    0.04534505680203438,
                    -0.060490261763334274,
                    -0.017157141119241714,
                    -0.0753767117857933,
                    0.02281358279287815,
                    0.011791327968239784,
                    0.02618998847901821,
                    -0.046761397272348404,
                    -0.005210401024669409,
                    0.03462066501379013,
                    -0.041375771164894104,
                    0.03326429799199104,
                    0.0026962098199874163,
                    0.028166497126221657,
                    -0.022976446896791458,
                    0.0462150052189827,
                    0.05013647675514221,
                    -0.04008578881621361,
                    -0.026704449206590652,
                    -0.021334074437618256,
                    -0.04200319945812225,
                    0.0002828384458553046,
                    0.054635513573884964,
                    0.041950542479753494,
                    0.035334065556526184,
                    0.06696299463510513,
                    0.021761130541563034,
                    0.02781774289906025,
                    -0.03980458527803421,
                    -0.061190929263830185,
                    0.010451961308717728,
                    0.06645914912223816,
                    0.040150027722120285,
                    -0.0690937414765358,
                    0.007557094097137451,
                    0.042281102389097214,
                    0.042646799236536026,
                    0.0630648210644722,
                    0.06482847034931183,
                    0.028402989730238914,
                    -0.05376475676894188,
                    -0.03955038636922836,
                    -0.026090998202562332,
                    -0.02077077329158783,
                    -0.02719535119831562,
                    -0.05178550258278847,
                    -0.006058767903596163,
                    -0.012700783088803291,
                    -0.07318147271871567,
                    0.012251223437488079,
                    0.03318708762526512,
                    0.016313299536705017,
                    -0.07132106274366379,
                    -0.038381122052669525,
                    -0.014977394603192806,
                    0.04448432847857475,
                    0.02932516112923622,
                    -0.049938805401325226,
                    -0.06748250126838684,
                    -0.00822768546640873,
                    -0.026389481499791145,
                    -0.026323577389121056,
                    0.024297630414366722,
                    -0.06092575192451477,
                    -0.007312568835914135,
                    0.012595424428582191,
                    0.0510331392288208,
                    -0.06348325312137604,
                    -0.016293399035930634,
                    -0.03641442954540253,
                    0.05666518956422806,
                    0.02118173986673355,
                    -0.01797405071556568,
                    -0.07745655626058578,
                    0.04493964463472366,
                    -0.07359775900840759,
                    -0.06802394986152649,
                    0.057553403079509735,
                    -0.0024769078008830547,
                    0.04197005182504654,
                    0.05471346527338028,
                    0.0666515901684761,
                    0.019693482667207718,
                    0.061486393213272095,
                    -0.0604923777282238,
                    -0.01932314597070217,
                    -0.06393881887197495,
                    -0.010860155336558819,
                    -0.06571856886148453,
                    0.06442184001207352,
                    0.0003780258703045547,
                    -0.0658663660287857,
                    -0.01396331749856472,
                    -0.01744447462260723,
                    0.02095137909054756,
                    -0.007086015772074461,
                    0.0641549751162529,
                    0.049167755991220474,
                    0.06777253746986389,
                    0.06431319564580917,
                    0.03680186718702316,
                    0.07700738310813904,
                    -0.05169898271560669,
                    0.03726280853152275,
                    -0.0009720438392832875,
                    0.0066140806302428246,
                    -0.0122810248285532,
                    -0.014584187418222427,
                    -0.07023565471172333,
                    -0.052910227328538895,
                    0.06292098760604858,
                    -0.005290933419018984,
                    0.06706952303647995,
                    0.0011073134373873472,
                    0.018668022006750107,
                    -0.03428378328680992,
                    -0.015530477277934551,
                    -0.07952451705932617,
                    -0.03930732607841492,
                    -0.05539590120315552,
                    0.04772643372416496,
                    -0.04969070851802826,
                    -0.04640055075287819,
                    0.016158515587449074,
                    0.06588852405548096,
                    -0.014990098774433136,
                    -0.02613815665245056,
                    -0.005950464401394129,
                    -0.00545069994404912,
                    -0.005832033697515726,
                    0.050969768315553665,
                    -0.06878893077373505,
                    0.05826931074261665,
                    0.012018515728414059,
                    0.003602252807468176,
                    0.06640683859586716,
                    -0.06245392933487892,
                    -0.0024569218512624502,
                    -0.032227568328380585,
                    0.02455109730362892,
                    0.07166536152362823,
                    0.05957446247339249,
                    -0.0031727536115795374,
                    0.033966485410928726,
                    0.03710353001952171,
                    0.038575511425733566,
                    0.07637251168489456,
                    -0.07954374700784683,
                    -0.07102783024311066,
                    0.0011608230415731668,
                    -0.07231885194778442,
                    0.01767192967236042,
                    0.06836722046136856,
                    0.031855713576078415,
                    -0.07563233375549316,
                    0.07635904848575592,
                    0.026888510212302208,
                    0.012702460400760174,
                    -0.056955486536026,
                    -0.03566598892211914,
                    -0.023854631930589676,
                    -0.07786958664655685,
                    -0.024417953565716743,
                    0.01714923419058323,
                    0.0625506266951561,
                    -0.07097968459129333,
                    0.017389649525284767,
                    0.0757313221693039,
                    0.026632247492671013,
                    -0.014024405740201473,
                    0.020072733983397484,
                    -0.06215004250407219,
                    0.03978182002902031,
                    -0.07286018878221512,
                    -0.03533569350838661,
                    -0.034955061972141266,
                    -0.000949774868786335,
                    -0.01919911615550518,
                    -0.06496179848909378,
                    0.0719464048743248,
                    0.0469118133187294,
                    0.05898767337203026,
                    0.023257993161678314,
                    0.04941537231206894,
                    -0.010799064300954342,
                    -0.0396290048956871,
                    -0.052969492971897125,
                    0.04000485688447952,
                    0.04565691202878952,
                    0.06330329924821854,
                    -0.07933099567890167,
                    -0.0024964790791273117,
                    0.0243301372975111,
                    0.031077450141310692,
                    -0.07978010177612305,
                    -0.028957845643162727,
                    0.05885785073041916,
                    -0.020877154543995857,
                    0.040694527328014374,
                    -0.031214965507388115,
                    0.014567205682396889,
                    0.04706016555428505,
                    0.007124554365873337,
                    -0.017231347039341927,
                    -0.05500507727265358,
                    0.053901053965091705,
                    0.03711077198386192,
                    0.07002539932727814,
                    0.0027529108338057995,
                    0.06190871447324753,
                    0.037555232644081116,
                    -0.052296873182058334,
                    0.013556941412389278,
                    -0.05146918073296547,
                    0.07335235923528671,
                    0.06434935331344604,
                    -0.052511975169181824,
                    -0.024656303226947784,
                    0.05775401368737221,
                    -0.0569637194275856,
                    0.07303209602832794,
                    -0.03977509215474129,
                    0.02902509830892086,
                    0.0010740363504737616,
                    0.0010554634500294924,
                    0.006001444533467293,
                    -0.026095077395439148,
                    0.016809716820716858,
                    -0.010907905176281929,
                    -0.04080875962972641,
                    -0.009315869770944118,
                    -0.07829944044351578,
                    -0.051375094801187515,
                    0.022048979997634888,
                    -0.005311794579029083,
                    -0.0200345516204834,
                    0.0655108243227005,
                    -0.021772844716906548,
                    0.008985466323792934,
                    -0.001451097778044641,
                    -0.04051876440644264,
                    0.03939412906765938,
                    -0.0711870864033699,
                    -0.04615860804915428,
                    0.0603984035551548,
                    -0.052805155515670776,
                    0.04325786605477333,
                    -0.052154604345560074,
                    -0.011677617207169533,
                    -0.032242145389318466,
                    0.03872533142566681,
                    -0.02899075299501419,
                    0.05483604967594147,
                    -0.0738191306591034,
                    -0.05514339357614517,
                    -0.009713414125144482,
                    -0.04564690962433815,
                    -0.016990983858704567,
                    -0.004113079514354467,
                    0.015894213691353798,
                    -0.005801246967166662,
                    0.0019543347880244255,
                    0.04860826954245567,
                    0.03144918382167816,
                    -0.03597299009561539,
                    -0.041014350950717926,
                    0.05395467206835747,
                    -0.061223432421684265,
                    -0.04329599440097809,
                    0.03836928680539131,
                    -0.07258101552724838,
                    -0.05006985366344452,
                    0.05984876677393913,
                    0.059881940484046936,
                    -0.06807155162096024,
                    -0.05475994572043419,
                    0.06668704003095627,
                    -0.05865827947854996,
                    0.07125683128833771,
                    0.05552200227975845,
