if (!window.increasingByteSequence) window.increasingByteSequence = {}

window.increasingByteSequence.model = {"type":"LSTMTimeStep","options":{"inputSize":1,"inputRange":0,"hiddenLayers":[32,16,32],"outputSize":1,"decayRate":0.999,"smoothEps":1e-8,"regc":0.000001,"clipval":5,"maxPredictionLength":100,"dataFormatter":{"indexTable":{},"characterTable":{},"characters":[],"specialIndexes":[]}},"hiddenLayers":[{"inputMatrix":{"rows":32,"columns":1,"weights":[0.8999068140983582,1.7879878282546997,1.0945227146148682,0.07060512900352478,1.7463632822036743,-0.39293819665908813,0.12366145849227905,0.011708132922649384,0.77565997838974,1.6084835529327393,-0.6565707921981812,-0.3812587857246399,-0.5197890400886536,1.420900583267212,0.08078822493553162,5.446263790130615,-1.8322441577911377,0.31667184829711914,0.7822163701057434,-0.4711783826351166,-0.3605528473854065,-1.4462960958480835,0.14552296698093414,-0.43049997091293335,-0.4505751132965088,0.7451301217079163,0.4069797694683075,0.5472489595413208,0.14248165488243103,1.6463087797164917,0.2009652554988861,1.3807590007781982]},"inputHidden":{"rows":32,"columns":32,"weights":[0.07520890980958939,0.6595029234886169,-9.808216094970703,-3.02163028717041,-2.350501537322998,-2.0520827770233154,2.6316537857055664,0.4768415689468384,3.3381059169769287,5.224738597869873,-0.7298114895820618,4.1171698570251465,-0.43391096591949463,4.205393314361572,4.55235481262207,-0.9568961262702942,5.098967552185059,4.563808441162109,-0.347690612077713,0.9408305287361145,-0.6564621925354004,-5.897468090057373,-4.693936824798584,3.108259677886963,1.1653931140899658,-0.9592593312263489,0.15866392850875854,5.788039684295654,-2.7078258991241455,0.3012535870075226,2.2292284965515137,-1.838320255279541,-0.12290746718645096,-0.9449008703231812,-0.6494531035423279,0.3174217641353607,-1.1979055404663086,2.8028833866119385,-0.6381258368492126,-0.5359286069869995,4.138248443603516,-1.4144059419631958,-1.0466372966766357,-0.32833537459373474,-0.7758818864822388,0.6904077529907227,0.019641470164060593,0.6764386892318726,-0.4387432932853699,-2.660524368286133,0.5767754912376404,2.4843573570251465,-0.6095960140228271,0.4878048002719879,0.686640202999115,-2.372182607650757,-0.4634648859500885,-0.9175972938537598,-0.6446653008460999,2.523179054260254,0.08390316367149353,0.8463415503501892,0.5141446590423584,1.8990700244903564,-7.78418493270874,-0.016101496294140816,-2.966264247894287,0.17433087527751923,-1.5987873077392578,3.4756674766540527,-3.257192373275757,-0.6805247068405151,0.21579021215438843,-0.9199373126029968,0.1450604945421219,-3.6840178966522217,2.4795944690704346,1.9444328546524048,-0.9864461421966553,-3.6081907749176025,0.7028843760490417,-2.106135129928589,2.641592502593994,4.146086692810059,-0.5715358257293701,-0.05560474097728729,-7.471656322479248,-2.987039566040039,-0.7244392037391663,0.1824159026145935,-5.395998001098633,5.987027168273926,-1.210275650024414,-1.1067252159118652,-4.830365180969238,1.494836688041687,2.5587809085845947,1.8150056600570679,-4.9663214683532715,-0.7171711921691895,0.3498869240283966,-0.6498422622680664,4.113192081451416,-1.293304204940796,3.540503978729248,3.520294427871704,3.499561071395874,2.031418561935425,1.4464067220687866,-0.0856209471821785,5.405447483062744,0.08803878724575043,3.0825698375701904,0.38644734025001526,-1.9284214973449707,-3.530571222305298,2.2821595668792725,-3.314932346343994,-1.9789199829101562,-1.5090206861495972,3.615368604660034,-0.23274719715118408,3.0598716735839844,4.112630844116211,-2.9474833011627197,-2.591226816177368,-1.0907989740371704,-2.5107522010803223,1.7582650184631348,0.09399031102657318,-0.8238127827644348,0.3682614862918854,-2.716148614883423,0.07481992989778519,-1.8633520603179932,1.2142201662063599,1.3916599750518799,-2.315114736557007,0.5711495280265808,1.737351894378662,-0.725989818572998,-0.18403641879558563,1.6485910415649414,-1.5384114980697632,1.8916689157485962,1.5100915431976318,-0.46004074811935425,-2.268688678741455,5.406409740447998,2.8444056510925293,3.397543430328369,-2.0472302436828613,2.2210257053375244,2.719177007675171,1.0343282222747803,3.2560455799102783,-3.7423245906829834,1.5181760787963867,-0.3588711619377136,-0.9127554297447205,-3.130833148956299,-1.3783130645751953,-2.411025047302246,3.089769124984741,-3.424633741378784,3.4397826194763184,-0.641703188419342,2.429352045059204,2.7491419315338135,-1.5920042991638184,-2.587231159210205,-0.9587554335594177,-2.22177791595459,0.3869490325450897,-3.615786075592041,1.2761250734329224,-2.348078489303589,-0.019458351656794548,3.2889373302459717,1.2978752851486206,-2.797147512435913,3.3159568309783936,-0.5482455492019653,-1.9409605264663696,-4.107532024383545,-1.5915744304656982,-2.960299015045166,-1.8660163879394531,2.833327054977417,2.735729932785034,1.3527662754058838,1.414110541343689,1.6548291444778442,-1.4275392293930054,1.5942606925964355,1.083996057510376,-2.2425639629364014,-1.5593394041061401,1.5445281267166138,-0.1779583841562271,8.494540214538574,-1.012356162071228,-3.3302836418151855,-0.512754499912262,-2.3101112842559814,-3.568021535873413,-2.404458522796631,-1.9405418634414673,-4.011767387390137,-1.2199267148971558,0.9599664211273193,-2.322702407836914,-1.485685110092163,-2.9834465980529785,-4.132562637329102,-2.5678234100341797,-1.564130187034607,-4.116842746734619,-0.3878256678581238,3.445639133453369,0.4871084690093994,-1.0932294130325317,-1.671653389930725,-0.36645570397377014,-1.3966649770736694,-1.7628452777862549,-3.1410303115844727,0.6443974375724792,-3.4671690464019775,2.815352439880371,0.9496105313301086,-0.32818281650543213,-1.8447036743164062,1.0402588844299316,-0.584374189376831,0.4122317135334015,0.07974443584680557,-3.8038575649261475,-2.4121153354644775,-0.6693726181983948,1.0785861015319824,1.2638287544250488,-2.4682202339172363,-0.9770050048828125,0.9646685719490051,-0.11323615163564682,1.6578470468521118,-1.602997064590454,0.6503583192825317,0.4115878641605377,0.5607044100761414,4.7423553466796875,1.1815088987350464,0.7137517929077148,-1.4812836647033691,-1.7431105375289917,3.0953292846679688,2.8596982955932617,0.2481994777917862,0.6576780676841736,-1.3744893074035645,6.203593730926514,2.1048855781555176,2.8152740001678467,-4.382718563079834,-2.1055424213409424,-0.09841542690992355,-0.25573253631591797,-1.6642996072769165,1.7660754919052124,4.028116226196289,0.35880082845687866,2.749340772628784,0.00270139635540545,0.929269552230835,5.768287658691406,-0.4467637836933136,2.7818312644958496,0.14055228233337402,-0.6740286946296692,1.6899818181991577,-2.4980883598327637,1.5519503355026245,0.2913593053817749,-1.687102198600769,2.922597646713257,4.115418434143066,-0.17518366873264313,4.092115879058838,-0.6137840151786804,-0.11368556320667267,-3.4721553325653076,1.7469862699508667,-1.4409347772598267,2.136403799057007,0.6885974407196045,-1.2650295495986938,1.7656203508377075,2.4052186012268066,0.7349558472633362,1.1966568231582642,-1.6061720848083496,0.6195929050445557,-3.910327672958374,3.2109687328338623,1.6489262580871582,-3.362963914871216,0.41611742973327637,2.968803882598877,-2.9344964027404785,-3.0564990043640137,2.7467594146728516,5.293655872344971,-0.0674726739525795,-0.76923006772995,1.2495869398117065,-6.504714012145996,-3.2682573795318604,-3.7172837257385254,2.9454524517059326,-3.121438503265381,-1.9089925289154053,-1.2690062522888184,-2.419408082962036,7.968047618865967,1.2073408365249634,0.190564826130867,-0.8220140337944031,-1.6966122388839722,-0.15138119459152222,5.068363666534424,3.781217336654663,7.757945537567139,-2.2945923805236816,2.0558435916900635,-7.353869438171387,0.16570743918418884,6.269913673400879,-1.1502304077148438,-1.3154222965240479,1.2130078077316284,0.4811500906944275,2.084879159927368,3.78171706199646,1.273000717163086,4.181210041046143,-2.6769416332244873,1.8781859874725342,-1.1757558584213257,-7.068641185760498,-4.678216934204102,0.9512868523597717,-0.4642837345600128,-1.9001457691192627,1.3515725135803223,-0.5505961775779724,3.265068292617798,0.4892028868198395,-0.9010608196258545,-0.09685590118169785,-3.1093063354492188,-0.4600352644920349,-1.1157212257385254,-3.5919175148010254,-0.6659912467002869,-3.9818596839904785,0.7188773155212402,-1.8195281028747559,-5.476953506469727,3.2783641815185547,-0.3427214026451111,-3.3802647590637207,-5.218275547027588,-1.5931752920150757,-3.1862175464630127,0.42203012108802795,0.6057097315788269,2.7880349159240723,-2.7356255054473877,-1.8393926620483398,-0.5706469416618347,-1.216840386390686,-3.8722681999206543,3.380873441696167,-2.0218396186828613,1.0188761949539185,6.117530822753906,6.988795280456543,0.31165647506713867,3.0993659496307373,-0.3674664795398712,2.287327527999878,-2.759380578994751,-1.6680223941802979,-1.3562417030334473,3.816063165664673,-2.300018072128296,-5.033012866973877,2.297651767730713,-0.23468013107776642,-3.5982346534729004,-3.874896764755249,0.5933656096458435,1.8306432962417603,1.279826283454895,4.4010772705078125,6.192336559295654,-0.9055375456809998,-1.3030849695205688,5.1245927810668945,-2.909608840942383,0.30542394518852234,-0.6212546229362488,3.458915948867798,6.688139915466309,-1.5714898109436035,3.1596195697784424,-0.3465070426464081,0.8197712302207947,-2.9786415100097656,2.323017120361328,-3.354863405227661,1.4536771774291992,-3.5305233001708984,0.39821258187294006,3.0563063621520996,2.5434181690216064,-1.334775686264038,2.856551170349121,-4.5614333152771,1.7367093563079834,-3.9297657012939453,4.733020782470703,1.7577580213546753,-4.53168249130249,-3.420651435852051,1.1207963228225708,1.2228119373321533,0.5837497711181641,0.46849870681762695,6.402816295623779,-1.6290096044540405,3.0269503593444824,0.9508745670318604,-6.980980396270752,-2.378225088119507,-3.3212146759033203,2.5853636264801025,0.6646811962127686,1.271787166595459,-1.361726999282837,-2.0824410915374756,-2.906001091003418,2.7733848094940186,-0.8508899211883545,-2.1110966205596924,-3.6310770511627197,0.614837646484375,1.8140701055526733,2.094928503036499,1.195823073387146,-1.2137598991394043,5.899458885192871,-2.28385591506958,-1.5197237730026245,3.695300579071045,-2.602684736251831,-0.26834577322006226,3.059800624847412,3.2123560905456543,-0.8300713300704956,0.4738231301307678,1.2663354873657227,2.2444379329681396,0.4646035432815552,1.3375951051712036,-2.818075180053711,-0.7810606360435486,-1.4885280132293701,-1.0406303405761719,1.6560696363449097,-0.7107422351837158,1.5626273155212402,-1.730831503868103,2.3603320121765137,-1.1374777555465698,0.5952855944633484,-2.170395851135254,-0.28651657700538635,-0.009763685055077076,0.7931862473487854,-0.36730265617370605,1.064864993095398,-0.16868750751018524,0.7266501784324646,-0.07264918833971024,0.6069231033325195,1.3843532800674438,-1.0659414529800415,-0.33830055594444275,1.1775846481323242,-0.4299198091030121,0.019435951486229897,0.482200562953949,1.5318065881729126,0.6517751216888428,1.3323942422866821,-1.0091917514801025,-1.4641814231872559,-1.4383081197738647,-1.0881534814834595,0.8138914108276367,3.281398057937622,-0.2828335464000702,-3.5155789852142334,-1.7249188423156738,0.1678805649280548,-0.6739481687545776,-0.7462180852890015,-1.2987122535705566,-2.14571475982666,4.738279342651367,-0.36079150438308716,1.583403468132019,-1.9009768962860107,3.1490652561187744,2.743303060531616,3.1107676029205322,5.4419755935668945,0.6479527354240417,-0.3899890184402466,-0.20834782719612122,2.162515878677368,-2.3800861835479736,-0.5386511087417603,0.2193119376897812,0.3161642849445343,1.014349102973938,1.646746277809143,-0.08784710615873337,-0.9334191679954529,3.779357671737671,-0.8323451280593872,-2.7991158962249756,1.7919059991836548,-1.4746458530426025,-1.6010558605194092,-1.580317497253418,-1.5820256471633911,-2.118953227996826,1.19214928150177,-0.09370323270559311,4.309237480163574,0.08561868220567703,-1.7712955474853516,2.830172538757324,-0.03236588090658188,0.6996517777442932,-1.7535665035247803,-0.5181516408920288,-4.917987823486328,-2.247109889984131,-1.2287406921386719,0.12069664895534515,-1.3345887660980225,0.5735651254653931,-0.0817408561706543,1.3567895889282227,-0.28645169734954834,-3.27132248878479,-4.235904693603516,5.903994560241699,-1.7381000518798828,-0.20189432799816132,-3.4218647480010986,-4.317751884460449,2.8692023754119873,1.3981791734695435,2.8349547386169434,-3.3393540382385254,2.240586280822754,-1.7528634071350098,2.389535427093506,-3.603942632675171,0.3495407700538635,2.0810842514038086,3.341062545776367,2.51779842376709,2.227717399597168,-1.7443562746047974,1.7639573812484741,-1.076579213142395,1.3679744005203247,1.080924391746521,-1.7816400527954102,-1.5820752382278442,3.8773226737976074,-0.005416618660092354,1.8618237972259521,0.4346182942390442,2.846362590789795,1.1547638177871704,3.0607495307922363,-0.400712251663208,-2.550671339035034,-4.365408420562744,-3.0823328495025635,1.8227567672729492,0.046995341777801514,-2.0826528072357178,1.0554780960083008,1.7775087356567383,-2.5710113048553467,1.3051728010177612,-3.898406505584717,1.4747356176376343,3.592691659927368,-3.0899434089660645,1.6732512712478638,-2.1545581817626953,-0.9294916391372681,-0.9194907546043396,-3.464237689971924,-0.9447312355041504,0.24732373654842377,-1.4196059703826904,-0.7614579796791077,-0.6899286508560181,0.5055186748504639,-1.4466429948806763,2.1484270095825195,2.1838154792785645,0.3893912136554718,-2.894090175628662,1.0529576539993286,0.8828475475311279,1.2925467491149902,-1.1720860004425049,-4.7064642906188965,1.9061381816864014,4.361899375915527,2.2134146690368652,1.020970106124878,-1.3029958009719849,1.7596889734268188,-1.1792621612548828,-5.260733127593994,-1.257996916770935,-1.9292093515396118,-1.770127296447754,1.2849057912826538,0.578514575958252,-0.20508074760437012,-2.708813190460205,3.1269912719726562,-1.8433560132980347,3.066049098968506,-1.3407597541809082,-4.780802249908447,-2.3799967765808105,2.877715826034546,-0.6271254420280457,6.957889080047607,5.300149440765381,5.3545660972595215,3.608933687210083,3.6127521991729736,-1.8983521461486816,-2.1605958938598633,-2.4976143836975098,-1.0803883075714111,-2.5707483291625977,4.713312149047852,-0.3257451355457306,-3.6448423862457275,-3.2634315490722656,0.2551683187484741,0.2810524106025696,1.685761570930481,-4.851507186889648,-1.5504002571105957,2.488741874694824,1.4575165510177612,-8.930314064025879,-2.7975881099700928,-0.5292927622795105,6.565700531005859,-2.442620038986206,6.884491920471191,3.598527193069458,-3.6237001419067383,-1.3706613779067993,2.78786301612854,-3.277883768081665,-0.8565276861190796,3.8492541313171387,4.550597190856934,2.9878931045532227,3.895315408706665,1.27665114402771,-2.3378565311431885,-1.7085816860198975,-4.311714172363281,-1.0091739892959595,4.098052024841309,0.3520858585834503,2.90830135345459,-1.1771612167358398,3.874342918395996,-5.384514331817627,-1.1474446058273315,-0.5470945835113525,2.8628270626068115,1.3374099731445312,3.0264415740966797,5.097379207611084,4.80094575881958,-3.6721904277801514,1.1326231956481934,0.6027911305427551,1.6090912818908691,-1.1575335264205933,0.513876736164093,-8.397135734558105,1.2896028757095337,-1.8713260889053345,1.6313960552215576,-2.723968029022217,3.0991480350494385,-0.3487095832824707,4.907394886016846,-0.8508306741714478,-3.06856107711792,-0.42457687854766846,-2.203904628753662,-2.006319284439087,2.0176939964294434,0.730289876461029,-1.0286998748779297,-3.2093331813812256,4.800284385681152,-2.3622593879699707,1.8096137046813965,-2.7356741428375244,-5.071540355682373,0.0509118027985096,4.1136603355407715,0.2988583445549011,5.015756130218506,0.3353937268257141,13.363870620727539,0.7509879469871521,4.233211994171143,3.2265000343322754,-5.195288181304932,-1.5208231210708618,8.963262557983398,0.07457836717367172,1.6953158378601074,2.9815115928649902,7.455658435821533,3.5144882202148438,1.9886765480041504,0.7566895484924316,-8.704094886779785,-1.7609375715255737,-1.2663995027542114,-0.6627212166786194,1.319906234741211,2.029364824295044,-0.17178674042224884,-2.1619672775268555,2.5881121158599854,-0.12919247150421143,3.5042290687561035,-1.5228641033172607,0.6281337738037109,7.180937767028809,1.097514271736145,4.527871131896973,0.20167392492294312,4.329245090484619,4.765013217926025,-0.5633230805397034,-0.15113948285579681,1.83981454372406,-1.8952221870422363,-1.0257103443145752,0.5040691494941711,-3.440467596054077,-1.8011322021484375,0.5419070720672607,1.983796238899231,-0.048927295953035355,-0.19128794968128204,1.3410948514938354,-1.3738045692443848,-4.247346878051758,-1.2925959825515747,-3.162839889526367,3.0779964923858643,-3.9657485485076904,1.5331510305404663,-3.8857312202453613,2.4297943115234375,-2.2068936824798584,2.677478790283203,-7.0665788650512695,-0.6887696981430054,0.5505796670913696,3.7319576740264893,-0.39046502113342285,3.4327306747436523,-0.002022520639002323,1.8901431560516357,-2.193727970123291,4.256974220275879,4.705997943878174,-4.680080890655518,-2.764540672302246,4.628859996795654,0.37067386507987976,-3.021571159362793,1.5833324193954468,5.648977756500244,2.8410184383392334,6.486410617828369,-0.08431627601385117,-4.207669734954834,-3.5941073894500732,-2.297874927520752,2.147770643234253,2.3326416015625,-1.7261369228363037,2.918977975845337,-0.6672050356864929,0.9375556707382202,-0.36001354455947876,1.1742068529129028,-0.10693790018558502,-0.2729553282260895,0.39719724655151367,-1.4678585529327393,-1.5000783205032349,-0.7025225162506104,3.2723286151885986,1.181716799736023,0.19279128313064575,-1.7725108861923218,-0.7162737250328064,1.3399349451065063,0.4998570382595062,-0.9300055503845215,-2.734333038330078,-1.4561935663223267,-0.1923092007637024,-2.179856777191162,-1.9595056772232056,-0.3043956756591797,1.1456972360610962,1.6911346912384033,-1.6174790859222412,0.803146243095398,-1.235950231552124,6.335930347442627,-3.389815092086792,3.3746612071990967,1.4574203491210938,0.7564387321472168,-1.1420964002609253,-3.9568474292755127,-2.2881522178649902,2.6389622688293457,4.080404758453369,2.7786216735839844,-1.5444365739822388,2.12087082862854,-1.142432689666748,1.6714152097702026,-0.011022836901247501,-1.5705785751342773,2.359694719314575,-1.557179570198059,-4.934378147125244,1.315964937210083,3.870086908340454,-0.13948120176792145,4.824768543243408,0.77161705493927,-2.5238983631134033,-3.025984048843384,3.4845786094665527,0.10014858096837997,-6.755596160888672,-5.033120155334473,-1.5433144569396973,5.571235656738281,-2.159688949584961,0.16734559834003448,-3.231654167175293,2.3255271911621094,-3.1324875354766846,1.5704129934310913,-1.909946084022522,0.3549066185951233,1.146985650062561,4.887933731079102,-2.829874277114868,3.7283482551574707,-5.319162368774414,0.9341983795166016,-1.2124985456466675,3.9945480823516846,5.056853771209717,-1.2878897190093994,-3.042232036590576,1.1703294515609741,-2.7635786533355713,4.064107418060303,6.882953643798828,4.644423484802246,3.2639071941375732,2.263463258743286,0.24650520086288452,-3.525782823562622,-3.9067280292510986,-1.5341533422470093,1.5017062425613403,1.937799096107483,2.37754487991333,3.66412615776062,2.098050832748413,1.2473260164260864,-2.0331742763519287,1.2046900987625122,3.2628180980682373,3.6101200580596924,-1.252024531364441,-3.6692466735839844,-0.028863314539194107,-3.535933494567871,-3.445012092590332,-5.089919567108154,0.28413036465644836,-3.094666004180908,-6.42406702041626,0.20470696687698364,-0.5982052087783813,-3.3458924293518066,0.8784245848655701,2.494659185409546,-0.3372384309768677,-1.523352861404419,-0.18687288463115692,-0.6970179080963135,-3.6932272911071777,0.24693259596824646,6.3304524421691895,6.698666095733643,1.6612199544906616,-2.1029038429260254,1.4581828117370605,-1.0488117933273315,0.7922413349151611,-2.688110828399658,1.6785744428634644,-0.44704219698905945,-1.3069099187850952,-0.8374263048171997,-2.088130474090576,0.8046006560325623,1.9237818717956543,0.43558651208877563,-1.6614758968353271,-2.69143009185791,-2.160956382751465,-5.951911926269531,-1.2320094108581543,0.9190979599952698,1.060280680656433,4.325801849365234,4.010547161102295,-0.8356632590293884,0.0464303232729435,-1.814135193824768,-0.28435662388801575,-3.161646842956543,2.9282169342041016,2.038787603378296,-0.9129472374916077,2.3326613903045654,0.6586437225341797,-1.0848320722579956,1.6247146129608154,-0.9982179403305054,0.5579414367675781,-0.006859533488750458,0.19511359930038452,3.5443131923675537,-0.35291948914527893,-2.778104782104492,3.771270275115967,-0.1677713841199875,3.0995571613311768,-0.2809790372848511,0.6295146346092224,2.623640537261963,1.2966501712799072,-1.358265995979309,-2.2718214988708496,1.1322357654571533,1.2151976823806763,0.5122870206832886,-0.28278273344039917,-1.7118178606033325,-0.4750974178314209,1.5600417852401733,-1.309709072113037,-0.16964057087898254,-1.6732337474822998,1.2195557355880737,0.053757719695568085,0.8817472457885742,-1.089794397354126]},"inputBias":{"rows":32,"columns":1,"weights":[0.07669711112976074,-2.051650285720825,1.6453319787979126,0.3728125989437103,-0.5849008560180664,1.574602723121643,0.7771459817886353,5.569610595703125,-2.3994369506835938,0.8322450518608093,-0.27070361375808716,-0.8220941424369812,0.271125853061676,0.37780675292015076,-8.473929405212402,5.030630111694336,-0.8195250034332275,-1.5231374502182007,1.0901964902877808,0.2232380509376526,-1.4302858114242554,-0.9945652484893799,-0.7541058659553528,-1.133190631866455,0.40441346168518066,0.027700072154402733,-0.7536159753799438,0.8823856711387634,-0.3471384048461914,-0.9459353685379028,-1.2090282440185547,-0.052115462720394135]},"forgetMatrix":{"rows":32,"columns":1,"weights":[-1.2862471342086792,-0.21220842003822327,0.47539222240448,-0.2709442675113678,0.8586094379425049,-1.484106421470642,0.2564059793949127,-1.0525275468826294,2.236023187637329,1.1435564756393433,1.3527874946594238,1.4138762950897217,1.9338819980621338,2.2783422470092773,-0.778526246547699,0.09703582525253296,0.26148396730422974,2.210716962814331,1.8850767612457275,-4.6025590896606445,-0.7978938817977905,-0.1375541388988495,0.13487529754638672,0.44404906034469604,0.30344077944755554,0.043931156396865845,-2.8447039127349854,-0.5051209926605225,1.1047389507293701,1.5501606464385986,-3.4673852920532227,-1.3437309265136719]},"forgetHidden":{"rows":32,"columns":32,"weights":[0.2328691929578781,-0.9075199365615845,-5.163873672485352,0.8453549742698669,-3.556530237197876,4.084112644195557,4.064882278442383,2.9807724952697754,-0.9175565242767334,3.9449756145477295,-5.839173316955566,-1.1016300916671753,-6.342647552490234,4.893089771270752,0.0907767042517662,2.575833797454834,-0.689206600189209,2.900430917739868,-0.20808011293411255,2.5356671810150146,-1.591686725616455,-2.154376268386841,0.8804382085800171,0.45839712023735046,0.596989631652832,-4.609801292419434,-2.0376439094543457,-3.0052578449249268,-0.14355628192424774,2.540369749069214,0.8123164176940918,-3.537764072418213,-1.0583492517471313,1.3641226291656494,-2.613306999206543,-0.23977875709533691,0.23926831781864166,1.009374976158142,1.7010648250579834,-0.3535589873790741,2.3632397651672363,5.554197788238525,-0.4916231334209442,-0.00023521493130829185,-0.46701177954673767,2.4504354000091553,0.5270988345146179,-0.44032663106918335,-1.4942784309387207,1.7195777893066406,-2.9605634212493896,2.069955587387085,-0.2399774044752121,-1.9813679456710815,-5.014618396759033,-0.515672504901886,1.0103400945663452,-1.5165026187896729,-0.8882395029067993,-2.565065860748291,0.01912325993180275,-3.097982883453369,0.5925368070602417,0.02597411721944809,2.7791004180908203,-2.0009052753448486,0.33557364344596863,-2.4044578075408936,2.375399351119995,-0.40639692544937134,-1.1736812591552734,-0.9727157354354858,4.622503757476807,-0.11148495227098465,2.588703155517578,-2.199345827102661,1.8736709356307983,-0.29936933517456055,1.934909462928772,1.000785231590271,1.9197373390197754,2.62638783454895,-2.6034529209136963,-2.41023325920105,2.143543243408203,4.276585578918457,0.6188705563545227,-1.2704178094863892,2.9961023330688477,2.5317389965057373,1.7826203107833862,3.167097568511963,-3.043398857116699,-1.7269868850708008,-1.8597805500030518,0.6832038760185242,-3.221017599105835,-0.6582421064376831,-5.015068531036377,-2.9197866916656494,1.663871169090271,1.1666980981826782,5.424095630645752,-3.068596601486206,-3.6621336936950684,2.742586851119995,3.467139482498169,1.303869605064392,1.6140164136886597,2.7757914066314697,6.474709987640381,-0.5634322762489319,3.7119462490081787,1.296576976776123,2.020585536956787,0.8901230692863464,4.6880412101745605,3.2089717388153076,-5.024878025054932,-1.7316910028457642,1.948905348777771,-2.452852249145508,-0.6400525569915771,6.404008388519287,1.5942469835281372,-6.222714900970459,-0.8437884449958801,-0.8926315903663635,1.8166990280151367,0.5549762845039368,2.614116668701172,-2.809556007385254,2.5172879695892334,-2.351428508758545,-1.8222600221633911,-3.0756630897521973,-1.8901950120925903,-4.73881721496582,3.067997932434082,1.1252944469451904,3.762869358062744,-3.062774419784546,2.2147088050842285,-3.8819422721862793,2.5126049518585205,1.6310315132141113,-1.210022211074829,-2.75100040435791,4.464755535125732,6.851377487182617,1.0295923948287964,-1.27169668674469,2.735030174255371,3.162492275238037,3.1352977752685547,-0.1383277326822281,-2.976032018661499,-1.2873060703277588,-2.4790141582489014,3.3873817920684814,-0.5733470320701599,2.2943716049194336,-2.7915263175964355,0.568760335445404,-1.0418392419815063,0.9290230870246887,1.515784502029419,1.8750168085098267,-1.1051095724105835,0.19001241028308868,-1.4025975465774536,0.10221298784017563,-1.1794025897979736,-0.5623325109481812,0.25643354654312134,1.1079347133636475,-0.48344936966896057,-0.828071653842926,1.0227633714675903,1.120391607284546,-3.9306163787841797,-0.26439759135246277,2.2512354850769043,0.6905577182769775,-0.5278129577636719,-0.1826690137386322,-1.0189523696899414,-1.1135165691375732,-0.024074727669358253,1.2671147584915161,0.35419103503227234,-1.5368061065673828,0.6411048173904419,1.5258182287216187,-7.563032627105713,-5.1877946853637695,4.273558139801025,8.255367279052734,0.5624188780784607,2.907318353652954,0.2642502188682556,0.08290313184261322,0.3607097566127777,2.5402424335479736,-5.060455322265625,6.9225006103515625,0.6855576038360596,2.8694040775299072,-6.552886486053467,-1.8273451328277588,1.9776077270507812,3.7704861164093018,-2.221012592315674,-6.313030242919922,6.239999771118164,-0.3328791558742523,-0.22010129690170288,1.1311697959899902,-5.220851421356201,-3.8959498405456543,-2.9528472423553467,-2.0887062549591064,-4.415085315704346,-0.03296354040503502,-1.9971251487731934,2.5888612270355225,-2.0452792644500732,2.377728223800659,-4.442736625671387,3.0640344619750977,2.1896255016326904,1.760127305984497,-3.932685136795044,5.259404182434082,-3.2071306705474854,2.313114643096924,0.3956015706062317,-1.5049856901168823,-0.5243863463401794,3.1090874671936035,-1.4656260013580322,0.42475831508636475,-0.7042363882064819,0.6449816226959229,-0.08840154856443405,3.3871374130249023,9.175965309143066,5.119852542877197,-1.1209162473678589,4.5055694580078125,-0.9531039595603943,-7.669735431671143,2.68194842338562,5.550564289093018,5.918361663818359,-4.654296398162842,-1.2685126066207886,2.092931032180786,-1.8056745529174805,-2.366628646850586,-3.5609545707702637,3.541584014892578,-1.3488889932632446,-0.6282027363777161,-3.9600329399108887,-3.4512887001037598,-0.39317837357521057,2.1604855060577393,-1.8831814527511597,-0.919308066368103,2.9333605766296387,-5.2941436767578125,2.8321847915649414,1.3005027770996094,-2.894881248474121,3.1669371128082275,4.000912666320801,3.4567015171051025,6.736337184906006,-2.498603105545044,2.357567071914673,2.9399468898773193,-2.2727484703063965,5.411670207977295,-2.8568637371063232,-1.2946159839630127,-2.004911184310913,-0.860075831413269,1.464805006980896,-2.8269667625427246,0.4642324149608612,-1.1218219995498657,2.033346652984619,-1.9867479801177979,0.5683602690696716,-0.5252314805984497,0.5302673578262329,1.8195937871932983,1.6527481079101562,0.14368119835853577,1.2286202907562256,-0.0709482878446579,-0.5552062392234802,-0.0829259604215622,2.0791170597076416,2.4126007556915283,-2.6883437633514404,-1.4838838577270508,3.1028759479522705,0.7799235582351685,-0.9783187508583069,2.063403367996216,3.588460922241211,0.09603476524353027,2.996506929397583,0.13799847662448883,-0.9972513914108276,-1.4024635553359985,-1.8859308958053589,-1.3233627080917358,1.310856819152832,-3.151625394821167,7.15960693359375,-4.043139934539795,3.1098339557647705,-3.8810532093048096,-1.8541669845581055,-1.39063560962677,1.2282497882843018,6.056519031524658,2.2915074825286865,0.4310511350631714,4.586500644683838,2.789550304412842,1.1425273418426514,-0.004477151669561863,-2.1780974864959717,5.817272663116455,-4.812911510467529,-3.4255473613739014,2.2662901878356934,0.9796741008758545,-0.7685806155204773,1.6576091051101685,1.013250708580017,3.4030070304870605,1.6961511373519897,2.0044689178466797,0.7562347054481506,-4.458406448364258,0.6965662240982056,1.9928202629089355,0.7751367092132568,-1.6190073490142822,-3.4937078952789307,-1.146859049797058,-0.010133756324648857,-0.7809127569198608,1.066786766052246,1.385180950164795,0.7759307026863098,2.044893264770508,-0.18650434911251068,-0.04810689762234688,-0.9170680046081543,3.2447776794433594,0.10165821760892868,-0.0007474038866348565,0.42934539914131165,2.03436017036438,-1.8830831050872803,0.5033568143844604,0.4429738223552704,-1.4758203029632568,0.048591479659080505,0.49099501967430115,2.3668015003204346,-0.8514747023582458,0.6369857788085938,1.3513143062591553,-0.6199179291725159,-0.4985801577568054,-1.7369663715362549,-0.015594376251101494,0.3363052010536194,2.4249870777130127,-3.4995548725128174,6.654487133026123,-1.1309648752212524,1.8534214496612549,0.9913684129714966,-0.4415213167667389,-6.857361316680908,-2.5142526626586914,-3.239733934402466,-2.294490337371826,-2.579094648361206,-1.5916646718978882,4.874091148376465,-0.6103504300117493,-1.842530369758606,-2.5307679176330566,2.571963310241699,0.37245267629623413,-0.7132763266563416,3.2646076679229736,-1.0971159934997559,-0.55876624584198,-1.7628902196884155,-1.179306149482727,-4.662385940551758,6.350294589996338,3.391087770462036,1.052700161933899,-0.7415302395820618,-7.369350433349609,3.1988282203674316,3.6072940826416016,-5.68143892288208,-4.375261306762695,3.5736303329467773,-0.9609473943710327,-2.8017826080322266,-2.6655502319335938,-5.91826868057251,5.098362445831299,2.7341079711914062,4.558116436004639,1.1518142223358154,-2.106940507888794,4.590522289276123,-6.069128036499023,3.3801333904266357,3.153456926345825,-5.302134990692139,-4.121797561645508,2.6200830936431885,-0.9795275330543518,2.2639567852020264,2.207611083984375,6.379857063293457,0.6254159808158875,4.882021903991699,-0.2502455711364746,-6.693980693817139,-3.9328701496124268,-2.0046043395996094,0.3468620777130127,3.47029709815979,1.3709949254989624,-5.659393787384033,-0.5436251163482666,-0.666047215461731,1.5639728307724,2.8070855140686035,0.20921319723129272,-2.252885580062866,1.4695543050765991,1.0426419973373413,3.53342866897583,-0.6829932928085327,-0.2250710427761078,1.446537733078003,4.822609901428223,1.6785602569580078,-2.052112102508545,1.0572772026062012,0.05694810301065445,-0.4515436887741089,-0.6103304624557495,3.5015869140625,2.148019313812256,0.4629758596420288,1.479456901550293,2.298290967941284,-1.896215796470642,-0.8053706288337708,1.5918807983398438,4.848548412322998,-1.2303049564361572,-1.8379161357879639,-1.8927096128463745,-2.7890942096710205,2.9981849193573,-3.4904634952545166,-2.16953706741333,1.1138510704040527,1.5909583568572998,12.254860877990723,-1.7915465831756592,-0.10366655886173248,-3.287637233734131,-1.3731426000595093,2.6603875160217285,1.5768393278121948,1.1842440366744995,-2.541290044784546,-3.675982713699341,5.030979633331299,-0.6571438312530518,-3.6754159927368164,0.0029742938932031393,-5.419400215148926,-0.3251701295375824,-5.003759384155273,-2.9657766819000244,-3.54754638671875,4.427182197570801,4.0460205078125,2.2788703441619873,0.20624549686908722,3.849224805831909,0.21745002269744873,0.5253481268882751,0.6269320845603943,-0.48537468910217285,2.051091194152832,0.02003471925854683,0.43857139348983765,0.2015577107667923,-1.8275351524353027,2.041778802871704,0.02520417794585228,1.3909748792648315,0.4573206305503845,1.09981369972229,-0.7864709496498108,2.01084041595459,0.892830491065979,-0.5618304014205933,-0.3279367685317993,-0.032485608011484146,-0.9065393209457397,-2.744359016418457,-2.509896993637085,-0.3640419840812683,1.0278685092926025,-0.6510015726089478,0.7806936502456665,1.2174001932144165,-0.5952484011650085,-0.4467463493347168,-0.37295296788215637,-1.7040696144104004,1.6866645812988281,-1.1264036893844604,-0.04236762225627899,-3.270462989807129,-0.2826957702636719,0.2813570201396942,0.8673900365829468,-0.2451944351196289,-3.2619786262512207,1.2964837551116943,1.2076942920684814,-0.7681248188018799,0.5304275155067444,-2.9009876251220703,1.679760456085205,-3.6076884269714355,1.1144574880599976,0.12659941613674164,-3.9833595752716064,-0.7056666016578674,1.131870150566101,-1.735923171043396,-1.4452407360076904,1.0439250469207764,3.77551531791687,-0.45727017521858215,2.0574300289154053,1.1308791637420654,-4.443016529083252,-2.540005922317505,-3.0841281414031982,1.1029561758041382,1.3641725778579712,-1.660704255104065,0.4912595748901367,-1.1618527173995972,0.26252302527427673,-1.0003783702850342,1.0703285932540894,-1.9992822408676147,0.9087810516357422,1.3946683406829834,0.9653193354606628,-0.26517876982688904,1.6086235046386719,0.37267005443573,1.4590823650360107,0.7090454697608948,1.1507868766784668,0.21433508396148682,-1.2330782413482666,-1.5979998111724854,1.8174463510513306,-0.6399944424629211,-0.6519996523857117,1.1818207502365112,3.195364236831665,0.05971212312579155,2.3425238132476807,0.182124525308609,-1.5684458017349243,-0.20124153792858124,-0.5655097365379333,-0.6844291687011719,-1.519994854927063,0.7636625170707703,-2.378221035003662,2.7743048667907715,-1.9330124855041504,1.4718784093856812,0.5031701326370239,2.930804491043091,-0.3661944270133972,0.26889434456825256,-1.034066915512085,0.3844895362854004,-1.1454095840454102,1.5957764387130737,-0.3254718482494354,0.671967625617981,-0.12671338021755219,-1.3673391342163086,1.4931230545043945,0.7906597852706909,-0.712266743183136,-0.08030466735363007,-0.9071942567825317,-0.677852988243103,-0.5834592580795288,-1.9612475633621216,-0.7405836582183838,0.42734673619270325,1.44344961643219,1.9129887819290161,1.3456007242202759,-0.7352052927017212,-0.12216910719871521,-4.880624771118164,-3.655143976211548,5.636999607086182,-2.194779634475708,2.009195566177368,2.677269458770752,-2.757460832595825,0.9794167876243591,7.575241565704346,1.232575535774231,0.55458664894104,-1.6712207794189453,-1.2021949291229248,-0.7939643263816833,-1.0687400102615356,-5.613473415374756,-2.00634503364563,-1.3673144578933716,0.25981149077415466,-0.35272425413131714,2.785207748413086,4.668102741241455,2.9812231063842773,0.08808816224336624,-5.799444675445557,3.4705007076263428,-1.2892701625823975,4.312572002410889,-7.449336051940918,1.3399930000305176,-4.450232028961182,0.48814523220062256,-0.08598501980304718,0.5356882214546204,2.7669694423675537,0.6353970170021057,-6.111757278442383,-0.6483035683631897,-0.9623667597770691,0.8521731495857239,-4.52960205078125,-0.2479165941476822,-1.4042428731918335,2.2220306396484375,-3.6510262489318848,-0.10939440876245499,-1.8631054162979126,1.9170055389404297,0.7507395148277283,-0.6097508072853088,-4.481515884399414,-1.187572956085205,1.4200688600540161,-1.809881567955017,-2.496699810028076,-1.411250352859497,-3.1286234855651855,0.4484766125679016,-0.04077998548746109,0.0547279417514801,-0.9399147629737854,-3.8383467197418213,-0.18407388031482697,2.038877248764038,0.9420961141586304,0.9479434490203857,0.9846155643463135,6.225320816040039,-4.2533183097839355,-1.8854858875274658,-2.4103569984436035,-0.7160107493400574,-1.5409668684005737,-1.7648650407791138,-1.0202593803405762,1.5284603834152222,1.4238871335983276,-2.374107837677002,-5.732222080230713,-1.538077712059021,2.3785321712493896,3.4129443168640137,-2.768705129623413,4.280185699462891,0.3185615539550781,-2.588221311569214,-3.8347530364990234,-0.779658854007721,-1.6184108257293701,-5.093283653259277,5.605318069458008,4.243160247802734,1.9213415384292603,-4.136847972869873,3.3132717609405518,-4.563008785247803,4.023200511932373,0.6664075255393982,1.1613131761550903,1.6522518396377563,-1.4627424478530884,1.6359626054763794,-0.17724615335464478,3.7282419204711914,-0.6199753284454346,-1.4219672679901123,0.81978440284729,0.6990309357643127,-3.9012563228607178,-1.041661262512207,5.796883583068848,1.159714937210083,-6.5849785804748535,-0.9685816168785095,-0.4644511938095093,0.6339927315711975,0.07271581888198853,1.3546960353851318,2.472609281539917,-0.6417559385299683,-1.387125015258789,3.3334507942199707,1.3501968383789062,0.8485699892044067,0.06481940299272537,1.9745509624481201,-2.48870587348938,2.0760369300842285,-0.8258954882621765,-1.1831918954849243,-2.484402656555176,3.1405251026153564,-3.1096014976501465,-1.7949016094207764,-3.285120964050293,-1.4455960988998413,1.1975939273834229,4.059794902801514,-2.143213987350464,3.2940917015075684,-1.1793982982635498,3.676483631134033,-2.8851799964904785,3.2208685874938965,2.237994432449341,-1.476784348487854,-1.9324703216552734,4.20176887512207,-0.9097352027893066,-2.0358920097351074,0.840273380279541,4.199948310852051,-0.7450824975967407,3.9645323753356934,-1.564285159111023,-3.475311517715454,-5.296329021453857,-3.627192735671997,0.5683791637420654,1.0754032135009766,-0.045889534056186676,2.28956937789917,0.805921196937561,-4.880614757537842,-0.9640176892280579,-2.6713240146636963,0.4589879512786865,0.4345780313014984,-1.1033923625946045,-2.8137025833129883,-2.886554718017578,-0.9017195105552673,-1.600630521774292,-3.1694552898406982,-1.6806551218032837,-0.1337156444787979,-1.850059151649475,-0.9863770604133606,-1.2724967002868652,-1.0051004886627197,-2.6567442417144775,-0.5750151872634888,0.8368616104125977,0.2599661946296692,-1.5070672035217285,-0.596731960773468,-0.07662889361381531,1.0234029293060303,-0.536774754524231,0.7377744317054749,1.6693377494812012,-1.0884283781051636,-3.035064220428467,1.1516107320785522,4.3267340660095215,-4.491034030914307,0.06349857151508331,0.422569215297699,3.6432440280914307,0.783305823802948,-0.6161831617355347,-3.5528554916381836,-0.44605955481529236,-2.2316691875457764,0.036623235791921616,-1.7103345394134521,0.29665371775627136,-0.168906107544899,-0.41993987560272217,1.1033766269683838,2.1161017417907715,-1.4133613109588623,-1.302068829536438,-1.8266772031784058,0.8677892684936523,-1.4460813999176025,-1.6006760597229004,-1.3771547079086304,2.2492012977600098,0.8445442318916321,2.837167739868164,3.5116004943847656,-0.5083325505256653,-0.4194742739200592,-0.1680019050836563,0.29889532923698425,0.7008817195892334,-0.6572991013526917,1.3160886764526367,-3.4533979892730713,-0.31098616123199463,1.8119453191757202,-2.305025339126587,-1.0888515710830688,0.4198341965675354,-1.5368707180023193,-2.8026020526885986,-1.6348885297775269,0.5605746507644653,-0.5368079543113708,0.8921052813529968,0.6357444524765015,-1.3197021484375,-0.6477434635162354,4.54717493057251,-0.054401978850364685,-0.2107558250427246,0.46260538697242737,0.18472738564014435,-0.325649231672287,-1.1805051565170288,-0.08580073714256287,1.217116355895996,0.04125441238284111,-1.5271497964859009,3.462517023086548,-0.7556031942367554,0.20728759467601776,-4.370598316192627,2.726313591003418,-1.1217817068099976,-0.9870858788490295,-0.7377934455871582,-2.1204333305358887,1.2975350618362427,4.342593193054199,-0.47376683354377747,2.413882255554199,-1.9781619310379028,3.5013601779937744,-2.787989377975464,3.179760456085205,5.736281394958496,-4.237377166748047,-1.3444468975067139,7.434824466705322,0.5152378678321838,2.674936056137085,3.7060821056365967,4.911434173583984,1.8686860799789429,2.3971986770629883,1.012532114982605,-5.3920674324035645,-2.0056352615356445,-3.9408679008483887,1.648713231086731,4.064472198486328,-6.729987621307373,-3.363771677017212,0.7644016742706299,-4.466062068939209,-1.6622164249420166,-4.488730430603027,3.816220760345459,3.1842057704925537,-8.340611457824707,-1.7362377643585205,-4.032847881317139,2.3145077228546143,-2.5882270336151123,-1.7049554586410522,1.4949758052825928,-6.233921051025391,0.7487618923187256,6.916269302368164,-2.288442373275757,-2.977400541305542,-7.3186726570129395,-9.94909954071045,12.4633207321167,-2.3673884868621826,-1.590773582458496,-0.2558685541152954,0.4167430102825165,-0.8887845873832703,3.2821648120880127,-1.5058799982070923,4.441659450531006,-2.222681760787964,2.001098871231079,-1.760402798652649,2.4661312103271484,-2.2332959175109863,2.2231245040893555,0.7495691776275635,2.602043867111206,-0.6683122515678406,0.6691960692405701,-2.1005990505218506,1.0511687994003296,-1.8366559743881226,0.7389783263206482,-0.6133538484573364,1.6812940835952759,-0.9805751442909241,-1.580795168876648,2.1263046264648438,1.3961029052734375,-1.5856029987335205,0.6326348781585693,-0.19884152710437775,0.10264963656663895,-1.4811288118362427,-1.5514744520187378,-1.3562079668045044,0.7605933547019958,1.5202102661132812,2.9126358032226562,1.7128028869628906,-1.9524509906768799,0.2024959921836853,0.8638997077941895,-2.619342088699341,0.021527603268623352,-2.227918863296509,1.2703250646591187,2.2331185340881348,1.7807492017745972,0.4580826461315155,2.0064821243286133,-2.113391876220703,-1.1882944107055664,-2.585792064666748,3.7027947902679443,1.3765751123428345,0.4590834379196167,-1.1129122972488403,4.052818298339844,3.017336368560791,-0.6888056993484497,-0.8971072435379028,1.1550116539001465,-4.210165023803711,-6.519063949584961,-2.956763505935669,-3.407015323638916,-3.8042802810668945,-1.3182439804077148,4.830094337463379,2.4098148345947266,1.390741229057312,-0.7107271552085876]},"forgetBias":{"rows":32,"columns":1,"weights":[0,0,0,0,0,0,0,0,0,0,0,0,0,0,0,0,0,0,0,0,0,0,0,0,0,0,0,0,0,0,0,0]},"outputMatrix":{"rows":32,"columns":1,"weights":[-0.18681268393993378,0.5264248847961426,1.5715646743774414,0.22062373161315918,1.2916797399520874,-0.29850172996520996,-0.16563670337200165,4.543754577636719,1.8735312223434448,-0.575305163860321,0.31261488795280457,0.747646689414978,-0.46339884400367737,-0.6319416165351868,3.767220973968506,5.434051513671875,0.8193557858467102,0.08196365833282471,-0.16102667152881622,-0.3216436505317688,0.44911208748817444,-1.518438458442688,1.0364314317703247,-1.6383371353149414,-0.27957552671432495,1.014999508857727,-0.8540551662445068,-0.19157584011554718,-0.47554248571395874,1.5674957036972046,0.3232463598251343,0.9801780581474304]},"outputHidden":{"rows":32,"columns":32,"weights":[7.073559284210205,-0.07325396686792374,0.19361194968223572,-1.1982380151748657,3.677832841873169,3.1088151931762695,6.919462203979492,1.0587176084518433,0.6872662901878357,-0.9206573367118835,-0.5134666562080383,-2.216416597366333,-7.721459865570068,4.896875381469727,-1.7022695541381836,1.5599857568740845,-7.320742607116699,-2.6467344760894775,-0.9838404655456543,4.385987281799316,-1.5751863718032837,-5.676798343658447,-1.1722692251205444,3.7780368328094482,-2.3378806114196777,-4.476499557495117,-1.9314202070236206,-2.3206870555877686,-0.6588069200515747,-0.25571173429489136,-4.148009300231934,3.4308853149414062,2.538374185562134,-0.5739791393280029,-1.829882264137268,1.0452375411987305,5.796266078948975,0.7102046608924866,2.0115227699279785,-0.6878553032875061,-3.878977060317993,3.6149144172668457,2.437650442123413,4.07915735244751,0.43704891204833984,1.731803059577942,0.8497627377510071,-0.18531227111816406,1.5297751426696777,-2.0797324180603027,1.2440166473388672,2.9687387943267822,-0.7641934156417847,-1.902147889137268,0.3486291766166687,4.537271499633789,-0.3738851249217987,2.8611960411071777,-0.9438666105270386,-1.48490309715271,-0.09669292718172073,2.0257749557495117,0.0742725282907486,-0.4107675850391388,-0.29899802803993225,-0.9063433408737183,2.9030141830444336,2.4595587253570557,-4.7557783126831055,1.9680557250976562,-2.04518461227417,1.9419888257980347,7.043419361114502,-1.4198940992355347,-4.521790981292725,-1.7999310493469238,-2.7089903354644775,3.524834394454956,-2.5753157138824463,0.672155499458313,1.9805688858032227,-1.4295432567596436,2.678036689758301,-2.4556870460510254,-3.095916509628296,1.1500389575958252,-1.4291574954986572,-4.955459117889404,-3.2628252506256104,-3.0583224296569824,-0.0025444719940423965,2.106926918029785,3.848860263824463,2.886345148086548,-0.5987125039100647,4.332561016082764,-0.4815780818462372,2.579479455947876,-0.19476309418678284,-0.046843159943819046,0.04706983640789986,0.8628769516944885,2.4542205333709717,0.10849916189908981,-2.8256804943084717,0.5361937284469604,-0.2503151297569275,-0.135360985994339,-0.8479167819023132,1.2611757516860962,3.8254339694976807,-1.0924173593521118,-2.0829524993896484,3.720285177230835,-0.3948235511779785,0.8761087656021118,-1.6625440120697021,-2.8796911239624023,1.0709682703018188,-0.17907112836837769,0.1660861372947693,-1.0579707622528076,-1.582696795463562,3.1347997188568115,-0.913287878036499,-1.6907981634140015,0.4353107213973999,1.0505671501159668,-1.9844413995742798,-0.6328884959220886,-0.429284930229187,-1.113028645515442,-4.236428260803223,3.2801928520202637,-3.343291759490967,-0.9540838003158569,-1.3566893339157104,-4.993091583251953,1.455863356590271,-1.0595026016235352,2.5936741828918457,-5.578598499298096,0.2652030885219574,-2.3539302349090576,-1.6897366046905518,5.574525833129883,1.6447455883026123,0.7322518825531006,0.2400917261838913,4.885619163513184,-3.3813083171844482,-2.9776954650878906,-2.259148359298706,-0.06758742779493332,-1.6276025772094727,0.6169848442077637,3.4649548530578613,1.2780506610870361,1.4206598997116089,2.1565921306610107,-0.8794148564338684,0.5500161051750183,-0.2740008533000946,2.6489217281341553,0.3097268044948578,3.4582457542419434,0.7810690999031067,3.7743144035339355,2.199707508087158,-1.3812040090560913,-2.762197494506836,0.8618470430374146,-2.7401552200317383,1.1658838987350464,-4.009843826293945,2.5556185245513916,-2.2073416709899902,-0.6735879182815552,2.144883155822754,1.7098839282989502,-4.070732593536377,0.9299551248550415,-2.2815332412719727,-2.533752202987671,-3.581345796585083,-2.4158380031585693,-4.026254653930664,-1.3074368238449097,3.004581928253174,3.5394937992095947,0.34289780259132385,-1.4219838380813599,5.88876485824585,1.2168948650360107,-1.9527429342269897,-1.7518595457077026,6.835705280303955,2.5558080673217773,1.9641770124435425,-0.4132304787635803,-2.3127224445343018,3.3687398433685303,-1.7486330270767212,1.7614014148712158,0.26199567317962646,3.2912094593048096,3.973141670227051,-0.7911221981048584,6.3827433586120605,0.30486729741096497,-0.8972880244255066,-0.44312170147895813,0.5229370594024658,2.0095596313476562,-1.1310374736785889,-3.8186705112457275,6.332036018371582,-0.42506593465805054,0.10043282806873322,-1.1407605409622192,-3.8517935276031494,-0.813024640083313,-0.5953962206840515,-1.8820421695709229,0.8255777955055237,-1.7798806428909302,0.14848598837852478,-0.7460516691207886,1.1356439590454102,-0.41776567697525024,0.09328624606132507,-2.3029897212982178,-2.1081795692443848,1.8432047367095947,0.6255916953086853,-0.3112892210483551,-0.14579090476036072,-0.9797120690345764,1.814993143081665,-1.064039707183838,1.0813504457473755,0.8943535089492798,-1.8622466325759888,-0.25960949063301086,1.8621211051940918,0.1477636992931366,1.9203516244888306,1.1154227256774902,3.5120937824249268,1.69383704662323,2.0833370685577393,-1.811686635017395,-1.209449052810669,-3.0668725967407227,-1.4502055644989014,0.17185278236865997,-3.352877378463745,0.36429014801979065,1.0581659078598022,2.258427381515503,-1.2316584587097168,3.1369125843048096,-0.3772653639316559,1.6300361156463623,-3.0142674446105957,-0.33465084433555603,1.618893027305603,1.066489577293396,0.09467042237520218,-0.4840344786643982,0.26377418637275696,-1.1728471517562866,1.3830432891845703,-0.237883523106575,0.9494178295135498,3.5085959434509277,-1.1652787923812866,3.3763926029205322,-2.861560344696045,-0.7150050401687622,-0.7315954566001892,-3.084033727645874,0.3214355707168579,1.895090103149414,0.9678072333335876,1.523038625717163,2.456618547439575,1.6172133684158325,1.678640365600586,-0.7852027416229248,-3.7321808338165283,-1.1632773876190186,2.7191519737243652,1.4637762308120728,6.560402870178223,-0.9801276922225952,-0.9715051054954529,-0.4222261309623718,2.5539915561676025,-1.4917073249816895,1.1712285280227661,0.938619077205658,2.104484796524048,-1.761641502380371,5.1051344871521,-0.2533007264137268,-4.693300724029541,4.432559490203857,1.2280399799346924,-0.9324935674667358,2.4032199382781982,5.954410076141357,1.1381702423095703,0.7358842492103577,3.318692207336426,1.837062120437622,-4.7324347496032715,-1.473128080368042,-0.3616287410259247,-0.4527071714401245,-0.818497359752655,1.8938472270965576,4.876754283905029,0.7020067572593689,2.38555908203125,-1.5269196033477783,0.3469395041465759,-1.0390530824661255,-0.4548272490501404,0.027948087081313133,0.8217039108276367,3.0760600566864014,3.048959493637085,-4.328578948974609,3.2806077003479004,-2.211855411529541,2.8431684970855713,-1.4284417629241943,-2.3955132961273193,-2.6639761924743652,4.264238357543945,2.373039960861206,2.1433017253875732,2.4216597080230713,0.5444139838218689,2.3526110649108887,0.7237790822982788,1.580011248588562,-1.285056471824646,-0.8082981705665588,-6.190650939941406,-1.9792383909225464,4.919734477996826,-2.72432279586792,0.05359809473156929,-4.064065933227539,2.0560386180877686,-3.851832151412964,1.9703609943389893,-4.565253734588623,0.8437306880950928,1.8425211906433105,4.647775173187256,-3.0335347652435303,5.292969226837158,-2.49151873588562,3.28796648979187,-2.703559398651123,4.382541656494141,2.828467607498169,-6.208342552185059,-1.859386682510376,2.9698243141174316,-0.09674029797315598,0.8446500301361084,3.9073593616485596,4.165303707122803,1.6302640438079834,4.329568386077881,-1.1928261518478394,-4.6399993896484375,-4.286596298217773,-5.020650386810303,2.4650845527648926,-3.0065951347351074,0.13568609952926636,-4.596678733825684,0.7525451183319092,3.2724766731262207,5.534773826599121,1.1504077911376953,-1.300597906112671,-4.920744895935059,3.3167505264282227,0.681774914264679,5.5766401290893555,-1.9653531312942505,-0.35001590847969055,3.603546380996704,-4.849905967712402,-4.344661235809326,1.6052461862564087,1.5139857530593872,3.623166084289551,7.780653953552246,6.363877773284912,-3.0277724266052246,-1.6795909404754639,5.625878810882568,3.607039451599121,-5.026518821716309,8.963756561279297,-0.5396479964256287,-2.362565040588379,-0.12402111291885376,-1.8126319646835327,-0.031076831743121147,0.47322502732276917,2.0655298233032227,2.619790554046631,-2.395878314971924,-4.832442283630371,-1.8567875623703003,-1.7303212881088257,-0.9192797541618347,0.6722145080566406,-0.6935903429985046,1.3680307865142822,2.0958218574523926,-2.3317158222198486,0.2095067799091339,-0.42475461959838867,3.966783046722412,5.08025598526001,3.025616407394409,1.419661045074463,0.26058143377304077,3.0825552940368652,1.9342914819717407,-1.9025200605392456,0.47997477650642395,-2.7839467525482178,0.7792786359786987,-0.5794233083724976,-1.3730170726776123,-0.18151549994945526,0.693620502948761,-3.056901454925537,3.969620943069458,3.6110358238220215,-5.622824192047119,-6.4007697105407715,1.5098384618759155,0.49162590503692627,4.484597682952881,-5.795121192932129,-6.25338077545166,3.077648401260376,3.891108989715576,2.4751269817352295,-1.3049108982086182,-3.051238775253296,8.026744842529297,-7.005977630615234,-0.17873944342136383,4.565649509429932,-7.429412364959717,-2.7946901321411133,6.3187150955200195,-3.318934440612793,4.80654239654541,3.6042122840881348,10.903816223144531,1.903694987297058,3.5133767127990723,5.105467796325684,-7.836639881134033,-9.076380729675293,-1.7606382369995117,0.8912764191627502,1.728046178817749,-0.9055952429771423,1.6909111738204956,-1.8349348306655884,2.1631457805633545,-1.1960456371307373,0.5362908244132996,-2.0175559520721436,-0.39156293869018555,-0.10614167898893356,0.9370085597038269,-0.6306188106536865,1.1985065937042236,-0.2931342124938965,0.7047005891799927,0.2374110370874405,0.8525522351264954,1.5548261404037476,-1.1652369499206543,-0.6194621324539185,1.2162292003631592,-0.7961186170578003,0.06831695884466171,0.41301023960113525,1.554959774017334,0.9823384881019592,1.4442435503005981,-1.2495906352996826,-1.5531284809112549,-1.4484816789627075,-1.070032000541687,0.7051759362220764,0.14657540619373322,1.379684567451477,-1.1871848106384277,-2.389122486114502,-0.4831685423851013,2.141355514526367,0.8514712452888489,-0.46054384112358093,-2.846144437789917,2.046785831451416,0.6640869379043579,5.287417888641357,0.2869744598865509,1.3060919046401978,0.3034673035144806,-2.9214956760406494,3.619795322418213,1.84039306640625,-3.65199613571167,2.268662452697754,2.819777488708496,-4.864595413208008,-2.12422251701355,0.8557173013687134,4.093511581420898,5.582154750823975,7.19507360458374,3.219003200531006,-6.2979817390441895,0.6256173849105835,-1.5083590745925903,0.6068167090415955,-0.32112962007522583,3.301525831222534,-2.588148355484009,-0.2469540238380432,-2.78076434135437,0.5268526673316956,4.360244274139404,-1.7746880054473877,-0.9122868180274963,1.8721494674682617,0.1353776603937149,0.6506019830703735,1.3462342023849487,2.0520787239074707,3.4697751998901367,-0.2805088758468628,-1.2276233434677124,2.8147542476654053,-1.7322615385055542,-0.9508164525032043,1.5081815719604492,-7.1262383460998535,-2.4675941467285156,-2.7352454662323,2.396580696105957,-0.8421993851661682,0.8081164360046387,3.930225372314453,-2.694653034210205,-0.10417824238538742,0.2877846658229828,-2.362246513366699,-0.05832085385918617,-0.326113224029541,-1.3796535730361938,-1.092624306678772,-0.8112462162971497,-1.2749167680740356,3.1566505432128906,-1.1990666389465332,1.0728710889816284,3.708385467529297,0.4964560866355896,-1.24125337600708,0.813249409198761,-5.093985557556152,3.205998659133911,-1.226677656173706,6.562856674194336,-1.3234940767288208,-4.458970546722412,1.3238180875778198,4.649889945983887,3.9945528507232666,3.640160083770752,8.418408393859863,1.7784761190414429,3.343418598175049,4.972886085510254,3.165395975112915,0.09639937430620193,-2.255377769470215,1.5077717304229736,-0.5888103246688843,-0.7988589406013489,0.5917982459068298,1.257028341293335,0.5757179260253906,-2.7930824756622314,1.1163156032562256,-2.502227544784546,1.4600940942764282,3.7041006088256836,-3.3217053413391113,1.9038445949554443,-3.5638885498046875,-1.3725969791412354,-2.819884777069092,-0.6377508044242859,-1.229225516319275,-0.39396148920059204,-0.4604003131389618,-0.917945384979248,-0.12118837237358093,0.8058373332023621,1.8168213367462158,1.0275934934616089,2.5654213428497314,0.3475407660007477,-0.2658770978450775,0.33040231466293335,4.00442361831665,0.17298252880573273,-0.17457905411720276,-2.7628769874572754,2.981809616088867,0.32226020097732544,1.9470826387405396,-5.935155868530273,-1.4635785818099976,1.7077643871307373,1.8136628866195679,-0.2667712867259979,-3.6105387210845947,-0.784261167049408,4.9864277839660645,3.0085365772247314,7.144401550292969,1.7280900478363037,2.4210526943206787,-0.004125060047954321,-1.8749991655349731,1.2003933191299438,1.3753336668014526,-4.6399993896484375,0.1859360784292221,-2.207895040512085,-0.7895418405532837,2.648632049560547,-0.3020206391811371,7.460821151733398,2.7221715450286865,0.7174394130706787,5.874125957489014,-4.0069966316223145,-0.09909263998270035,-1.6372371912002563,-2.3600246906280518,2.927854299545288,-2.940394401550293,-5.5832438468933105,-3.6147289276123047,5.392446994781494,-1.7080985307693481,2.690770387649536,-10.671554565429688,-3.522862195968628,1.6950544118881226,2.918092966079712,-5.835041046142578,4.770443439483643,1.0145888328552246,10.485898971557617,-9.440982818603516,2.7839155197143555,8.329469680786133,-8.740133285522461,-0.10518244653940201,6.023201942443848,0.39945167303085327,-1.0502313375473022,0.22491033375263214,7.144650459289551,3.4809021949768066,1.8343145847320557,6.78341007232666,-5.761694431304932,-6.8488335609436035,-6.1200151443481445,1.8013193607330322,2.8058087825775146,1.9752801656723022,0.32429760694503784,-2.056366205215454,-0.8999662399291992,-2.3501410484313965,2.2256994247436523,0.8377571702003479,-1.1632473468780518,1.444629430770874,-4.087106227874756,2.0783238410949707,-1.9617130756378174,2.0920355319976807,-1.5571205615997314,-1.6870063543319702,-2.7874176502227783,1.1515666246414185,0.3914852440357208,0.809561014175415,-1.1182842254638672,-2.8584811687469482,1.1100434064865112,-1.3533650636672974,-1.0809348821640015,-3.2549567222595215,-0.6479200720787048,3.725313901901245,1.3287330865859985,-1.9575936794281006,-3.1868553161621094,0.5931178331375122,0.4855411648750305,-2.799258232116699,-1.020902395248413,-3.697693109512329,4.531709671020508,3.200594186782837,0.9501729011535645,-3.6350889205932617,-4.009904861450195,1.8201810121536255,3.936732053756714,-2.017653703689575,1.2705893516540527,4.16713285446167,5.41566801071167,-3.5150094032287598,-0.10484831035137177,4.257077217102051,-3.4201040267944336,0.48984432220458984,2.143573522567749,-1.7847263813018799,-0.6339027285575867,-3.305905342102051,2.959334373474121,4.108628273010254,1.0153754949569702,2.910919189453125,-0.6940757632255554,-3.3112456798553467,-2.4720945358276367,2.0451905727386475,2.6315135955810547,1.2052500247955322,0.6916581988334656,-1.2700501680374146,4.041689872741699,-3.1767079830169678,1.3214482069015503,-2.327775716781616,-3.842836618423462,1.553775429725647,4.481958866119385,0.6531297564506531,5.454626560211182,0.4518527388572693,8.143265724182129,-1.2724807262420654,2.908285140991211,3.71956467628479,-0.0276606697589159,-0.6389554738998413,1.7756385803222656,1.2505112886428833,4.004666805267334,-2.01066255569458,0.7138103246688843,0.9945313930511475,-0.4010905623435974,0.32447874546051025,-1.0986348390579224,1.21875,-1.007079839706421,-1.9664642810821533,3.484138011932373,-2.4604175090789795,3.0717649459838867,-3.1646857261657715,1.227776288986206,-4.626138210296631,1.1564399003982544,-6.539910316467285,2.2380192279815674,-0.7993086576461792,1.3477935791015625,0.021347863599658012,4.130715847015381,-2.368927240371704,-1.8812333345413208,-1.5969791412353516,5.798877239227295,4.586477279663086,-5.605466842651367,-5.431915283203125,2.3066322803497314,1.1144819259643555,1.4660724401474,-4.403410911560059,2.2406015396118164,2.096686601638794,3.8614675998687744,1.6301623582839966,-0.7795974016189575,-4.524825572967529,-4.778358459472656,0.03502516821026802,1.2051247358322144,-0.7966904640197754,0.1950722187757492,-1.4637192487716675,0.7128399014472961,-1.4828358888626099,0.26983144879341125,-0.706477701663971,1.9141844511032104,-0.22127139568328857,1.2289246320724487,0.016169078648090363,-1.731763243675232,4.198749542236328,0.30469071865081787,0.5901483297348022,0.927863359451294,-0.22109559178352356,-1.756489634513855,-1.5375062227249146,-0.6921628713607788,-0.23147641122341156,-1.6454150676727295,1.6969287395477295,0.9410296082496643,1.4406615495681763,0.11728782206773758,0.9222472906112671,0.38762161135673523,-2.0036611557006836,-0.7500371336936951,0.4000795781612396,-1.435403823852539,1.3060098886489868,-0.9677843451499939,0.14135019481182098,0.4750165045261383,-8.643835067749023,-6.044314384460449,-1.9305306673049927,5.112445831298828,1.445067286491394,8.144564628601074,-2.5959713459014893,3.0631184577941895,0.8839455246925354,2.428962230682373,-5.322364807128906,-1.60910964012146,4.594256401062012,0.3309316337108612,-1.0472320318222046,-1.8071603775024414,1.1668890714645386,0.6442902088165283,-1.1841487884521484,-1.2268298864364624,1.3103655576705933,-2.6049060821533203,3.7090303897857666,-0.39280223846435547,-3.240912675857544,0.17987559735774994,1.9844893217086792,1.1849758625030518,3.597900629043579,1.5817198753356934,-0.47348564863204956,10.614707946777344,3.0981526374816895,2.0846755504608154,-3.155465841293335,-5.7699151039123535,3.6504158973693848,5.293312072753906,-0.3568361699581146,-1.5544582605361938,4.272441387176514,4.124938011169434,-1.748974084854126,-6.555278301239014,2.158503293991089,-1.5064072608947754,-1.3485257625579834,-0.7539535760879517,-1.151929259300232,3.04305362701416,-0.23478159308433533,0.021728580817580223,4.321065425872803,-1.2108229398727417,1.545052409172058,0.5073285698890686,0.7780765891075134,-1.559849500656128,-2.2694954872131348,-1.1454676389694214,-1.6868211030960083,-0.43915438652038574,-1.008940577507019,-1.3299363851547241,2.621136426925659,-2.80765438079834,-0.9231342673301697,3.2358601093292236,-2.354801893234253,0.36446791887283325,2.985049247741699,2.319542407989502,-3.1591031551361084,1.5468453168869019,0.8490781188011169,0.7642329335212708,0.34556907415390015,-1.0147984027862549,-0.2561591863632202,2.430346727371216,-0.10546338558197021,-0.773567795753479,0.5769298076629639,-0.11013486981391907,1.0328506231307983,3.5284104347229004,3.1413583755493164,-1.015782356262207,1.8504550457000732,-0.536766767501831,-0.6462476253509521,-4.429654121398926,-1.6443568468093872,4.122756004333496,0.9056534767150879,-0.7376891374588013,-0.8781926035881042,-2.127049684524536,1.0832144021987915,-1.391087532043457,-4.549230098724365,1.9731953144073486,1.0094696283340454,0.07129998505115509,-1.4344103336334229,3.3011085987091064,0.3155621588230133,-2.3210806846618652,0.19552983343601227,-0.5462901592254639,0.9386264681816101,1.8584115505218506,-9.5814790725708,-2.467459201812744,-8.492342948913574,0.02717449888586998,2.065739631652832,-2.4464690685272217,4.432990550994873,-0.8918424248695374,-0.7953202724456787,0.11281119287014008,-2.5894711017608643,0.20950359106063843,0.31138932704925537,-0.9634153842926025,-0.7861374020576477,-0.10688258707523346,1.3394209146499634,2.34841251373291,-0.4054628312587738,-0.1902167648077011,2.2640798091888428,-0.16147197782993317,1.099887490272522,-0.10780923068523407,0.47449180483818054,1.7107150554656982,1.5732585191726685,-0.7174851894378662,0.03287755325436592,-0.35021013021469116,0.9175751805305481,0.7019963264465332,-0.4212875962257385,-2.033715009689331,0.9172242879867554,2.3953332901000977,-0.5013065934181213,-0.2978211045265198,-0.9437341094017029,-0.47171398997306824,0.08450077474117279,-1.135233759880066,-1.4618275165557861]},"outputBias":{"rows":32,"columns":1,"weights":[0.4741817116737366,-1.1791348457336426,1.3045099973678589,0.5669682025909424,0.3933541178703308,0.7601708173751831,-0.8199483752250671,5.2176713943481445,-3.3050012588500977,-0.4870169460773468,0.04661945253610611,-0.5552216172218323,0.42896345257759094,-0.01787964254617691,-6.518608570098877,5.208319187164307,-1.5389503240585327,-1.200145959854126,0.5582834482192993,0.21274609863758087,-1.8375004529953003,-1.2519221305847168,-1.0113089084625244,-0.7277585864067078,0.4336513876914978,-0.8132201433181763,0.13484230637550354,0.5100527405738831,-0.2499571591615677,0.41422343254089355,-0.5190151333808899,-0.148514062166214]},"cellActivationMatrix":{"rows":32,"columns":1,"weights":[-0.09945167601108551,-0.14203272759914398,-0.1953074336051941,-0.14881721138954163,-0.6431435942649841,-0.05296097323298454,-0.6297110915184021,-4.050678730010986,0.04426049441099167,-0.9942446947097778,0.3714466691017151,-0.5854322910308838,4.296332836151123,-1.5110934972763062,1.8376392126083374,-1.1270486116409302,3.8433258533477783,0.6083411574363708,-0.5041426420211792,-4.035284042358398,0.5045803785324097,0.06252525001764297,-0.1747453361749649,0.9029335975646973,0.158216193318367,-0.15747176110744476,0.11358858644962311,0.7974547743797302,-2.7022743225097656,-0.6159915924072266,-2.1679439544677734,0.36867788434028625]},"cellActivationHidden":{"rows":32,"columns":32,"weights":[-4.776554107666016,-1.514928936958313,1.6763298511505127,0.37908682227134705,0.1062566265463829,1.8966662883758545,0.009775654412806034,2.7224364280700684,-2.6473968029022217,-1.2518997192382812,-1.7599763870239258,1.54465651512146,0.017859088256955147,4.904129981994629,-2.9385178089141846,1.3370813131332397,-0.6130725741386414,0.4133130609989166,2.3551275730133057,5.8620991706848145,-0.839883029460907,-1.704369306564331,-0.958427369594574,-0.8049384355545044,-1.0771132707595825,-1.495436429977417,-2.802138566970825,-3.9142534732818604,0.08408545702695847,0.7596380114555359,1.009933352470398,-1.2011486291885376,0.43299150466918945,-3.3298146724700928,1.0458240509033203,0.32535114884376526,-1.1382570266723633,-5.483275413513184,-0.15526694059371948,-1.5186446905136108,-0.2557297945022583,2.3485333919525146,1.6292635202407837,-1.6364843845367432,-1.10471510887146,-0.024219442158937454,0.5718156099319458,-1.1401071548461914,2.5830416679382324,-1.0285208225250244,-1.0291352272033691,-0.8820050358772278,0.28281450271606445,2.349893569946289,-0.9078183174133301,4.514919281005859,0.3729918897151947,-0.8841488361358643,-0.09502822905778885,-0.25519365072250366,-0.3978561758995056,2.3595130443573,3.020381212234497,-1.38298499584198,-2.3613178730010986,0.7145833969116211,1.4733798503875732,2.16202712059021,1.386763572692871,-0.105756014585495,-0.878175675868988,2.1476197242736816,1.5585525035858154,-2.0176749229431152,-2.9883785247802734,-0.2899346351623535,-0.3157327175140381,-1.5872269868850708,-2.6163532733917236,-0.012634261511266232,-1.8320382833480835,-2.0654125213623047,1.9151445627212524,-0.11203138530254364,-3.2745208740234375,-0.8662729263305664,2.229168176651001,-0.2784560024738312,-2.7899398803710938,-0.22178269922733307,-1.0632545948028564,-3.1826319694519043,3.8333773612976074,1.1849284172058105,0.6006128787994385,0.5840820670127869,-2.2081398963928223,1.894376516342163,-1.2188746929168701,0.7855844497680664,-1.5048216581344604,-1.3205561637878418,1.8604977130889893,1.4850215911865234,0.3363938629627228,1.3503228425979614,-0.6912661790847778,0.36550477147102356,0.27649402618408203,-5.265567302703857,2.712601661682129,1.3504183292388916,1.4417223930358887,-0.923206090927124,-0.14895761013031006,0.8385472297668457,-0.0979107916355133,1.1558698415756226,-1.1549510955810547,-1.559831976890564,0.49349895119667053,0.16784903407096863,0.17316319048404694,-1.995940089225769,-1.2122421264648438,7.72068452835083,0.12152036279439926,0.9917558431625366,-1.509557843208313,1.1009877920150757,1.0398237705230713,-2.2173714637756348,1.1566052436828613,-3.131336212158203,2.6732325553894043,-4.982114791870117,-0.23655599355697632,2.921051025390625,5.60308837890625,-0.2905706465244293,5.427203178405762,-2.674743890762329,1.9833347797393799,-4.014407634735107,4.4314188957214355,2.2443106174468994,-4.190688133239746,-1.5524886846542358,1.6287330389022827,2.609055995941162,-2.267232656478882,3.1053342819213867,4.1926445960998535,1.4622843265533447,3.41451358795166,3.490123987197876,-4.426864147186279,-4.105074882507324,-8.054643630981445,-1.5356199741363525,0.7132283449172974,0.013417300768196583,1.4831033945083618,-0.415090948343277,1.0444446802139282,-0.565450131893158,-0.7847639918327332,-0.4002140164375305,0.0627872422337532,-0.7808467149734497,0.3916464149951935,-0.49794629216194153,0.9276558756828308,-0.977066159248352,-0.12924310564994812,-0.12248914688825607,0.333253413438797,0.2538798749446869,-0.3670748472213745,-0.858404815196991,-0.2680903971195221,0.25398391485214233,0.5676304697990417,0.3080781102180481,-0.17021596431732178,1.268551230430603,0.3977431058883667,-0.7860902547836304,-0.4385027587413788,-0.22833368182182312,-0.41654473543167114,0.1934182345867157,2.189521074295044,-0.5487901568412781,5.035844802856445,1.3119843006134033,-1.402138352394104,-1.674301266670227,1.7173396348953247,-0.07427452504634857,0.7462518215179443,0.04621237516403198,1.2028515338897705,-1.7962288856506348,5.547030448913574,-5.743886470794678,-2.6259610652923584,0.20974154770374298,0.05185007303953171,-2.6578431129455566,1.8232265710830688,-4.552924633026123,-0.7871521711349487,-5.739943504333496,0.9459755420684814,-1.6809589862823486,-0.39974597096443176,-2.584789276123047,3.282278299331665,-1.4282493591308594,-0.6169875264167786,-4.270326614379883,-5.316756725311279,-0.3052179515361786,-0.23753981292247772,0.5290427207946777,0.3099544644355774,0.24147368967533112,0.1924159824848175,0.4048091471195221,-0.16533097624778748,-0.050810299813747406,-0.05189507082104683,-0.20764626562595367,-0.4498334527015686,0.4309021830558777,0.0697522982954979,-0.30918893218040466,-0.2820199429988861,-0.11852879822254181,-0.13259512186050415,-0.5723178386688232,0.3598584234714508,-0.13055090606212616,-0.5960965156555176,0.046039264649152756,-0.2591204047203064,-0.27798992395401,-0.5532164573669434,0.22403939068317413,-0.15520736575126648,-0.07247091084718704,0.43072447180747986,0.20774835348129272,0.4032551646232605,-0.2576064169406891,-4.278712272644043,-3.1083099842071533,2.9972143173217773,2.6531856060028076,-6.340834140777588,-4.298320770263672,-4.783397674560547,1.5924034118652344,0.8407630324363708,-3.0588338375091553,-2.414754629135132,-3.2290472984313965,1.2189052104949951,-1.3306275606155396,-7.359699726104736,2.545747995376587,-6.108876705169678,-2.4724576473236084,1.8397066593170166,-1.5802485942840576,-1.6027973890304565,-2.452069044113159,-0.9870644807815552,-2.698683738708496,-4.108148097991943,0.01834915578365326,-0.3278034031391144,-0.8085940480232239,4.782145023345947,2.1759889125823975,1.9631366729736328,-1.198192834854126,1.1299118995666504,-0.8635581731796265,0.6878026127815247,-3.44167160987854,3.134169101715088,-2.3535072803497314,-0.20710425078868866,-2.9294629096984863,-2.923614740371704,2.655991792678833,3.0974888801574707,-0.2640937566757202,4.01291561126709,-0.9163571000099182,3.40868878364563,-2.2664947509765625,1.0811911821365356,3.0355985164642334,-3.0663018226623535,-0.14769691228866577,3.0227913856506348,1.6840227842330933,-0.539885938167572,1.055829405784607,3.8163044452667236,1.993374228477478,3.532940626144409,2.3148441314697266,-3.6399168968200684,-3.7549259662628174,-2.8540444374084473,-1.5067617893218994,1.2899199724197388,0.06193528696894646,1.5588549375534058,-0.926624059677124,2.706449270248413,-0.9425721764564514,-0.19667932391166687,-2.6380867958068848,-0.6579750776290894,-1.0938483476638794,1.8315681219100952,0.3687107264995575,1.6232826709747314,1.6003481149673462,0.41158923506736755,-1.5193202495574951,0.2562299966812134,0.10445918142795563,-1.201027750968933,-0.7311320304870605,1.574419379234314,1.6328085660934448,0.9964969754219055,0.7359281182289124,1.0878572463989258,1.9308757781982422,0.6845202445983887,-0.35632288455963135,-1.0611555576324463,-2.478271961212158,-1.034010887145996,2.2448854446411133,3.2556185722351074,1.0852868556976318,5.156195640563965,-0.9812713265419006,-2.005587577819824,-5.521849155426025,0.03427144140005112,-4.019475936889648,2.7304646968841553,-1.020564317703247,3.2850189208984375,-0.4475287199020386,7.084212303161621,-4.160721778869629,-1.0826873779296875,0.8258075714111328,8.910297393798828,-0.2770359516143799,-1.9625920057296753,-6.519901275634766,2.5230696201324463,0.13484491407871246,3.1972599029541016,3.6138057708740234,2.1290459632873535,2.8121337890625,3.159024953842163,-2.787050247192383,-1.5015660524368286,-0.38764306902885437,-3.1184442043304443,-1.4079787731170654,0.23854483664035797,-0.051654715090990067,-0.04857828840613365,-0.15392467379570007,-0.1778615266084671,-0.1640964299440384,0.11914613097906113,-0.23025202751159668,0.05685511976480484,0.13484002649784088,0.05249839276075363,-0.17466816306114197,-0.023757588118314743,-0.24503764510154724,0.13817961513996124,-0.16145174205303192,-0.0517539419233799,0.18374256789684296,-0.14928539097309113,0.0688643828034401,-0.18190906941890717,-0.16925048828125,0.24963872134685516,-0.06845097988843918,0.1358843445777893,-0.015345481224358082,-0.05139073356986046,-0.0046146283857524395,-0.14010687172412872,-0.1523502916097641,-0.19959858059883118,-0.12770608067512512,0.43346863985061646,-4.694456577301025,-2.3654520511627197,0.5471584796905518,1.1019023656845093,2.2631523609161377,1.7418477535247803,1.9807617664337158,1.0296032428741455,2.560103416442871,-6.614852428436279,1.5328481197357178,-3.806288480758667,-0.6057793498039246,4.867731094360352,-2.241894006729126,-1.7539576292037964,-2.89740252494812,-2.604627847671509,4.718932151794434,1.8139373064041138,-1.3072866201400757,-6.075728893280029,-1.896024465560913,0.3542088568210602,-4.980248928070068,-0.24590308964252472,3.0133042335510254,-0.45900312066078186,1.0072436332702637,4.309964656829834,1.4390416145324707,1.6016510725021362,-0.5146949887275696,-0.9658475518226624,-2.8851447105407715,1.4248783588409424,-0.6421393752098083,1.5778768062591553,-1.6056746244430542,-2.4941458702087402,1.9877055883407593,0.9149638414382935,-0.14528900384902954,-0.025327956303954124,-0.2843027114868164,2.5104639530181885,-2.2650649547576904,2.162177085876465,2.100209951400757,-2.653024911880493,-0.5811992883682251,2.1740670204162598,-1.7412601709365845,0.4647095203399658,1.3522961139678955,3.417753219604492,1.2654203176498413,0.83380126953125,0.08434423804283142,-1.9210790395736694,-2.6355395317077637,-2.021975517272949,1.0006661415100098,0.0026118969544768333,0.11500328034162521,0.4803742468357086,-0.8053270578384399,0.990418553352356,0.4131007492542267,1.6635339260101318,0.04721719026565552,-3.292752981185913,1.7106143236160278,1.1133251190185547,0.37213483452796936,0.5601090788841248,1.9393749237060547,2.385310173034668,-0.9779682755470276,0.6441775560379028,0.5152726173400879,-1.2480367422103882,0.3536553978919983,0.7331600189208984,-0.36551520228385925,0.8904420733451843,0.6388124227523804,0.9277772307395935,0.3618432581424713,0.09973634779453278,0.2740187644958496,-0.7390508651733398,-1.5665442943572998,-1.6739078760147095,-0.18182922899723053,0.7216892242431641,-0.42388108372688293,0.6495921015739441,-0.7501729130744934,0.6002535223960876,-0.5552411079406738,-0.011955886147916317,-0.7007167935371399,0.11839845776557922,0.595853328704834,0.8433274030685425,-0.013682491146028042,0.2738707661628723,-0.1316167563199997,0.3073716163635254,0.2984512448310852,0.3822381794452667,0.4671359658241272,-0.8690763115882874,-0.2409944385290146,0.2669830024242401,-0.3637840151786804,0.14633753895759583,0.17970460653305054,0.7219696640968323,0.6420408487319946,0.4031165838241577,-0.591016948223114,-0.5566833019256592,-0.7924731969833374,-0.6268563270568848,0.19923901557922363,-1.3421801328659058,-0.931239664554596,-2.8346312046051025,0.21878348290920258,0.6745367050170898,0.8810094594955444,0.7843093276023865,2.920949935913086,3.5904877185821533,-0.08552113175392151,-2.804567575454712,1.457204818725586,1.2810845375061035,0.8226105570793152,3.4701809883117676,0.8878017663955688,2.276965379714966,-1.2347699403762817,-0.22539454698562622,2.994612216949463,2.4815573692321777,0.5954340100288391,-0.8690701127052307,-1.526944637298584,2.079017400741577,-1.3645427227020264,-2.5130038261413574,0.5903900265693665,-0.5382694005966187,0.4986593723297119,0.1325349658727646,-0.6016913652420044,1.6565086841583252,1.2457070350646973,0.6492001414299011,3.151665687561035,-2.501645565032959,1.5929962396621704,-2.094482183456421,3.928499221801758,-0.9692412614822388,-1.0398696660995483,0.22450216114521027,-0.405373215675354,1.5280115604400635,4.01301383972168,-2.3457541465759277,4.173129558563232,-1.2852693796157837,-2.622765302658081,-0.40428194403648376,0.05273628234863281,-3.0634326934814453,-1.8612958192825317,0.3661050498485565,0.9927248954772949,-0.3315446972846985,-0.4447404444217682,0.2541637718677521,-0.915351927280426,0.2557332515716553,3.9300496578216553,1.9481562376022339,2.652855634689331,0.2215375453233719,0.1581299901008606,0.5879892110824585,-0.19762276113033295,0.743674635887146,0.09081632643938065,-0.07908189296722412,-0.5306209921836853,0.04680924862623215,-0.11641329526901245,-0.001244117273017764,-0.024988604709506035,0.2861442565917969,0.11463252454996109,0.023773856461048126,-0.14675988256931305,-0.1264064908027649,-0.29461830854415894,-0.05245424807071686,-0.25056108832359314,0.019755933433771133,-0.11868683993816376,-0.39047685265541077,-0.17810146510601044,-0.26857930421829224,0.2574796974658966,-0.05622075870633125,-0.07461119443178177,0.0736641213297844,-0.471612811088562,0.1909300535917282,0.4204229712486267,3.3575053215026855,-0.14145849645137787,-2.102739095687866,-0.5317255258560181,7.742914199829102,0.5652788281440735,0.21599538624286652,2.1165709495544434,0.43483659625053406,-0.359875351190567,2.7460250854492188,-0.17528824508190155,3.1474270820617676,2.8028109073638916,2.862971067428589,0.5174895524978638,5.432997226715088,0.4130699038505554,-1.4255356788635254,-3.6988110542297363,2.416635513305664,-1.224884271621704,4.322031497955322,-3.0598645210266113,4.637320518493652,-0.8224899768829346,4.83160924911499,0.08221469074487686,-4.00639009475708,-1.8269929885864258,0.5526250600814819,-1.255653977394104,-0.2856285572052002,3.0218074321746826,1.5698949098587036,0.2877734303474426,1.9989014863967896,-0.030104944482445717,-0.6400700807571411,-0.7716265320777893,-3.7644636631011963,-1.7102500200271606,-1.2602462768554688,-0.3430258333683014,-0.850423276424408,-2.4445509910583496,1.173872470855713,-1.4662240743637085,-1.7372843027114868,-0.7537482380867004,0.059652406722307205,1.8090094327926636,-0.13724303245544434,1.2140175104141235,2.790349006652832,-1.9377286434173584,-0.5244212746620178,2.057116746902466,-1.018201231956482,0.15377025306224823,-0.39143240451812744,1.8571418523788452,3.19240403175354,-0.5157482624053955,-0.9205632209777832,4.801982402801514,0.7941110730171204,-0.07658905535936356,0.6884384751319885,-3.662503242492676,-1.3098368644714355,-0.47224748134613037,-0.22279995679855347,0.249204620718956,1.193247675895691,-3.032670259475708,-2.667186975479126,0.5733394622802734,-2.012674570083618,-1.3137043714523315,-0.23507127165794373,0.5192148685455322,0.09464069455862045,-6.051926612854004,-2.165321111679077,1.8304675817489624,-2.5257816314697266,1.1554529666900635,-0.33136022090911865,1.962180256843567,-1.131736159324646,-0.06885223835706711,0.9628691673278809,-1.101473093032837,0.007380097638815641,2.230113983154297,-1.3672966957092285,-0.48144471645355225,5.36750602722168,-1.3810651302337646,3.9153480529785156,0.850295901298523,0.971447229385376,-1.847763180732727,-1.3559876680374146,0.3235354423522949,0.9718930721282959,0.24870368838310242,8.40395450592041,1.9574379920959473,1.3701549768447876,-1.1228731870651245,-1.4381158351898193,1.4646118879318237,-2.629169225692749,0.20125453174114227,2.2302982807159424,-0.13181142508983612,2.3339717388153076,2.2428791522979736,1.5758628845214844,1.558267593383789,-0.9294068217277527,1.2595465183258057,-1.296245813369751,-4.375555515289307,-7.496533393859863,1.9878339767456055,-1.2152293920516968,0.47290655970573425,1.9718800783157349,-0.46098536252975464,4.299034595489502,0.2943701446056366,1.7800564765930176,-0.5575790405273438,-0.620307207107544,-0.08161991834640503,2.0616819858551025,0.4548090696334839,0.6150758266448975,1.0763918161392212,1.4380065202713013,0.9028507471084595,1.3302037715911865,-0.37845897674560547,-0.2523670792579651,0.3978613018989563,-1.1186840534210205,-0.014080807566642761,0.9415885806083679,2.3444325923919678,-0.3247319161891937,-0.7028429508209229,-0.08903323858976364,-1.9547489881515503,-0.4589485824108124,-0.7181606888771057,-0.30183279514312744,-1.047996163368225,1.2371610403060913,1.690647840499878,0.7545796632766724,-0.7410541772842407,1.2010198831558228,-0.9178783297538757,0.059558842331171036,0.36159297823905945,-3.5523195266723633,0.12392858415842056,-0.5482244491577148,-0.21341538429260254,2.4030680656433105,-5.594182968139648,4.110774040222168,-0.3906731903553009,1.8697302341461182,0.8129928708076477,-0.45110610127449036,-4.112389087677002,0.16977985203266144,1.3149489164352417,0.49327152967453003,2.0197033882141113,2.4120378494262695,2.098432779312134,1.4785470962524414,-0.9146795272827148,-0.4607641100883484,0.41402438282966614,-0.24603331089019775,0.28009989857673645,1.4117239713668823,1.1441357135772705,2.913102626800537,0.14001597464084625,1.3690259456634521,0.28285542130470276,1.1712746620178223,-0.3593355119228363,-2.320361614227295,-3.027006149291992,3.6377458572387695,0.5696865320205688,1.7404606342315674,-0.34065449237823486,0.6681045293807983,-1.3165669441223145,3.457463502883911,1.9499510526657104,0.6206603050231934,-0.8010103702545166,0.5692099332809448,-0.3485906720161438,3.367978811264038,1.6299816370010376,1.9614293575286865,2.7686612606048584,1.651839017868042,-1.9576882123947144,-1.4456980228424072,-1.0625125169754028,0.019327260553836823,-1.3707448244094849,-0.9331168532371521,0.2929820716381073,0.3117900788784027,0.6067783832550049,-1.2322508096694946,-0.4076973497867584,2.4576802253723145,0.7034903168678284,1.9000768661499023,0.309437096118927,-0.27760329842567444,3.438028573989868,0.027425801381468773,-1.3758028745651245,-2.16569185256958,0.05750330165028572,-1.7000142335891724,-1.2966688871383667,-0.11056198924779892,-2.009037971496582,-0.4093911051750183,3.153402090072632,-0.07487666606903076,-0.8198500275611877,-2.4716908931732178,-0.4668009281158447,-2.6834566593170166,-0.37168604135513306,1.7630984783172607,0.23966936767101288,0.16999934613704681,-1.6311113834381104,-0.6006354689598083,0.8767197728157043,-0.7740217447280884,1.2345647811889648,-1.0792428255081177,2.1968491077423096,0.4598393440246582,0.16894735395908356,-0.23371748626232147,-1.2772748470306396,-1.4141041040420532,0.4772143065929413,-0.5999024510383606,-0.03460848703980446,-1.5544770956039429,-0.1576787531375885,-0.6990377306938171,-0.031554289162158966,2.0667805671691895,1.2032108306884766,-0.4038090109825134,1.0626972913742065,-1.5679056644439697,-0.5443897247314453,-1.1178184747695923,-1.5630345344543457,-0.24868901073932648,-0.37670743465423584,0.6353705525398254,0.9555357098579407,1.6505000591278076,-1.5914214849472046,0.3447839915752411,1.4308137893676758,0.4014172852039337,1.178323745727539,0.7330813407897949,0.6119585633277893,-1.402276873588562,1.1310230493545532,0.7561858892440796,-1.6947898864746094,-1.5337355136871338,-0.9710561633110046,-0.6225125789642334,-0.3950153887271881,-1.6459832191467285,-0.5989567041397095,-0.8667285442352295,-1.7548444271087646,0.9863428473472595,-0.33285829424858093,-2.2229485511779785,-0.3970082700252533,-0.7006993293762207,-0.8404441475868225,-0.9303044676780701,-0.5049405097961426,-2.0273795127868652,-1.6744838953018188,0.5753324031829834,0.4802700877189636,0.7391137480735779,0.8053504824638367,0.4635792374610901,0.17922692000865936,0.25383925437927246,0.04232855141162872,1.0018417835235596,-0.16331739723682404,-0.9449830055236816,0.3602307140827179,-0.7241649031639099,-1.2937164306640625,-0.18920886516571045,-0.2670536935329437,0.4449189007282257,-1.276310920715332,-0.5448819994926453,-0.6166229844093323,0.17837491631507874,-0.33317312598228455,-0.04987668618559837,-0.5257953405380249,-0.9258760213851929,0.7937288880348206,0.24339362978935242,0.26195523142814636,-0.3867330849170685,0.8846569657325745,0.09750176221132278,-1.6672556400299072,-0.27389463782310486,-0.37645262479782104,0.18940295279026031,0.5253133773803711,0.9839877486228943,-3.345219373703003,-3.789476156234741,0.28422999382019043,1.2302860021591187,0.413846492767334,-4.612527847290039,-0.03134465962648392,1.4014345407485962,-3.601651906967163,-0.999046266078949,-1.8569978475570679,-0.6708043217658997,2.3415462970733643,1.8965935707092285,-1.3970768451690674,-4.534637928009033,1.1564024686813354,0.9722735285758972,2.7419135570526123,-1.2423471212387085,-1.517896056175232,-2.7060885429382324,-5.02680778503418,-1.9925514459609985,1.270641565322876,-4.253928184509277,0.8532503247261047,0.6913705468177795,-3.0576157569885254,-2.512439012527466,0.4626649022102356]},"cellActivationBias":{"rows":32,"columns":1,"weights":[0.9617899060249329,-0.05803525447845459,0.691986620426178,-0.8246274590492249,1.675553798675537,-0.16368713974952698,-6.161415100097656,-4.015431880950928,-0.06044589728116989,-3.7986910343170166,0.2341255396604538,-0.7947219014167786,4.756368160247803,-1.842563509941101,0.5179824233055115,0.455409973859787,3.922907590866089,-0.2807498872280121,0.14670462906360626,-4.848537921905518,-0.30485785007476807,4.179671764373779,0.5933845639228821,1.0828536748886108,-0.04121102765202522,0.7727164030075073,0.08002928644418716,-1.0487315654754639,-3.1459782123565674,-0.22480960190296173,-1.0589877367019653,0.1323891133069992]}},{"inputMatrix":{"rows":16,"columns":32,"weights":[0.7396674752235413,2.1667580604553223,-0.5366798639297485,-1.517133355140686,-0.24746623635292053,2.9761312007904053,4.999969959259033,-0.1263466328382492,-2.896564483642578,4.109738349914551,-0.4565490782260895,1.1614222526550293,2.6517250537872314,0.04061392694711685,5.273543834686279,0.009262156672775745,3.31691575050354,1.730772614479065,-2.4349820613861084,0.3830222189426422,2.668788194656372,3.826432704925537,-0.27112531661987305,5.993485450744629,2.434419631958008,0.3742271363735199,-1.6330623626708984,-1.4113775491714478,-4.108640193939209,-1.599689245223999,-0.7562578320503235,0.12862370908260345,0.7951424717903137,1.1656206846237183,-4.942787170410156,5.064426898956299,-6.2312846183776855,-3.650611639022827,2.1243910789489746,-2.3989033699035645,1.7321550846099854,7.049481391906738,1.7532362937927246,3.0181779861450195,3.540726900100708,0.47163382172584534,4.163626670837402,4.923635959625244,6.698764324188232,-5.142035484313965,-6.08574104309082,-3.756272792816162,1.1672683954238892,5.015531063079834,5.047304153442383,3.441770553588867,5.853375434875488,0.8344923257827759,0.6271106600761414,-6.025605201721191,-1.9312468767166138,6.791776657104492,0.964430034160614,-3.7033214569091797,-5.810670375823975,-0.9259078502655029,-6.5886945724487305,-3.1125826835632324,-8.17483139038086,5.0885138511657715,4.602324485778809,-2.911428451538086,6.342382907867432,2.1455166339874268,1.6527423858642578,1.1760056018829346,-3.7801871299743652,2.2484965324401855,6.8422393798828125,0.8122983574867249,4.077297210693359,2.970095634460449,-5.480607032775879,3.238525390625,5.6113786697387695,3.647026300430298,-3.507504940032959,2.6596179008483887,2.227329730987549,-8.559009552001953,-1.6656668186187744,1.710593581199646,-1.4022138118743896,-0.3122546076774597,-3.1247386932373047,1.9839420318603516,5.945405960083008,-8.999310493469238,-12.018925666809082,-4.253911018371582,-1.653236985206604,-2.8335399627685547,-0.15791355073451996,-3.90309739112854,0.1378747671842575,2.6058106422424316,1.013152003288269,-2.939990520477295,-3.5538997650146484,9.504883766174316,4.4305806159973145,0.6209254264831543,-2.072160482406616,9.531891822814941,-5.342232704162598,7.416619777679443,0.5311378836631775,1.9558924436569214,4.642761707305908,-3.7808656692504883,1.7418334484100342,3.452413558959961,-9.842833518981934,0.4439231753349304,0.6042494773864746,-26.22994613647461,-11.177834510803223,4.065547466278076,0.7246590256690979,-0.6056340336799622,-2.050811767578125,-1.829140305519104,-2.2982985973358154,3.9559571743011475,-1.0717085599899292,2.234187126159668,5.97216796875,-5.59435510635376,-2.8930046558380127,4.173523426055908,-5.327131271362305,3.861130714416504,-5.920019626617432,-0.343205988407135,-0.13151025772094727,-0.591668426990509,1.8708826303482056,3.631685733795166,4.643965721130371,4.08901309967041,-8.563721656799316,-8.262035369873047,-1.8948485851287842,-14.418644905090332,-5.503030300140381,0.6341528296470642,1.2248104810714722,0.10551398247480392,-0.9999852776527405,-2.5362775325775146,0.8485338687896729,-2.093923330307007,1.221726417541504,-3.5528018474578857,1.3785531520843506,-2.879012107849121,0.8749673366546631,-3.654932975769043,0.886674702167511,2.2812042236328125,3.5431816577911377,-2.0049288272857666,3.2903661727905273,0.6075049638748169,2.0570151805877686,-2.8326547145843506,2.0518839359283447,1.3949251174926758,-3.461270332336426,-1.3720643520355225,0.6910827159881592,0.23934590816497803,-2.6842195987701416,1.437440037727356,3.101207733154297,0.65841144323349,2.574150562286377,3.0218794345855713,-2.342022180557251,-4.174495697021484,-3.268709659576416,1.634974479675293,-3.90023136138916,-6.229766845703125,10.027420997619629,1.7482917308807373,11.335419654846191,-5.9082136154174805,-3.165332078933716,-3.0828161239624023,-3.0911643505096436,-0.6190502643585205,4.585148811340332,4.944423198699951,4.934388160705566,-6.001013278961182,2.205165386199951,1.7322523593902588,4.998085975646973,-2.576911211013794,1.5693904161453247,-6.498181343078613,3.3248116970062256,-2.148101568222046,-2.047569990158081,7.337027072906494,3.564826726913452,1.606141209602356,3.5563161373138428,2.8478546142578125,-4.162400722503662,-3.3705203533172607,-5.197207450866699,-0.7528154253959656,8.396349906921387,1.3163777589797974,0.43410104513168335,-3.498962879180908,7.867663383483887,-4.121097087860107,-4.779338359832764,-1.0652470588684082,-6.701212406158447,-1.7717770338058472,4.80601692199707,-5.156576633453369,5.690951347351074,-4.362692832946777,4.850131034851074,0.7892601490020752,7.356830596923828,2.006648540496826,-6.946920871734619,-7.561829566955566,5.019417762756348,-4.705502510070801,6.596677303314209,2.199817419052124,10.407341957092285,10.704614639282227,9.297775268554688,1.948920488357544,-10.247710227966309,-0.9813276529312134,-1.8501267433166504,-0.8772205114364624,-2.769012689590454,-1.452111840248108,-3.32344388961792,0.10903624445199966,-0.07376698404550552,1.9097954034805298,0.7386041283607483,1.1038527488708496,-1.0133941173553467,-2.4621498584747314,0.0695912316441536,-0.2889603078365326,1.1890407800674438,-4.096298694610596,-0.362970769405365,2.7497177124023438,2.3455276489257812,-2.9481499195098877,-2.0601401329040527,3.865004777908325,-2.3642470836639404,4.263742446899414,-3.612109899520874,-0.7695521712303162,-0.7401630878448486,-1.4240531921386719,1.0964902639389038,-9.185659408569336,1.355608344078064,5.317942142486572,5.090033531188965,-2.9845035076141357,-0.5570725202560425,0.6278488636016846,-1.157510757446289,0.6649075746536255,-0.5873441100120544,0.9154343008995056,-0.4268094599246979,1.7871211767196655,-0.7922117114067078,-0.6954317688941956,-1.4230003356933594,-0.33836933970451355,-1.1836458444595337,1.4438130855560303,-1.5671550035476685,0.6205346584320068,-0.6060206890106201,-0.9221302270889282,1.7441385984420776,0.5641907453536987,-1.1265376806259155,0.6878319978713989,0.3211228549480438,-0.29750028252601624,-1.6841115951538086,-0.4200814664363861,-1.1679052114486694,-0.8671855926513672,1.4736747741699219,1.8198491334915161,1.4305189847946167,-0.08240818232297897,4.825287818908691,-9.559372901916504,-5.230146884918213,-10.087667465209961,-2.6420087814331055,-3.206371784210205,-0.03791848570108414,1.8903124332427979,3.8034863471984863,0.22931869328022003,0.3001687824726105,-7.852482795715332,-1.05377995967865,8.38825798034668,2.954347848892212,-0.1575566530227661,5.61777925491333,3.617969512939453,-0.364700049161911,2.8590407371520996,-5.196443557739258,-3.8419039249420166,-9.99985408782959,-9.945612907409668,3.3453378677368164,-2.4546656608581543,0.23107275366783142,0.038888368755578995,3.3249642848968506,-7.067762851715088,1.9114980697631836,7.402379512786865,7.694269180297852,-11.229341506958008,-11.720030784606934,-12.945169448852539,-5.4450459480285645,-1.0668619871139526,-0.7401564717292786,2.3999505043029785,3.225458860397339,-4.319282531738281,-0.6795597076416016,-14.020421028137207,-8.855453491210938,11.700124740600586,2.146120071411133,-3.353278398513794,-3.0104105472564697,11.801913261413574,6.767464637756348,3.2542622089385986,-5.448309898376465,-8.555493354797363,-2.5929574966430664,-17.923707962036133,3.083528757095337,-1.4752660989761353,-3.884037971496582,-3.092395782470703,0.1853407621383667,-19.349184036254883,10.17965030670166,10.048883438110352,4.448191165924072,0.5522652864456177,-5.583886623382568,-2.824742317199707,4.203779220581055,-0.23715859651565552,-3.4853363037109375,1.719219446182251,2.420804262161255,-2.822016716003418,0.6794041395187378,-2.6461286544799805,-5.24561882019043,3.388601303100586,-1.21488618850708,5.11018705368042,-5.586645603179932,0.46478271484375,0.7342380881309509,3.074119806289673,-2.8756301403045654,3.87420392036438,3.0582351684570312,1.9919064044952393,-3.334855794906616,-1.5437202453613281,3.280038833618164,-4.809635639190674,1.696636438369751,0.8446066975593567,6.044454097747803,-6.533609390258789,0.4696339964866638,-11.315888404846191,-0.1282067447900772,-0.7276251912117004,-14.216047286987305,1.5015265941619873,-3.3313117027282715,3.5020976066589355,2.5309317111968994,-5.250064849853516,-5.267324924468994,-8.648066520690918,-9.94770336151123,-4.440273761749268,2.8796167373657227,4.949976444244385,-11.852903366088867,4.2106451988220215,5.168787956237793,0.7705718278884888,-1.1385095119476318,-11.189570426940918,-2.045788526535034,6.511573791503906,-0.15839603543281555,-3.0271899700164795,1.3434780836105347,1.8935493230819702,2.026088237762451,-3.681034803390503,-0.36376744508743286,2.6106207370758057,0.9393602609634399,-2.7534170150756836,-11.189929962158203,-16.806720733642578,6.93575382232666,-0.5086647272109985,-3.32318115234375,-0.8862371444702148,0.24200177192687988,-1.7514222860336304,-0.8343518376350403,-4.777595043182373,-0.02542831376194954,14.169267654418945,2.3447139263153076,-4.410183906555176,2.5905041694641113,9.005819320678711,-2.774055004119873,-0.35503244400024414,1.4705754518508911,-1.1836308240890503,-4.5408854484558105,-0.7301902174949646,6.107890605926514,0.9010282158851624,-3.6890869140625,5.831484794616699,1.0400108098983765,-24.449094772338867,-4.555027008056641,0.8394031524658203,2.596848487854004,-2.0343382358551025,5.471065521240234,-6.296180248260498,3.692194938659668,-6.3139495849609375,-0.45453977584838867,-4.396520137786865,-0.1563156545162201,0.5658296942710876,5.8437819480896,-4.4627156257629395,3.632416248321533,-0.8950115442276001,3.0900094509124756,-2.7367660999298096,1.251100778579712,3.30137300491333,-5.115551948547363,-2.4676966667175293,3.804595708847046,-2.1153883934020996,-1.2963123321533203,1.0831955671310425,5.424783706665039,0.9059979915618896,7.499658584594727,2.0665979385375977,-2.6296653747558594,-2.3895974159240723,-0.9263678789138794,-0.7025640606880188]},"inputHidden":{"rows":16,"columns":16,"weights":[3.265770435333252,-4.536440372467041,0.07920145988464355,-1.903672456741333,-2.4718642234802246,-1.1178572177886963,-2.7508039474487305,-0.04641932621598244,0.7181019186973572,-0.6068364977836609,-1.4066771268844604,-5.580223083496094,-2.142941951751709,3.9360978603363037,-1.3839949369430542,3.720479965209961,-5.324867248535156,1.1725612878799438,-2.309694766998291,3.9848320484161377,-5.4200873374938965,-6.467373371124268,-5.011999607086182,4.631887912750244,2.1500930786132812,1.045059084892273,-6.995730876922607,4.563326835632324,5.780093193054199,10.448145866394043,-1.7333801984786987,6.044467449188232,4.487402439117432,-3.7860584259033203,-2.466254234313965,-2.9897406101226807,0.3509133756160736,-7.267490386962891,-1.214896559715271,0.9861751794815063,1.618322491645813,-0.28928816318511963,6.486351013183594,-1.5949101448059082,-3.819406747817993,3.975735902786255,-5.889586925506592,8.874747276306152,-0.23214586079120636,1.064175009727478,-4.433074951171875,-0.9410422444343567,3.3742239475250244,-1.6539909839630127,1.5391703844070435,0.54946368932724,1.4350539445877075,0.33905577659606934,-4.431100368499756,11.291029930114746,3.501412868499756,1.5489572286605835,-0.08306701481342316,1.5239076614379883,3.791811943054199,1.676720380783081,0.026013772934675217,2.547987937927246,4.8748459815979,2.8987019062042236,-3.4452874660491943,-1.425036072731018,2.478278875350952,0.6382202506065369,-8.18596076965332,4.796497821807861,2.75793194770813,-5.927897930145264,1.6254488229751587,1.730555534362793,2.750222682952881,-1.3988988399505615,-0.9225788712501526,2.6912271976470947,0.7089853882789612,-0.10660307109355927,-3.8966269493103027,-0.5251069068908691,1.6034830808639526,1.2610340118408203,0.6744790077209473,-2.6092095375061035,-3.3940484523773193,1.1864004135131836,-5.857818603515625,2.2457168102264404,-2.2970783710479736,-3.8732669353485107,-1.5967587232589722,-5.083801746368408,-8.743616104125977,-5.427428245544434,-3.9459660053253174,3.26763916015625,1.1162891387939453,-0.4401825964450836,-1.0153028964996338,2.6456282138824463,-7.127969264984131,-10.210697174072266,-3.3537237644195557,3.8220760822296143,3.0707833766937256,-0.5655595660209656,1.243769884109497,-0.2598017752170563,3.6390960216522217,-5.515244960784912,-3.6700618267059326,0.023028552532196045,-1.8065037727355957,-0.7252009510993958,-6.139765739440918,1.508202314376831,-5.414762496948242,-1.0407614707946777,-0.8573015332221985,0.07410913705825806,-0.5990489721298218,0.6002122163772583,2.1678688526153564,0.3290945887565613,-2.9587056636810303,-3.8808608055114746,0.3352625072002411,-2.032780885696411,-1.032004714012146,-0.2290072739124298,-6.223160266876221,2.3991410732269287,1.532220482826233,0.5244739055633545,2.4943361282348633,-1.8597525358200073,-0.5222547650337219,0.9521365761756897,0.4168407917022705,1.2537091970443726,-0.7059171199798584,1.0268915891647339,0.33015191555023193,-0.8197024464607239,-0.2090870887041092,-0.05709962174296379,-0.8592973351478577,1.4035730361938477,0.17969003319740295,-0.9223340749740601,1.0412547588348389,-0.5870412588119507,-0.3960455656051636,-8.192089080810547,-1.6907591819763184,-2.1437296867370605,10.85202407836914,2.595182418823242,-0.42389151453971863,1.689129114151001,-5.158298015594482,0.1798461377620697,4.192711353302002,-3.4201760292053223,-2.0665762424468994,6.47775411605835,-4.177367210388184,7.204288959503174,7.6043877601623535,5.233823299407959,-3.5846099853515625,-9.362055778503418,-1.6273044347763062,4.338399887084961,-5.424368381500244,-7.624370574951172,-1.1775405406951904,0.6999735236167908,-0.4009699523448944,6.74786901473999,2.6886985301971436,-11.013093948364258,-1.3688273429870605,6.155340671539307,-1.0792412757873535,6.539304733276367,0.9235360622406006,-6.915924072265625,6.280256748199463,12.03865909576416,2.963239908218384,-9.782283782958984,3.1658661365509033,-0.32068365812301636,-4.5429792404174805,-2.4940879344940186,-13.988550186157227,9.304491996765137,-4.60610818862915,-7.44892692565918,6.554530620574951,7.064499855041504,-0.3084715008735657,-3.4096529483795166,11.533092498779297,11.212397575378418,2.956514835357666,-12.623982429504395,-0.04268793761730194,1.0394108295440674,-0.4438573718070984,-5.394415855407715,-0.37301209568977356,13.646092414855957,2.6406095027923584,7.243715286254883,2.1360554695129395,1.444867491722107,1.8515812158584595,-22.134231567382812,-0.44832348823547363,-2.661670684814453,-20.632396697998047,-0.4747777581214905,-6.054319858551025,-0.7649008631706238,-9.658920288085938,-18.738075256347656,-28.803319931030273,15.737459182739258,-3.444208860397339,14.84741497039795,2.8643100261688232,0.5475155711174011,-0.9127486348152161,-1.177394151687622,0.5276329517364502,-0.4242281913757324,0.33738991618156433,2.9315388202667236,-0.6649045944213867,-0.5463023781776428,-1.0189087390899658,-3.6811182498931885,0.0058715371415019035,3.3349645137786865,1.7021172046661377,1.6148563623428345]},"inputBias":{"rows":16,"columns":1,"weights":[-2.194948196411133,1.4871898889541626,-1.8801361322402954,1.8472086191177368,-1.005021095275879,3.8110768795013428,1.9919801950454712,-0.6100957989692688,-3.190342426300049,-1.5983010530471802,1.4162832498550415,0.6384304165840149,-2.783892869949341,-2.4851326942443848,-1.574168086051941,1.837051510810852]},"forgetMatrix":{"rows":16,"columns":32,"weights":[-0.7476292252540588,4.369887351989746,5.545058250427246,-0.16702017188072205,-5.464599132537842,-0.2209681272506714,0.07898641377687454,2.4962782859802246,3.315246105194092,-3.9557015895843506,-3.731320858001709,-0.8106693625450134,3.253331184387207,-2.665379762649536,